{"learner":{"attributes":{"best_iteration":"49","best_score":"1.9422403462314843","scikit_learn":"{\"_estimator_type\": \"regressor\"}"},"feature_names":["date_block_num","month","shop_id","item_id","item_category_id","cnt_item_id_by_month_lag_1","cnt_item_id_by_month_lag_2","cnt_item_id_by_month_lag_3","cnt_shop_id_by_month_lag_1","cnt_shop_id_by_month_lag_2","cnt_shop_id_by_month_lag_3","cnt_item_category_by_month_lag_1","cnt_item_category_by_month_lag_2","cnt_item_category_by_month_lag_3","cnt_item_category_by_shop_id_month_lag_1","cnt_item_category_by_shop_id_month_lag_2","cnt_item_category_by_shop_id_month_lag_3","cnt_item_id_by_shop_id_month_lag_1","cnt_item_id_by_shop_id_month_lag_2","cnt_item_id_by_shop_id_month_lag_3","z_item_price_mean_lag_1","z_item_price_mean_lag_2","z_item_price_mean_lag_3"],"feature_types":["int","int","int","int","int","float","float","float","float","float","float","float","float","float","float","float","float","float","float","float","float","float","float"],"gradient_booster":{"model":{"gbtree_model_param":{"num_parallel_tree":"1","num_trees":"50"},"iteration_indptr":[0,1,2,3,4,5,6,7,8,9,10,11,12,13,14,15,16,17,18,19,20,21,22,23,24,25,26,27,28,29,30,31,32,33,34,35,36,37,38,39,40,41,42,43,44,45,46,47,48,49,50],"tree_info":[0,0,0,0,0,0,0,0,0,0,0,0,0,0,0,0,0,0,0,0,0,0,0,0,0,0,0,0,0,0,0,0,0,0,0,0,0,0,0,0,0,0,0,0,0,0,0,0,0,0],"trees":[{"base_weights":[-1.5973181E-3,-9.039925E-3,4.4080026E2,-2.253165E-2,7.740347E1,8.095078E1,5.2619415E2,-2.1391485E-3,2.2910744E-1,1.1729667E0,3.3724089E0,1.3233556E0,1.6267012E1,1.2707092E1,2.0390875E1],"categories":[],"categories_nodes":[],"categories_segments":[],"categories_sizes":[],"default_left":[0,0,0,0,0,0,0,0,0,0,0,0,0,0,0],"id":0,"left_children":[1,3,5,7,9,11,13,-1,-1,-1,-1,-1,-1,-1,-1],"loss_changes":[1.5177084E7,4.831601E6,2.395581E6,1.7278912E6,1.080557E6,2.5415117E5,9.63116E5,0E0,0E0,0E0,0E0,0E0,0E0,0E0,0E0],"parents":[2147483647,0,0,1,1,2,2,3,3,4,4,5,5,6,6],"right_children":[2,4,6,8,10,12,14,-1,-1,-1,-1,-1,-1,-1,-1],"split_conditions":[3.35E2,6.5E1,3.3E1,7E0,7E0,1.54E2,5.88E2,-2.1391485E-3,2.2910744E-1,1.1729667E0,3.3724089E0,1.3233556E0,1.6267012E1,1.2707092E1,2.0390875E1],"split_indices":[17,17,4,17,15,19,17,0,0,0,0,0,0,0,0],"split_type":[0,0,0,0,0,0,0,0,0,0,0,0,0,0,0],"sum_hessian":[4.626151E6,4.626073E6,7.8E1,4.625267E6,8.06E2,1.5E1,6.3E1,4.596001E6,2.9266E4,3.85E2,4.21E2,1.4E1,1E0,3.8E1,2.5E1],"tree_param":{"num_deleted":"0","num_feature":"23","num_nodes":"15","size_leaf_vector":"1"}},{"base_weights":[6.1030954E-4,-7.249342E-3,3.8228867E2,-1.5461059E-2,9.375517E1,1.8219427E2,4.8828958E2,-9.7263075E-4,4.949045E-1,7.5776595E-1,4.033423E0,7.086907E-1,6.978537E0,1.7512613E1,5.614146E0],"categories":[],"categories_nodes":[],"categories_segments":[],"categories_sizes":[],"default_left":[0,0,0,0,0,0,0,0,0,0,0,0,0,0,0],"id":1,"left_children":[1,3,5,7,9,11,13,-1,-1,-1,-1,-1,-1,-1,-1],"loss_changes":[1.3899727E7,3.561773E6,2.007667E6,1.2953805E6,1.128779E6,2.6412875E5,1.773775E6,0E0,0E0,0E0,0E0,0E0,0E0,0E0,0E0],"parents":[2147483647,0,0,1,1,2,2,3,3,4,4,5,5,6,6],"right_children":[2,4,6,8,10,12,14,-1,-1,-1,-1,-1,-1,-1,-1],"split_conditions":[2.8E2,9.5E1,6.2890625E-1,1.446875E1,7E0,1E0,2.5E1,-9.7263075E-4,4.949045E-1,7.5776595E-1,4.033423E0,7.086907E-1,6.978537E0,1.7512613E1,5.614146E0],"split_indices":[18,18,10,5,16,19,0,0,0,0,0,0,0,0,0],"split_type":[0,0,0,0,0,0,0,0,0,0,0,0,0,0,0],"sum_hessian":[4.626071E6,4.625976E6,9.5E1,4.625571E6,4.05E2,3.3E1,6.2E1,4.620825E6,4.746E3,1.51E2,2.54E2,8E0,2.5E1,4.7E1,1.5E1],"tree_param":{"num_deleted":"0","num_feature":"23","num_nodes":"15","size_leaf_vector":"1"}},{"base_weights":[-7.61317E-4,-9.266819E-3,3.744766E2,-2.161153E-2,7.493759E1,2.032743E2,4.83627E2,-2.2736862E-3,1.9582039E-1,1.1690636E0,3.315293E0,1.4223553E0,8.778843E0,1.2005784E1,1.8608208E1],"categories":[],"categories_nodes":[],"categories_segments":[],"categories_sizes":[],"default_left":[0,0,0,0,0,0,0,0,0,0,0,0,0,0,0],"id":2,"left_children":[1,3,5,7,9,11,13,-1,-1,-1,-1,-1,-1,-1,-1],"loss_changes":[1.4739941E7,4.2814885E6,1.953532E6,1.6416636E6,9.74645E5,5.7100875E5,7.04143E5,0E0,0E0,0E0,0E0,0E0,0E0,0E0,0E0],"parents":[2147483647,0,0,1,1,2,2,3,3,4,4,5,5,6,6],"right_children":[2,4,6,8,10,12,14,-1,-1,-1,-1,-1,-1,-1,-1],"split_conditions":[2.8E2,6.6E1,5.932617E-1,6E0,7E0,1.7050781E0,5.88E2,-2.2736862E-3,1.9582039E-1,1.1690636E0,3.315293E0,1.4223553E0,8.778843E0,1.2005784E1,1.8608208E1],"split_indices":[17,17,9,17,15,11,17,0,0,0,0,0,0,0,0],"split_type":[0,0,0,0,0,0,0,0,0,0,0,0,0,0,0],"sum_hessian":[4.627754E6,4.627649E6,1.05E2,4.626887E6,7.62E2,4.1E1,6.4E1,4.588924E6,3.7963E4,3.79E2,3.83E2,1.5E1,2.6E1,4E1,2.4E1],"tree_param":{"num_deleted":"0","num_feature":"23","num_nodes":"15","size_leaf_vector":"1"}},{"base_weights":[-4.0251267E-4,-7.986287E-3,3.8097202E2,-2.0581745E-2,7.39285E1,1.9752281E2,5.0375574E2,-1.8558294E-3,2.444165E-1,1.1014122E0,3.2892792E0,1.2880933E0,8.420727E0,1.0436745E1,1.7744394E1],"categories":[],"categories_nodes":[],"categories_segments":[],"categories_sizes":[],"default_left":[0,0,0,0,0,0,0,0,0,0,0,0,0,0,0],"id":3,"left_children":[1,3,5,7,9,11,13,-1,-1,-1,-1,-1,-1,-1,-1],"loss_changes":[1.3368785E7,4.309006E6,2.063966E6,1.5597934E6,1.047035E6,4.7578275E5,7.31316E5,0E0,0E0,0E0,0E0,0E0,0E0,0E0,0E0],"parents":[2147483647,0,0,1,1,2,2,3,3,4,4,5,5,6,6],"right_children":[2,4,6,8,10,12,14,-1,-1,-1,-1,-1,-1,-1,-1],"split_conditions":[3.02E2,6.5E1,5.932617E-1,8E0,7E0,1.6904297E0,4.98E2,-1.8558294E-3,2.444165E-1,1.1014122E0,3.2892792E0,1.2880933E0,8.420727E0,1.0436745E1,1.7744394E1],"split_indices":[17,17,9,17,15,11,17,0,0,0,0,0,0,0,0],"split_type":[0,0,0,0,0,0,0,0,0,0,0,0,0,0,0],"sum_hessian":[4.627144E6,4.627052E6,9.2E1,4.626264E6,7.88E2,3.7E1,5.5E1,4.603001E6,2.3263E4,3.86E2,4.02E2,1.3E1,2.4E1,2E1,3.5E1],"tree_param":{"num_deleted":"0","num_feature":"23","num_nodes":"15","size_leaf_vector":"1"}},{"base_weights":[2.1755993E-3,-4.5073233E-3,4.060889E2,-1.768267E-2,7.464367E1,1.9092181E2,4.988864E2,-2.3669621E-3,1.6088632E-1,1.0926665E0,3.2885122E0,4.4703217E0,1.8026129E1,1.35278425E1,2.4072794E1],"categories":[],"categories_nodes":[],"categories_segments":[],"categories_sizes":[],"default_left":[0,0,0,0,0,0,0,0,0,0,0,0,0,0,0],"id":4,"left_children":[1,3,5,7,9,11,13,-1,-1,-1,-1,-1,-1,-1,-1],"loss_changes":[1.2550865E7,4.548441E6,1.509377E6,1.5229919E6,1.090489E6,3.8737538E5,7.34114E5,0E0,0E0,0E0,0E0,0E0,0E0,0E0,0E0],"parents":[2147483647,0,0,1,1,2,2,3,3,4,4,5,5,6,6],"right_children":[2,4,6,8,10,12,14,-1,-1,-1,-1,-1,-1,-1,-1],"split_conditions":[3.37E2,6.6E1,5.932617E-1,5E0,7E0,1.2E1,1.2E1,-2.3669621E-3,1.6088632E-1,1.0926665E0,3.2885122E0,4.4703217E0,1.8026129E1,1.35278425E1,2.4072794E1],"split_indices":[17,17,9,17,15,1,1,0,0,0,0,0,0,0,0],"split_type":[0,0,0,0,0,0,0,0,0,0,0,0,0,0,0],"sum_hessian":[4.624752E6,4.624676E6,7.6E1,4.62386E6,8.16E2,2.3E1,5.3E1,4.571845E6,5.2015E4,3.9E2,4.26E2,2.1E1,2E0,4.6E1,7E0],"tree_param":{"num_deleted":"0","num_feature":"23","num_nodes":"15","size_leaf_vector":"1"}},{"base_weights":[-8.5791945E-4,-7.4282577E-3,4.1040405E2,-2.2255728E-2,5.716975E1,1.1386692E1,4.7262656E2,-2.3203369E-3,1.477682E-1,8.8539875E-1,2.8604257E0,-4.470014E-1,2.1333678E0,1.1928322E1,2.0286367E1],"categories":[],"categories_nodes":[],"categories_segments":[],"categories_sizes":[],"default_left":[0,0,0,0,0,0,0,0,0,0,0,0,0,0,0],"id":5,"left_children":[1,3,5,7,9,11,13,-1,-1,-1,-1,-1,-1,-1,-1],"loss_changes":[1.2482332E7,3.9244448E6,1.839357E6,1.2614125E6,1.266845E6,1.5983271E4,9.50089E5,0E0,0E0,0E0,0E0,0E0,0E0,0E0,0E0],"parents":[2147483647,0,0,1,1,2,2,3,3,4,4,5,5,6,6],"right_children":[2,4,6,8,10,12,14,-1,-1,-1,-1,-1,-1,-1,-1],"split_conditions":[3.41E2,5E1,3.2382812E0,5E0,4.09375E0,7.5146484E-1,1.1E1,-2.3203369E-3,1.477682E-1,8.8539875E-1,2.8604257E0,-4.470014E-1,2.1333678E0,1.1928322E1,2.0286367E1],"split_indices":[17,17,15,17,16,8,1,0,0,0,0,0,0,0,0],"split_type":[0,0,0,0,0,0,0,0,0,0,0,0,0,0,0],"sum_hessian":[4.629088E6,4.629014E6,7.4E1,4.627814E6,1.2E3,1E1,6.4E1,4.576856E6,5.0958E4,6.96E2,5.04E2,7E0,3E0,4.7E1,1.7E1],"tree_param":{"num_deleted":"0","num_feature":"23","num_nodes":"15","size_leaf_vector":"1"}},{"base_weights":[-4.9475315E-5,-6.9918977E-3,3.4118707E2,-1.8664831E-2,6.9008575E1,1.4230577E2,4.58693E2,-1.6051129E-3,2.5471976E-1,9.474948E-1,3.057571E0,2.053684E0,9.036148E0,1.5762233E1,7.256316E0],"categories":[],"categories_nodes":[],"categories_segments":[],"categories_sizes":[],"default_left":[0,0,0,0,0,0,0,0,0,0,0,0,0,0,0],"id":6,"left_children":[1,3,5,7,9,11,13,-1,-1,-1,-1,-1,-1,-1,-1],"loss_changes":[1.0955181E7,3.7259255E6,2.192239E6,1.3708612E6,9.6296575E5,4.097552E5,8.41289E5,0E0,0E0,0E0,0E0,0E0,0E0,0E0,0E0],"parents":[2147483647,0,0,1,1,2,2,3,3,4,4,5,5,6,6],"right_children":[2,4,6,8,10,12,14,-1,-1,-1,-1,-1,-1,-1,-1],"split_conditions":[3.02E2,6.5E1,5.932617E-1,9E0,7E0,1.58E2,2.5E1,-1.6051129E-3,2.5471976E-1,9.474948E-1,3.057571E0,2.053684E0,9.036148E0,1.5762233E1,7.256316E0],"split_indices":[17,17,9,17,15,19,0,0,0,0,0,0,0,0,0],"split_type":[0,0,0,0,0,0,0,0,0,0,0,0,0,0,0],"sum_hessian":[4.625044E6,4.62495E6,9.4E1,4.624168E6,7.82E2,3.5E1,5.9E1,4.605313E6,1.8855E4,3.66E2,4.16E2,2.4E1,1.1E1,4.5E1,1.4E1],"tree_param":{"num_deleted":"0","num_feature":"23","num_nodes":"15","size_leaf_vector":"1"}},{"base_weights":[-3.1287677E-4,-7.441956E-3,3.658338E2,-1.6275225E-2,7.836403E1,1.4533556E2,4.502599E2,-1.3914852E-3,3.0510232E-1,1.0434747E0,3.1984608E0,2.0989683E0,9.073141E0,1.5298382E1,6.9179177E0],"categories":[],"categories_nodes":[],"categories_segments":[],"categories_sizes":[],"default_left":[0,0,0,0,0,0,0,0,0,0,0,0,0,0,0],"id":7,"left_children":[1,3,5,7,9,11,13,-1,-1,-1,-1,-1,-1,-1,-1],"loss_changes":[1.205977E7,3.20105E6,1.670376E6,1.417944E6,6.412075E5,2.9501588E5,8.40946E5,0E0,0E0,0E0,0E0,0E0,0E0,0E0,0E0],"parents":[2147483647,0,0,1,1,2,2,3,3,4,4,5,5,6,6],"right_children":[2,4,6,8,10,12,14,-1,-1,-1,-1,-1,-1,-1,-1],"split_conditions":[3.02E2,8E1,5.932617E-1,1.1E1,2.841797E-1,1.87E2,2.5E1,-1.3914852E-3,3.0510232E-1,1.0434747E0,3.1984608E0,2.0989683E0,9.073141E0,1.5298382E1,6.9179177E0],"split_indices":[17,17,9,17,13,18,0,0,0,0,0,0,0,0,0],"split_type":[0,0,0,0,0,0,0,0,0,0,0,0,0,0,0],"sum_hessian":[4.624038E6,4.623948E6,9E1,4.623427E6,5.21E2,2.5E1,6.5E1,4.609802E6,1.3625E4,2.05E2,3.16E2,1.7E1,8E0,5.1E1,1.4E1],"tree_param":{"num_deleted":"0","num_feature":"23","num_nodes":"15","size_leaf_vector":"1"}},{"base_weights":[-9.886334E-5,-6.5081627E-3,3.3284174E2,-2.0026946E-2,5.1847366E1,2.6371936E2,6.69532E2,-2.5202997E-3,1.175371E-1,8.347373E-1,2.6153529E0,1.7642983E0,9.6009655E0,1.3599448E1,2.5505468E1],"categories":[],"categories_nodes":[],"categories_segments":[],"categories_sizes":[],"default_left":[0,0,0,0,0,0,0,0,0,0,0,0,0,0,0],"id":8,"left_children":[1,3,5,7,9,11,13,-1,-1,-1,-1,-1,-1,-1,-1],"loss_changes":[9.871875E6,3.2438572E6,2.054762E6,1.1656351E6,1.02342375E6,8.531035E5,5.48573E5,0E0,0E0,0E0,0E0,0E0,0E0,0E0,0E0],"parents":[2147483647,0,0,1,1,2,2,3,3,4,4,5,5,6,6],"right_children":[2,4,6,8,10,12,14,-1,-1,-1,-1,-1,-1,-1,-1],"split_conditions":[2.84E2,5E1,1.1308594E0,4E0,4.09375E0,3.0639648E-1,6.39E2,-2.5202997E-3,1.175371E-1,8.347373E-1,2.6153529E0,1.7642983E0,9.6009655E0,1.3599448E1,2.5505468E1],"split_indices":[17,17,10,17,16,9,17,0,0,0,0,0,0,0,0],"split_type":[0,0,0,0,0,0,0,0,0,0,0,0,0,0,0],"sum_hessian":[4.627551E6,4.627462E6,8.9E1,4.626256E6,1.206E3,7.4E1,1.5E1,4.552291E6,7.3965E4,7.18E2,4.88E2,1.6E1,5.8E1,7E0,8E0],"tree_param":{"num_deleted":"0","num_feature":"23","num_nodes":"15","size_leaf_vector":"1"}},{"base_weights":[-1.5740861E-3,-1.1353729E-2,1.6938234E2,-2.9547678E-2,2.172509E1,1.23270905E2,3.4653235E2,-2.8905077E-3,7.818405E-2,4.721713E-1,1.4478225E0,9.3716115E-1,4.7614045E0,9.172039E0,2.0053225E1],"categories":[],"categories_nodes":[],"categories_segments":[],"categories_sizes":[],"default_left":[0,0,0,0,0,0,0,0,0,0,0,0,0,0,0],"id":9,"left_children":[1,3,5,7,9,11,13,-1,-1,-1,-1,-1,-1,-1,-1],"loss_changes":[7.6640075E6,1.829579E6,2.1773055E6,8.138769E5,6.145014E5,6.913315E5,7.017145E5,0E0,0E0,0E0,0E0,0E0,0E0,0E0,0E0],"parents":[2147483647,0,0,1,1,2,2,3,3,4,4,5,5,6,6],"right_children":[2,4,6,8,10,12,14,-1,-1,-1,-1,-1,-1,-1,-1],"split_conditions":[1.42E2,2.3E1,3.14E2,3E0,7E0,6.9384766E-1,1.2E1,-2.8905077E-3,7.818405E-2,4.721713E-1,1.4478225E0,9.3716115E-1,4.7614045E0,9.172039E0,2.0053225E1],"split_indices":[17,17,18,17,16,6,1,0,0,0,0,0,0,0,0],"split_type":[0,0,0,0,0,0,0,0,0,0,0,0,0,0,0],"sum_hessian":[4.626587E6,4.62632E6,2.67E2,4.622451E6,3.869E3,2.12E2,5.5E1,4.508189E6,1.14262E5,3.157E3,7.12E2,5.9E1,1.53E2,4.9E1,6E0],"tree_param":{"num_deleted":"0","num_feature":"23","num_nodes":"15","size_leaf_vector":"1"}},{"base_weights":[-1.2198804E-3,-7.377353E-3,2.933755E2,-1.9855948E-2,4.8987106E1,7.90925E1,3.5238943E2,-2.389795E-3,1.1007411E-1,7.4881506E-1,2.4398808E0,1.3493957E1,1.7473791E0,1.189137E1,6.2739E0],"categories":[],"categories_nodes":[],"categories_segments":[],"categories_sizes":[],"default_left":[0,0,0,0,0,0,0,0,0,0,0,0,0,0,0],"id":10,"left_children":[1,3,5,7,9,11,13,-1,-1,-1,-1,-1,-1,-1,-1],"loss_changes":[8.3582305E6,2.8287205E6,1.2249895E6,1.0204781E6,9.1525875E5,1.6029616E5,4.70691E5,0E0,0E0,0E0,0E0,0E0,0E0,0E0,0E0],"parents":[2147483647,0,0,1,1,2,2,3,3,4,4,5,5,6,6],"right_children":[2,4,6,8,10,12,14,-1,-1,-1,-1,-1,-1,-1,-1],"split_conditions":[3.02E2,5E1,3.3007812E-1,4E0,4.09375E0,7.4257812E0,2.4E1,-2.389795E-3,1.1007411E-1,7.4881506E-1,2.4398808E0,1.3493957E1,1.7473791E0,1.189137E1,6.2739E0],"split_indices":[17,17,10,17,16,5,0,0,0,0,0,0,0,0,0],"split_type":[0,0,0,0,0,0,0,0,0,0,0,0,0,0,0],"sum_hessian":[4.626858E6,4.626761E6,9.7E1,4.625583E6,1.178E3,2.1E1,7.6E1,4.551792E6,7.3791E4,6.76E2,5.02E2,1E0,2E1,5.8E1,1.8E1],"tree_param":{"num_deleted":"0","num_feature":"23","num_nodes":"15","size_leaf_vector":"1"}},{"base_weights":[-8.384034E-4,-7.3839785E-3,3.2509824E2,-1.8213172E-2,5.2634434E1,1.8304607E2,4.226935E2,-1.8012783E-3,1.5214297E-1,1.0914809E0,2.9675734E0,8.741761E-1,6.715101E0,1.0951434E1,1.9424932E1],"categories":[],"categories_nodes":[],"categories_segments":[],"categories_sizes":[],"default_left":[0,0,0,0,0,0,0,0,0,0,0,0,0,0,0],"id":11,"left_children":[1,3,5,7,9,11,13,-1,-1,-1,-1,-1,-1,-1,-1],"loss_changes":[9.840702E6,2.6362148E6,1.282474E6,9.84315E5,7.150415E5,2.3853612E5,6.8867E5,0E0,0E0,0E0,0E0,0E0,0E0,0E0,0E0],"parents":[2147483647,0,0,1,1,2,2,3,3,4,4,5,5,6,6],"right_children":[2,4,6,8,10,12,14,-1,-1,-1,-1,-1,-1,-1,-1],"split_conditions":[2.84E2,5.7E1,3.08E2,6E0,1.05E2,2.3254395E-2,1.1E1,-1.8012783E-3,1.5214297E-1,1.0914809E0,2.9675734E0,8.741761E-1,6.715101E0,1.0951434E1,1.9424932E1],"split_indices":[17,17,18,17,18,9,1,0,0,0,0,0,0,0,0],"split_type":[0,0,0,0,0,0,0,0,0,0,0,0,0,0,0],"sum_hessian":[4.624476E6,4.624383E6,9.3E1,4.623432E6,9.51E2,3.8E1,5.5E1,4.585744E6,3.7688E4,7.04E2,2.47E2,8E0,3E1,4.4E1,1.1E1],"tree_param":{"num_deleted":"0","num_feature":"23","num_nodes":"15","size_leaf_vector":"1"}},{"base_weights":[2.0377105E-3,-7.7593275E-3,2.0136993E2,-2.9641664E-2,1.8308418E1,1.5865648E2,5.0012912E2,-2.6846E-3,7.0378534E-2,3.9546785E-1,1.3536123E0,3.3001184E0,7.398639E0,1.5574365E1,-4.1602862E-1],"categories":[],"categories_nodes":[],"categories_segments":[],"categories_sizes":[],"default_left":[0,0,0,0,0,0,0,0,0,0,0,0,0,0,0],"id":12,"left_children":[1,3,5,7,9,11,13,-1,-1,-1,-1,-1,-1,-1,-1],"loss_changes":[9.128346E6,1.8544468E6,2.864058E6,6.5700294E5,7.587704E5,8.40641E5,2.75511E5,0E0,0E0,0E0,0E0,0E0,0E0,0E0,0E0],"parents":[2147483647,0,0,1,1,2,2,3,3,4,4,5,5,6,6],"right_children":[2,4,6,8,10,12,14,-1,-1,-1,-1,-1,-1,-1,-1],"split_conditions":[1.64E2,1.9E1,6.25E2,3E0,7E0,2.27E2,5.5E1,-2.6846E-3,7.0378534E-2,3.9546785E-1,1.3536123E0,3.3001184E0,7.398639E0,1.5574365E1,-4.1602862E-1],"split_indices":[17,17,17,17,16,18,2,0,0,0,0,0,0,0,0],"split_type":[0,0,0,0,0,0,0,0,0,0,0,0,0,0,0],"sum_hessian":[4.62708E6,4.626855E6,2.25E2,4.621334E6,5.521E3,1.97E2,2.8E1,4.507776E6,1.13558E5,4.635E3,8.86E2,1.27E2,7E1,2.7E1,1E0],"tree_param":{"num_deleted":"0","num_feature":"23","num_nodes":"15","size_leaf_vector":"1"}},{"base_weights":[-1.0396256E-3,-7.196133E-3,2.8437207E2,-1.8112015E-2,4.500478E1,1.13316765E2,3.7216312E2,-1.2950522E-3,2.2667764E-1,3.0179977E1,1.3215015E0,1.9300655E0,8.086048E0,9.345509E0,1.63171E1],"categories":[],"categories_nodes":[],"categories_segments":[],"categories_sizes":[],"default_left":[0,0,0,0,0,0,0,0,0,0,0,0,0,0,0],"id":13,"left_children":[1,3,5,7,9,11,13,-1,-1,-1,-1,-1,-1,-1,-1],"loss_changes":[8.0956965E6,2.2720028E6,1.498785E6,8.7732875E5,1.023832E6,2.5911581E5,6.70279E5,0E0,0E0,0E0,0E0,0E0,0E0,0E0,0E0],"parents":[2147483647,0,0,1,1,2,2,3,3,4,4,5,5,6,6],"right_children":[2,4,6,8,10,12,14,-1,-1,-1,-1,-1,-1,-1,-1],"split_conditions":[2.77E2,5E1,6.0009766E-1,1E1,1.0214844E0,1.58E2,1.1E1,-1.2950522E-3,2.2667764E-1,3.0179977E1,1.3215015E0,1.9300655E0,8.086048E0,9.345509E0,1.63171E1],"split_indices":[17,17,10,17,5,19,1,0,0,0,0,0,0,0,0],"split_type":[0,0,0,0,0,0,0,0,0,0,0,0,0,0,0],"sum_hessian":[4.624143E6,4.624043E6,1E2,4.622922E6,1.121E3,3.4E1,6.6E1,4.607679E6,1.5243E4,1E0,1.12E3,2.6E1,8E0,4.9E1,1.7E1],"tree_param":{"num_deleted":"0","num_feature":"23","num_nodes":"15","size_leaf_vector":"1"}},{"base_weights":[-6.588467E-4,-6.760935E-3,2.3693645E2,-1.4136627E-2,4.4686283E1,1.0444123E2,3.4299045E2,-2.3833497E-3,6.919051E-2,4.5926708E-1,2.271392E0,6.4659274E-1,3.9374876E0,7.4101434E0,1.6390884E1],"categories":[],"categories_nodes":[],"categories_segments":[],"categories_sizes":[],"default_left":[0,0,0,0,0,0,0,0,0,0,0,0,0,0,0],"id":14,"left_children":[1,3,5,7,9,11,13,-1,-1,-1,-1,-1,-1,-1,-1],"loss_changes":[6.686786E6,1.524535E6,1.669799E6,7.007626E5,6.954369E5,1.17705625E5,1.275935E6,0E0,0E0,0E0,0E0,0E0,0E0,0E0,0E0],"parents":[2147483647,0,0,1,1,2,2,3,3,4,4,5,5,6,6],"right_children":[2,4,6,8,10,12,14,-1,-1,-1,-1,-1,-1,-1,-1],"split_conditions":[2.6E2,6.5E1,6.2890625E-1,1.9111328E0,7E0,3.25E0,1E1,-2.3833497E-3,6.919051E-2,4.5926708E-1,2.271392E0,6.4659274E-1,3.9374876E0,7.4101434E0,1.6390884E1],"split_indices":[18,18,10,5,16,16,1,0,0,0,0,0,0,0,0],"split_type":[0,0,0,0,0,0,0,0,0,0,0,0,0,0,0],"sum_hessian":[4.624937E6,4.624818E6,1.19E2,4.624055E6,7.63E2,5.3E1,6.6E1,4.497477E6,1.26578E5,3.92E2,3.71E2,1.3E1,4E1,4.5E1,2.1E1],"tree_param":{"num_deleted":"0","num_feature":"23","num_nodes":"15","size_leaf_vector":"1"}},{"base_weights":[-4.10444E-4,-6.564982E-3,2.5176718E2,-1.635915E-2,4.4582592E1,1.9271243E2,4.4776236E2,-1.5157037E-3,1.6233194E-1,7.4265045E-1,2.2270942E0,1.4570547E0,6.9054246E0,1.5014468E1,1.2071091E0],"categories":[],"categories_nodes":[],"categories_segments":[],"categories_sizes":[],"default_left":[0,0,0,0,0,0,0,0,0,0,0,0,0,0,0],"id":15,"left_children":[1,3,5,7,9,11,13,-1,-1,-1,-1,-1,-1,-1,-1],"loss_changes":[7.169728E6,2.020662E6,1.299861E6,8.5776406E5,5.9723725E5,4.6925025E5,5.58748E5,0E0,0E0,0E0,0E0,0E0,0E0,0E0,0E0],"parents":[2147483647,0,0,1,1,2,2,3,3,4,4,5,5,6,6],"right_children":[2,4,6,8,10,12,14,-1,-1,-1,-1,-1,-1,-1,-1],"split_conditions":[2.43E2,5.5E1,6.02E2,7E0,7.1E1,1.2666016E0,5.5E1,-1.5157037E-3,1.6233194E-1,7.4265045E-1,2.2270942E0,1.4570547E0,6.9054246E0,1.5014468E1,1.2071091E0],"split_indices":[17,17,17,17,4,7,2,0,0,0,0,0,0,0,0],"split_type":[0,0,0,0,0,0,0,0,0,0,0,0,0,0,0],"sum_hessian":[4.627084E6,4.626971E6,1.13E2,4.625955E6,1.016E3,8.7E1,2.6E1,4.597018E6,2.8937E4,6.09E2,4.07E2,1.8E1,6.9E1,2.3E1,3E0],"tree_param":{"num_deleted":"0","num_feature":"23","num_nodes":"15","size_leaf_vector":"1"}},{"base_weights":[1.04532686E-4,-5.0343405E-3,2.609758E2,-1.651399E-2,3.684046E1,2.707134E1,2.9305795E2,-2.0717275E-3,9.6978575E-2,5.609503E-1,1.9636887E0,-1.3597066E0,2.6140702E0,6.632927E0,1.0450957E1],"categories":[],"categories_nodes":[],"categories_segments":[],"categories_sizes":[],"default_left":[0,0,0,0,0,0,0,0,0,0,0,0,0,0,0],"id":16,"left_children":[1,3,5,7,9,11,13,-1,-1,-1,-1,-1,-1,-1,-1],"loss_changes":[6.2053175E6,1.9570438E6,6.82833E5,7.8965894E5,7.480216E5,4.872603E4,3.105235E5,0E0,0E0,0E0,0E0,0E0,0E0,0E0,0E0],"parents":[2147483647,0,0,1,1,2,2,3,3,4,4,5,5,6,6],"right_children":[2,4,6,8,10,12,14,-1,-1,-1,-1,-1,-1,-1,-1],"split_conditions":[2.8E2,4.4E1,1.5585938E0,4E0,2.9707031E0,7E0,7.5146484E-1,-2.0717275E-3,9.6978575E-2,5.609503E-1,1.9636887E0,-1.3597066E0,2.6140702E0,6.632927E0,1.0450957E1],"split_indices":[17,17,6,17,16,1,8,0,0,0,0,0,0,0,0],"split_type":[0,0,0,0,0,0,0,0,0,0,0,0,0,0,0],"sum_hessian":[4.626963E6,4.626872E6,9.1E1,4.625431E6,1.441E3,1.1E1,8E1,4.551821E6,7.361E4,8.82E2,5.59E2,5E0,6E0,3.5E1,4.5E1],"tree_param":{"num_deleted":"0","num_feature":"23","num_nodes":"15","size_leaf_vector":"1"}},{"base_weights":[7.9326346E-5,-7.898987E-3,1.799626E2,-2.7140267E-2,1.647909E1,1.09154015E2,2.7768268E2,-2.4201688E-3,6.323952E-2,3.0639076E-1,1.1219063E0,3.029601E0,2.9079647E1,5.931555E0,1.0822029E1],"categories":[],"categories_nodes":[],"categories_segments":[],"categories_sizes":[],"default_left":[0,0,0,0,0,0,0,0,0,0,0,0,0,0,0],"id":17,"left_children":[1,3,5,7,9,11,13,-1,-1,-1,-1,-1,-1,-1,-1],"loss_changes":[6.643019E6,1.4676698E6,1.415961E6,5.2818175E5,7.068454E5,8.2621425E5,5.64169E5,0E0,0E0,0E0,0E0,0E0,0E0,0E0,0E0],"parents":[2147483647,0,0,1,1,2,2,3,3,4,4,5,5,6,6],"right_children":[2,4,6,8,10,12,14,-1,-1,-1,-1,-1,-1,-1,-1],"split_conditions":[1.84E2,1.9E1,5.932617E-1,3E0,7E0,3.1E1,4.63E2,-2.4201688E-3,6.323952E-2,3.0639076E-1,1.1219063E0,3.029601E0,2.9079647E1,5.931555E0,1.0822029E1],"split_indices":[17,17,9,17,14,0,17,0,0,0,0,0,0,0,0],"split_type":[0,0,0,0,0,0,0,0,0,0,0,0,0,0,0],"sum_hessian":[4.62671E6,4.626505E6,2.05E2,4.621112E6,5.393E3,1.19E2,8.6E1,4.508085E6,1.13027E5,4.15E3,1.243E3,1.18E2,1E0,4.4E1,4.2E1],"tree_param":{"num_deleted":"0","num_feature":"23","num_nodes":"15","size_leaf_vector":"1"}},{"base_weights":[8.539479E-4,-4.1280063E-3,2.843454E2,-1.1645532E-2,6.135281E1,2.7017257E0,3.239493E2,-9.473927E-4,3.123546E-1,6.4949024E-1,2.4124632E0,2.9046133E0,-1.1547368E0,1.1601072E1,5.1997685E0],"categories":[],"categories_nodes":[],"categories_segments":[],"categories_sizes":[],"default_left":[0,0,0,0,0,0,0,0,0,0,0,0,0,0,0],"id":18,"left_children":[1,3,5,7,9,11,13,-1,-1,-1,-1,-1,-1,-1,-1],"loss_changes":[6.557824E6,2.135237E6,9.04597E5,9.617583E5,4.29026E5,3.958967E4,6.64896E5,0E0,0E0,0E0,0E0,0E0,0E0,0E0,0E0],"parents":[2147483647,0,0,1,1,2,2,3,3,4,4,5,5,6,6],"right_children":[2,4,6,8,10,12,14,-1,-1,-1,-1,-1,-1,-1,-1],"split_conditions":[3.41E2,8.3E1,2.46875E0,1.4E1,7E0,2E1,2.4E1,-9.473927E-4,3.123546E-1,6.4949024E-1,2.4124632E0,2.9046133E0,-1.1547368E0,1.1601072E1,5.1997685E0],"split_indices":[17,17,6,17,14,4,0,0,0,0,0,0,0,0,0],"split_type":[0,0,0,0,0,0,0,0,0,0,0,0,0,0,0],"sum_hessian":[4.629298E6,4.629217E6,8.1E1,4.62865E6,5.67E2,1E1,7.1E1,4.619815E6,8.835E3,1.84E2,3.83E2,3E0,7E0,5E1,2.1E1],"tree_param":{"num_deleted":"0","num_feature":"23","num_nodes":"15","size_leaf_vector":"1"}},{"base_weights":[2.35545E-4,-5.0665857E-3,2.0411913E2,-1.0533673E-2,4.8130054E1,1.3851247E2,3.3962198E2,-2.4683292E-3,5.4894626E-2,4.4500864E-1,2.3174255E0,3.9226276E-1,5.152611E0,5.6057625E0,1.4953939E1],"categories":[],"categories_nodes":[],"categories_segments":[],"categories_sizes":[],"default_left":[0,0,0,0,0,0,0,0,0,0,0,0,0,0,0],"id":19,"left_children":[1,3,5,7,9,11,13,-1,-1,-1,-1,-1,-1,-1,-1],"loss_changes":[5.0043615E6,1.2168075E6,1.062675E6,6.1043775E5,5.0897262E5,3.3795138E5,9.389255E5,0E0,0E0,0E0,0E0,0E0,0E0,0E0,0E0],"parents":[2147483647,0,0,1,1,2,2,3,3,4,4,5,5,6,6],"right_children":[2,4,6,8,10,12,14,-1,-1,-1,-1,-1,-1,-1,-1],"split_conditions":[2.33E2,7.9E1,8.256836E-1,1.4892578E0,7E0,2.1113281E0,8E0,-2.4683292E-3,5.4894626E-2,4.4500864E-1,2.3174255E0,3.9226276E-1,5.152611E0,5.6057625E0,1.4953939E1],"split_indices":[18,18,10,5,16,7,1,0,0,0,0,0,0,0,0],"split_type":[0,0,0,0,0,0,0,0,0,0,0,0,0,0,0],"sum_hessian":[4.623971E6,4.623851E6,1.2E2,4.623326E6,5.25E2,8.1E1,3.9E1,4.449854E6,1.73472E5,2.45E2,2.8E2,1.7E1,6.4E1,2E1,1.9E1],"tree_param":{"num_deleted":"0","num_feature":"23","num_nodes":"15","size_leaf_vector":"1"}},{"base_weights":[9.937936E-4,-4.102687E-3,2.7698203E2,-1.6116519E-2,3.705175E1,4.605365E1,3.303753E2,-2.3089824E-3,6.987209E-2,6.582229E-1,2.0561E0,6.486109E-1,6.2171106E0,8.585632E0,1.6749826E1],"categories":[],"categories_nodes":[],"categories_segments":[],"categories_sizes":[],"default_left":[0,0,0,0,0,0,0,0,0,0,0,0,0,0,0],"id":20,"left_children":[1,3,5,7,9,11,13,-1,-1,-1,-1,-1,-1,-1,-1],"loss_changes":[6.529459E6,2.0591464E6,1.047741E6,6.5984644E5,7.1306575E5,6.295339E4,6.788795E5,0E0,0E0,0E0,0E0,0E0,0E0,0E0,0E0],"parents":[2147483647,0,0,1,1,2,2,3,3,4,4,5,5,6,6],"right_children":[2,4,6,8,10,12,14,-1,-1,-1,-1,-1,-1,-1,-1],"split_conditions":[3.41E2,4.4E1,3.2E1,3E0,2.0448E4,1.1E1,7.95E2,-2.3089824E-3,6.987209E-2,6.582229E-1,2.0561E0,6.486109E-1,6.2171106E0,8.585632E0,1.6749826E1],"split_indices":[17,17,4,17,3,1,17,0,0,0,0,0,0,0,0],"split_type":[0,0,0,0,0,0,0,0,0,0,0,0,0,0,0],"sum_hessian":[4.62548E6,4.625395E6,8.5E1,4.623896E6,1.499E3,1.6E1,6.9E1,4.506956E6,1.1694E5,1.013E3,4.86E2,1.4E1,2E0,5.8E1,1.1E1],"tree_param":{"num_deleted":"0","num_feature":"23","num_nodes":"15","size_leaf_vector":"1"}},{"base_weights":[-3.1015428E-4,-7.294623E-3,1.5820123E2,-2.510429E-2,1.522775E1,1.0335983E2,2.6286313E2,-2.8894716E-3,4.096679E-2,3.835474E-1,1.7758344E0,2.8898494E0,2.8146202E1,6.1680775E0,1.4657556E1],"categories":[],"categories_nodes":[],"categories_segments":[],"categories_sizes":[],"default_left":[0,0,0,0,0,0,0,0,0,0,0,0,0,0,0],"id":21,"left_children":[1,3,5,7,9,11,13,-1,-1,-1,-1,-1,-1,-1,-1],"loss_changes":[5.1085795E6,1.254401E6,1.168611E6,4.573002E5,5.7969425E5,7.775059E5,8.95316E5,0E0,0E0,0E0,0E0,0E0,0E0,0E0,0E0],"parents":[2147483647,0,0,1,1,2,2,3,3,4,4,5,5,6,6],"right_children":[2,4,6,8,10,12,14,-1,-1,-1,-1,-1,-1,-1,-1],"split_conditions":[1.71E2,1.9E1,6.6259766E-1,2E0,9.1E1,3.1E1,7.49E2,-2.8894716E-3,4.096679E-2,3.835474E-1,1.7758344E0,2.8898494E0,2.8146202E1,6.1680775E0,1.4657556E1],"split_indices":[17,17,9,17,19,0,17,0,0,0,0,0,0,0,0],"split_type":[0,0,0,0,0,0,0,0,0,0,0,0,0,0,0],"sum_hessian":[4.623342E6,4.623138E6,2.04E2,4.61774E6,5.398E3,1.34E2,7E1,4.392799E6,2.24941E5,5.114E3,2.84E2,1.33E2,1E0,5.6E1,1.4E1],"tree_param":{"num_deleted":"0","num_feature":"23","num_nodes":"15","size_leaf_vector":"1"}},{"base_weights":[4.2979015E-4,-6.999409E-3,1.462048E2,-2.3712272E-2,1.4386713E1,1.0359064E2,3.2545398E2,-2.7998195E-3,4.013649E-2,2.8008664E-1,9.519394E-1,2.852404E0,1.4593577E1,3.132411E0,1.1892335E1],"categories":[],"categories_nodes":[],"categories_segments":[],"categories_sizes":[],"default_left":[0,0,0,0,0,0,0,0,0,0,0,0,0,0,0],"id":22,"left_children":[1,3,5,7,9,11,13,-1,-1,-1,-1,-1,-1,-1,-1],"loss_changes":[5.0258525E6,1.1130355E6,1.79225E6,4.3805888E5,4.7003238E5,6.144524E5,7.03028E5,0E0,0E0,0E0,0E0,0E0,0E0,0E0,0E0],"parents":[2147483647,0,0,1,1,2,2,3,3,4,4,5,5,6,6],"right_children":[2,4,6,8,10,12,14,-1,-1,-1,-1,-1,-1,-1,-1],"split_conditions":[1.53E2,1.9E1,7.705078E-1,2E0,7E0,3.2E1,3.8E2,-2.7998195E-3,4.013649E-2,2.8008664E-1,9.519394E-1,2.852404E0,1.4593577E1,3.132411E0,1.1892335E1],"split_indices":[17,17,9,17,14,0,17,0,0,0,0,0,0,0,0],"split_type":[0,0,0,0,0,0,0,0,0,0,0,0,0,0,0],"sum_hessian":[4.627084E6,4.626849E6,2.35E2,4.621483E6,5.366E3,1.9E2,4.5E1,4.396691E6,2.24792E5,4.156E3,1.21E3,1.86E2,4E0,1.1E1,3.4E1],"tree_param":{"num_deleted":"0","num_feature":"23","num_nodes":"15","size_leaf_vector":"1"}},{"base_weights":[-1.9288962E-3,-6.2412256E-3,2.143612E2,-1.1355011E-2,5.606028E1,1.8813276E1,2.6782928E2,-9.607345E-4,2.4479283E-1,8.866298E-1,2.3512483E0,2.140333E0,-1.7965326E0,6.86661E0,1.5243294E1],"categories":[],"categories_nodes":[],"categories_segments":[],"categories_sizes":[],"default_left":[0,0,0,0,0,0,0,0,0,0,0,0,0,0,0],"id":23,"left_children":[1,3,5,7,9,11,13,-1,-1,-1,-1,-1,-1,-1,-1],"loss_changes":[4.2785325E6,1.3269979E6,9.729515E5,7.816193E5,2.4941512E5,8.358753E4,6.71542E5,0E0,0E0,0E0,0E0,0E0,0E0,0E0,0E0],"parents":[2147483647,0,0,1,1,2,2,3,3,4,4,5,5,6,6],"right_children":[2,4,6,8,10,12,14,-1,-1,-1,-1,-1,-1,-1,-1],"split_conditions":[2.7E2,9.2E1,1.9461E4,1.2E1,1.8634E4,2E1,7.39E2,-9.607345E-4,2.4479283E-1,8.866298E-1,2.3512483E0,2.140333E0,-1.7965326E0,6.86661E0,1.5243294E1],"split_indices":[17,17,3,17,3,4,17,0,0,0,0,0,0,0,0],"split_type":[0,0,0,0,0,0,0,0,0,0,0,0,0,0,0],"sum_hessian":[4.62842E6,4.628327E6,9.3E1,4.627905E6,4.22E2,2E1,7.3E1,4.616228E6,1.1677E4,1.93E2,2.29E2,1.2E1,8E0,6.3E1,1E1],"tree_param":{"num_deleted":"0","num_feature":"23","num_nodes":"15","size_leaf_vector":"1"}},{"base_weights":[1.4589791E-3,-5.365489E-3,1.5941893E2,-1.8640772E-2,1.9920456E1,1.3677295E1,1.951334E2,-2.085098E-3,5.906905E-2,3.6926594E-1,1.1256559E0,1.7357109E0,-1.8330254E-1,5.08636E0,1.3704996E1],"categories":[],"categories_nodes":[],"categories_segments":[],"categories_sizes":[],"default_left":[0,0,0,0,0,0,0,0,0,0,0,0,0,0,0],"id":24,"left_children":[1,3,5,7,9,11,13,-1,-1,-1,-1,-1,-1,-1,-1],"loss_changes":[5.0349125E6,1.2241331E6,1.0308805E6,4.6752847E5,4.1274075E5,3.422614E4,1.0571015E6,0E0,0E0,0E0,0E0,0E0,0E0,0E0,0E0],"parents":[2147483647,0,0,1,1,2,2,3,3,4,4,5,5,6,6],"right_children":[2,4,6,8,10,12,14,-1,-1,-1,-1,-1,-1,-1,-1],"split_conditions":[1.81E2,2.7E1,1.5585938E0,3E0,7E0,1.5E1,7.49E2,-2.085098E-3,5.906905E-2,3.6926594E-1,1.1256559E0,1.7357109E0,-1.8330254E-1,5.08636E0,1.3704996E1],"split_indices":[17,17,6,17,14,0,17,0,0,0,0,0,0,0,0],"split_type":[0,0,0,0,0,0,0,0,0,0,0,0,0,0,0],"sum_hessian":[4.627934E6,4.627736E6,1.98E2,4.624655E6,3.081E3,3.9E1,1.59E2,4.509264E6,1.15391E5,2.151E3,9.3E2,1.2E1,2.7E1,1.45E2,1.4E1],"tree_param":{"num_deleted":"0","num_feature":"23","num_nodes":"15","size_leaf_vector":"1"}},{"base_weights":[1.9147694E-3,-5.4413876E-3,1.4055682E2,-2.3638366E-2,1.1526529E1,1.0110739E2,2.57227E2,-2.605762E-3,3.6654815E-2,2.5415847E-1,9.76059E-1,2.7781837E0,1.7544436E1,1.215972E0,9.470786E0],"categories":[],"categories_nodes":[],"categories_segments":[],"categories_sizes":[],"default_left":[0,0,0,0,0,0,0,0,0,0,0,0,0,0,0],"id":25,"left_children":[1,3,5,7,9,11,13,-1,-1,-1,-1,-1,-1,-1,-1],"loss_changes":[4.783255E6,9.707483E5,1.111516E6,3.6367025E5,4.6766975E5,7.389014E5,7.7281E5,0E0,0E0,0E0,0E0,0E0,0E0,0E0,0E0],"parents":[2147483647,0,0,1,1,2,2,3,3,4,4,5,5,6,6],"right_children":[2,4,6,8,10,12,14,-1,-1,-1,-1,-1,-1,-1,-1],"split_conditions":[1.55E2,1.6E1,4.07E2,2E0,7.1E1,3.2E1,5.932617E-1,-2.605762E-3,3.6654815E-2,2.5415847E-1,9.76059E-1,2.7781837E0,1.7544436E1,1.215972E0,9.470786E0],"split_indices":[17,17,17,17,4,0,9,0,0,0,0,0,0,0,0],"split_type":[0,0,0,0,0,0,0,0,0,0,0,0,0,0,0],"sum_hessian":[4.626222E6,4.62598E6,2.42E2,4.618692E6,7.288E3,1.81E2,6.1E1,4.395571E6,2.23121E5,6.363E3,9.25E2,1.78E2,3E0,1.3E1,4.8E1],"tree_param":{"num_deleted":"0","num_feature":"23","num_nodes":"15","size_leaf_vector":"1"}},{"base_weights":[-9.2022725E-5,-6.1074514E-3,9.428046E1,-1.73384E-2,1.1973606E1,6.2315567E1,1.8299976E2,-1.849651E-3,5.0553307E-2,3.1497768E-1,3.0475893E0,2.9495338E-1,2.572033E0,6.629875E0,1.6735412E0],"categories":[],"categories_nodes":[],"categories_segments":[],"categories_sizes":[],"default_left":[0,0,0,0,0,0,0,0,0,0,0,0,0,0,0],"id":26,"left_children":[1,3,5,7,9,11,13,-1,-1,-1,-1,-1,-1,-1,-1],"loss_changes":[2.6233278E6,6.2229894E5,8.35668E5,3.4863422E5,5.7224506E5,2.667587E5,3.7621925E5,0E0,0E0,0E0,0E0,0E0,0E0,0E0,0E0],"parents":[2147483647,0,0,1,1,2,2,3,3,4,4,5,5,6,6],"right_children":[2,4,6,8,10,12,14,-1,-1,-1,-1,-1,-1,-1,-1],"split_conditions":[1.34E2,7E0,6.035156E-1,3E0,3.2E1,2.1113281E0,2.5E1,-1.849651E-3,5.0553307E-2,3.1497768E-1,3.0475893E0,2.9495338E-1,2.572033E0,6.629875E0,1.6735412E0],"split_indices":[18,14,10,18,0,7,0,0,0,0,0,0,0,0,0],"split_type":[0,0,0,0,0,0,0,0,0,0,0,0,0,0,0],"sum_hessian":[4.625555E6,4.62526E6,2.95E2,4.620928E6,4.332E3,2.17E2,7.8E1,4.503692E6,1.17236E5,4.262E3,7E1,6.7E1,1.5E2,6E1,1.8E1],"tree_param":{"num_deleted":"0","num_feature":"23","num_nodes":"15","size_leaf_vector":"1"}},{"base_weights":[-6.21608E-4,-4.372508E-3,1.8641795E2,-1.1040624E-2,4.0108467E1,1.4789696E2,3.8424335E2,-9.961645E-4,1.6302042E-1,6.7567104E-1,2.0597878E0,4.471809E-1,5.718579E0,1.4456744E1,-2.8544542E-1],"categories":[],"categories_nodes":[],"categories_segments":[],"categories_sizes":[],"default_left":[0,0,0,0,0,0,0,0,0,0,0,0,0,0,0],"id":27,"left_children":[1,3,5,7,9,11,13,-1,-1,-1,-1,-1,-1,-1,-1],"loss_changes":[3.2357352E6,1.2377308E6,7.03397E5,5.583861E5,3.860045E5,4.434775E5,5.813835E5,0E0,0E0,0E0,0E0,0E0,0E0,0E0,0E0],"parents":[2147483647,0,0,1,1,2,2,3,3,4,4,5,5,6,6],"right_children":[2,4,6,8,10,12,14,-1,-1,-1,-1,-1,-1,-1,-1],"split_conditions":[2.99E2,6.5E1,7.49E2,9E0,7.1E1,5E0,5.5E1,-9.961645E-4,1.6302042E-1,6.7567104E-1,2.0597878E0,4.471809E-1,5.718579E0,1.4456744E1,-2.8544542E-1],"split_indices":[17,17,17,17,19,1,2,0,0,0,0,0,0,0,0],"split_type":[0,0,0,0,0,0,0,0,0,0,0,0,0,0,0],"sum_hessian":[4.62752E6,4.627427E6,9.3E1,4.626658E6,7.69E2,7.8E1,1.5E1,4.607901E6,1.8757E4,4.76E2,2.93E2,1.9E1,5.9E1,1.2E1,3E0],"tree_param":{"num_deleted":"0","num_feature":"23","num_nodes":"15","size_leaf_vector":"1"}},{"base_weights":[-2.372648E-4,-5.966664E-3,1.0520495E2,-1.6181352E-2,1.8135368E1,8.505579E1,2.592565E2,-1.9135057E-3,5.5261996E-2,3.5284558E-1,1.090652E0,2.3133185E0,1.0979276E1,1.0769818E1,1.0797764E0],"categories":[],"categories_nodes":[],"categories_segments":[],"categories_sizes":[],"default_left":[0,0,0,0,0,0,0,0,0,0,0,0,0,0,0],"id":28,"left_children":[1,3,5,7,9,11,13,-1,-1,-1,-1,-1,-1,-1,-1],"loss_changes":[2.7905138E6,8.578447E5,7.8016825E5,4.0926097E5,3.02484E5,4.9492638E5,6.46773E5,0E0,0E0,0E0,0E0,0E0,0E0,0E0,0E0],"parents":[2147483647,0,0,1,1,2,2,3,3,4,4,5,5,6,6],"right_children":[2,4,6,8,10,12,14,-1,-1,-1,-1,-1,-1,-1,-1],"split_conditions":[1.45E2,2.9E1,5.84E2,3E0,2.9707031E0,3.2E1,2.2E1,-1.9135057E-3,5.5261996E-2,3.5284558E-1,1.090652E0,2.3133185E0,1.0979276E1,1.0769818E1,1.0797764E0],"split_indices":[17,17,17,17,16,0,0,0,0,0,0,0,0,0,0],"split_type":[0,0,0,0,0,0,0,0,0,0,0,0,0,0,0],"sum_hessian":[4.629541E6,4.629289E6,2.52E2,4.626684E6,2.605E3,2.23E2,2.9E1,4.511124E6,1.1556E5,1.93E3,6.75E2,2.17E2,6E0,2E1,9E0],"tree_param":{"num_deleted":"0","num_feature":"23","num_nodes":"15","size_leaf_vector":"1"}},{"base_weights":[2.7350325E-5,-3.5492775E-3,2.2335019E2,-9.001614E-3,4.916666E1,1.4431285E1,2.636909E2,-6.986033E-4,2.5249684E-1,5.8463866E-1,2.0671988E0,1.8694923E0,-1.0112536E0,9.519019E0,2.8394563E0],"categories":[],"categories_nodes":[],"categories_segments":[],"categories_sizes":[],"default_left":[0,0,0,0,0,0,0,0,0,0,0,0,0,0,0],"id":29,"left_children":[1,3,5,7,9,11,13,-1,-1,-1,-1,-1,-1,-1,-1],"loss_changes":[3.6969462E6,1.2406831E6,6.2416575E5,5.569448E5,3.0046275E5,2.8136902E4,5.596045E5,0E0,0E0,0E0,0E0,0E0,0E0,0E0,0E0],"parents":[2147483647,0,0,1,1,2,2,3,3,4,4,5,5,6,6],"right_children":[2,4,6,8,10,12,14,-1,-1,-1,-1,-1,-1,-1,-1],"split_conditions":[3.41E2,8.6E1,2.46875E0,1.5E1,7E0,2.2E1,2.4E1,-6.986033E-4,2.5249684E-1,5.8463866E-1,2.0671988E0,1.8694923E0,-1.0112536E0,9.519019E0,2.8394563E0],"split_indices":[17,17,6,17,15,0,0,0,0,0,0,0,0,0,0],"split_type":[0,0,0,0,0,0,0,0,0,0,0,0,0,0,0],"sum_hessian":[4.627891E6,4.627817E6,7.4E1,4.627304E6,5.13E2,1.2E1,6.2E1,4.619472E6,7.832E3,2.05E2,3.08E2,6E0,6E0,4.7E1,1.5E1],"tree_param":{"num_deleted":"0","num_feature":"23","num_nodes":"15","size_leaf_vector":"1"}},{"base_weights":[1.4900772E-3,-2.3138616E-3,2.25337E2,-7.772033E-3,4.692414E1,1.6608173E2,4.355734E2,-7.153788E-4,2.239916E-1,2.8869817E-1,1.9112066E0,-6.173827E-1,5.827247E0,7.426545E0,1.6042027E1],"categories":[],"categories_nodes":[],"categories_segments":[],"categories_sizes":[],"default_left":[0,0,0,0,0,0,0,0,0,0,0,0,0,0,0],"id":30,"left_children":[1,3,5,7,9,11,13,-1,-1,-1,-1,-1,-1,-1,-1],"loss_changes":[3.9660738E6,1.1851008E6,9.6524075E5,5.558071E5,3.3679538E5,3.2163462E5,3.04699E5,0E0,0E0,0E0,0E0,0E0,0E0,0E0,0E0],"parents":[2147483647,0,0,1,1,2,2,3,3,4,4,5,5,6,6],"right_children":[2,4,6,8,10,12,14,-1,-1,-1,-1,-1,-1,-1,-1],"split_conditions":[3.47E2,8.2E1,1.1220703E0,1.3E1,9.246E3,3.2382812E0,6.27E2,-7.153788E-4,2.239916E-1,2.8869817E-1,1.9112066E0,-6.173827E-1,5.827247E0,7.426545E0,1.6042027E1],"split_indices":[17,17,10,17,3,15,17,0,0,0,0,0,0,0,0],"split_type":[0,0,0,0,0,0,0,0,0,0,0,0,0,0,0],"sum_hessian":[4.62698E6,4.626902E6,7.8E1,4.626364E6,5.38E2,6.1E1,1.7E1,4.616436E6,9.928E3,1.67E2,3.71E2,8E0,5.3E1,6E0,1.1E1],"tree_param":{"num_deleted":"0","num_feature":"23","num_nodes":"15","size_leaf_vector":"1"}},{"base_weights":[3.220045E-4,-3.0007274E-3,2.3257208E2,-8.2650455E-3,5.5846786E1,-8.401928E0,2.7553665E2,-6.536723E-4,2.659082E-1,5.882985E-1,2.3303714E0,-1.268058E0,8.125783E0,6.6142197E0,1.4894061E1],"categories":[],"categories_nodes":[],"categories_segments":[],"categories_sizes":[],"default_left":[0,0,0,0,0,0,0,0,0,0,0,0,0,0,0],"id":31,"left_children":[1,3,5,7,9,11,13,-1,-1,-1,-1,-1,-1,-1,-1],"loss_changes":[3.575795E6,1.3604349E6,6.84686E5,5.5513006E5,3.4485462E5,9.6829445E4,6.70761E5,0E0,0E0,0E0,0E0,0E0,0E0,0E0,0E0],"parents":[2147483647,0,0,1,1,2,2,3,3,4,4,5,5,6,6],"right_children":[2,4,6,8,10,12,14,-1,-1,-1,-1,-1,-1,-1,-1],"split_conditions":[4.12E2,9.4E1,3.2382812E0,1.6E1,4.8E1,6.2890625E-1,7.72E2,-6.536723E-4,2.659082E-1,5.882985E-1,2.3303714E0,-1.268058E0,8.125783E0,6.6142197E0,1.4894061E1],"split_indices":[17,17,15,17,18,9,17,0,0,0,0,0,0,0,0],"split_type":[0,0,0,0,0,0,0,0,0,0,0,0,0,0,0],"sum_hessian":[4.627222E6,4.627156E6,6.6E1,4.62672E6,4.36E2,1E1,5.6E1,4.619678E6,7.042E3,1.64E2,2.72E2,9E0,1E0,4.5E1,1.1E1],"tree_param":{"num_deleted":"0","num_feature":"23","num_nodes":"15","size_leaf_vector":"1"}},{"base_weights":[-1.132731E-3,-6.342941E-3,9.294561E1,-1.6395915E-2,1.3021368E1,5.8354206E1,1.7016125E2,-5.02194E-4,1.1599384E1,2.846709E-1,8.5078394E-1,3.1739244E-5,2.486358E0,3.6672564E0,9.673518E0],"categories":[],"categories_nodes":[],"categories_segments":[],"categories_sizes":[],"default_left":[0,0,0,0,0,0,0,0,0,0,0,0,0,0,0],"id":32,"left_children":[1,3,5,7,9,11,13,-1,-1,-1,-1,-1,-1,-1,-1],"loss_changes":[2.2385825E6,6.053716E5,6.9100625E5,6.141435E5,1.93072E5,2.5631669E5,5.8034775E5,0E0,0E0,0E0,0E0,0E0,0E0,0E0,0E0],"parents":[2147483647,0,0,1,1,2,2,3,3,4,4,5,5,6,6],"right_children":[2,4,6,8,10,12,14,-1,-1,-1,-1,-1,-1,-1,-1],"split_conditions":[1.44E2,2.4E1,2.3E2,3E2,3.1E1,1.2666016E0,1.1E1,-5.02194E-4,1.1599384E1,2.846709E-1,8.5078394E-1,3.1739244E-5,2.486358E0,3.6672564E0,9.673518E0],"split_indices":[17,17,18,19,19,6,1,0,0,0,0,0,0,0,0],"split_type":[0,0,0,0,0,0,0,0,0,0,0,0,0,0,0],"sum_hessian":[4.622572E6,4.622313E6,2.59E2,4.618749E6,3.564E3,1.79E2,8E1,4.618745E6,4E0,2.897E3,6.67E2,5.3E1,1.26E2,6.1E1,1.9E1],"tree_param":{"num_deleted":"0","num_feature":"23","num_nodes":"15","size_leaf_vector":"1"}},{"base_weights":[-6.389613E-4,-5.578773E-3,9.679605E1,-1.6528256E-2,1.2939303E1,6.557991E1,2.0965404E2,-2.3530195E-3,3.5473946E-2,2.8003767E-1,8.9718795E-1,1.7211272E0,1.2773628E1,7.852237E0,-1.0092134E0],"categories":[],"categories_nodes":[],"categories_segments":[],"categories_sizes":[],"default_left":[0,0,0,0,0,0,0,0,0,0,0,0,0,0,0],"id":33,"left_children":[1,3,5,7,9,11,13,-1,-1,-1,-1,-1,-1,-1,-1],"loss_changes":[2.212348E6,6.557708E5,8.30324E5,3.4311588E5,2.3911619E5,5.4472144E5,6.486135E5,0E0,0E0,0E0,0E0,0E0,0E0,0E0,0E0],"parents":[2147483647,0,0,1,1,2,2,3,3,4,4,5,5,6,6],"right_children":[2,4,6,8,10,12,14,-1,-1,-1,-1,-1,-1,-1,-1],"split_conditions":[1.49E2,2.3E1,3.79E2,2E0,7.1E1,3.2E1,2.5E1,-2.3530195E-3,3.5473946E-2,2.8003767E-1,8.9718795E-1,1.7211272E0,1.2773628E1,7.852237E0,-1.0092134E0],"split_indices":[17,17,18,17,4,0,0,0,0,0,0,0,0,0,0],"split_type":[0,0,0,0,0,0,0,0,0,0,0,0,0,0,0],"sum_hessian":[4.626819E6,4.626583E6,2.36E2,4.622673E6,3.91E3,1.85E2,5.1E1,4.395716E6,2.26957E5,3.225E3,6.85E2,1.81E2,4E0,4.2E1,9E0],"tree_param":{"num_deleted":"0","num_feature":"23","num_nodes":"15","size_leaf_vector":"1"}},{"base_weights":[-2.4205567E-4,-3.9940416E-3,1.1647374E2,-1.3106665E-2,1.7988825E1,7.8591127E0,1.4497488E2,-1.4627863E-3,6.706773E-2,3.2481924E-1,1.1706681E0,-5.894397E-1,1.535978E0,5.346844E0,1.540713E0],"categories":[],"categories_nodes":[],"categories_segments":[],"categories_sizes":[],"default_left":[0,0,0,0,0,0,0,0,0,0,0,0,0,0,0],"id":34,"left_children":[1,3,5,7,9,11,13,-1,-1,-1,-1,-1,-1,-1,-1],"loss_changes":[2.0228892E6,7.5894556E5,4.6146162E5,3.7091447E5,3.5290012E5,3.7193895E4,3.666945E5,0E0,0E0,0E0,0E0,0E0,0E0,0E0,0E0],"parents":[2147483647,0,0,1,1,2,2,3,3,4,4,5,5,6,6],"right_children":[2,4,6,8,10,12,14,-1,-1,-1,-1,-1,-1,-1,-1],"split_conditions":[2.03E2,3.2E1,4.0820312E0,4E0,7.1E1,6.738281E-1,2.4E1,-1.4627863E-3,6.706773E-2,3.2481924E-1,1.1706681E0,-5.894397E-1,1.535978E0,5.346844E0,1.540713E0],"split_indices":[17,17,15,17,4,8,0,0,0,0,0,0,0,0,0],"split_type":[0,0,0,0,0,0,0,0,0,0,0,0,0,0,0],"sum_hessian":[4.628944E6,4.628795E6,1.49E2,4.626452E6,2.343E3,3.1E1,1.18E2,4.554245E6,7.2207E4,1.748E3,5.95E2,1.9E1,1.2E1,8.7E1,3.1E1],"tree_param":{"num_deleted":"0","num_feature":"23","num_nodes":"15","size_leaf_vector":"1"}},{"base_weights":[2.5459433E-3,-1.0337945E-3,1.7414487E2,-8.837231E-3,2.454989E1,2.226272E2,3.8021496E1,-1.1805273E-3,8.19082E-2,3.8073888E-1,1.3901066E0,6.1031156E0,1.8878666E1,2.2028644E0,-4.347501E0],"categories":[],"categories_nodes":[],"categories_segments":[],"categories_sizes":[],"default_left":[0,0,0,0,0,0,0,0,0,0,0,0,0,0,0],"id":35,"left_children":[1,3,5,7,9,11,13,-1,-1,-1,-1,-1,-1,-1,-1],"loss_changes":[2.8842545E6,8.8638594E5,6.26759E5,3.865763E5,3.797583E5,5.3331375E5,1.6377848E5,0E0,0E0,0E0,0E0,0E0,0E0,0E0,0E0],"parents":[2147483647,0,0,1,1,2,2,3,3,4,4,5,5,6,6],"right_children":[2,4,6,8,10,12,14,-1,-1,-1,-1,-1,-1,-1,-1],"split_conditions":[2.99E2,4.4E1,2.4E1,5E0,7E0,1.4492188E0,7.76E2,-1.1805273E-3,8.19082E-2,3.8073888E-1,1.3901066E0,6.1031156E0,1.8878666E1,2.2028644E0,-4.347501E0],"split_indices":[17,17,0,17,16,8,18,0,0,0,0,0,0,0,0],"split_type":[0,0,0,0,0,0,0,0,0,0,0,0,0,0,0],"sum_hessian":[4.626771E6,4.626676E6,9.5E1,4.625206E6,1.47E3,7E1,2.5E1,4.574249E6,5.0957E4,9.52E2,5.18E2,6.7E1,3E0,2.1E1,4E0],"tree_param":{"num_deleted":"0","num_feature":"23","num_nodes":"15","size_leaf_vector":"1"}},{"base_weights":[3.8608507E-4,-5.0990204E-3,9.8696236E1,-2.0772088E-2,7.8262725E0,6.0455467E1,1.7590305E2,-2.5657592E-3,2.605376E-2,1.7555241E-1,6.659404E-1,1.5642374E0,2.1851017E1,4.6939464E0,1.4311526E1],"categories":[],"categories_nodes":[],"categories_segments":[],"categories_sizes":[],"default_left":[0,0,0,0,0,0,0,0,0,0,0,0,0,0,0],"id":36,"left_children":[1,3,5,7,9,11,13,-1,-1,-1,-1,-1,-1,-1,-1],"loss_changes":[2.5045925E6,5.6783344E5,7.5795125E5,2.6585003E5,2.621958E5,9.516504E5,4.9015675E5,0E0,0E0,0E0,0E0,0E0,0E0,0E0,0E0],"parents":[2147483647,0,0,1,1,2,2,3,3,4,4,5,5,6,6],"right_children":[2,4,6,8,10,12,14,-1,-1,-1,-1,-1,-1,-1,-1],"split_conditions":[1.48E2,1.4E1,2.26E2,8.598633E-1,7E0,3.2E1,7.99E2,-2.5657592E-3,2.605376E-2,1.7555241E-1,6.659404E-1,1.5642374E0,2.1851017E1,4.6939464E0,1.4311526E1],"split_indices":[17,17,18,5,16,0,17,0,0,0,0,0,0,0,0],"split_type":[0,0,0,0,0,0,0,0,0,0,0,0,0,0,0],"sum_hessian":[4.626507E6,4.62625E6,2.57E2,4.61701E6,9.24E3,1.72E2,8.5E1,4.303623E6,3.13387E5,8.124E3,1.116E3,1.7E2,2E0,8E1,5E0],"tree_param":{"num_deleted":"0","num_feature":"23","num_nodes":"15","size_leaf_vector":"1"}},{"base_weights":[-2.1925622E-5,-5.571918E-3,6.065441E1,-6.579795E-2,1.3361782E0,1.58055105E1,8.235654E1,-3.443534E-3,7.7238954E-3,3.612779E-2,3.3685005E-1,4.193101E-1,7.217475E0,9.889846E0,2.252662E0],"categories":[],"categories_nodes":[],"categories_segments":[],"categories_sizes":[],"default_left":[0,0,0,0,0,0,0,0,0,0,0,0,0,0,0],"id":37,"left_children":[1,3,5,7,9,11,13,-1,-1,-1,-1,-1,-1,-1,-1],"loss_changes":[1.556739E6,3.7366034E5,4.1167762E5,7.007809E4,2.592141E5,5.6400812E4,5.0977488E5,0E0,0E0,0E0,0E0,0E0,0E0,0E0,0E0],"parents":[2147483647,0,0,1,1,2,2,3,3,4,4,5,5,6,6],"right_children":[2,4,6,8,10,12,14,-1,-1,-1,-1,-1,-1,-1,-1],"split_conditions":[1.06E2,1.3261719E0,7E0,4.7802734E-1,7E0,1.066E3,1.5751953E0,-3.443534E-3,7.7238954E-3,3.612779E-2,3.3685005E-1,4.193101E-1,7.217475E0,9.889846E0,2.252662E0],"split_indices":[19,5,14,14,14,19,13,0,0,0,0,0,0,0,0],"split_type":[0,0,0,0,0,0,0,0,0,0,0,0,0,0,0],"sum_hessian":[4.624458E6,4.624035E6,4.23E2,4.425396E6,1.98639E5,1.38E2,2.85E2,3.843029E6,5.82367E5,1.96025E5,2.614E3,1.37E2,1E0,8E0,2.77E2],"tree_param":{"num_deleted":"0","num_feature":"23","num_nodes":"15","size_leaf_vector":"1"}},{"base_weights":[-7.67776E-4,-5.4977774E-3,8.194301E1,-1.3900325E-2,1.40427885E1,7.3774605E1,4.2969775E2,-2.1456452E-3,3.2999422E-2,2.5518385E-1,8.04005E-1,2.0642195E0,1.1482357E1,-4.183005E-1,1.55054455E1],"categories":[],"categories_nodes":[],"categories_segments":[],"categories_sizes":[],"default_left":[0,0,0,0,0,0,0,0,0,0,0,0,0,0,0],"id":38,"left_children":[1,3,5,7,9,11,13,-1,-1,-1,-1,-1,-1,-1,-1],"loss_changes":[1.7936739E6,5.4622994E5,7.5533025E5,2.9682638E5,1.9535469E5,3.9789588E5,2.3692412E5,0E0,0E0,0E0,0E0,0E0,0E0,0E0,0E0],"parents":[2147483647,0,0,1,1,2,2,3,3,4,4,5,5,6,6],"right_children":[2,4,6,8,10,12,14,-1,-1,-1,-1,-1,-1,-1,-1],"split_conditions":[1.45E2,2.8E1,1.3369141E0,2E0,7E0,3.2E1,2.6E1,-2.1456452E-3,3.2999422E-2,2.5518385E-1,8.04005E-1,2.0642195E0,1.1482357E1,-4.183005E-1,1.55054455E1],"split_indices":[17,17,10,17,14,0,2,0,0,0,0,0,0,0,0],"split_type":[0,0,0,0,0,0,0,0,0,0,0,0,0,0,0],"sum_hessian":[4.627711E6,4.627444E6,2.67E2,4.624678E6,2.766E3,2.61E2,6E0,4.39721E6,2.27468E5,1.929E3,8.37E2,2.57E2,4E0,1E0,5E0],"tree_param":{"num_deleted":"0","num_feature":"23","num_nodes":"15","size_leaf_vector":"1"}},{"base_weights":[-1.6022904E-4,-2.333053E-3,1.287089E2,-1.2339506E-2,1.0400735E1,1.17988625E2,5.0921973E2,-1.504747E-3,4.335644E-2,1.8396862E-1,1.0210706E0,2.0774317E0,4.991876E0,1.0905864E1,1.8161234E1],"categories":[],"categories_nodes":[],"categories_segments":[],"categories_sizes":[],"default_left":[0,0,0,0,0,0,0,0,0,0,0,0,0,0,0],"id":39,"left_children":[1,3,5,7,9,11,13,-1,-1,-1,-1,-1,-1,-1,-1],"loss_changes":[1.2939566E6,4.816376E5,3.1214112E5,2.5479614E5,4.4852112E5,1.7832788E5,5.812125E3,0E0,0E0,0E0,0E0,0E0,0E0,0E0,0E0],"parents":[2147483647,0,0,1,1,2,2,3,3,4,4,5,5,6,6],"right_children":[2,4,6,8,10,12,14,-1,-1,-1,-1,-1,-1,-1,-1],"split_conditions":[2.83E2,7E0,1.4492188E0,3E0,2.0193E4,7.265625E-1,1.3E1,-1.504747E-3,4.335644E-2,1.8396862E-1,1.0210706E0,2.0774317E0,4.991876E0,1.0905864E1,1.8161234E1],"split_indices":[18,14,8,18,3,8,0,0,0,0,0,0,0,0,0],"split_type":[0,0,0,0,0,0,0,0,0,0,0,0,0,0,0],"sum_hessian":[4.626857E6,4.626779E6,7.8E1,4.622333E6,4.446E3,7.6E1,2E0,4.505432E6,1.16901E5,3.766E3,6.8E2,3.8E1,3.8E1,1E0,1E0],"tree_param":{"num_deleted":"0","num_feature":"23","num_nodes":"15","size_leaf_vector":"1"}},{"base_weights":[1.1007675E-4,-3.8010173E-3,8.530123E1,-1.1942421E-2,1.3880083E1,6.5396675E1,1.8545174E2,-2.0144691E-3,3.162006E-2,2.621507E-1,9.8175037E-1,5.2326185E-1,2.4662256E0,4.528654E0,1.0397406E1],"categories":[],"categories_nodes":[],"categories_segments":[],"categories_sizes":[],"default_left":[0,0,0,0,0,0,0,0,0,0,0,0,0,0,0],"id":40,"left_children":[1,3,5,7,9,11,13,-1,-1,-1,-1,-1,-1,-1,-1],"loss_changes":[1.5434268E6,5.229057E5,4.2151962E5,2.7207194E5,2.6266322E5,1.4262231E5,1.8950438E5,0E0,0E0,0E0,0E0,0E0,0E0,0E0,0E0],"parents":[2147483647,0,0,1,1,2,2,3,3,4,4,5,5,6,6],"right_children":[2,4,6,8,10,12,14,-1,-1,-1,-1,-1,-1,-1,-1],"split_conditions":[1.59E2,2.9E1,4.53E2,2E0,7.1E1,1.1369E4,1.1E1,-2.0144691E-3,3.162006E-2,2.621507E-1,9.8175037E-1,5.2326185E-1,2.4662256E0,4.528654E0,1.0397406E1],"split_indices":[19,17,17,17,4,3,1,0,0,0,0,0,0,0,0],"split_type":[0,0,0,0,0,0,0,0,0,0,0,0,0,0,0],"sum_hessian":[4.626291E6,4.626079E6,2.12E2,4.623368E6,2.711E3,1.77E2,3.5E1,4.395709E6,2.27659E5,2.13E3,5.81E2,4.6E1,1.31E2,2.9E1,6E0],"tree_param":{"num_deleted":"0","num_feature":"23","num_nodes":"15","size_leaf_vector":"1"}},{"base_weights":[4.6777533E-4,-2.2596358E-3,1.8250638E2,-6.272576E-3,4.050242E1,1.427429E2,3.5121347E2,-7.5924146E-4,1.3677602E-1,5.047283E-1,1.6788557E0,8.505037E0,3.1126626E0,8.997605E0,1.8107082E1],"categories":[],"categories_nodes":[],"categories_segments":[],"categories_sizes":[],"default_left":[0,0,0,0,0,0,0,0,0,0,0,0,0,0,0],"id":41,"left_children":[1,3,5,7,9,11,13,-1,-1,-1,-1,-1,-1,-1,-1],"loss_changes":[2.3019038E6,7.5165925E5,4.58199E5,4.0184597E5,1.6758919E5,3.0473925E5,1.5016162E5,0E0,0E0,0E0,0E0,0E0,0E0,0E0,0E0],"parents":[2147483647,0,0,1,1,2,2,3,3,4,4,5,5,6,6],"right_children":[2,4,6,8,10,12,14,-1,-1,-1,-1,-1,-1,-1,-1],"split_conditions":[3.41E2,9.2E1,1.1E1,9E0,5.7E1,9E0,1.046875E0,-7.5924146E-4,1.3677602E-1,5.047283E-1,1.6788557E0,8.505037E0,3.1126626E0,8.997605E0,1.8107082E1],"split_indices":[17,17,1,17,18,0,8,0,0,0,0,0,0,0,0],"split_type":[0,0,0,0,0,0,0,0,0,0,0,0,0,0,0],"sum_hessian":[4.624445E6,4.624376E6,6.9E1,4.623918E6,4.58E2,5.6E1,1.3E1,4.604719E6,1.9199E4,1.81E2,2.77E2,1.2E1,4.4E1,1.1E1,2E0],"tree_param":{"num_deleted":"0","num_feature":"23","num_nodes":"15","size_leaf_vector":"1"}},{"base_weights":[3.6568934E-4,-2.6052524E-3,1.7607732E2,-1.4823759E-2,1.0174399E1,1.1588282E2,3.1039154E2,-2.1303995E-3,2.664468E-2,5.0187244E0,2.872352E-1,-1.3060073E0,4.56395E0,6.3928404E0,1.328649E1],"categories":[],"categories_nodes":[],"categories_segments":[],"categories_sizes":[],"default_left":[0,0,0,0,0,0,0,0,0,0,0,0,0,0,0],"id":42,"left_children":[1,3,5,7,9,11,13,-1,-1,-1,-1,-1,-1,-1,-1],"loss_changes":[2.4216232E6,5.756264E5,6.2762325E5,2.3459306E5,5.2303606E5,3.1338406E5,3.0060325E5,0E0,0E0,0E0,0E0,0E0,0E0,0E0,0E0],"parents":[2147483647,0,0,1,1,2,2,3,3,4,4,5,5,6,6],"right_children":[2,4,6,8,10,12,14,-1,-1,-1,-1,-1,-1,-1,-1],"split_conditions":[3.41E2,1.9E1,9.711914E-1,1E0,4.5654297E-1,3.3862305E-1,7.51E2,-2.1303995E-3,2.664468E-2,5.0187244E0,2.872352E-1,-1.3060073E0,4.56395E0,6.3928404E0,1.328649E1],"split_indices":[17,17,10,5,5,9,17,0,0,0,0,0,0,0,0],"split_type":[0,0,0,0,0,0,0,0,0,0,0,0,0,0,0],"sum_hessian":[4.629242E6,4.629164E6,7.8E1,4.623613E6,5.551E3,5.4E1,2.4E1,4.352755E6,2.70858E5,2.1E1,5.53E3,1E1,4.4E1,1.4E1,1E1],"tree_param":{"num_deleted":"0","num_feature":"23","num_nodes":"15","size_leaf_vector":"1"}},{"base_weights":[1.0313495E-3,-2.388932E-3,9.197124E1,-1.14080645E-2,9.498456E0,8.28877E1,3.872117E2,-2.0495248E-3,2.6856653E-2,8.867708E-2,6.097983E-1,2.3893409E0,1.6833302E1,1.4442846E0,1.4054767E1],"categories":[],"categories_nodes":[],"categories_segments":[],"categories_sizes":[],"default_left":[0,0,0,0,0,0,0,0,0,0,0,0,0,0,0],"id":43,"left_children":[1,3,5,7,9,11,13,-1,-1,-1,-1,-1,-1,-1,-1],"loss_changes":[1.455831E6,3.965635E5,4.5810462E5,2.3855472E5,3.1093453E5,2.54348E5,1.3833788E5,0E0,0E0,0E0,0E0,0E0,0E0,0E0,0E0],"parents":[2147483647,0,0,1,1,2,2,3,3,4,4,5,5,6,6],"right_children":[2,4,6,8,10,12,14,-1,-1,-1,-1,-1,-1,-1,-1],"split_conditions":[1.95E2,7E0,1.4492188E0,1E0,9.158E3,2.0214844E-1,3.74E3,-2.0495248E-3,2.6856653E-2,8.867708E-2,6.097983E-1,2.3893409E0,1.6833302E1,1.4442846E0,1.4054767E1],"split_indices":[18,14,8,5,3,21,3,0,0,0,0,0,0,0,0],"split_type":[0,0,0,0,0,0,0,0,0,0,0,0,0,0,0],"sum_hessian":[4.628091E6,4.627919E6,1.72E2,4.62353E6,4.389E3,1.67E2,5E0,4.350451E6,2.73079E5,2.736E3,1.653E3,1.66E2,1E0,1E0,4E0],"tree_param":{"num_deleted":"0","num_feature":"23","num_nodes":"15","size_leaf_vector":"1"}},{"base_weights":[-1.3911001E-3,-3.7060897E-3,1.1136959E2,-7.959027E-3,2.2058887E1,8.3132965E1,2.1127542E2,-1.1607814E-3,5.5627566E-2,9.681817E-2,1.008632E0,1.0457858E1,2.3713186E0,8.317459E0,-2.0708559E0],"categories":[],"categories_nodes":[],"categories_segments":[],"categories_sizes":[],"default_left":[0,0,0,0,0,0,0,0,0,0,0,0,0,0,0],"id":44,"left_children":[1,3,5,7,9,11,13,-1,-1,-1,-1,-1,-1,-1,-1],"loss_changes":[1.1920969E6,4.338374E5,2.692275E5,2.6457047E5,1.9401319E5,7.855853E4,3.9239888E5,0E0,0E0,0E0,0E0,0E0,0E0,0E0,0E0],"parents":[2147483647,0,0,1,1,2,2,3,3,4,4,5,5,6,6],"right_children":[2,4,6,8,10,12,14,-1,-1,-1,-1,-1,-1,-1,-1],"split_conditions":[2.54E2,6E1,6.25E2,4E0,9.1308594E-1,1.9226074E-2,2.4E1,-1.1607814E-3,5.5627566E-2,9.681817E-2,1.008632E0,1.0457858E1,2.3713186E0,8.317459E0,-2.0708559E0],"split_indices":[19,18,18,18,7,5,0,0,0,0,0,0,0,0,0],"split_type":[0,0,0,0,0,0,0,0,0,0,0,0,0,0,0],"sum_hessian":[4.623709E6,4.623613E6,9.6E1,4.622722E6,8.91E2,7.5E1,2.1E1,4.547668E6,7.5054E4,3.39E2,5.52E2,1E0,7.4E1,1.7E1,4E0],"tree_param":{"num_deleted":"0","num_feature":"23","num_nodes":"15","size_leaf_vector":"1"}},{"base_weights":[-4.6200975E-4,-3.0004855E-3,1.11729E2,-7.3780264E-3,1.8690315E1,8.488032E1,2.595078E2,-1.6819199E-3,3.2374643E-2,1.6612834E-1,1.0810264E0,9.0735035E0,2.3076499E0,8.658852E0,-4.886575E0],"categories":[],"categories_nodes":[],"categories_segments":[],"categories_sizes":[],"default_left":[0,0,0,0,0,0,0,0,0,0,0,0,0,0,0],"id":45,"left_children":[1,3,5,7,9,11,13,-1,-1,-1,-1,-1,-1,-1,-1],"loss_changes":[1.3121396E6,3.7856988E5,4.1465875E5,2.4466648E5,2.4705606E5,1.5178862E5,2.0319725E5,0E0,0E0,0E0,0E0,0E0,0E0,0E0,0E0],"parents":[2147483647,0,0,1,1,2,2,3,3,4,4,5,5,6,6],"right_children":[2,4,6,8,10,12,14,-1,-1,-1,-1,-1,-1,-1,-1],"split_conditions":[2.33E2,5.3E1,1.1269531E0,1.3261719E0,4.09375E0,1.0913086E-1,1.8574219E0,-1.6819199E-3,3.2374643E-2,1.6612834E-1,1.0810264E0,9.0735035E0,2.3076499E0,8.658852E0,-4.886575E0],"split_indices":[19,18,8,5,16,11,9,0,0,0,0,0,0,0,0],"split_type":[0,0,0,0,0,0,0,0,0,0,0,0,0,0,0],"sum_hessian":[4.626359E6,4.626254E6,1.05E2,4.625171E6,1.083E3,8.9E1,1.6E1,4.426812E6,1.98359E5,6.16E2,4.67E2,3E0,8.6E1,1.5E1,1E0],"tree_param":{"num_deleted":"0","num_feature":"23","num_nodes":"15","size_leaf_vector":"1"}},{"base_weights":[-1.4210886E-3,-3.8374958E-3,1.226285E2,-9.832745E-3,1.6637575E1,1.6111893E2,1.7116249E0,-1.3888496E-3,4.1921914E-2,1.2905345E1,4.833717E-1,7.161615E-1,5.4487867E0,7.230095E-1,-6.3588305E0],"categories":[],"categories_nodes":[],"categories_segments":[],"categories_sizes":[],"default_left":[0,0,0,0,0,0,0,0,0,0,0,0,0,0,0],"id":46,"left_children":[1,3,5,7,9,11,13,-1,-1,-1,-1,-1,-1,-1,-1],"loss_changes":[1.3701144E6,4.612954E5,4.2399862E5,2.371558E5,3.608894E5,1.9404112E5,1.0631072E5,0E0,0E0,0E0,0E0,0E0,0E0,0E0,0E0],"parents":[2147483647,0,0,1,1,2,2,3,3,4,4,5,5,6,6],"right_children":[2,4,6,8,10,12,14,-1,-1,-1,-1,-1,-1,-1,-1],"split_conditions":[3.02E2,3.9E1,2.4E1,3E0,7.7978516E-1,3.0395508E-1,1.1269531E0,-1.3888496E-3,4.1921914E-2,1.2905345E1,4.833717E-1,7.161615E-1,5.4487867E0,7.230095E-1,-6.3588305E0],"split_indices":[17,17,0,17,5,9,9,0,0,0,0,0,0,0,0],"split_type":[0,0,0,0,0,0,0,0,0,0,0,0,0,0,0],"sum_hessian":[4.623706E6,4.623615E6,9.1E1,4.62195E6,1.665E3,6.9E1,2.2E1,4.505217E6,1.16733E5,2E0,1.663E3,9E0,6E1,2E1,2E0],"tree_param":{"num_deleted":"0","num_feature":"23","num_nodes":"15","size_leaf_vector":"1"}},{"base_weights":[5.3724134E-4,-2.268742E-3,1.5252701E2,-1.0240878E-2,1.3322975E1,1.2342927E2,3.9387363E2,-1.7682738E-3,2.7945109E-2,1.9262154E-1,7.170669E-1,5.9423375E0,2.1496286E0,5.423788E0,1.3532693E1],"categories":[],"categories_nodes":[],"categories_segments":[],"categories_sizes":[],"default_left":[0,0,0,0,0,0,0,0,0,0,0,0,0,0,0],"id":47,"left_children":[1,3,5,7,9,11,13,-1,-1,-1,-1,-1,-1,-1,-1],"loss_changes":[1.980011E6,4.9144984E5,5.924421E5,2.1205364E5,2.0196666E5,2.92622E5,1.022505E5,0E0,0E0,0E0,0E0,0E0,0E0,0E0,0E0],"parents":[2147483647,0,0,1,1,2,2,3,3,4,4,5,5,6,6],"right_children":[2,4,6,8,10,12,14,-1,-1,-1,-1,-1,-1,-1,-1],"split_conditions":[2.92E2,2.9E1,1.2E1,2E0,4E0,1.5E1,0E0,-1.7682738E-3,2.7945109E-2,1.9262154E-1,7.170669E-1,5.9423375E0,2.1496286E0,5.423788E0,1.3532693E1],"split_indices":[17,17,1,17,19,0,20,0,0,0,0,0,0,0,0],"split_type":[0,0,0,0,0,0,0,0,0,0,0,0,0,0,0],"sum_hessian":[4.626337E6,4.626252E6,8.5E1,4.623486E6,2.766E3,7.6E1,9E0,4.396143E6,2.27343E5,1.674E3,1.092E3,3.1E1,4.5E1,2E0,7E0],"tree_param":{"num_deleted":"0","num_feature":"23","num_nodes":"15","size_leaf_vector":"1"}},{"base_weights":[1.8847854E-3,-2.4817474E-3,7.5378716E1,-1.5058564E-2,6.3255873E0,5.410229E1,1.7769415E2,-4.6302762E-4,7.323872E0,1.4596054E-1,5.3408426E-1,5.4791527E0,1.3409368E0,3.6247623E0,1.0671375E1],"categories":[],"categories_nodes":[],"categories_segments":[],"categories_sizes":[],"default_left":[0,0,0,0,0,0,0,0,0,0,0,0,0,0,0],"id":48,"left_children":[1,3,5,7,9,11,13,-1,-1,-1,-1,-1,-1,-1,-1],"loss_changes":[1.523387E6,3.6834303E5,5.826096E5,4.2366847E5,1.5384425E5,2.676052E5,4.6214875E5,0E0,0E0,0E0,0E0,0E0,0E0,0E0,0E0],"parents":[2147483647,0,0,1,1,2,2,3,3,4,4,5,5,6,6],"right_children":[2,4,6,8,10,12,14,-1,-1,-1,-1,-1,-1,-1,-1],"split_conditions":[1.44E2,1.4E1,4.2E2,3.35E2,7.1E1,4.8671875E0,1E1,-4.6302762E-4,7.323872E0,1.4596054E-1,5.3408426E-1,5.4791527E0,1.3409368E0,3.6247623E0,1.0671375E1],"split_indices":[17,17,17,19,4,5,1,0,0,0,0,0,0,0,0],"split_type":[0,0,0,0,0,0,0,0,0,0,0,0,0,0,0],"sum_hessian":[4.628451E6,4.628183E6,2.68E2,4.619003E6,9.18E3,2.22E2,4.6E1,4.618996E6,7E0,8.144E3,1.036E3,1.5E1,2.07E2,3.5E1,1.1E1],"tree_param":{"num_deleted":"0","num_feature":"23","num_nodes":"15","size_leaf_vector":"1"}},{"base_weights":[2.1813752E-4,-4.182375E-3,5.484371E1,-2.9331218E-2,2.178807E0,4.7757393E1,2.3379974E2,-2.4337799E-3,1.4157943E-2,5.4549314E-2,3.1490237E-1,1.1428759E1,1.3445574E0,1.0168698E0,8.623838E0],"categories":[],"categories_nodes":[],"categories_segments":[],"categories_sizes":[],"default_left":[0,0,0,0,0,0,0,0,0,0,0,0,0,0,0],"id":49,"left_children":[1,3,5,7,9,11,13,-1,-1,-1,-1,-1,-1,-1,-1],"loss_changes":[1.1163108E6,2.5391683E5,4.69413E5,1.18713086E5,1.5795181E5,3.478457E5,1.5028625E5,0E0,0E0,0E0,0E0,0E0,0E0,0E0,0E0],"parents":[2147483647,0,0,1,1,2,2,3,3,4,4,5,5,6,6],"right_children":[2,4,6,8,10,12,14,-1,-1,-1,-1,-1,-1,-1,-1],"split_conditions":[1.17E2,5E0,7.62E2,6.0009766E-1,7E0,2.578125E0,7.524414E-1,-2.4337799E-3,1.4157943E-2,5.4549314E-2,3.1490237E-1,1.1428759E1,1.3445574E0,1.0168698E0,8.623838E0],"split_indices":[19,18,18,5,14,7,10,0,0,0,0,0,0,0,0],"split_type":[0,0,0,0,0,0,0,0,0,0,0,0,0,0,0],"sum_hessian":[4.625479E6,4.625108E6,3.71E2,4.572432E6,5.2676E4,3.57E2,1.4E1,4.144216E6,4.28216E5,5.0488E4,2.188E3,3E0,3.54E2,3E0,1.1E1],"tree_param":{"num_deleted":"0","num_feature":"23","num_nodes":"15","size_leaf_vector":"1"}}]},"name":"gbtree"},"learner_model_param":{"base_score":"3.3432078E-1","boost_from_average":"1","num_class":"0","num_feature":"23","num_target":"1"},"objective":{"name":"reg:squarederror","reg_loss_param":{"scale_pos_weight":"1"}}},"version":[2,1,1]}