{"learner":{"attributes":{"best_iteration":"14","best_score":"1.9543567586891541","scikit_learn":"{\"_estimator_type\": \"regressor\"}"},"feature_names":["date_block_num","month","shop_id","item_id","item_category_id","cnt_item_id_by_month_lag_1","cnt_item_id_by_month_lag_2","cnt_item_id_by_month_lag_3","cnt_shop_id_by_month_lag_1","cnt_shop_id_by_month_lag_2","cnt_shop_id_by_month_lag_3","cnt_item_category_by_month_lag_1","cnt_item_category_by_month_lag_2","cnt_item_category_by_month_lag_3","cnt_item_category_by_shop_id_month_lag_1","cnt_item_category_by_shop_id_month_lag_2","cnt_item_category_by_shop_id_month_lag_3","cnt_item_id_by_shop_id_month_lag_1","cnt_item_id_by_shop_id_month_lag_2","cnt_item_id_by_shop_id_month_lag_3","z_item_price_mean_lag_1","z_item_price_mean_lag_2","z_item_price_mean_lag_3"],"feature_types":["int","int","int","int","int","float","float","float","float","float","float","float","float","float","float","float","float","float","float","float","float","float","float"],"gradient_booster":{"model":{"gbtree_model_param":{"num_parallel_tree":"1","num_trees":"55"},"iteration_indptr":[0,1,2,3,4,5,6,7,8,9,10,11,12,13,14,15,16,17,18,19,20,21,22,23,24,25,26,27,28,29,30,31,32,33,34,35,36,37,38,39,40,41,42,43,44,45,46,47,48,49,50,51,52,53,54,55],"tree_info":[0,0,0,0,0,0,0,0,0,0,0,0,0,0,0,0,0,0,0,0,0,0,0,0,0,0,0,0,0,0,0,0,0,0,0,0,0,0,0,0,0,0,0,0,0,0,0,0,0,0,0,0,0,0,0],"trees":[{"base_weights":[-1.4273918E-3,-3.1144427E-2,5.3176617E1,-8.7596945E-2,5.1490345E0,2.5582365E1,1.3158466E2,-1.3737097E-2,1.1385427E-1,4.107305E-1,1.0539725E0,9.399316E0,2.213824E0,9.786455E0,3.5891663E1],"categories":[],"categories_nodes":[],"categories_segments":[],"categories_sizes":[],"default_left":[0,0,0,0,0,0,0,0,0,0,0,0,0,0,0],"id":0,"left_children":[1,3,5,7,9,11,13,-1,-1,-1,-1,-1,-1,-1,-1],"loss_changes":[1.0506792E7,1.9432019E6,8.029733E6,4.0116725E5,4.02215E5,6.447925E5,7.361007E6,0E0,0E0,0E0,0E0,0E0,0E0,0E0,0E0],"parents":[2147483647,0,0,1,1,2,2,3,3,4,4,5,5,6,6],"right_children":[2,4,6,8,10,12,14,-1,-1,-1,-1,-1,-1,-1,-1],"split_conditions":[3.1E1,5E0,7.1E1,2E0,1.3E1,1.1E1,7.265625E-1,-1.3737097E-2,1.1385427E-1,4.107305E-1,1.0539725E0,9.399316E0,2.213824E0,9.786455E0,3.5891663E1],"split_indices":[17,17,4,17,17,4,8,0,0,0,0,0,0,0,0],"split_type":[0,0,0,0,0,0,0,0,0,0,0,0,0,0,0],"sum_hessian":[6.64863E6,6.644918E6,3.712E3,6.573285E6,7.1633E4,2.747E3,9.65E2,6.316859E6,2.56426E5,6.0034E4,1.1599E4,1.3E2,2.617E3,8.42E2,1.23E2],"tree_param":{"num_deleted":"0","num_feature":"23","num_nodes":"15","size_leaf_vector":"1"}},{"base_weights":[4.5973766E-6,-2.2844251E-2,4.2416527E1,-8.112786E-2,3.1164048E0,1.6271927E1,1.2698051E2,-1.11167645E-2,1.4993145E-1,2.7155766E-1,1.2001076E0,1.0604146E0,4.455996E0,8.180854E0,2.977558E1],"categories":[],"categories_nodes":[],"categories_segments":[],"categories_sizes":[],"default_left":[0,0,0,0,0,0,0,0,0,0,0,0,0,0,0],"id":1,"left_children":[1,3,5,7,9,11,13,-1,-1,-1,-1,-1,-1,-1,-1],"loss_changes":[6.44505E6,1.216089E6,7.9129735E6,3.0979884E5,4.3140075E5,4.380903E5,6.4888E6,0E0,0E0,0E0,0E0,0E0,0E0,0E0,0E0],"parents":[2147483647,0,0,1,1,2,2,3,3,4,4,5,5,6,6],"right_children":[2,4,6,8,10,12,14,-1,-1,-1,-1,-1,-1,-1,-1],"split_conditions":[3.2E1,2.4785156E0,2.0613E4,3E0,4.1445312E0,4.1640625E0,4.9389648E-1,-1.11167645E-2,1.4993145E-1,2.7155766E-1,1.2001076E0,1.0604146E0,4.455996E0,8.180854E0,2.977558E1],"split_indices":[18,5,3,18,14,16,10,0,0,0,0,0,0,0,0],"split_type":[0,0,0,0,0,0,0,0,0,0,0,0,0,0,0],"sum_hessian":[6.650078E6,6.646499E6,3.579E3,6.52535E6,1.21149E5,2.735E3,8.44E2,6.403636E6,1.21714E5,1.15921E5,5.228E3,2.28E3,4.55E2,6.69E2,1.75E2],"tree_param":{"num_deleted":"0","num_feature":"23","num_nodes":"15","size_leaf_vector":"1"}},{"base_weights":[-7.3793875E-5,-2.6272342E-2,4.6831432E1,-6.6755004E-2,5.1025105E0,2.3711527E1,1.2359939E2,-1.1545521E-2,1.05108336E-1,4.1882062E-1,9.9144614E-1,1.8746014E0,4.82536E0,7.814319E0,2.944408E1],"categories":[],"categories_nodes":[],"categories_segments":[],"categories_sizes":[],"default_left":[0,0,0,0,0,0,0,0,0,0,0,0,0,0,0],"id":2,"left_children":[1,3,5,7,9,11,13,-1,-1,-1,-1,-1,-1,-1,-1],"loss_changes":[8.1595535E6,1.3800398E6,6.595654E6,3.5900766E5,2.28958E5,3.47251E5,6.650645E6,0E0,0E0,0E0,0E0,0E0,0E0,0E0,0E0],"parents":[2147483647,0,0,1,1,2,2,3,3,4,4,5,5,6,6],"right_children":[2,4,6,8,10,12,14,-1,-1,-1,-1,-1,-1,-1,-1],"split_conditions":[3.1E1,6E0,2.0734E4,2E0,1.5E1,4.15625E0,4.9389648E-1,-1.1545521E-2,1.05108336E-1,4.1882062E-1,9.9144614E-1,1.8746014E0,4.82536E0,7.814319E0,2.944408E1],"split_indices":[17,17,3,17,17,15,9,0,0,0,0,0,0,0,0],"split_type":[0,0,0,0,0,0,0,0,0,0,0,0,0,0,0],"sum_hessian":[6.650447E6,6.64673E6,3.717E3,6.594678E6,5.2052E4,2.858E3,8.59E2,6.319367E6,2.75311E5,4.3743E4,8.309E3,2.379E3,4.79E2,6.8E2,1.79E2],"tree_param":{"num_deleted":"0","num_feature":"23","num_nodes":"15","size_leaf_vector":"1"}},{"base_weights":[-4.223312E-4,-2.3498677E-2,4.0674057E1,-7.585766E-2,3.2766047E0,2.1563866E1,1.04033936E2,-1.3156386E-2,4.8926678E-2,2.4143668E-1,6.857673E-1,8.530499E0,1.8312002E0,7.320427E0,2.9803263E1],"categories":[],"categories_nodes":[],"categories_segments":[],"categories_sizes":[],"default_left":[0,0,0,0,0,0,0,0,0,0,0,0,0,0,0],"id":3,"left_children":[1,3,5,7,9,11,13,-1,-1,-1,-1,-1,-1,-1,-1],"loss_changes":[6.241213E6,1.1482924E6,4.5622125E6,2.0594211E5,3.2045788E5,5.986894E5,5.194394E6,0E0,0E0,0E0,0E0,0E0,0E0,0E0,0E0],"parents":[2147483647,0,0,1,1,2,2,3,3,4,4,5,5,6,6],"right_children":[2,4,6,8,10,12,14,-1,-1,-1,-1,-1,-1,-1,-1],"split_conditions":[3.1E1,4E0,2.0734E4,5.9521484E-1,1E1,1.1E1,6.015625E-1,-1.3156386E-2,4.8926678E-2,2.4143668E-1,6.857673E-1,8.530499E0,1.8312002E0,7.320427E0,2.9803263E1],"split_indices":[17,17,3,5,17,4,10,0,0,0,0,0,0,0,0],"split_type":[0,0,0,0,0,0,0,0,0,0,0,0,0,0,0],"sum_hessian":[6.649359E6,6.64559E6,3.769E3,6.5418E6,1.0379E5,2.897E3,8.72E2,5.954815E6,5.86985E5,8.3651E4,2.0139E4,1.39E2,2.758E3,7.54E2,1.18E2],"tree_param":{"num_deleted":"0","num_feature":"23","num_nodes":"15","size_leaf_vector":"1"}},{"base_weights":[2.293495E-3,-1.9943235E-2,3.9435272E1,-6.742199E-2,2.9556239E0,2.0046808E1,1.0071592E2,-1.141535E-2,4.8829045E-2,2.2657876E-1,6.599782E-1,8.048212E0,1.6930348E0,6.4347186E0,2.4545727E1],"categories":[],"categories_nodes":[],"categories_segments":[],"categories_sizes":[],"default_left":[0,0,0,0,0,0,0,0,0,0,0,0,0,0,0],"id":4,"left_children":[1,3,5,7,9,11,13,-1,-1,-1,-1,-1,-1,-1,-1],"loss_changes":[5.8302245E6,9.3881294E5,4.449664E6,1.6986158E5,2.6234638E5,5.346615E5,4.71845E6,0E0,0E0,0E0,0E0,0E0,0E0,0E0,0E0],"parents":[2147483647,0,0,1,1,2,2,3,3,4,4,5,5,6,6],"right_children":[2,4,6,8,10,12,14,-1,-1,-1,-1,-1,-1,-1,-1],"split_conditions":[3.1E1,4E0,2.0734E4,6.738281E-1,1.1E1,1.1E1,5.029297E-1,-1.141535E-2,4.8829045E-2,2.2657876E-1,6.599782E-1,8.048212E0,1.6930348E0,6.4347186E0,2.4545727E1],"split_indices":[17,17,3,5,17,4,9,0,0,0,0,0,0,0,0],"split_type":[0,0,0,0,0,0,0,0,0,0,0,0,0,0,0],"sum_hessian":[6.648973E6,6.645227E6,3.746E3,6.540861E6,1.04366E5,2.847E3,8.99E2,6.033488E6,5.07373E5,8.7756E4,1.661E4,1.38E2,2.709E3,7.2E2,1.79E2],"tree_param":{"num_deleted":"0","num_feature":"23","num_nodes":"15","size_leaf_vector":"1"}},{"base_weights":[-3.7126886E-4,-1.9137548E-2,3.351739E1,-5.4314837E-2,3.2187603E0,1.6861774E1,8.77264E1,-1.1799306E-2,3.6957286E-2,2.6753232E-1,7.3126566E-1,1.2102337E0,4.158132E0,5.4028506E0,2.6651072E1],"categories":[],"categories_nodes":[],"categories_segments":[],"categories_sizes":[],"default_left":[0,0,0,0,0,0,0,0,0,0,0,0,0,0,0],"id":5,"left_children":[1,3,5,7,9,11,13,-1,-1,-1,-1,-1,-1,-1,-1],"loss_changes":[4.1830265E6,7.57042E5,3.3579678E6,1.7747755E5,1.5889712E5,3.3444238E5,5.248439E6,0E0,0E0,0E0,0E0,0E0,0E0,0E0,0E0],"parents":[2147483647,0,0,1,1,2,2,3,3,4,4,5,5,6,6],"right_children":[2,4,6,8,10,12,14,-1,-1,-1,-1,-1,-1,-1,-1],"split_conditions":[3.1E1,5E0,2.0734E4,1E0,1.5E1,3.0585938E0,5.136719E-1,-1.1799306E-2,3.6957286E-2,2.6753232E-1,7.3126566E-1,1.2102337E0,4.158132E0,5.4028506E0,2.6651072E1],"split_indices":[17,17,3,17,17,16,10,0,0,0,0,0,0,0,0],"split_type":[0,0,0,0,0,0,0,0,0,0,0,0,0,0,0],"sum_hessian":[6.650239E6,6.646519E6,3.72E3,6.575087E6,7.1432E4,2.847E3,8.73E2,5.716353E6,8.58734E5,6.3063E4,8.369E3,2.389E3,4.58E2,7.36E2,1.37E2],"tree_param":{"num_deleted":"0","num_feature":"23","num_nodes":"15","size_leaf_vector":"1"}},{"base_weights":[3.247031E-4,-1.6699381E-2,3.0659208E1,-4.135862E-2,4.0841765E0,1.5335932E1,8.134782E1,-6.71835E-3,1.2714593E-1,3.267905E-1,7.121954E-1,1.085713E0,3.8593452E0,5.528905E0,2.4815083E1],"categories":[],"categories_nodes":[],"categories_segments":[],"categories_sizes":[],"default_left":[0,0,0,0,0,0,0,0,0,0,0,0,0,0,0],"id":6,"left_children":[1,3,5,7,9,11,13,-1,-1,-1,-1,-1,-1,-1,-1],"loss_changes":[3.4707092E6,6.7206825E5,2.8646805E6,2.239734E5,9.8471625E4,2.947892E5,3.704003E6,0E0,0E0,0E0,0E0,0E0,0E0,0E0,0E0],"parents":[2147483647,0,0,1,1,2,2,3,3,4,4,5,5,6,6],"right_children":[2,4,6,8,10,12,14,-1,-1,-1,-1,-1,-1,-1,-1],"split_conditions":[3.1E1,7E0,2.0734E4,3E0,1.5E1,3.0585938E0,6.4697266E-1,-6.71835E-3,1.2714593E-1,3.267905E-1,7.121954E-1,1.085713E0,3.8593452E0,5.528905E0,2.4815083E1],"split_indices":[17,17,3,17,17,16,10,0,0,0,0,0,0,0,0],"split_type":[0,0,0,0,0,0,0,0,0,0,0,0,0,0,0],"sum_hessian":[6.649637E6,6.645948E6,3.689E3,6.606225E6,3.9723E4,2.834E3,8.55E2,6.47878E6,1.27445E5,3.1312E4,8.411E3,2.378E3,4.56E2,7.41E2,1.14E2],"tree_param":{"num_deleted":"0","num_feature":"23","num_nodes":"15","size_leaf_vector":"1"}},{"base_weights":[-4.595328E-4,-1.5628595E-2,2.7227673E1,-6.0644254E-2,1.7302305E0,1.1560509E1,6.905587E1,2.3360832E-2,-1.1026112E-2,1.273568E-1,4.342985E-1,6.3688273E0,8.820791E-1,4.5866995E0,2.413115E1],"categories":[],"categories_nodes":[],"categories_segments":[],"categories_sizes":[],"default_left":[0,0,0,0,0,0,0,0,0,0,0,0,0,0,0],"id":7,"left_children":[1,3,5,7,9,11,13,-1,-1,-1,-1,-1,-1,-1,-1],"loss_changes":[2.7455835E6,5.2214253E5,2.4245292E6,9.4560555E4,1.992474E5,3.8404712E5,4.0130115E6,0E0,0E0,0E0,0E0,0E0,0E0,0E0,0E0],"parents":[2147483647,0,0,1,1,2,2,3,3,4,4,5,5,6,6],"right_children":[2,4,6,8,10,12,14,-1,-1,-1,-1,-1,-1,-1,-1],"split_conditions":[3.1E1,3E0,7.1E1,3.1E1,9E0,1.1E1,7.495117E-1,2.3360832E-2,-1.1026112E-2,1.273568E-1,4.342985E-1,6.3688273E0,8.820791E-1,4.5866995E0,2.413115E1],"split_indices":[17,17,4,4,17,4,8,0,0,0,0,0,0,0,0],"split_type":[0,0,0,0,0,0,0,0,0,0,0,0,0,0,0],"sum_hessian":[6.647493E6,6.643793E6,3.7E3,6.476795E6,1.66998E5,2.693E3,1.007E3,9.34535E5,5.54226E6,1.42154E5,2.4844E4,1.33E2,2.56E3,8.89E2,1.18E2],"tree_param":{"num_deleted":"0","num_feature":"23","num_nodes":"15","size_leaf_vector":"1"}},{"base_weights":[5.893056E-4,-1.3723764E-2,2.5189224E1,-3.35568E-2,3.3005393E0,8.6853075E0,6.0598495E1,-6.913259E-3,7.047427E-2,2.8367257E-1,7.7855045E-1,1.0765969E0,-4.811014E0,2.640064E0,8.832436E0],"categories":[],"categories_nodes":[],"categories_segments":[],"categories_sizes":[],"default_left":[0,0,0,0,0,0,0,0,0,0,0,0,0,0,0],"id":8,"left_children":[1,3,5,7,9,11,13,-1,-1,-1,-1,-1,-1,-1,-1],"loss_changes":[2.3973155E6,4.3683503E5,2.2061555E6,1.7351512E5,8.220544E4,3.0525344E5,1.135018E6,0E0,0E0,0E0,0E0,0E0,0E0,0E0,0E0],"parents":[2147483647,0,0,1,1,2,2,3,3,4,4,5,5,6,6],"right_children":[2,4,6,8,10,12,14,-1,-1,-1,-1,-1,-1,-1,-1],"split_conditions":[3.1E1,7E0,3.0585938E0,2E0,2E1,2.0979E4,2.9492188E-1,-6.913259E-3,7.047427E-2,2.8367257E-1,7.7855045E-1,1.0765969E0,-4.811014E0,2.640064E0,8.832436E0],"split_indices":[17,17,16,18,17,3,8,0,0,0,0,0,0,0,0],"split_type":[0,0,0,0,0,0,0,0,0,0,0,0,0,0,0],"sum_hessian":[6.649479E6,6.645704E6,3.775E3,6.606173E6,3.9531E4,2.576E3,1.199E3,6.302482E6,3.03691E5,3.5828E4,3.703E3,2.486E3,9E1,5.38E2,6.61E2],"tree_param":{"num_deleted":"0","num_feature":"23","num_nodes":"15","size_leaf_vector":"1"}},{"base_weights":[-6.3566206E-4,-1.2242416E-2,2.0618315E1,-5.001481E-2,1.4562764E0,7.638306E0,5.3244087E1,-8.837778E-3,2.669215E-2,1.0718067E-1,3.6777213E-1,9.3879634E-1,-4.6311913E0,4.170322E0,1.1349601E1],"categories":[],"categories_nodes":[],"categories_segments":[],"categories_sizes":[],"default_left":[0,0,0,0,0,0,0,0,0,0,0,0,0,0,0],"id":9,"left_children":[1,3,5,7,9,11,13,-1,-1,-1,-1,-1,-1,-1,-1],"loss_changes":[1.5910606E6,3.6856922E5,1.5834242E6,7.876261E4,1.4230244E5,2.5329978E5,7.3382225E5,0E0,0E0,0E0,0E0,0E0,0E0,0E0,0E0],"parents":[2147483647,0,0,1,1,2,2,3,3,4,4,5,5,6,6],"right_children":[2,4,6,8,10,12,14,-1,-1,-1,-1,-1,-1,-1,-1],"split_conditions":[3.1E1,3E0,3.2E1,4.7924805E-1,9E0,2.0979E4,1.1E1,-8.837778E-3,2.669215E-2,1.0718067E-1,3.6777213E-1,9.3879634E-1,-4.6311913E0,4.170322E0,1.1349601E1],"split_indices":[17,17,19,5,17,3,1,0,0,0,0,0,0,0,0],"split_type":[0,0,0,0,0,0,0,0,0,0,0,0,0,0,0],"sum_hessian":[6.648278E6,6.644539E6,3.739E3,6.477919E6,1.6662E5,2.676E3,1.063E3,5.778475E6,6.99444E5,1.42039E5,2.4581E4,2.593E3,8.3E1,8.94E2,1.69E2],"tree_param":{"num_deleted":"0","num_feature":"23","num_nodes":"15","size_leaf_vector":"1"}},{"base_weights":[-6.008834E-4,-1.2018565E-2,2.0342453E1,-3.852678E-2,1.6575954E0,9.005509E0,5.6814407E1,-8.700394E-3,2.6124964E-2,1.4795543E-1,6.459444E-1,4.689632E0,7.008452E-1,3.2593439E0,1.817385E1],"categories":[],"categories_nodes":[],"categories_segments":[],"categories_sizes":[],"default_left":[0,0,0,0,0,0,0,0,0,0,0,0,0,0,0],"id":10,"left_children":[1,3,5,7,9,11,13,-1,-1,-1,-1,-1,-1,-1,-1],"loss_changes":[1.5446231E6,2.9415856E5,1.5417389E6,9.5077664E4,8.879228E4,2.1502236E5,2.6679305E6,0E0,0E0,0E0,0E0,0E0,0E0,0E0,0E0],"parents":[2147483647,0,0,1,1,2,2,3,3,4,4,5,5,6,6],"right_children":[2,4,6,8,10,12,14,-1,-1,-1,-1,-1,-1,-1,-1],"split_conditions":[3.1E1,4E0,2.0734E4,4.724121E-1,2E1,1.1E1,5.136719E-1,-8.700394E-3,2.6124964E-2,1.4795543E-1,6.459444E-1,4.689632E0,7.008452E-1,3.2593439E0,1.817385E1],"split_indices":[17,17,3,14,17,4,10,0,0,0,0,0,0,0,0],"split_type":[0,0,0,0,0,0,0,0,0,0,0,0,0,0,0],"sum_hessian":[6.650101E6,6.646372E6,3.729E3,6.542499E6,1.03873E5,2.846E3,8.83E2,5.631779E6,9.1072E5,1.00161E5,3.712E3,1.41E2,2.705E3,7.41E2,1.42E2],"tree_param":{"num_deleted":"0","num_feature":"23","num_nodes":"15","size_leaf_vector":"1"}},{"base_weights":[-1.0783868E-5,-1.0521696E-2,1.8930403E1,-2.7762152E-2,2.163001E0,6.6841774E0,4.929728E1,-5.6216344E-3,5.6245834E-2,1.74132E-1,5.6471235E-1,8.4614676E-1,-4.4614005E0,3.6669998E0,1.2367845E1],"categories":[],"categories_nodes":[],"categories_segments":[],"categories_sizes":[],"default_left":[0,0,0,0,0,0,0,0,0,0,0,0,0,0,0],"id":11,"left_children":[1,3,5,7,9,11,13,-1,-1,-1,-1,-1,-1,-1,-1],"loss_changes":[1.3232008E6,2.490561E5,1.3719201E6,1.10742336E5,7.683189E4,2.4040212E5,9.898865E5,0E0,0E0,0E0,0E0,0E0,0E0,0E0,0E0],"parents":[2147483647,0,0,1,1,2,2,3,3,4,4,5,5,6,6],"right_children":[2,4,6,8,10,12,14,-1,-1,-1,-1,-1,-1,-1,-1],"split_conditions":[3.1E1,6E0,3.2E1,2E0,4.1445312E0,2.1375E4,1.1E1,-5.6216344E-3,5.6245834E-2,1.74132E-1,5.6471235E-1,8.4614676E-1,-4.4614005E0,3.6669998E0,1.2367845E1],"split_indices":[17,17,19,19,14,3,1,0,0,0,0,0,0,0,0],"split_type":[0,0,0,0,0,0,0,0,0,0,0,0,0,0,0],"sum_hessian":[6.650052E6,6.646363E6,3.689E3,6.59406E6,5.2303E4,2.63E3,1.059E3,6.290786E6,3.03274E5,4.6658E4,5.645E3,2.543E3,8.7E1,9.07E2,1.52E2],"tree_param":{"num_deleted":"0","num_feature":"23","num_nodes":"15","size_leaf_vector":"1"}},{"base_weights":[5.6975323E-4,-8.761733E-3,1.6573391E1,-2.8253399E-2,1.7085385E0,6.6941986E0,4.849142E1,-5.621145E-3,4.89896E-2,9.310291E-2,2.9005855E-1,4.2304163E0,4.8815686E-1,2.9609046E0,1.6579626E1],"categories":[],"categories_nodes":[],"categories_segments":[],"categories_sizes":[],"default_left":[0,0,0,0,0,0,0,0,0,0,0,0,0,0,0],"id":12,"left_children":[1,3,5,7,9,11,13,-1,-1,-1,-1,-1,-1,-1,-1],"loss_changes":[1.0284395E6,2.224756E5,1.1796162E6,9.520233E4,6.9129734E4,1.842894E5,1.9522735E6,0E0,0E0,0E0,0E0,0E0,0E0,0E0,0E0],"parents":[2147483647,0,0,1,1,2,2,3,3,4,4,5,5,6,6],"right_children":[2,4,6,8,10,12,14,-1,-1,-1,-1,-1,-1,-1,-1],"split_conditions":[3.1E1,5E0,2.0734E4,1E0,1.2080078E0,1.1E1,6.8115234E-1,-5.621145E-3,4.89896E-2,9.310291E-2,2.9005855E-1,4.2304163E0,4.8815686E-1,2.9609046E0,1.6579626E1],"split_indices":[17,18,3,5,16,4,9,0,0,0,0,0,0,0,0],"split_type":[0,0,0,0,0,0,0,0,0,0,0,0,0,0,0],"sum_hessian":[6.650148E6,6.646407E6,3.741E3,6.571817E6,7.459E4,2.858E3,8.83E2,6.235373E6,3.36444E5,4.5146E4,2.9444E4,1.37E2,2.721E3,7.62E2,1.21E2],"tree_param":{"num_deleted":"0","num_feature":"23","num_nodes":"15","size_leaf_vector":"1"}},{"base_weights":[8.59442E-5,-8.324484E-3,1.5035263E1,-1.9885477E-2,2.4509792E0,5.0859933E0,4.395596E1,-4.5261076E-3,5.9977558E-2,2.043939E-1,8.325715E-1,2.3778915E-1,2.667393E0,2.5255477E0,1.669427E1],"categories":[],"categories_nodes":[],"categories_segments":[],"categories_sizes":[],"default_left":[0,0,0,0,0,0,0,0,0,0,0,0,0,0,0],"id":13,"left_children":[1,3,5,7,9,11,13,-1,-1,-1,-1,-1,-1,-1,-1],"loss_changes":[8.407955E5,1.8894192E5,1.069326E6,1.0400511E5,7.4329516E4,1.6170025E5,2.1823788E6,0E0,0E0,0E0,0E0,0E0,0E0,0E0,0E0],"parents":[2147483647,0,0,1,1,2,2,3,3,4,4,5,5,6,6],"right_children":[2,4,6,8,10,12,14,-1,-1,-1,-1,-1,-1,-1,-1],"split_conditions":[3.1E1,8E0,7.1E1,1.3046875E0,7.1E1,3.0585938E0,7.265625E-1,-4.5261076E-3,5.9977558E-2,2.043939E-1,8.325715E-1,2.3778915E-1,2.667393E0,2.5255477E0,1.669427E1],"split_indices":[17,17,4,5,4,16,8,0,0,0,0,0,0,0,0],"split_type":[0,0,0,0,0,0,0,0,0,0,0,0,0,0,0],"sum_hessian":[6.64911E6,6.645394E6,3.716E3,6.614302E6,3.1092E4,2.766E3,9.5E2,6.354098E6,2.60204E5,2.9079E4,2.013E3,2.459E3,3.07E2,8.26E2,1.24E2],"tree_param":{"num_deleted":"0","num_feature":"23","num_nodes":"15","size_leaf_vector":"1"}},{"base_weights":[2.6661257E-4,-7.44494E-3,1.3896183E1,-3.1660184E-2,9.1940624E-1,5.266688E0,4.3452805E1,-6.7581558E-3,2.2137104E-2,6.734183E-2,2.8168058E-1,5.2316537E0,3.4814307E-1,2.4316232E0,1.393707E1],"categories":[],"categories_nodes":[],"categories_segments":[],"categories_sizes":[],"default_left":[0,0,0,0,0,0,0,0,0,0,0,0,0,0,0],"id":14,"left_children":[1,3,5,7,9,11,13,-1,-1,-1,-1,-1,-1,-1,-1],"loss_changes":[7.1259756E5,1.4916722E5,9.404363E5,5.8870926E4,7.897897E4,2.3967884E5,1.5251129E6,0E0,0E0,0E0,0E0,0E0,0E0,0E0,0E0],"parents":[2147483647,0,0,1,1,2,2,3,3,4,4,5,5,6,6],"right_children":[2,4,6,8,10,12,14,-1,-1,-1,-1,-1,-1,-1,-1],"split_conditions":[3.2E1,3E0,2.0613E4,5.1416016E-1,8E0,1.1E1,7.265625E-1,-6.7581558E-3,2.2137104E-2,6.734183E-2,2.8168058E-1,5.2316537E0,3.4814307E-1,2.4316232E0,1.393707E1],"split_indices":[19,19,3,14,18,4,8,0,0,0,0,0,0,0,0],"split_type":[0,0,0,0,0,0,0,0,0,0,0,0,0,0,0],"sum_hessian":[6.649901E6,6.646214E6,3.687E3,6.476995E6,1.69219E5,2.855E3,8.32E2,5.671803E6,8.05192E5,1.498E5,1.9419E4,1.03E2,2.752E3,6.95E2,1.37E2],"tree_param":{"num_deleted":"0","num_feature":"23","num_nodes":"15","size_leaf_vector":"1"}},{"base_weights":[5.865157E-5,-6.6430797E-3,1.1871367E1,-3.0339746E-2,9.1426957E-1,3.3355813E0,3.2274742E1,1.8348308E-2,-6.638599E-3,7.587094E-2,3.696582E-1,5.2070606E-1,-5.2917786E0,1.6684437E0,8.235075E0],"categories":[],"categories_nodes":[],"categories_segments":[],"categories_sizes":[],"default_left":[0,0,0,0,0,0,0,0,0,0,0,0,0,0,0],"id":15,"left_children":[1,3,5,7,9,11,13,-1,-1,-1,-1,-1,-1,-1,-1],"loss_changes":[5.2896494E5,1.450113E5,6.531836E5,4.993174E4,7.214617E4,2.7896175E5,8.6188825E5,0E0,0E0,0E0,0E0,0E0,0E0,0E0,0E0],"parents":[2147483647,0,0,1,1,2,2,3,3,4,4,5,5,6,6],"right_children":[2,4,6,8,10,12,14,-1,-1,-1,-1,-1,-1,-1,-1],"split_conditions":[3.1E1,3E0,4.1640625E0,3.1E1,4.1445312E0,2.0979E4,1E1,1.8348308E-2,-6.638599E-3,7.587094E-2,3.696582E-1,5.2070606E-1,-5.2917786E0,1.6684437E0,8.235075E0],"split_indices":[17,17,16,4,14,3,1,0,0,0,0,0,0,0,0],"split_type":[0,0,0,0,0,0,0,0,0,0,0,0,0,0,0],"sum_hessian":[6.648766E6,6.645016E6,3.75E3,6.478319E6,1.66697E5,2.645E3,1.105E3,9.34565E5,5.543754E6,1.57872E5,8.825E3,2.561E3,8.4E1,8.44E2,2.61E2],"tree_param":{"num_deleted":"0","num_feature":"23","num_nodes":"15","size_leaf_vector":"1"}},{"base_weights":[7.824755E-5,-8.532878E-3,7.7657695E0,-2.9456517E-2,7.87566E-1,4.2841806E0,2.8531588E1,-5.9228423E-3,1.8049007E-2,6.7748405E-2,3.7975493E-1,3.6598477E-1,6.124264E0,1.2886938E0,8.822944E0],"categories":[],"categories_nodes":[],"categories_segments":[],"categories_sizes":[],"default_left":[0,0,0,0,0,0,0,0,0,0,0,0,0,0,0],"id":16,"left_children":[1,3,5,7,9,11,13,-1,-1,-1,-1,-1,-1,-1,-1],"loss_changes":[4.4466553E5,1.1064108E5,5.323366E5,4.045393E4,5.6359797E4,2.2406945E5,9.859844E5,0E0,0E0,0E0,0E0,0E0,0E0,0E0,0E0],"parents":[2147483647,0,0,1,1,2,2,3,3,4,4,5,5,6,6],"right_children":[2,4,6,8,10,12,14,-1,-1,-1,-1,-1,-1,-1,-1],"split_conditions":[2E1,3E0,2.0734E4,1E0,1.1E1,3.2E1,4.194336E-1,-5.9228423E-3,1.8049007E-2,6.7748405E-2,3.7975493E-1,3.6598477E-1,6.124264E0,1.2886938E0,8.822944E0],"split_indices":[17,19,3,17,17,0,10,0,0,0,0,0,0,0,0],"split_type":[0,0,0,0,0,0,0,0,0,0,0,0,0,0,0],"sum_hessian":[6.649564E6,6.6422E6,7.364E3,6.472097E6,1.70103E5,6.308E3,1.056E3,5.668294E6,8.03803E5,1.64103E5,6E3,6.241E3,6.7E1,8.38E2,2.18E2],"tree_param":{"num_deleted":"0","num_feature":"23","num_nodes":"15","size_leaf_vector":"1"}},{"base_weights":[-1.2238338E-4,-8.103701E-3,7.17585E0,-3.437879E-2,5.041663E-1,3.2315114E0,2.5286451E1,1.4317404E-2,-6.2987455E-3,2.9507866E-2,1.2350521E-1,3.990762E-1,-2.0377119E0,1.6357282E0,8.277063E0],"categories":[],"categories_nodes":[],"categories_segments":[],"categories_sizes":[],"default_left":[0,0,0,0,0,0,0,0,0,0,0,0,0,0,0],"id":17,"left_children":[1,3,5,7,9,11,13,-1,-1,-1,-1,-1,-1,-1,-1],"loss_changes":[3.809333E5,8.942399E4,5.2774325E5,3.2100592E4,4.9534383E4,1.0889942E5,6.764246E5,0E0,0E0,0E0,0E0,0E0,0E0,0E0,0E0],"parents":[2147483647,0,0,1,1,2,2,3,3,4,4,5,5,6,6],"right_children":[2,4,6,8,10,12,14,-1,-1,-1,-1,-1,-1,-1,-1],"split_conditions":[2E1,2E0,7.1E1,3.1E1,1.3964844E0,2.1375E4,7.3339844E-1,1.4317404E-2,-6.2987455E-3,2.9507866E-2,1.2350521E-1,3.990762E-1,-2.0377119E0,1.6357282E0,8.277063E0],"split_indices":[17,17,4,4,14,3,9,0,0,0,0,0,0,0,0],"split_type":[0,0,0,0,0,0,0,0,0,0,0,0,0,0,0],"sum_hessian":[6.651099E6,6.643711E6,7.388E3,6.319572E6,3.24139E5,6.068E3,1.32E3,8.76955E5,5.442617E6,2.52039E5,7.21E4,5.88E3,1.88E2,1.144E3,1.76E2],"tree_param":{"num_deleted":"0","num_feature":"23","num_nodes":"15","size_leaf_vector":"1"}},{"base_weights":[3.746776E-4,-5.2405945E-3,1.0081093E1,-1.3813391E-2,1.7424068E0,1.7489463E0,2.4866264E1,-3.1605419E-3,4.2186014E-2,1.3319321E-1,7.717422E-1,5.015593E0,1.4537038E-1,1.2726492E0,5.4940257E0],"categories":[],"categories_nodes":[],"categories_segments":[],"categories_sizes":[],"default_left":[0,0,0,0,0,0,0,0,0,0,0,0,0,0,0],"id":18,"left_children":[1,3,5,7,9,11,13,-1,-1,-1,-1,-1,-1,-1,-1],"loss_changes":[3.7644294E5,9.957987E4,4.5603984E5,5.1269227E4,7.9559125E4,3.3765383E4,4.8622456E5,0E0,0E0,0E0,0E0,0E0,0E0,0E0,0E0],"parents":[2147483647,0,0,1,1,2,2,3,3,4,4,5,5,6,6],"right_children":[2,4,6,8,10,12,14,-1,-1,-1,-1,-1,-1,-1,-1],"split_conditions":[3.2E1,8E0,4.15625E0,1.3046875E0,7.1E1,3.5057068E-3,9E0,-3.1605419E-3,4.2186014E-2,1.3319321E-1,7.717422E-1,5.015593E0,1.4537038E-1,1.2726492E0,5.4940257E0],"split_indices":[19,17,15,5,4,15,1,0,0,0,0,0,0,0,0],"split_type":[0,0,0,0,0,0,0,0,0,0,0,0,0,0,0],"sum_hessian":[6.650231E6,6.64653E6,3.701E3,6.614087E6,3.2443E4,2.368E3,1.333E3,6.35458E6,2.59507E5,3.0359E4,2.084E3,1.3E1,2.355E3,9.51E2,3.82E2],"tree_param":{"num_deleted":"0","num_feature":"23","num_nodes":"15","size_leaf_vector":"1"}},{"base_weights":[-1.4264337E-4,-5.1162126E-3,9.111742E0,-2.5870427E-2,5.349528E-1,9.1200924E-1,2.554656E1,1.0115765E-2,-6.5075434E-3,3.5133928E-2,1.5935259E-1,2.1904905E-1,-3.6384838E0,8.368778E-1,6.4952784E0],"categories":[],"categories_nodes":[],"categories_segments":[],"categories_sizes":[],"default_left":[0,0,0,0,0,0,0,0,0,0,0,0,0,0,0],"id":19,"left_children":[1,3,5,7,9,11,13,-1,-1,-1,-1,-1,-1,-1,-1],"loss_changes":[3.013282E5,7.4487266E4,4.8879138E5,3.1870662E4,4.7799742E4,1.1556226E5,8.165317E5,0E0,0E0,0E0,0E0,0E0,0E0,0E0,0E0],"parents":[2147483647,0,0,1,1,2,2,3,3,4,4,5,5,6,6],"right_children":[2,4,6,8,10,12,14,-1,-1,-1,-1,-1,-1,-1,-1],"split_conditions":[3.2E1,1.4902344E0,4.1640625E0,3.5247803E-2,5.361328E-1,2.1375E4,9E0,1.0115765E-2,-6.5075434E-3,3.5133928E-2,1.5935259E-1,2.1904905E-1,-3.6384838E0,8.368778E-1,6.4952784E0],"split_indices":[18,5,16,9,8,3,1,0,0,0,0,0,0,0,0],"split_type":[0,0,0,0,0,0,0,0,0,0,0,0,0,0,0],"sum_hessian":[6.649105E6,6.645479E6,3.626E3,6.399553E6,2.45926E5,2.42E3,1.206E3,1.509293E6,4.89026E6,2.09576E5,3.635E4,2.341E3,7.9E1,8.41E2,3.65E2],"tree_param":{"num_deleted":"0","num_feature":"23","num_nodes":"15","size_leaf_vector":"1"}},{"base_weights":[5.2682986E-4,-4.33373E-3,8.878804E0,-3.413982E-2,3.717393E-1,2.3824763E0,2.9980204E1,8.670629E-3,-7.260254E-3,2.985081E-2,2.2112922E-1,3.1521947E0,1.3035016E-1,8.8694924E-1,1.2904915E1],"categories":[],"categories_nodes":[],"categories_segments":[],"categories_sizes":[],"default_left":[0,0,0,0,0,0,0,0,0,0,0,0,0,0,0],"id":20,"left_children":[1,3,5,7,9,11,13,-1,-1,-1,-1,-1,-1,-1,-1],"loss_changes":[2.8694356E5,7.449396E4,4.9865275E5,2.8621477E4,6.574379E4,8.745542E4,1.7894139E6,0E0,0E0,0E0,0E0,0E0,0E0,0E0,0E0],"parents":[2147483647,0,0,1,1,2,2,3,3,4,4,5,5,6,6],"right_children":[2,4,6,8,10,12,14,-1,-1,-1,-1,-1,-1,-1,-1],"split_conditions":[3.2E1,8.491211E-1,2.0613E4,1.9226074E-2,9E0,1.1E1,6.015625E-1,8.670629E-3,-7.260254E-3,2.985081E-2,2.2112922E-1,3.1521947E0,1.3035016E-1,8.8694924E-1,1.2904915E1],"split_indices":[18,14,3,6,17,4,10,0,0,0,0,0,0,0,0],"split_type":[0,0,0,0,0,0,0,0,0,0,0,0,0,0,0],"sum_hessian":[6.649382E6,6.645745E6,3.637E3,6.15771E6,4.88035E5,2.782E3,8.55E2,1.486686E6,4.671024E6,4.69352E5,1.8683E4,9.8E1,2.684E3,7.06E2,1.49E2],"tree_param":{"num_deleted":"0","num_feature":"23","num_nodes":"15","size_leaf_vector":"1"}},{"base_weights":[4.9225846E-4,-3.544933E-3,7.4500027E0,-1.06869275E-2,1.3379486E0,3.3529797E-1,1.8645506E1,-4.2934655E-3,1.9270016E-2,1.1494863E-1,1.4617689E0,1.3596085E-1,-1.756945E0,3.980833E1,1.7452879E0],"categories":[],"categories_nodes":[],"categories_segments":[],"categories_sizes":[],"default_left":[0,0,0,0,0,0,0,0,0,0,0,0,0,0,0],"id":21,"left_children":[1,3,5,7,9,11,13,-1,-1,-1,-1,-1,-1,-1,-1],"loss_changes":[1.9996452E5,6.366764E4,2.8684694E5,4.33538E4,8.805214E4,4.0440625E4,6.240362E5,0E0,0E0,0E0,0E0,0E0,0E0,0E0,0E0],"parents":[2147483647,0,0,1,1,2,2,3,3,4,4,5,5,6,6],"right_children":[2,4,6,8,10,12,14,-1,-1,-1,-1,-1,-1,-1,-1],"split_conditions":[3.2E1,3E0,3.2E1,1E0,3.2E1,3.1E1,9E0,-4.2934655E-3,1.9270016E-2,1.1494863E-1,1.4617689E0,1.3596085E-1,-1.756945E0,3.980833E1,1.7452879E0],"split_indices":[19,14,18,17,0,17,4,0,0,0,0,0,0,0,0],"split_type":[0,0,0,0,0,0,0,0,0,0,0,0,0,0,0],"sum_hessian":[6.648837E6,6.645237E6,3.6E3,6.610047E6,3.519E4,2.202E3,1.398E3,5.705432E6,9.04615E5,3.4699E4,4.91E2,2.084E3,1.18E2,3E0,1.395E3],"tree_param":{"num_deleted":"0","num_feature":"23","num_nodes":"15","size_leaf_vector":"1"}},{"base_weights":[3.3678472E-4,-5.5335914E-3,5.236437E0,-1.742628E-2,7.2154427E-1,2.7893565E0,1.9908682E1,1.0152732E-2,-5.384068E-3,4.988858E-2,2.0952626E-1,2.3627515E-1,4.601312E0,9.644446E-1,1.2062169E1],"categories":[],"categories_nodes":[],"categories_segments":[],"categories_sizes":[],"default_left":[0,0,0,0,0,0,0,0,0,0,0,0,0,0,0],"id":22,"left_children":[1,3,5,7,9,11,13,-1,-1,-1,-1,-1,-1,-1,-1],"loss_changes":[2.0441028E5,5.743854E4,2.673164E5,2.8310463E4,3.2697438E4,1.1757964E5,1.0986965E6,0E0,0E0,0E0,0E0,0E0,0E0,0E0,0E0],"parents":[2147483647,0,0,1,1,2,2,3,3,4,4,5,5,6,6],"right_children":[2,4,6,8,10,12,14,-1,-1,-1,-1,-1,-1,-1,-1],"split_conditions":[2E1,4E0,2.0734E4,1.9226074E-2,3.9785156E0,3.2E1,8.256836E-1,1.0152732E-2,-5.384068E-3,4.988858E-2,2.0952626E-1,2.3627515E-1,4.601312E0,9.644446E-1,1.2062169E1],"split_indices":[17,19,3,6,5,0,10,0,0,0,0,0,0,0,0],"split_type":[0,0,0,0,0,0,0,0,0,0,0,0,0,0,0],"sum_hessian":[6.650108E6,6.642662E6,7.446E3,6.535759E6,1.06903E5,6.383E3,1.063E3,1.531819E6,5.00394E6,9.1994E4,1.4909E4,6.322E3,6.1E1,9.66E2,9.7E1],"tree_param":{"num_deleted":"0","num_feature":"23","num_nodes":"15","size_leaf_vector":"1"}},{"base_weights":[-1.1938669E-4,-3.7386485E-3,6.5146084E0,-1.8518303E-2,5.5449075E-1,-5.1426196E0,1.346356E1,8.437471E-3,-5.688462E-3,4.640464E-2,3.551895E-1,-5.5711675E-1,2.5215757E1,6.1432475E-1,3.8439019E0],"categories":[],"categories_nodes":[],"categories_segments":[],"categories_sizes":[],"default_left":[0,0,0,0,0,0,0,0,0,0,0,0,0,0,0],"id":23,"left_children":[1,3,5,7,9,11,13,-1,-1,-1,-1,-1,-1,-1,-1],"loss_changes":[1.5683795E5,5.4849254E4,2.9927125E5,2.5567072E4,4.6483926E4,1.5406156E5,4.2281103E5,0E0,0E0,0E0,0E0,0E0,0E0,0E0,0E0],"parents":[2147483647,0,0,1,1,2,2,3,3,4,4,5,5,6,6],"right_children":[2,4,6,8,10,12,14,-1,-1,-1,-1,-1,-1,-1,-1],"split_conditions":[3.1E1,3E0,6E0,3.5827637E-2,1.3E1,1.305E3,2.0498E4,8.437471E-3,-5.688462E-3,4.640464E-2,3.551895E-1,-5.5711675E-1,2.5215757E1,6.1432475E-1,3.8439019E0],"split_indices":[17,19,1,13,17,18,3,0,0,0,0,0,0,0,0],"split_type":[0,0,0,0,0,0,0,0,0,0,0,0,0,0,0],"sum_hessian":[6.651731E6,6.648039E6,3.692E3,6.476567E6,1.71472E5,1.379E3,2.313E3,1.759048E6,4.717519E6,1.66451E5,5.021E3,1.378E3,1E0,1.79E3,5.23E2],"tree_param":{"num_deleted":"0","num_feature":"23","num_nodes":"15","size_leaf_vector":"1"}},{"base_weights":[6.8562117E-4,-4.044058E-3,4.224482E0,-2.2694258E-2,3.540717E-1,5.1791034E0,-2.5684372E1,8.129083E-3,-6.103749E-3,2.762027E-2,1.46964E-1,2.4082024E-1,2.6067262E0,-7.876465E-1,-8.318707E0],"categories":[],"categories_nodes":[],"categories_segments":[],"categories_sizes":[],"default_left":[0,0,0,0,0,0,0,0,0,0,0,0,0,0,0],"id":24,"left_children":[1,3,5,7,9,11,13,-1,-1,-1,-1,-1,-1,-1,-1],"loss_changes":[1.3286955E5,4.4372293E4,2.1258092E5,2.5177727E4,2.8567309E4,4.172433E5,2.3498483E5,0E0,0E0,0E0,0E0,0E0,0E0,0E0,0E0],"parents":[2147483647,0,0,1,1,2,2,3,3,4,4,5,5,6,6],"right_children":[2,4,6,8,10,12,14,-1,-1,-1,-1,-1,-1,-1,-1],"split_conditions":[2E1,2E0,2.1375E4,1.9226074E-2,1.2E1,2.0734E4,6.191406E-1,8.129083E-3,-6.103749E-3,2.762027E-2,1.46964E-1,2.4082024E-1,2.6067262E0,-7.876465E-1,-8.318707E0],"split_indices":[17,18,3,7,1,3,10,0,0,0,0,0,0,0,0],"split_type":[0,0,0,0,0,0,0,0,0,0,0,0,0,0,0],"sum_hessian":[6.651057E6,6.643619E6,7.438E3,6.314756E6,3.28863E5,7.209E3,2.29E2,1.701194E6,4.613562E6,3.07407E5,2.1456E4,6.366E3,8.43E2,1.76E2,5.3E1],"tree_param":{"num_deleted":"0","num_feature":"23","num_nodes":"15","size_leaf_vector":"1"}},{"base_weights":[2.3622307E-4,1.547271E-4,2.3320171E1,-6.384684E-3,2.3966832E0,-4.370079E-3,1.4579159E-2,1.9925502E-1,3.8303623E0],"categories":[],"categories_nodes":[],"categories_segments":[],"categories_sizes":[],"default_left":[0,0,0,0,0,0,0,0,0],"id":25,"left_children":[1,3,-1,5,7,-1,-1,-1,-1],"loss_changes":[1.2637495E5,1.0421136E5,0E0,3.7657688E4,2.6248356E5,0E0,0E0,0E0,0E0],"parents":[2147483647,0,0,1,1,3,3,4,4],"right_children":[2,4,-1,6,8,-1,-1,-1,-1],"split_conditions":[1.305E3,4.1445312E0,2.3320171E1,3.3789062E-1,3.2E1,-4.370079E-3,1.4579159E-2,1.9925502E-1,3.8303623E0],"split_indices":[17,14,0,14,0,0,0,0,0],"split_type":[0,0,0,0,0,0,0,0,0],"sum_hessian":[6.649572E6,6.649571E6,1E0,6.631477E6,1.8094E4,5.325563E6,1.305914E6,1.7894E4,2E2],"tree_param":{"num_deleted":"0","num_feature":"23","num_nodes":"9","size_leaf_vector":"1"}},{"base_weights":[-9.034785E-5,-1.7426639E-4,2.4009897E1,-2.8784713E-3,4.9756846E0,-2.7895044E-3,2.275725E-2,-3.1698444E-1,1.5066011E0],"categories":[],"categories_nodes":[],"categories_segments":[],"categories_sizes":[],"default_left":[0,0,0,0,0,0,0,0,0],"id":26,"left_children":[1,3,-1,5,7,-1,-1,-1,-1],"loss_changes":[1.3396131E5,8.946197E4,0E0,3.8309047E4,2.9688166E5,0E0,0E0,0E0,0E0],"parents":[2147483647,0,0,1,1,3,3,4,4],"right_children":[2,4,-1,6,8,-1,-1,-1,-1],"split_conditions":[1.305E3,3.2E1,2.4009897E1,6.9873047E-1,2.6098633E-1,-2.7895044E-3,2.275725E-2,-3.1698444E-1,1.5066011E0],"split_indices":[18,18,0,14,10,0,0,0,0],"split_type":[0,0,0,0,0,0,0,0,0],"sum_hessian":[6.648608E6,6.648607E6,1E0,6.644997E6,3.61E3,5.994289E6,6.50708E5,1.998E3,1.612E3],"tree_param":{"num_deleted":"0","num_feature":"23","num_nodes":"9","size_leaf_vector":"1"}},{"base_weights":[8.734653E-5,7.0678557E-6,2.297668E1,-7.067818E-5,2.22518E1,-2.571474E-4,4.5955044E-1],"categories":[],"categories_nodes":[],"categories_segments":[],"categories_sizes":[],"default_left":[0,0,0,0,0,0,0],"id":27,"left_children":[1,3,-1,5,-1,-1,-1],"loss_changes":[1.2267969E5,1.1506115E5,0E0,7.643696E4,0E0,0E0,0E0],"parents":[2147483647,0,0,1,1,3,3],"right_children":[2,4,-1,6,-1,-1,-1],"split_conditions":[1.305E3,1.305E3,2.297668E1,3.2E1,2.22518E1,-2.571474E-4,4.5955044E-1],"split_indices":[18,17,0,19,0,0,0],"split_type":[0,0,0,0,0,0,0],"sum_hessian":[6.650974E6,6.650973E6,1E0,6.650972E6,1E0,6.647356E6,3.616E3],"tree_param":{"num_deleted":"0","num_feature":"23","num_nodes":"7","size_leaf_vector":"1"}},{"base_weights":[-2.201611E-4,-2.9697877E-4,2.1987925E1,-3.7137297E-4,2.1294239E1,-4.3402753E-5,1.7933928E1],"categories":[],"categories_nodes":[],"categories_segments":[],"categories_sizes":[],"default_left":[0,0,0,0,0,0,0],"id":28,"left_children":[1,3,-1,5,-1,-1,-1],"loss_changes":[1.1234862E5,1.0537167E5,0E0,7.473964E4,0E0,0E0,0E0],"parents":[2147483647,0,0,1,1,3,3],"right_children":[2,4,-1,6,-1,-1,-1],"split_conditions":[1.305E3,1.305E3,2.1987925E1,1.305E3,2.1294239E1,-4.3402753E-5,1.7933928E1],"split_indices":[18,17,0,19,0,0,0],"split_type":[0,0,0,0,0,0,0],"sum_hessian":[6.651531E6,6.65153E6,1E0,6.651529E6,1E0,6.651528E6,1E0],"tree_param":{"num_deleted":"0","num_feature":"23","num_nodes":"7","size_leaf_vector":"1"}},{"base_weights":[-4.9578556E-4,-5.669885E-4,2.0377882E1,-8.155527E-4,5.2773693E1,-5.0871324E-4,2.3484845E-1,2.8730679E0,1.941142E1],"categories":[],"categories_nodes":[],"categories_segments":[],"categories_sizes":[],"default_left":[0,0,0,0,0,0,0,0,0],"id":29,"left_children":[1,3,-1,5,7,-1,-1,-1,-1],"loss_changes":[9.649808E4,8.7241016E4,0E0,6.673979E4,9.906329E4,0E0,0E0,0E0,0E0],"parents":[2147483647,0,0,1,1,3,3,4,4],"right_children":[2,4,-1,6,8,-1,-1,-1,-1],"split_conditions":[1.305E3,2.73E2,2.0377882E1,1.5E1,7.265625E-1,-5.0871324E-4,2.3484845E-1,2.8730679E0,1.941142E1],"split_indices":[17,7,0,17,8,0,0,0,0],"split_type":[0,0,0,0,0,0,0,0,0],"sum_hessian":[6.650583E6,6.650582E6,1E0,6.650552E6,3E1,6.638483E6,1.2069E4,2.7E1,3E0],"tree_param":{"num_deleted":"0","num_feature":"23","num_nodes":"9","size_leaf_vector":"1"}},{"base_weights":[3.154941E-4,2.420085E-4,2.103161E1,1.7387104E-4,1.9500961E1,-4.887616E-4,1.8533461E-1],"categories":[],"categories_nodes":[],"categories_segments":[],"categories_sizes":[],"default_left":[0,0,0,0,0,0,0],"id":30,"left_children":[1,3,-1,5,-1,-1,-1],"loss_changes":[1.02787945E5,8.837093E4,0E0,6.2382418E4,0E0,0E0,0E0],"parents":[2147483647,0,0,1,1,3,3],"right_children":[2,4,-1,6,-1,-1,-1],"split_conditions":[1.305E3,1.305E3,2.103161E1,4.1445312E0,1.9500961E1,-4.887616E-4,1.8533461E-1],"split_indices":[18,17,0,14,0,0,0],"split_type":[0,0,0,0,0,0,0],"sum_hessian":[6.650714E6,6.650713E6,1E0,6.650712E6,1E0,6.632598E6,1.8114E4],"tree_param":{"num_deleted":"0","num_feature":"23","num_nodes":"7","size_leaf_vector":"1"}},{"base_weights":[-3.1585546E-4,-3.8619761E-4,2.0126556E1,-6.131411E-4,5.5223583E1,-6.701757E-5,1.6318869E1,1.0631884E0,2.010776E1],"categories":[],"categories_nodes":[],"categories_segments":[],"categories_sizes":[],"default_left":[0,0,0,0,0,0,0,0,0],"id":31,"left_children":[1,3,-1,5,7,-1,-1,-1,-1],"loss_changes":[9.413232E4,8.332937E4,0E0,6.1884484E4,1.7488058E5,0E0,0E0,0E0,0E0],"parents":[2147483647,0,0,1,1,3,3,4,4],"right_children":[2,4,-1,6,8,-1,-1,-1,-1],"split_conditions":[1.305E3,2.73E2,2.0126556E1,1.305E3,4.9389648E-1,-6.701757E-5,1.6318869E1,1.0631884E0,2.010776E1],"split_indices":[18,5,0,19,9,0,0,0,0],"split_type":[0,0,0,0,0,0,0,0,0],"sum_hessian":[6.648941E6,6.64894E6,1E0,6.648914E6,2.6E1,6.648913E6,1E0,2.1E1,5E0],"tree_param":{"num_deleted":"0","num_feature":"23","num_nodes":"9","size_leaf_vector":"1"}},{"base_weights":[-4.3417184E-4,-5.015211E-4,1.926045E1,-3.7001285E-3,2.8586297E0,-3.794219E-3,1.4128282E-2,-3.1456754E-1,7.0325446E-1],"categories":[],"categories_nodes":[],"categories_segments":[],"categories_sizes":[],"default_left":[0,0,0,0,0,0,0,0,0],"id":32,"left_children":[1,3,-1,5,7,-1,-1,-1,-1],"loss_changes":[8.6205164E4,6.077538E4,0E0,3.2955195E4,1.8614378E5,0E0,0E0,0E0,0E0],"parents":[2147483647,0,0,1,1,3,3,4,4],"right_children":[2,4,-1,6,8,-1,-1,-1,-1],"split_conditions":[1.305E3,2E1,1.926045E1,3.2006836E-1,6E0,-3.794219E-3,1.4128282E-2,-3.1456754E-1,7.0325446E-1],"split_indices":[18,17,0,5,1,0,0,0,0],"split_type":[0,0,0,0,0,0,0,0,0],"sum_hessian":[6.645574E6,6.645573E6,1E0,6.638148E6,7.425E3,5.369889E6,1.268259E6,3.045E3,4.38E3],"tree_param":{"num_deleted":"0","num_feature":"23","num_nodes":"9","size_leaf_vector":"1"}},{"base_weights":[-5.6704506E-4,-6.314591E-4,1.8431616E1,-6.937009E-4,1.7810019E1,-3.2875626E-4,2.2996686E-1],"categories":[],"categories_nodes":[],"categories_segments":[],"categories_sizes":[],"default_left":[0,0,0,0,0,0,0],"id":33,"left_children":[1,3,-1,5,-1,-1,-1],"loss_changes":[7.894558E4,7.371065E4,0E0,3.96757E4,0E0,0E0,0E0],"parents":[2147483647,0,0,1,1,3,3],"right_children":[2,4,-1,6,-1,-1,-1],"split_conditions":[1.305E3,1.305E3,1.8431616E1,2E1,1.7810019E1,-3.2875626E-4,2.2996686E-1],"split_indices":[18,17,0,17,0,0,0],"split_type":[0,0,0,0,0,0,0],"sum_hessian":[6.649384E6,6.649383E6,1E0,6.649382E6,1E0,6.641894E6,7.488E3],"tree_param":{"num_deleted":"0","num_feature":"23","num_nodes":"7","size_leaf_vector":"1"}},{"base_weights":[-1.16083545E-4,-1.7772007E-4,1.7638447E1,-4.584834E-3,1.6075345E0,-2.8638022E-3,1.4769723E-2,7.83112E-2,1.0569682E0],"categories":[],"categories_nodes":[],"categories_segments":[],"categories_sizes":[],"default_left":[0,0,0,0,0,0,0,0,0],"id":34,"left_children":[1,3,-1,5,7,-1,-1,-1,-1],"loss_changes":[7.229689E4,4.7117605E4,0E0,2.429144E4,1.3430872E5,0E0,0E0,0E0,0E0],"parents":[2147483647,0,0,1,1,3,3,4,4],"right_children":[2,4,-1,6,8,-1,-1,-1,-1],"split_conditions":[1.305E3,4.1445312E0,1.7638447E1,1E0,2.0374E4,-2.8638022E-3,1.4769723E-2,7.83112E-2,1.0569682E0],"split_indices":[18,14,0,19,3,0,0,0,0],"split_type":[0,0,0,0,0,0,0,0,0],"sum_hessian":[6.649983E6,6.649982E6,1E0,6.631804E6,1.8178E4,5.727187E6,9.04617E5,1.6648E4,1.53E3],"tree_param":{"num_deleted":"0","num_feature":"23","num_nodes":"9","size_leaf_vector":"1"}},{"base_weights":[1.2245452E-3,-1.4228573E-3,4.774387E0,-3.1775415E-2,1.3320783E-1,5.1363335E1,3.6161191E0,7.553972E-3,-6.6999034E-3,6.4837574E-3,5.2812364E-2,3.553914E1,3.534747E0,-6.534635E-2,1.6700872E0],"categories":[],"categories_nodes":[],"categories_segments":[],"categories_sizes":[],"default_left":[0,0,0,0,0,0,0,0,0,0,0,0,0,0,0],"id":35,"left_children":[1,3,5,7,9,11,13,-1,-1,-1,-1,-1,-1,-1,-1],"loss_changes":[8.403239E4,2.715934E4,1.9867725E5,2.0501191E4,3.3014625E4,4.1831206E5,2.0103998E5,0E0,0E0,0E0,0E0,0E0,0E0,0E0,0E0],"parents":[2147483647,0,0,1,1,2,2,3,3,4,4,5,5,6,6],"right_children":[2,4,6,8,10,12,14,-1,-1,-1,-1,-1,-1,-1,-1],"split_conditions":[3.2E1,3.3325195E-1,1.1E1,1.9226074E-2,5.361328E-1,4.6972656E-1,1.9426E4,7.553972E-3,-6.6999034E-3,6.4837574E-3,5.2812364E-2,3.553914E1,3.534747E0,-6.534635E-2,1.6700872E0],"split_indices":[19,5,4,5,8,13,3,0,0,0,0,0,0,0,0],"split_type":[0,0,0,0,0,0,0,0,0,0,0,0,0,0,0],"sum_hessian":[6.649981E6,6.646296E6,3.685E3,5.423554E6,1.222742E6,8.8E1,3.597E3,1.340247E6,4.083307E6,1.042295E6,1.80447E5,3E0,8.5E1,2.713E3,8.84E2],"tree_param":{"num_deleted":"0","num_feature":"23","num_nodes":"15","size_leaf_vector":"1"}},{"base_weights":[1.7719976E-5,-4.100119E-5,1.680754E1,-1.9884822E-3,3.5809052E0,-2.610725E-3,1.4600924E-2,5.380334E0,2.1760316E-1],"categories":[],"categories_nodes":[],"categories_segments":[],"categories_sizes":[],"default_left":[0,0,0,0,0,0,0,0,0],"id":36,"left_children":[1,3,-1,5,7,-1,-1,-1,-1],"loss_changes":[6.5645766E4,4.6385145E4,0E0,2.372914E4,2.549284E5,0E0,0E0,0E0,0E0],"parents":[2147483647,0,0,1,1,3,3,4,4],"right_children":[2,4,-1,6,8,-1,-1,-1,-1],"split_conditions":[1.305E3,3.2E1,1.680754E1,1E0,1.1E1,-2.610725E-3,1.4600924E-2,5.380334E0,2.1760316E-1],"split_indices":[18,18,0,17,4,0,0,0,0],"split_type":[0,0,0,0,0,0,0,0,0],"sum_hessian":[6.651319E6,6.651318E6,1E0,6.647704E6,3.614E3,5.716159E6,9.31545E5,9.7E1,3.517E3],"tree_param":{"num_deleted":"0","num_feature":"23","num_nodes":"9","size_leaf_vector":"1"}},{"base_weights":[-6.899629E-4,-7.4411876E-4,1.5493541E1,-7.1594487E-3,7.32717E-1,9.229281E-3,-3.7345842E-3,4.3046296E-2,4.8132405E-1],"categories":[],"categories_nodes":[],"categories_segments":[],"categories_sizes":[],"default_left":[0,0,0,0,0,0,0,0,0],"id":37,"left_children":[1,3,-1,5,7,-1,-1,-1,-1],"loss_changes":[5.5783234E4,3.128242E4,0E0,1.9785549E4,7.1094375E4,0E0,0E0,0E0,0E0],"parents":[2147483647,0,0,1,1,3,3,4,4],"right_children":[2,4,-1,6,8,-1,-1,-1,-1],"split_conditions":[1.305E3,6E0,1.5493541E1,1.9226074E-2,1.2E1,9.229281E-3,-3.7345842E-3,4.3046296E-2,4.8132405E-1],"split_indices":[19,19,0,6,1,0,0,0,0],"split_type":[0,0,0,0,0,0,0,0,0],"sum_hessian":[6.648201E6,6.6482E6,1E0,6.590556E6,5.7644E4,1.534612E6,5.055944E6,5.367E4,3.974E3],"tree_param":{"num_deleted":"0","num_feature":"23","num_nodes":"9","size_leaf_vector":"1"}},{"base_weights":[-8.183795E-4,-8.7748194E-4,1.691503E1,-9.3367515E-4,1.608241E1,-1.0747983E-4,2.9035351E0],"categories":[],"categories_nodes":[],"categories_segments":[],"categories_sizes":[],"default_left":[0,0,0,0,0,0,0],"id":38,"left_children":[1,3,-1,5,-1,-1,-1],"loss_changes":[6.6488734E4,6.0104285E4,0E0,2.7252516E4,0E0,0E0,0E0],"parents":[2147483647,0,0,1,1,3,3],"right_children":[2,4,-1,6,-1,-1,-1],"split_conditions":[1.305E3,1.305E3,1.691503E1,2.73E2,1.608241E1,-1.0747983E-4,2.9035351E0],"split_indices":[17,18,0,7,0,0,0],"split_type":[0,0,0,0,0,0,0],"sum_hessian":[6.65069E6,6.650689E6,1E0,6.650688E6,1E0,6.650657E6,3.1E1],"tree_param":{"num_deleted":"0","num_feature":"23","num_nodes":"7","size_leaf_vector":"1"}},{"base_weights":[-1.6809764E-4,-2.218887E-4,1.5390337E1,-3.835827E-4,2.8051508E1,-7.6906336E-4,5.2946467E-2,1.7883584E-1,5.6587925E0],"categories":[],"categories_nodes":[],"categories_segments":[],"categories_sizes":[],"default_left":[0,0,0,0,0,0,0,0,0],"id":39,"left_children":[1,3,-1,5,7,-1,-1,-1,-1],"loss_changes":[5.5042176E4,3.015715E4,0E0,2.5741146E4,2.8588045E4,0E0,0E0,0E0,0E0],"parents":[2147483647,0,0,1,1,3,3,4,4],"right_children":[2,4,-1,6,8,-1,-1,-1,-1],"split_conditions":[1.305E3,2.73E2,1.5390337E1,1.9951172E0,2.7612305E-1,-7.6906336E-4,5.2946467E-2,1.7883584E-1,5.6587925E0],"split_indices":[18,7,0,14,8,0,0,0,0],"split_type":[0,0,0,0,0,0,0,0,0],"sum_hessian":[6.648697E6,6.648696E6,1E0,6.648659E6,3.7E1,6.558217E6,9.0442E4,2E1,1.7E1],"tree_param":{"num_deleted":"0","num_feature":"23","num_nodes":"9","size_leaf_vector":"1"}},{"base_weights":[-3.0188306E-4,-3.5843614E-4,1.6184847E1,-4.089565E-4,1.4458346E1,-6.2345545E-4,6.1561793E-2],"categories":[],"categories_nodes":[],"categories_segments":[],"categories_sizes":[],"default_left":[0,0,0,0,0,0,0],"id":40,"left_children":[1,3,-1,5,-1,-1,-1],"loss_changes":[6.0871957E4,4.8577797E4,0E0,2.3866643E4,0E0,0E0,0E0],"parents":[2147483647,0,0,1,1,3,3],"right_children":[2,4,-1,6,-1,-1,-1],"split_conditions":[1.305E3,1.305E3,1.6184847E1,3.9785156E0,1.4458346E1,-6.2345545E-4,6.1561793E-2],"split_indices":[17,19,0,5,0,0,0],"split_type":[0,0,0,0,0,0,0],"sum_hessian":[6.650451E6,6.65045E6,1E0,6.650449E6,1E0,6.588148E6,6.2301E4],"tree_param":{"num_deleted":"0","num_feature":"23","num_nodes":"7","size_leaf_vector":"1"}},{"base_weights":[-1.1385371E-4,-1.6799691E-4,1.5488364E1,-5.665018E-3,6.3338274E-1,8.577935E-3,-3.3397737E-3,3.824711E-2,4.102842E-1],"categories":[],"categories_nodes":[],"categories_segments":[],"categories_sizes":[],"default_left":[0,0,0,0,0,0,0,0,0],"id":41,"left_children":[1,3,-1,5,7,-1,-1,-1,-1],"loss_changes":[5.574554E4,2.3150957E4,0E0,1.6713127E4,4.977585E4,0E0,0E0,0E0,0E0],"parents":[2147483647,0,0,1,1,3,3,4,4],"right_children":[2,4,-1,6,8,-1,-1,-1,-1],"split_conditions":[1.305E3,6E0,1.5488364E1,1.9226074E-2,1.2E1,8.577935E-3,-3.3397737E-3,3.824711E-2,4.102842E-1],"split_indices":[17,18,0,6,1,0,0,0,0],"split_type":[0,0,0,0,0,0,0,0,0],"sum_hessian":[6.647525E6,6.647524E6,1E0,6.590344E6,5.718E4,1.533584E6,5.05676E6,5.3325E4,3.855E3],"tree_param":{"num_deleted":"0","num_feature":"23","num_nodes":"9","size_leaf_vector":"1"}},{"base_weights":[-7.0949085E-5,-1.2274188E-4,1.4821854E1,-1.7419187E-4,1.4723747E1,-3.3495645E-4,1.1573352E-1],"categories":[],"categories_nodes":[],"categories_segments":[],"categories_sizes":[],"default_left":[0,0,0,0,0,0,0],"id":42,"left_children":[1,3,-1,5,-1,-1,-1],"loss_changes":[5.1050957E4,5.0377414E4,0E0,2.4442797E4,0E0,0E0,0E0],"parents":[2147483647,0,0,1,1,3,3],"right_children":[2,4,-1,6,-1,-1,-1],"split_conditions":[1.305E3,1.305E3,1.4821854E1,4.1445312E0,1.4723747E1,-3.3495645E-4,1.1573352E-1],"split_indices":[17,18,0,14,0,0,0],"split_type":[0,0,0,0,0,0,0],"sum_hessian":[6.650152E6,6.650151E6,1E0,6.65015E6,1E0,6.631958E6,1.8192E4],"tree_param":{"num_deleted":"0","num_feature":"23","num_nodes":"7","size_leaf_vector":"1"}},{"base_weights":[1.1026987E-3,8.8498223E-4,3.986865E1,8.357565E-4,1.409014E1,2.2472507E1,1.617355E1,-2.3529846E-4,1.16454564E-1,-7.514042E-1,3.7693894E0],"categories":[],"categories_nodes":[],"categories_segments":[],"categories_sizes":[],"default_left":[0,0,0,0,0,0,0,0,0,0,0],"id":43,"left_children":[1,3,5,7,-1,9,-1,-1,-1,-1,-1],"loss_changes":[5.773413E4,4.6134258E4,7.219544E4,2.4682205E4,0E0,1.558515E4,0E0,0E0,0E0,0E0,0E0],"parents":[2147483647,0,0,1,1,2,2,3,3,5,5],"right_children":[2,4,6,8,-1,10,-1,-1,-1,-1,-1],"split_conditions":[2.73E2,1.305E3,7.265625E-1,4.1445312E0,1.409014E1,2E1,1.617355E1,-2.3529846E-4,1.16454564E-1,-7.514042E-1,3.7693894E0],"split_indices":[7,18,8,14,0,2,0,0,0,0,0],"split_type":[0,0,0,0,0,0,0,0,0,0,0],"sum_hessian":[6.651539E6,6.651504E6,3.5E1,6.651503E6,1E0,3.2E1,3E0,6.633328E6,1.8175E4,1.1E1,2.1E1],"tree_param":{"num_deleted":"0","num_feature":"23","num_nodes":"11","size_leaf_vector":"1"}},{"base_weights":[-4.9112678E-6,-5.2031068E-5,1.3483798E1,-9.792688E-5,1.3133537E1,-2.5333879E-5,2.925636E0],"categories":[],"categories_nodes":[],"categories_segments":[],"categories_sizes":[],"default_left":[0,0,0,0,0,0,0],"id":44,"left_children":[1,3,-1,5,-1,-1,-1],"loss_changes":[4.2249637E4,4.0083184E4,0E0,3.023522E4,0E0,0E0,0E0],"parents":[2147483647,0,0,1,1,3,3],"right_children":[2,4,-1,6,-1,-1,-1],"split_conditions":[1.305E3,1.305E3,1.3483798E1,2.73E2,1.3133537E1,-2.5333879E-5,2.925636E0],"split_indices":[18,19,0,5,0,0,0],"split_type":[0,0,0,0,0,0,0],"sum_hessian":[6.649777E6,6.649776E6,1E0,6.649775E6,1E0,6.649741E6,3.4E1],"tree_param":{"num_deleted":"0","num_feature":"23","num_nodes":"7","size_leaf_vector":"1"}},{"base_weights":[3.380842E-4,2.9416464E-4,1.2568362E1,-1.2631025E-3,2.8140812E0,-2.274894E-3,1.3139486E-2,4.771358E0,1.6575037E-1],"categories":[],"categories_nodes":[],"categories_segments":[],"categories_sizes":[],"default_left":[0,0,0,0,0,0,0,0,0],"id":45,"left_children":[1,3,-1,5,7,-1,-1,-1,-1],"loss_changes":[3.6707383E4,2.913887E4,0E0,1.8943654E4,1.909097E5,0E0,0E0,0E0,0E0],"parents":[2147483647,0,0,1,1,3,3,4,4],"right_children":[2,4,-1,6,8,-1,-1,-1,-1],"split_conditions":[1.305E3,3.2E1,1.2568362E1,1E0,1.1E1,-2.274894E-3,1.3139486E-2,4.771358E0,1.6575037E-1],"split_indices":[19,19,0,18,4,0,0,0,0],"split_type":[0,0,0,0,0,0,0,0,0],"sum_hessian":[6.649948E6,6.649947E6,1E0,6.64627E6,3.677E3,5.719859E6,9.26411E5,9.1E1,3.586E3],"tree_param":{"num_deleted":"0","num_feature":"23","num_nodes":"9","size_leaf_vector":"1"}},{"base_weights":[-5.954623E-4,-6.375146E-4,1.2027508E1,-2.0258032E-2,1.486701E-1,-1.9212617E-3,-3.123446E-1,1.3023488E-2,4.448795E-1],"categories":[],"categories_nodes":[],"categories_segments":[],"categories_sizes":[],"default_left":[0,0,0,0,0,0,0,0,0],"id":46,"left_children":[1,3,-1,5,7,-1,-1,-1,-1],"loss_changes":[3.3616625E4,1.9470531E4,0E0,1.905723E4,6.119528E4,0E0,0E0,0E0,0E0],"parents":[2147483647,0,0,1,1,3,3,4,4],"right_children":[2,4,-1,6,8,-1,-1,-1,-1],"split_conditions":[1.305E3,5.361328E-1,1.2027508E1,3.1E1,7.7460938E0,-1.9212617E-3,-3.123446E-1,1.3023488E-2,4.448795E-1],"split_indices":[19,8,0,17,5,0,0,0,0],"split_type":[0,0,0,0,0,0,0,0,0],"sum_hessian":[6.646382E6,6.646381E6,1E0,5.874424E6,7.71957E5,5.872447E6,1.977E3,7.68663E5,3.294E3],"tree_param":{"num_deleted":"0","num_feature":"23","num_nodes":"9","size_leaf_vector":"1"}},{"base_weights":[2.5708652E-5,-2.3313865E-5,1.4026835E1,-6.831877E-5,1.2877271E1,-1.0854495E-5,1.1509929E1],"categories":[],"categories_nodes":[],"categories_segments":[],"categories_sizes":[],"default_left":[0,0,0,0,0,0,0],"id":47,"left_children":[1,3,-1,5,-1,-1,-1],"loss_changes":[4.5721207E4,3.8534188E4,0E0,3.0785355E4,0E0,0E0,0E0],"parents":[2147483647,0,0,1,1,3,3],"right_children":[2,4,-1,6,-1,-1,-1],"split_conditions":[1.305E3,1.305E3,1.4026835E1,1.305E3,1.2877271E1,-1.0854495E-5,1.1509929E1],"split_indices":[17,18,0,19,0,0,0],"split_type":[0,0,0,0,0,0,0],"sum_hessian":[6.649092E6,6.649091E6,1E0,6.64909E6,1E0,6.649089E6,1E0],"tree_param":{"num_deleted":"0","num_feature":"23","num_nodes":"7","size_leaf_vector":"1"}},{"base_weights":[7.757131E-4,7.288096E-4,1.3423218E1,6.8575004E-4,1.2323123E1,-1.8296418E-4,1.3800733E-1],"categories":[],"categories_nodes":[],"categories_segments":[],"categories_sizes":[],"default_left":[0,0,0,0,0,0,0],"id":48,"left_children":[1,3,-1,5,-1,-1,-1],"loss_changes":[4.187036E4,3.528864E4,0E0,2.3074926E4,0E0,0E0,0E0],"parents":[2147483647,0,0,1,1,3,3],"right_children":[2,4,-1,6,-1,-1,-1],"split_conditions":[1.305E3,1.305E3,1.3423218E1,1.5E1,1.2323123E1,-1.8296418E-4,1.3800733E-1],"split_indices":[17,18,0,17,0,0,0],"split_type":[0,0,0,0,0,0,0],"sum_hessian":[6.650408E6,6.650407E6,1E0,6.650406E6,1E0,6.638302E6,1.2104E4],"tree_param":{"num_deleted":"0","num_feature":"23","num_nodes":"7","size_leaf_vector":"1"}},{"base_weights":[2.5408634E-4,2.1286229E-4,1.1792823E1,1.7437933E-4,1.1008684E1,-5.685903E-4,4.990844E-2],"categories":[],"categories_nodes":[],"categories_segments":[],"categories_sizes":[],"default_left":[0,0,0,0,0,0,0],"id":49,"left_children":[1,3,-1,5,-1,-1,-1],"loss_changes":[3.2317078E4,2.816226E4,0E0,1.9435951E4,0E0,0E0,0E0],"parents":[2147483647,0,0,1,1,3,3],"right_children":[2,4,-1,6,-1,-1,-1],"split_conditions":[1.305E3,1.305E3,1.1792823E1,5E0,1.1008684E1,-5.685903E-4,4.990844E-2],"split_indices":[18,19,0,19,0,0,0],"split_type":[0,0,0,0,0,0,0],"sum_hessian":[6.647601E6,6.6476E6,1E0,6.647599E6,1E0,6.570423E6,7.7176E4],"tree_param":{"num_deleted":"0","num_feature":"23","num_nodes":"7","size_leaf_vector":"1"}},{"base_weights":[6.1896676E-4,5.7407684E-4,1.2843429E1,5.3463265E-4,1.1285341E1,-2.293329E-4,1.061386E-1],"categories":[],"categories_nodes":[],"categories_segments":[],"categories_sizes":[],"default_left":[0,0,0,0,0,0,0],"id":50,"left_children":[1,3,-1,5,-1,-1,-1],"loss_changes":[3.8331527E4,2.9595344E4,0E0,1.9946064E4,0E0,0E0,0E0],"parents":[2147483647,0,0,1,1,3,3],"right_children":[2,4,-1,6,-1,-1,-1],"split_conditions":[1.305E3,1.305E3,1.2843429E1,4.15625E0,1.1285341E1,-2.293329E-4,1.061386E-1],"split_indices":[17,18,0,15,0,0,0],"split_type":[0,0,0,0,0,0,0],"sum_hessian":[6.648584E6,6.648583E6,1E0,6.648582E6,1E0,6.630907E6,1.7675E4],"tree_param":{"num_deleted":"0","num_feature":"23","num_nodes":"7","size_leaf_vector":"1"}},{"base_weights":[2.6895048E-5,-1.605933E-5,1.2290736E1,-5.2861524E-5,1.0530379E1,-2.7141746E-3,9.10326E-3],"categories":[],"categories_nodes":[],"categories_segments":[],"categories_sizes":[],"default_left":[0,0,0,0,0,0,0],"id":51,"left_children":[1,3,-1,5,-1,-1,-1],"loss_changes":[3.510379E4,2.5768352E4,0E0,1.6406232E4,0E0,0E0,0E0],"parents":[2147483647,0,0,1,1,3,3],"right_children":[2,4,-1,6,-1,-1,-1],"split_conditions":[1.305E3,1.305E3,1.2290736E1,2.9052734E-1,1.0530379E1,-2.7141746E-3,9.10326E-3],"split_indices":[17,19,0,14,0,0,0],"split_type":[0,0,0,0,0,0,0],"sum_hessian":[6.649189E6,6.649188E6,1E0,6.649187E6,1E0,5.125007E6,1.52418E6],"tree_param":{"num_deleted":"0","num_feature":"23","num_nodes":"7","size_leaf_vector":"1"}},{"base_weights":[-3.380196E-4,-3.7324405E-4,1.0077226E1,-2.6824757E-2,8.6242646E-2,7.013896E-3,-6.14798E-3,4.7133286E-3,5.929252E-2],"categories":[],"categories_nodes":[],"categories_segments":[],"categories_sizes":[],"default_left":[0,0,0,0,0,0,0,0,0],"id":52,"left_children":[1,3,-1,5,7,-1,-1,-1,-1],"loss_changes":[2.3598438E4,1.5231533E4,0E0,1.7113215E4,3.0819445E4,0E0,0E0,0E0,0E0],"parents":[2147483647,0,0,1,1,3,3,4,4],"right_children":[2,4,-1,6,8,-1,-1,-1,-1],"split_conditions":[1.305E3,2.6000977E-1,1.0077226E1,1.9226074E-2,1.2E1,7.013896E-3,-6.14798E-3,4.7133286E-3,5.929252E-2],"split_indices":[19,5,0,5,1,0,0,0,0],"split_type":[0,0,0,0,0,0,0,0,0],"sum_hessian":[6.648068E6,6.648067E6,1E0,5.092788E6,1.555279E6,1.340924E6,3.751864E6,1.443835E6,1.11444E5],"tree_param":{"num_deleted":"0","num_feature":"23","num_nodes":"9","size_leaf_vector":"1"}},{"base_weights":[1.3374258E-4,9.600648E-5,1.0799106E1,-8.832652E-3,2.2472437E-1,-8.354749E-4,-4.6655145E-1,1.6575959E-2,1.5929496E-1],"categories":[],"categories_nodes":[],"categories_segments":[],"categories_sizes":[],"default_left":[0,0,0,0,0,0,0,0,0],"id":53,"left_children":[1,3,-1,5,7,-1,-1,-1,-1],"loss_changes":[2.7100223E4,1.3337661E4,0E0,1.4233636E4,2.050997E4,0E0,0E0,0E0,0E0],"parents":[2147483647,0,0,1,1,3,3,4,4],"right_children":[2,4,-1,6,8,-1,-1,-1,-1],"split_conditions":[1.305E3,1.2246094E0,1.0799106E1,3.1E1,7.1E1,-8.354749E-4,-4.6655145E-1,1.6575959E-2,1.5929496E-1],"split_indices":[18,14,0,17,4,0,0,0,0],"split_type":[0,0,0,0,0,0,0,0,0],"sum_hessian":[6.65011E6,6.650109E6,1E0,6.395883E6,2.54226E5,6.395228E6,6.55E2,2.43724E5,1.0502E4],"tree_param":{"num_deleted":"0","num_feature":"23","num_nodes":"9","size_leaf_vector":"1"}},{"base_weights":[1.0373123E-3,-6.9721503E-4,3.0910907E0,8.043632E-2,-2.5388887E-2,-9.9517244E-1,1.3945577E1,7.603237E-2,-1.7372206E-3,-5.33391E-3,1.0564325E-2,6.7655954E0,-1.5900758E-1,3.213789E1,1.2620786E0],"categories":[],"categories_nodes":[],"categories_segments":[],"categories_sizes":[],"default_left":[0,0,0,0,0,0,0,0,0,0,0,0,0,0,0],"id":54,"left_children":[1,3,5,7,9,11,13,-1,-1,-1,-1,-1,-1,-1,-1],"loss_changes":[3.5638727E4,1.3313197E4,1.654742E5,1.0311139E5,1.8659754E4,1.1087499E5,4.1019272E5,0E0,0E0,0E0,0E0,0E0,0E0,0E0,0E0],"parents":[2147483647,0,0,1,1,2,2,3,3,4,4,5,5,6,6],"right_children":[2,4,6,8,10,12,14,-1,-1,-1,-1,-1,-1,-1,-1],"split_conditions":[3.2E1,3.5247803E-2,9E0,3.1E1,1E0,3.7460327E-3,9E0,7.603237E-2,-1.7372206E-3,-5.33391E-3,1.0564325E-2,6.7655954E0,-1.5900758E-1,3.213789E1,1.2620786E0],"split_indices":[19,9,1,4,19,14,4,0,0,0,0,0,0,0,0],"split_type":[0,0,0,0,0,0,0,0,0,0,0,0,0,0,0],"sum_hessian":[6.649285E6,6.645556E6,3.729E3,1.550574E6,5.094982E6,2.71E3,1.019E3,1.9501E5,1.355564E6,4.199249E6,8.95733E5,2.2E1,2.688E3,3E0,1.016E3],"tree_param":{"num_deleted":"0","num_feature":"23","num_nodes":"15","size_leaf_vector":"1"}}]},"name":"gbtree"},"learner_model_param":{"base_score":"3.3432078E-1","boost_from_average":"1","num_class":"0","num_feature":"23","num_target":"1"},"objective":{"name":"reg:squarederror","reg_loss_param":{"scale_pos_weight":"1"}}},"version":[2,1,1]}