{"learner":{"attributes":{"best_iteration":"13","best_score":"1.9848211382518055","scikit_learn":"{\"_estimator_type\": \"regressor\"}"},"feature_names":["date_block_num","month","shop_id","item_id","item_category_id","cnt_item_id_by_month_lag_1","cnt_item_id_by_month_lag_2","cnt_item_id_by_month_lag_3","cnt_shop_id_by_month_lag_1","cnt_shop_id_by_month_lag_2","cnt_shop_id_by_month_lag_3","cnt_item_category_by_month_lag_1","cnt_item_category_by_month_lag_2","cnt_item_category_by_month_lag_3","cnt_item_category_by_shop_id_month_lag_1","cnt_item_category_by_shop_id_month_lag_2","cnt_item_category_by_shop_id_month_lag_3","cnt_item_id_by_shop_id_month_lag_1","cnt_item_id_by_shop_id_month_lag_2","cnt_item_id_by_shop_id_month_lag_3","z_item_price_mean_lag_1","z_item_price_mean_lag_2","z_item_price_mean_lag_3"],"feature_types":["int","int","int","int","int","float","float","float","float","float","float","float","float","float","float","float","float","float","float","float","float","float","float"],"gradient_booster":{"model":{"gbtree_model_param":{"num_parallel_tree":"1","num_trees":"54"},"iteration_indptr":[0,1,2,3,4,5,6,7,8,9,10,11,12,13,14,15,16,17,18,19,20,21,22,23,24,25,26,27,28,29,30,31,32,33,34,35,36,37,38,39,40,41,42,43,44,45,46,47,48,49,50,51,52,53,54],"tree_info":[0,0,0,0,0,0,0,0,0,0,0,0,0,0,0,0,0,0,0,0,0,0,0,0,0,0,0,0,0,0,0,0,0,0,0,0,0,0,0,0,0,0,0,0,0,0,0,0,0,0,0,0,0,0],"trees":[{"base_weights":[4.223848E-6,-8.710239E-3,4.0244022E2,-2.2231968E-2,7.859589E1,1.9791374E2,5.135581E2,-7.178556E-2,7.7615523E0,3.8977955E1,1.1620859E2,4.6583523E1,2.7969736E2,5.698587E2,2.846381E2,-1.3725671E-1,1.3629475E0,5.93262E0,1.7227306E1,3.3421555E1,1.2412765E2,9.518854E1,1.6999277E2,1.0611624E1,2.5575005E1,1.9968906E2,3.5585425E2,3.5700452E2,6.209445E2,3.3882957E1,7.339189E1,-1.3748941E-2,1.72531E1,9.9075645E-2,2.656035E-1,5.0480884E-1,8.33185E-1,1.387514E0,3.1647365E0,4.3406754E0,2.4299164E0,2.1737587E1,8.898656E0,7.701042E0,1.1190854E1,4.6041847E1,1.6290525E1,3.272529E0,1.6039293E-1,1.0735024E1,2.331871E1,2.1360662E1,4.1765064E1,4.516191E0,3.843379E1,5.1363445E1,7.334606E1,1.0049994E1,-1.9440457E-2],"categories":[],"categories_nodes":[],"categories_segments":[],"categories_sizes":[],"default_left":[0,0,0,0,0,0,0,0,0,0,0,0,0,0,0,0,0,0,0,0,0,0,0,0,0,0,0,0,0,0,0,0,0,0,0,0,0,0,0,0,0,0,0,0,0,0,0,0,0,0,0,0,0,0,0,0,0,0,0],"id":0,"left_children":[1,3,5,7,9,11,13,15,17,19,21,23,25,27,29,31,33,35,37,39,41,43,45,-1,47,49,51,53,55,-1,57,-1,-1,-1,-1,-1,-1,-1,-1,-1,-1,-1,-1,-1,-1,-1,-1,-1,-1,-1,-1,-1,-1,-1,-1,-1,-1,-1,-1],"loss_changes":[3.1329766E7,9.494804E6,4.249906E6,3.445063E6,2.282985E6,8.53027E5,1.370338E6,8.336741E5,9.7801825E5,3.490805E5,8.66945E5,2.9161133E4,1.7458425E5,7.51322E5,2.783245E5,3.4105944E5,1.8640606E5,1.00435E5,4.4158925E5,6.2830562E4,1.2105419E5,1.606695E5,3.4373E5,0E0,3.599163E3,4.2655625E4,6.0045E4,1.66282E5,3.92732E5,0E0,1.486816E4,0E0,0E0,0E0,0E0,0E0,0E0,0E0,0E0,0E0,0E0,0E0,0E0,0E0,0E0,0E0,0E0,0E0,0E0,0E0,0E0,0E0,0E0,0E0,0E0,0E0,0E0,0E0,0E0],"parents":[2147483647,0,0,1,1,2,2,3,3,4,4,5,5,6,6,7,7,8,8,9,9,10,10,11,11,12,12,13,13,14,14,15,15,16,16,17,17,18,18,19,19,20,20,21,21,22,22,24,24,25,25,26,26,27,27,28,28,30,30],"right_children":[2,4,6,8,10,12,14,16,18,20,22,24,26,28,30,32,34,36,38,40,42,44,46,-1,48,50,52,54,56,-1,58,-1,-1,-1,-1,-1,-1,-1,-1,-1,-1,-1,-1,-1,-1,-1,-1,-1,-1,-1,-1,-1,-1,-1,-1,-1,-1,-1,-1],"split_conditions":[2.83E2,6.5E1,5.932617E-1,7E0,6.3046875E0,6.3046875E0,2.5E1,2E0,1.9E1,7.1E1,1.45E2,2E1,1.73E2,4.12E2,4.91E2,2.8E2,4E0,1.2E1,6.3554688E0,1.2E1,6E0,9.2E1,7.5439453E-1,1.0611624E1,8.544922E-1,4.440918E-1,5E0,9E0,9.711914E-1,3.3882957E1,7.76E2,-1.3748941E-2,1.72531E1,9.9075645E-2,2.656035E-1,5.0480884E-1,8.33185E-1,1.387514E0,3.1647365E0,4.3406754E0,2.4299164E0,2.1737587E1,8.898656E0,7.701042E0,1.1190854E1,4.6041847E1,1.6290525E1,3.272529E0,1.6039293E-1,1.0735024E1,2.331871E1,2.1360662E1,4.1765064E1,4.516191E0,3.843379E1,5.1363445E1,7.334606E1,1.0049994E1,-1.9440457E-2],"split_indices":[17,17,9,17,15,15,0,17,17,4,17,4,19,17,19,19,17,17,14,0,0,17,12,0,8,8,1,4,10,0,19,0,0,0,0,0,0,0,0,0,0,0,0,0,0,0,0,0,0,0,0,0,0,0,0,0,0,0,0],"split_type":[0,0,0,0,0,0,0,0,0,0,0,0,0,0,0,0,0,0,0,0,0,0,0,0,0,0,0,0,0,0,0,0,0,0,0,0,0,0,0,0,0,0,0,0,0,0,0,0,0,0,0,0,0,0,0,0,0,0,0],"sum_hessian":[8.933364E6,8.933172E6,1.92E2,8.931637E6,1.535E3,6.9E1,1.23E2,8.875137E6,5.65E4,7.49E2,7.86E2,2.5E1,4.4E1,9.7E1,2.6E1,8.487814E6,3.87323E5,4.7353E4,9.147E3,7.05E2,4.4E1,5.68E2,2.18E2,5E0,2E1,2.4E1,2E1,2.1E1,7.6E1,2E1,6E0,8.487804E6,1E1,3.00758E5,8.6565E4,3.4601E4,1.2752E4,7.424E3,1.723E3,3.34E2,3.71E2,1E1,3.4E1,2.76E2,2.92E2,3E0,2.15E2,1.5E1,5E0,8E0,1.6E1,8E0,1.2E1,2E0,1.9E1,4.3E1,3.3E1,4E0,2E0],"tree_param":{"num_deleted":"0","num_feature":"23","num_nodes":"59","size_leaf_vector":"1"}},{"base_weights":[5.2931624E-5,-7.057241E-3,3.5009174E2,-1.6305633E-2,7.1121925E1,1.5766794E2,4.4807715E2,-6.824824E-2,4.125161E0,1.9019136E1,1.1060492E2,2.7820265E1,2.0433873E2,5.22056E2,2.0708757E2,-1.0516826E-1,1.6767949E0,3.5409694E0,2.0111689E1,1.2890027E1,4.711376E1,2.5033858E2,1.0522542E2,3.690288E1,2.645593E0,1.3195404E2,2.4347401E2,3.0582053E2,5.697101E2,2.8638583E2,1.5678823E1,-1.547225E-2,4.7621306E-2,1.5595073E-1,1.1354396E0,2.8176838E-1,8.408765E-1,1.2929662E0,6.252657E0,1.1435317E0,3.0700743E0,1.3892146E1,3.9309273E0,7.6358833E0,3.7161484E1,9.795109E0,1.8723087E1,3.9194207E0,3.4434542E-1,8.747151E-2,5.033204E-1,2.891918E0,1.4138339E1,1.0526301E1,2.8153275E1,1.3616093E0,3.579521E1,5.048852E1,7.2013756E1,3.0039722E1,8.733951E0,-6.290272E-2,6.953078E0],"categories":[],"categories_nodes":[],"categories_segments":[],"categories_sizes":[],"default_left":[0,0,0,0,0,0,0,0,0,0,0,0,0,0,0,0,0,0,0,0,0,0,0,0,0,0,0,0,0,0,0,0,0,0,0,0,0,0,0,0,0,0,0,0,0,0,0,0,0,0,0,0,0,0,0,0,0,0,0,0,0,0,0],"id":1,"left_children":[1,3,5,7,9,11,13,15,17,19,21,23,25,27,29,31,33,35,37,39,41,43,45,47,49,51,53,55,57,59,61,-1,-1,-1,-1,-1,-1,-1,-1,-1,-1,-1,-1,-1,-1,-1,-1,-1,-1,-1,-1,-1,-1,-1,-1,-1,-1,-1,-1,-1,-1,-1,-1],"loss_changes":[2.2238426E7,5.8768725E6,3.3193E6,1.9215645E6,2.3862545E6,3.7626612E5,1.973766E6,5.6837144E5,1.0332376E6,8.564342E4,4.585325E5,4.0756777E3,8.5308125E4,6.81142E5,4.55558E5,2.4889345E5,2.0744069E5,3.757995E5,1.1870069E6,1.0232547E4,5.6223844E4,4.537175E5,3.544525E5,8.36084E2,2.0889729E1,1.3001031E4,1.0693775E5,2.8910662E5,1.8303E5,2.2026875E4,9.230968E3,0E0,0E0,0E0,0E0,0E0,0E0,0E0,0E0,0E0,0E0,0E0,0E0,0E0,0E0,0E0,0E0,0E0,0E0,0E0,0E0,0E0,0E0,0E0,0E0,0E0,0E0,0E0,0E0,0E0,0E0,0E0,0E0],"parents":[2147483647,0,0,1,1,2,2,3,3,4,4,5,5,6,6,7,7,8,8,9,9,10,10,11,11,12,12,13,13,14,14,15,15,16,16,17,17,18,18,19,19,20,20,21,21,22,22,23,23,24,24,25,25,26,26,27,27,28,28,29,29,30,30],"right_children":[2,4,6,8,10,12,14,16,18,20,22,24,26,28,30,32,34,36,38,40,42,44,46,48,50,52,54,56,58,60,62,-1,-1,-1,-1,-1,-1,-1,-1,-1,-1,-1,-1,-1,-1,-1,-1,-1,-1,-1,-1,-1,-1,-1,-1,-1,-1,-1,-1,-1,-1,-1,-1],"split_conditions":[2.83E2,7.6E1,5.9765625E-1,3.2792969E0,6.3554688E0,1E0,2.5E1,3E0,6.3554688E0,5.5E1,1.4111328E0,3.735E3,4.1186523E-1,7.265625E-1,5.57E2,6.0009766E-1,6.3554688E0,5.908203E-1,1.9453E4,9.6015625E0,-6.689453E-2,1.2773438E0,1.2E1,1.9226074E-2,5.908203E-1,1.6796875E0,1.38203125E1,4.1E1,1.1E1,6.91E2,1.2324219E0,-1.547225E-2,4.7621306E-2,1.5595073E-1,1.1354396E0,2.8176838E-1,8.408765E-1,1.2929662E0,6.252657E0,1.1435317E0,3.0700743E0,1.3892146E1,3.9309273E0,7.6358833E0,3.7161484E1,9.795109E0,1.8723087E1,3.9194207E0,3.4434542E-1,8.747151E-2,5.033204E-1,2.891918E0,1.4138339E1,1.0526301E1,2.8153275E1,1.3616093E0,3.579521E1,5.048852E1,7.2013756E1,3.0039722E1,8.733951E0,-6.290272E-2,6.953078E0],"split_indices":[18,18,10,5,14,19,0,18,14,19,12,3,8,8,19,5,14,8,3,7,22,11,1,7,8,5,6,19,1,18,8,0,0,0,0,0,0,0,0,0,0,0,0,0,0,0,0,0,0,0,0,0,0,0,0,0,0,0,0,0,0,0,0],"split_type":[0,0,0,0,0,0,0,0,0,0,0,0,0,0,0,0,0,0,0,0,0,0,0,0,0,0,0,0,0,0,0,0,0,0,0,0,0,0,0,0,0,0,0,0,0,0,0,0,0,0,0,0,0,0,0,0,0,0,0,0,0,0,0],"sum_hessian":[8.933919E6,8.933739E6,1.8E2,8.932579E6,1.16E3,6.2E1,1.18E2,8.821935E6,1.10644E5,5.01E2,6.59E2,1.7E1,4.5E1,8.9E1,2.9E1,8.639157E6,1.82778E5,1.06745E5,3.899E3,4.13E2,8.8E1,2.2E1,6.37E2,1.2E1,5E0,1.8E1,2.7E1,1.8E1,7.1E1,2E1,9E0,7.960631E6,6.78526E5,1.80591E5,2.187E3,9.2938E4,1.3807E4,3.336E3,5.63E2,3.84E2,2.9E1,5E0,8.3E1,1E1,1.2E1,5.88E2,4.9E1,1.1E1,1E0,4E0,1E0,2E0,1.6E1,7E0,2E1,3E0,1.5E1,5.4E1,1.7E1,1.8E1,2E0,8E0,1E0],"tree_param":{"num_deleted":"0","num_feature":"23","num_nodes":"63","size_leaf_vector":"1"}},{"base_weights":[1.0390503E-4,-6.978123E-3,3.4487024E2,-1.834109E-2,6.6046E1,1.7221289E2,4.288645E2,-6.001607E-2,6.536529E0,3.3880684E1,9.634124E1,4.0828026E1,2.4734285E2,4.7203275E2,2.4642447E2,-9.5949024E-2,1.7683139E0,5.491642E0,1.8684237E1,3.0577517E1,1.3403151E2,7.747551E1,1.4371582E2,9.190555E0,1.703353E1,1.471367E2,3.1382007E2,3.1471115E2,5.17277E2,7.435461E1,3.0287985E1,-9.61512E-3,1.4137329E1,1.4678977E-1,2.664913E-1,4.486247E-1,8.8731426E-1,5.189301E0,1.7240614E0,3.8488E0,2.2141125E0,1.9647417E1,7.5525374E0,6.5700164E0,9.878791E0,4.1227238E1,1.3736892E1,3.9593408E0,6.837037E-1,1.5767092E0,1.617384E1,2.668266E0,3.400374E1,3.297157E1,-2.1312628E0,4.1783934E0,5.297469E1,1.3077497E1,2.7598543E0],"categories":[],"categories_nodes":[],"categories_segments":[],"categories_sizes":[],"default_left":[0,0,0,0,0,0,0,0,0,0,0,0,0,0,0,0,0,0,0,0,0,0,0,0,0,0,0,0,0,0,0,0,0,0,0,0,0,0,0,0,0,0,0,0,0,0,0,0,0,0,0,0,0,0,0,0,0,0,0],"id":2,"left_children":[1,3,5,7,9,11,13,15,17,19,21,23,25,27,29,31,33,35,37,39,41,43,45,-1,47,49,51,53,55,57,-1,-1,-1,-1,-1,-1,-1,-1,-1,-1,-1,-1,-1,-1,-1,-1,-1,-1,-1,-1,-1,-1,-1,-1,-1,-1,-1,-1,-1],"loss_changes":[2.181789E7,6.7046315E6,2.55397E6,2.4398078E6,1.4924945E6,6.017996E5,7.96852E5,5.830574E5,7.160595E5,2.4136469E5,6.904325E5,2.7449402E4,1.9625775E5,4.59234E5,2.2442288E5,2.4895753E5,4.6069938E4,1.7658812E5,2.1293325E5,4.718625E4,6.4271344E4,1.3331325E5,2.99333E5,0E0,3.8519966E3,3.1700094E4,1.5586325E5,1.3837725E5,4.03584E5,1.7067973E4,0E0,0E0,0E0,0E0,0E0,0E0,0E0,0E0,0E0,0E0,0E0,0E0,0E0,0E0,0E0,0E0,0E0,0E0,0E0,0E0,0E0,0E0,0E0,0E0,0E0,0E0,0E0,0E0,0E0],"parents":[2147483647,0,0,1,1,2,2,3,3,4,4,5,5,6,6,7,7,8,8,9,9,10,10,11,11,12,12,13,13,14,14,15,15,16,16,17,17,18,18,19,19,20,20,21,21,22,22,24,24,25,25,26,26,27,27,28,28,29,29],"right_children":[2,4,6,8,10,12,14,16,18,20,22,24,26,28,30,32,34,36,38,40,42,44,46,-1,48,50,52,54,56,58,-1,-1,-1,-1,-1,-1,-1,-1,-1,-1,-1,-1,-1,-1,-1,-1,-1,-1,-1,-1,-1,-1,-1,-1,-1,-1,-1,-1,-1],"split_conditions":[2.92E2,6.5E1,5.932617E-1,7E0,6.3046875E0,6.3046875E0,2.5E1,3E0,2.7E1,2.3320312E0,1.45E2,2.1E1,5E0,7.4853516E-1,2.7E1,3.12E2,5E0,1.4E1,1.3398438E0,1.3E1,6E0,9E0,7.5439453E-1,9.190555E0,3.027E3,8.7E1,3.6376953E-1,6.87E2,9.256E3,4.6E2,3.0287985E1,-9.61512E-3,1.4137329E1,1.4678977E-1,2.664913E-1,4.486247E-1,8.8731426E-1,5.189301E0,1.7240614E0,3.8488E0,2.2141125E0,1.9647417E1,7.5525374E0,6.5700164E0,9.878791E0,4.1227238E1,1.3736892E1,3.9593408E0,6.837037E-1,1.5767092E0,1.617384E1,2.668266E0,3.400374E1,3.297157E1,-2.1312628E0,4.1783934E0,5.297469E1,1.3077497E1,2.7598543E0],"split_indices":[17,17,9,17,15,15,0,17,17,12,17,4,1,8,0,19,17,17,5,0,0,1,12,0,3,18,8,17,3,19,0,0,0,0,0,0,0,0,0,0,0,0,0,0,0,0,0,0,0,0,0,0,0,0,0,0,0,0,0],"split_type":[0,0,0,0,0,0,0,0,0,0,0,0,0,0,0,0,0,0,0,0,0,0,0,0,0,0,0,0,0,0,0,0,0,0,0,0,0,0,0,0,0,0,0,0,0,0,0,0,0,0,0,0,0,0,0,0,0,0,0],"sum_hessian":[8.933043E6,8.932861E6,1.82E2,8.931326E6,1.535E3,6.1E1,1.21E2,8.874902E6,5.6424E4,7.46E2,7.89E2,2.3E1,3.8E1,9.6E1,2.5E1,8.703843E6,1.71059E5,5.1957E4,4.467E3,7.24E2,2.2E1,5.67E2,2.22E2,6E0,1.7E1,1.7E1,2.1E1,2.4E1,7.2E1,7E0,1.8E1,8.703832E6,1.1E1,1.28131E5,4.2928E4,4.0052E4,1.1905E4,1.84E2,4.283E3,3.71E2,3.53E2,9E0,1.3E1,3.69E2,1.98E2,3E0,2.19E2,4E0,1.3E1,2E0,1.5E1,2E0,1.9E1,2.3E1,1E0,2E0,7E1,2E0,5E0],"tree_param":{"num_deleted":"0","num_feature":"23","num_nodes":"59","size_leaf_vector":"1"}},{"base_weights":[1.3455158E-4,-6.4356793E-3,3.0342178E2,-1.8717721E-2,4.8157738E1,1.5433418E2,3.8247034E2,-5.943117E-2,4.944076E0,2.5128181E1,7.92485E1,3.805449E1,2.1454478E2,3.5067838E2,6.306899E1,-1.05062395E-1,9.862992E-1,3.962969E0,1.1536475E1,2.1474445E1,9.0982445E1,5.7768253E1,1.0740219E2,9.017444E0,1.8954166E1,1.1370928E2,2.4990868E2,2.4063765E2,3.948006E2,1.8766196E-2,-1.5217751E-2,6.569804E-2,1.5113243E-1,3.014483E-1,5.2919525E-1,1.0952314E0,5.6478887E0,1.801904E0,3.2980707E0,8.168454E0,2.9434217E1,4.5909554E1,5.584209E0,7.6907077E0,1.240922E1,3.0926158E0,2.8694091E-2,2.5752342E0,1.4386024E1,2.7939352E1,6.8406E0,2.4751274E1,-1.2346442E-1,4.2264988E1,2.2730236E1],"categories":[],"categories_nodes":[],"categories_segments":[],"categories_sizes":[],"default_left":[0,0,0,0,0,0,0,0,0,0,0,0,0,0,0,0,0,0,0,0,0,0,0,0,0,0,0,0,0,0,0,0,0,0,0,0,0,0,0,0,0,0,0,0,0,0,0,0,0,0,0,0,0,0,0],"id":3,"left_children":[1,3,5,7,9,11,13,15,17,19,21,23,25,27,-1,29,31,33,35,37,39,41,43,-1,45,47,49,51,53,-1,-1,-1,-1,-1,-1,-1,-1,-1,-1,-1,-1,-1,-1,-1,-1,-1,-1,-1,-1,-1,-1,-1,-1,-1,-1],"loss_changes":[1.7809328E7,5.284523E6,2.194746E6,1.8045318E6,1.627795E6,4.7441212E5,6.71532E5,4.227018E5,4.6996212E5,3.124978E5,5.767315E5,2.2864902E4,1.2112975E5,4.1888E5,0E0,1.1706376E5,6.403722E4,7.971706E4,2.4624612E5,4.8582188E4,9.479806E4,3.9014612E5,1.98724E5,0E0,4.55511E3,3.2960484E4,1.4609138E5,6.103475E4,2.32277E5,0E0,0E0,0E0,0E0,0E0,0E0,0E0,0E0,0E0,0E0,0E0,0E0,0E0,0E0,0E0,0E0,0E0,0E0,0E0,0E0,0E0,0E0,0E0,0E0,0E0,0E0],"parents":[2147483647,0,0,1,1,2,2,3,3,4,4,5,5,6,6,7,7,8,8,9,9,10,10,11,11,12,12,13,13,15,15,16,16,17,17,18,18,19,19,20,20,21,21,22,22,24,24,25,25,26,26,27,27,28,28],"right_children":[2,4,6,8,10,12,14,16,18,20,22,24,26,28,-1,30,32,34,36,38,40,42,44,-1,46,48,50,52,54,-1,-1,-1,-1,-1,-1,-1,-1,-1,-1,-1,-1,-1,-1,-1,-1,-1,-1,-1,-1,-1,-1,-1,-1,-1,-1],"split_conditions":[2.83E2,5E1,5.932617E-1,6E0,3.0585938E0,6.3046875E0,1.2E1,2E0,1.8E1,7.1E1,1.02E2,2E1,4.975586E-1,4.12E2,6.306899E1,3.1E1,1.3046875E0,9E0,3.2E1,9.4E1,7.1728516E-1,6.121826E-2,5E0,9.017444E0,6.3554688E0,9.7E1,5.908203E-1,1.1220703E0,2.5E1,1.8766196E-2,-1.5217751E-2,6.569804E-2,1.5113243E-1,3.014483E-1,5.2919525E-1,1.0952314E0,5.6478887E0,1.801904E0,3.2980707E0,8.168454E0,2.9434217E1,4.5909554E1,5.584209E0,7.6907077E0,1.240922E1,3.0926158E0,2.8694091E-2,2.5752342E0,1.4386024E1,2.7939352E1,6.8406E0,2.4751274E1,-1.2346442E-1,4.2264988E1,2.2730236E1],"split_indices":[17,17,9,17,16,15,1,17,17,4,17,4,8,17,0,4,5,17,0,17,9,6,1,0,14,18,9,10,0,0,0,0,0,0,0,0,0,0,0,0,0,0,0,0,0,0,0,0,0,0,0,0,0,0,0],"split_type":[0,0,0,0,0,0,0,0,0,0,0,0,0,0,0,0,0,0,0,0,0,0,0,0,0,0,0,0,0,0,0,0,0,0,0,0,0,0,0,0,0,0,0,0,0,0,0,0,0,0,0,0,0,0,0],"sum_hessian":[8.933471E6,8.933279E6,1.92E2,8.931003E6,2.276E3,6.8E1,1.24E2,8.858333E6,7.267E4,1.309E3,9.67E2,2.4E1,4.4E1,1.13E2,1.1E1,8.487956E6,3.70377E5,6.3258E4,9.412E3,1.242E3,6.7E1,5.51E2,4.16E2,5E0,1.9E1,1.3E1,3.1E1,3.5E1,7.8E1,1.176764E6,7.311192E6,2.27612E5,1.42765E5,3.6916E4,2.6342E4,9.293E3,1.19E2,9.58E2,2.84E2,6.6E1,1E0,1E0,5.5E2,1.5E2,2.66E2,1.1E1,8E0,4E0,9E0,2.6E1,5E0,3.4E1,1E0,6.5E1,1.3E1],"tree_param":{"num_deleted":"0","num_feature":"23","num_nodes":"55","size_leaf_vector":"1"}},{"base_weights":[5.616653E-4,-5.510443E-3,2.7472952E2,-1.6688216E-2,4.407874E1,1.3891399E2,3.461353E2,-5.950837E-2,3.815641E0,2.3058315E1,7.326341E1,3.5425495E1,1.9472937E2,2.755537E2,4.4086478E2,-1.0565393E-1,6.429879E-1,3.0119705E0,9.588728E0,1.9617289E1,8.100867E1,6.0669277E1,1.2254183E2,8.317269E0,1.8705954E1,1.3345049E2,2.5436714E2,1.4311253E2,3.01534E2,3.3653745E2,5.587553E1,-1.05766645E-2,1.1059882E1,6.397166E-2,8.7725935E0,2.4348862E-1,4.541727E-1,8.3523303E-1,2.1865096E0,2.6606543E0,1.3915101E0,7.262118E0,2.8227615E1,2.4797941E1,5.9451313E0,4.6359974E1,1.1541852E1,4.761955E0,1.220513E0,1.9356173E1,8.989924E0,1.4705531E1,3.0249556E1,1.6899E1,-1.7896429E0,2.4961588E0,3.099523E1,-3.7764695E0,3.506199E1],"categories":[],"categories_nodes":[],"categories_segments":[],"categories_sizes":[],"default_left":[0,0,0,0,0,0,0,0,0,0,0,0,0,0,0,0,0,0,0,0,0,0,0,0,0,0,0,0,0,0,0,0,0,0,0,0,0,0,0,0,0,0,0,0,0,0,0,0,0,0,0,0,0,0,0,0,0,0,0],"id":4,"left_children":[1,3,5,7,9,11,13,15,17,19,21,23,25,27,29,31,33,35,37,39,41,43,45,-1,47,49,51,53,55,57,-1,-1,-1,-1,-1,-1,-1,-1,-1,-1,-1,-1,-1,-1,-1,-1,-1,-1,-1,-1,-1,-1,-1,-1,-1,-1,-1,-1,-1],"loss_changes":[1.4902269E7,4.401875E6,1.845556E6,1.4655476E6,1.386743E6,3.96946E5,6.83901E5,2.8631053E5,4.5782062E5,2.6062088E5,5.77297E5,1.8867398E4,1.1719775E5,2.043425E5,3.74289E5,1.0342941E5,1.550064E5,7.645869E4,1.8276575E5,4.9142688E4,9.446797E4,1.5157875E5,3.880735E5,0E0,3.1931992E3,4.155075E4,4.6698E4,6.868178E4,1.365675E5,1.847795E5,0E0,0E0,0E0,0E0,0E0,0E0,0E0,0E0,0E0,0E0,0E0,0E0,0E0,0E0,0E0,0E0,0E0,0E0,0E0,0E0,0E0,0E0,0E0,0E0,0E0,0E0,0E0,0E0,0E0],"parents":[2147483647,0,0,1,1,2,2,3,3,4,4,5,5,6,6,7,7,8,8,9,9,10,10,11,11,12,12,13,13,14,14,15,15,16,16,17,17,18,18,19,19,20,20,21,21,22,22,24,24,25,25,26,26,27,27,28,28,29,29],"right_children":[2,4,6,8,10,12,14,16,18,20,22,24,26,28,30,32,34,36,38,40,42,44,46,-1,48,50,52,54,56,58,-1,-1,-1,-1,-1,-1,-1,-1,-1,-1,-1,-1,-1,-1,-1,-1,-1,-1,-1,-1,-1,-1,-1,-1,-1,-1,-1,-1,-1],"split_conditions":[2.8E2,5E1,5.932617E-1,5E0,3.4296875E0,6.3046875E0,5.88E2,8.442383E-1,1.6E1,7.1E1,1.49E2,2E1,1.73E2,5E0,8E0,2.27E2,1.61E2,9E0,7.1E1,1.2E1,7.1728516E-1,1.0214844E0,9E0,8.317269E0,1.1352539E-1,2.3320312E0,5E0,9.3896484E-1,9.256E3,8.081E3,5.587553E1,-1.05766645E-2,1.1059882E1,6.397166E-2,8.7725935E0,2.4348862E-1,4.541727E-1,8.3523303E-1,2.1865096E0,2.6606543E0,1.3915101E0,7.262118E0,2.8227615E1,2.4797941E1,5.9451313E0,4.6359974E1,1.1541852E1,4.761955E0,1.220513E0,1.9356173E1,8.989924E0,1.4705531E1,3.0249556E1,1.6899E1,-1.7896429E0,2.4961588E0,3.099523E1,-3.7764695E0,3.506199E1],"split_indices":[17,17,9,17,16,15,17,5,17,4,17,4,19,1,1,19,19,17,4,0,9,5,4,0,11,12,1,8,3,3,0,0,0,0,0,0,0,0,0,0,0,0,0,0,0,0,0,0,0,0,0,0,0,0,0,0,0,0,0],"split_type":[0,0,0,0,0,0,0,0,0,0,0,0,0,0,0,0,0,0,0,0,0,0,0,0,0,0,0,0,0,0,0,0,0,0,0,0,0,0,0,0,0,0,0,0,0,0,0,0,0,0,0,0,0,0,0,0,0,0,0],"sum_hessian":[8.933226E6,8.93303E6,1.96E2,8.930767E6,2.263E3,6.9E1,1.27E2,8.832084E6,9.8683E4,1.317E3,9.46E2,2.5E1,4.4E1,7.6E1,5.1E1,8.287684E6,5.444E5,8.6626E4,1.2057E4,1.245E3,7.2E1,7.56E2,1.9E2,5E0,2E1,2.4E1,2E1,1.4E1,6.2E1,3E1,2.1E1,8.287677E6,7E0,5.44381E5,1.9E1,6.2901E4,2.3725E4,1.0956E4,1.101E3,5.57E2,6.88E2,7.1E1,1E0,3E0,7.53E2,2E0,1.88E2,2E0,1.8E1,8E0,1.6E1,8E0,1.2E1,1.2E1,2E0,2E0,6E1,1E0,2.9E1],"tree_param":{"num_deleted":"0","num_feature":"23","num_nodes":"59","size_leaf_vector":"1"}},{"base_weights":[-1.2912932E-5,-5.404645E-3,2.5292184E2,-1.2729092E-2,5.5986702E1,1.3025127E2,3.1647702E2,-4.0730026E-2,5.476021E0,2.9200218E1,7.8081085E1,3.1048752E1,1.8403116E2,4.443716E2,2.6720044E2,-8.718219E-2,9.4798815E-1,4.4414325E0,1.5713838E1,2.2404222E1,9.466667E1,3.7561783E2,7.582904E1,7.2517433E0,1.5797477E1,1.0469989E2,2.2933936E2,1.0133132E1,4.6211902E2,2.3774529E2,4.1707226E1,-8.736158E-3,1.3303082E1,6.7230694E-2,1.79385E-1,3.9546272E-1,8.1945413E-1,1.1739707E0,3.0022314E0,3.253962E0,1.3137932E0,8.298819E0,2.7070478E1,6.793785E0,4.366418E1,6.6334453E0,1.1697546E1,2.6542735E0,-7.717728E-2,5.669007E0,1.4182998E1,2.5345802E1,2.7636504E0,8.78731E0,4.705349E1,-1.6863836E-1,2.4693357E1],"categories":[],"categories_nodes":[],"categories_segments":[],"categories_sizes":[],"default_left":[0,0,0,0,0,0,0,0,0,0,0,0,0,0,0,0,0,0,0,0,0,0,0,0,0,0,0,0,0,0,0,0,0,0,0,0,0,0,0,0,0,0,0,0,0,0,0,0,0,0,0,0,0,0,0,0,0],"id":5,"left_children":[1,3,5,7,9,11,13,15,17,19,21,23,25,27,29,31,33,35,37,39,41,43,45,-1,47,49,51,-1,53,55,-1,-1,-1,-1,-1,-1,-1,-1,-1,-1,-1,-1,-1,-1,-1,-1,-1,-1,-1,-1,-1,-1,-1,-1,-1,-1,-1],"loss_changes":[1.2182567E7,3.6636722E6,1.425397E6,1.3727904E6,6.88237E5,3.5157125E5,6.13331E5,4.081567E5,4.8009975E5,2.3294475E5,3.87467E5,1.4440176E4,1.21573625E5,1.300885E5,2.69758E5,2.0271161E5,9.299106E4,7.5186E4,2.3607081E5,4.4694156E4,6.930322E4,4.0654125E4,2.3746775E5,0E0,3.66854E3,2.129675E4,1.18539875E5,0E0,3.6355E4,1.797635E5,0E0,0E0,0E0,0E0,0E0,0E0,0E0,0E0,0E0,0E0,0E0,0E0,0E0,0E0,0E0,0E0,0E0,0E0,0E0,0E0,0E0,0E0,0E0,0E0,0E0,0E0,0E0],"parents":[2147483647,0,0,1,1,2,2,3,3,4,4,5,5,6,6,7,7,8,8,9,9,10,10,11,11,12,12,13,13,14,14,15,15,16,16,17,17,18,18,19,19,20,20,21,21,22,22,24,24,25,25,26,26,28,28,29,29],"right_children":[2,4,6,8,10,12,14,16,18,20,22,24,26,28,30,32,34,36,38,40,42,44,46,-1,48,50,52,-1,54,56,-1,-1,-1,-1,-1,-1,-1,-1,-1,-1,-1,-1,-1,-1,-1,-1,-1,-1,-1,-1,-1,-1,-1,-1,-1,-1,-1],"split_conditions":[2.87E2,7.6E1,5.932617E-1,8E0,3.4296875E0,6.3046875E0,1.2E1,2E0,2.9E1,7E1,9E0,2.1E1,5E0,3.14E2,1.1E1,2.8E2,4E0,4.5507812E0,3.0585938E0,1.2E1,7.1728516E-1,3.2E1,1.1E1,7.2517433E0,6.3554688E0,4.2822266E-1,2.9E1,1.0133132E1,5.605469E-1,9.256E3,4.1707226E1,-8.736158E-3,1.3303082E1,6.7230694E-2,1.79385E-1,3.9546272E-1,8.1945413E-1,1.1739707E0,3.0022314E0,3.253962E0,1.3137932E0,8.298819E0,2.7070478E1,6.793785E0,4.366418E1,6.6334453E0,1.1697546E1,2.6542735E0,-7.717728E-2,5.669007E0,1.4182998E1,2.5345802E1,2.7636504E0,8.78731E0,4.705349E1,-1.6863836E-1,2.4693357E1],"split_indices":[17,17,9,17,16,15,0,17,17,4,4,4,1,17,1,19,17,14,16,0,9,0,1,0,14,9,0,0,8,3,0,0,0,0,0,0,0,0,0,0,0,0,0,0,0,0,0,0,0,0,0,0,0,0,0,0,0],"split_type":[0,0,0,0,0,0,0,0,0,0,0,0,0,0,0,0,0,0,0,0,0,0,0,0,0,0,0,0,0,0,0,0,0,0,0,0,0,0,0,0,0,0,0,0,0,0,0,0,0,0,0,0,0,0,0,0,0],"sum_hessian":[8.933549E6,8.93336E6,1.89E2,8.932193E6,1.167E3,6.6E1,1.23E2,8.886858E6,4.5335E4,5.29E2,6.38E2,2.4E1,4.2E1,3.1E1,9.2E1,8.488071E6,3.98787E5,4.1176E4,4.159E3,4.81E2,4.8E1,3E0,6.35E2,5E0,1.9E1,1.7E1,2.5E1,2E0,2.9E1,8E1,1.2E1,8.488061E6,1E1,3.00765E5,9.8022E4,3.6451E4,4.725E3,3.257E3,9.02E2,2.28E2,2.53E2,4.7E1,1E0,1E0,2E0,5.19E2,1.16E2,1.1E1,8E0,9E0,8E0,2.2E1,3E0,1E0,2.8E1,3E0,7.7E1],"tree_param":{"num_deleted":"0","num_feature":"23","num_nodes":"57","size_leaf_vector":"1"}},{"base_weights":[2.447189E-4,-4.583691E-3,2.3515326E2,-1.0746317E-2,5.399546E1,1.3393414E2,3.0183328E2,-3.0415522E-2,6.7334814E0,2.7926445E1,7.317508E1,2.6553041E1,1.8030275E2,2.5270248E2,4.5782587E2,-6.491304E-2,1.4563326E0,5.588356E0,1.827294E1,1.9890247E1,7.718083E1,5.7806366E1,1.02135376E2,6.502819E1,5.7421713E0,2.5855934E1,1.9579654E2,2.8516974E2,1.6349792E2,2.8094736E2,5.5231575E1,-6.5070386E-3,1.1004704E1,1.1469152E-1,2.5990283E-1,5.318617E-1,2.3750815E0,1.1987746E0,3.6297364E0,2.529248E0,-5.9103104E-3,4.9046493E0,1.1573481E1,6.5026217E0,3.793443E0,9.61446E0,2.9255934E1,7.5088577E0,-4.0236235E-1,1.2956097E0,-2.904391E0,6.08955E0,3.299435E-1,2.2794382E1,9.960368E0,2.93399E1,2.3608158E0,1.9711424E1,1.5028507E0,3.1189838E1,-1.7284306E0],"categories":[],"categories_nodes":[],"categories_segments":[],"categories_sizes":[],"default_left":[0,0,0,0,0,0,0,0,0,0,0,0,0,0,0,0,0,0,0,0,0,0,0,0,0,0,0,0,0,0,0,0,0,0,0,0,0,0,0,0,0,0,0,0,0,0,0,0,0,0,0,0,0,0,0,0,0,0,0,0,0],"id":6,"left_children":[1,3,5,7,9,11,13,15,17,19,21,23,25,27,29,31,33,35,37,39,41,43,45,47,49,51,53,55,57,59,-1,-1,-1,-1,-1,-1,-1,-1,-1,-1,-1,-1,-1,-1,-1,-1,-1,-1,-1,-1,-1,-1,-1,-1,-1,-1,-1,-1,-1,-1,-1],"loss_changes":[1.0143848E7,2.9730292E6,1.179897E6,1.1849739E6,5.06772E5,3.6872988E5,6.72214E5,4.568255E5,3.43109E5,1.6974919E5,2.5251525E5,1.9031197E4,1.18198625E5,1.83235E5,1.851025E5,1.5082388E5,7.1410625E4,1.15601375E5,2.6496806E5,4.0463656E4,5.7387312E4,5.189275E4,1.89311E5,6.297664E3,4.9179766E3,4.800323E3,1.1401775E5,1.22275E5,1.2769494E5,1.1335256E5,0E0,0E0,0E0,0E0,0E0,0E0,0E0,0E0,0E0,0E0,0E0,0E0,0E0,0E0,0E0,0E0,0E0,0E0,0E0,0E0,0E0,0E0,0E0,0E0,0E0,0E0,0E0,0E0,0E0,0E0,0E0],"parents":[2147483647,0,0,1,1,2,2,3,3,4,4,5,5,6,6,7,7,8,8,9,9,10,10,11,11,12,12,13,13,14,14,15,15,16,16,17,17,18,18,19,19,20,20,21,21,22,22,23,23,24,24,25,25,26,26,27,27,28,28,29,29],"right_children":[2,4,6,8,10,12,14,16,18,20,22,24,26,28,30,32,34,36,38,40,42,44,46,48,50,52,54,56,58,60,-1,-1,-1,-1,-1,-1,-1,-1,-1,-1,-1,-1,-1,-1,-1,-1,-1,-1,-1,-1,-1,-1,-1,-1,-1,-1,-1,-1,-1,-1,-1],"split_conditions":[2.92E2,8.2E1,6.6748047E-1,1.1E1,9E0,7E0,7.62E2,3E0,3.9E1,2.0108E4,1.49E2,1E1,3.6376953E-1,2.5E1,1.0673828E0,3.12E2,5E0,3.2E1,3.0585938E0,2.4E1,2.5878906E-1,2.4E1,3.2E1,6.3046875E0,1.6699219E-1,1.5026855E-1,4.3E1,1.6699219E-1,4.91E2,1.015625E0,5.5231575E1,-6.5070386E-3,1.1004704E1,1.1469152E-1,2.5990283E-1,5.318617E-1,2.3750815E0,1.1987746E0,3.6297364E0,2.529248E0,-5.9103104E-3,4.9046493E0,1.1573481E1,6.5026217E0,3.793443E0,9.61446E0,2.9255934E1,7.5088577E0,-4.0236235E-1,1.2956097E0,-2.904391E0,6.08955E0,3.299435E-1,2.2794382E1,9.960368E0,2.93399E1,2.3608158E0,1.9711424E1,1.5028507E0,3.1189838E1,-1.7284306E0],"split_indices":[17,17,9,17,19,18,17,17,17,3,17,0,8,0,10,19,19,0,16,0,9,0,0,7,9,10,2,20,19,10,0,0,0,0,0,0,0,0,0,0,0,0,0,0,0,0,0,0,0,0,0,0,0,0,0,0,0,0,0,0,0],"split_type":[0,0,0,0,0,0,0,0,0,0,0,0,0,0,0,0,0,0,0,0,0,0,0,0,0,0,0,0,0,0,0,0,0,0,0,0,0,0,0,0,0,0,0,0,0,0,0,0,0,0,0,0,0,0,0,0,0,0,0,0,0],"sum_hessian":[8.934041E6,8.933859E6,1.82E2,8.932841E6,1.018E3,7.4E1,1.08E2,8.906866E6,2.5975E4,4.33E2,5.85E2,2.3E1,5.1E1,8.5E1,2.3E1,8.704885E6,2.01981E5,2.3632E4,2.343E3,3.74E2,5.9E1,3.85E2,2E2,7E0,1.6E1,5E0,4.6E1,6E1,2.5E1,1E1,1.3E1,8.704874E6,1.1E1,1.58945E5,4.3036E4,2.3288E4,3.44E2,1.739E3,6.04E2,2.94E2,8E1,3.6E1,2.3E1,2.8E2,1.05E2,1.96E2,4E0,6E0,1E0,1.4E1,2E0,1E0,4E0,3.3E1,1.3E1,5.8E1,2E0,2E1,5E0,9E0,1E0],"tree_param":{"num_deleted":"0","num_feature":"23","num_nodes":"61","size_leaf_vector":"1"}},{"base_weights":[6.912038E-5,-4.2833914E-3,2.108159E2,-1.1154108E-2,3.9782246E1,1.267027E2,2.7784128E2,-3.9812412E-2,3.448286E0,2.0744324E1,5.790358E1,3.249279E1,1.6554015E2,2.2937502E2,4.1703152E2,-8.646029E-2,5.226325E-1,2.797456E0,1.0482264E1,1.6637444E1,7.111078E1,3.0989023E2,5.572878E1,4.2909405E1,-1.9077671E1,8.3838524E1,2.0703542E2,1.1925553E2,2.570506E2,2.4286484E2,4.6689435E2,-1.1917237E-2,1.3149667E-2,1.9213958E-2,9.9942826E-2,2.4118231E-1,5.2098805E-1,8.792887E-1,2.2691777E0,2.4292402E0,9.899828E-1,1.375771E1,4.4518495E0,4.0055523E0,4.184654E1,3.6219976E0,7.3836794E0,-3.4443685E-1,5.031802E0,-3.4956872E0,-4.1664693E-1,-3.4058407E-1,9.755474E0,-5.488864E-1,2.2524885E1,1.8061085E1,-6.4107144E-1,2.2235363E0,2.6441313E1,6.6642013E0,2.8270048E1,1.6851353E1,4.8983547E1],"categories":[],"categories_nodes":[],"categories_segments":[],"categories_sizes":[],"default_left":[0,0,0,0,0,0,0,0,0,0,0,0,0,0,0,0,0,0,0,0,0,0,0,0,0,0,0,0,0,0,0,0,0,0,0,0,0,0,0,0,0,0,0,0,0,0,0,0,0,0,0,0,0,0,0,0,0,0,0,0,0,0,0],"id":7,"left_children":[1,3,5,7,9,11,13,15,17,19,21,23,25,27,29,31,33,35,37,39,41,43,45,47,49,51,53,55,57,59,61,-1,-1,-1,-1,-1,-1,-1,-1,-1,-1,-1,-1,-1,-1,-1,-1,-1,-1,-1,-1,-1,-1,-1,-1,-1,-1,-1,-1,-1,-1,-1,-1],"loss_changes":[8.197269E6,2.4420538E6,9.89146E5,8.8552025E5,5.30401E5,3.0121075E5,5.46622E5,2.3241884E5,3.359062E5,1.5435206E5,4.077705E5,1.5381322E4,1.7652825E5,1.94928E5,4.9022E4,5.832232E4,1.069058E5,6.2472188E4,1.2789469E5,3.5728234E4,9.094009E4,1.6453075E5,2.73266E5,7.9555547E3,1.0782893E3,2.7330688E4,1.5057088E5,1.4384003E5,9.77555E4,3.2125906E4,5.5975E2,0E0,0E0,0E0,0E0,0E0,0E0,0E0,0E0,0E0,0E0,0E0,0E0,0E0,0E0,0E0,0E0,0E0,0E0,0E0,0E0,0E0,0E0,0E0,0E0,0E0,0E0,0E0,0E0,0E0,0E0,0E0,0E0],"parents":[2147483647,0,0,1,1,2,2,3,3,4,4,5,5,6,6,7,7,8,8,9,9,10,10,11,11,12,12,13,13,14,14,15,15,16,16,17,17,18,18,19,19,20,20,21,21,22,22,23,23,24,24,25,25,26,26,27,27,28,28,29,29,30,30],"right_children":[2,4,6,8,10,12,14,16,18,20,22,24,26,28,30,32,34,36,38,40,42,44,46,48,50,52,54,56,58,60,62,-1,-1,-1,-1,-1,-1,-1,-1,-1,-1,-1,-1,-1,-1,-1,-1,-1,-1,-1,-1,-1,-1,-1,-1,-1,-1,-1,-1,-1,-1,-1,-1],"split_conditions":[2.92E2,6.5E1,6.9433594E-1,6E0,3.4296875E0,7E0,7.62E2,7.2021484E-1,2.3E1,7.1E1,9E0,5.68E2,5E0,4E0,2E0,4.3969727E-1,4.7509766E-1,3.3476562E0,7.1E1,1.2E1,6E0,3.2E1,1.02E2,0E0,1.7E1,8.7E1,3.6376953E-1,2.5E1,9.256E3,2.6E1,1.0039062E0,-1.1917237E-2,1.3149667E-2,1.9213958E-2,9.9942826E-2,2.4118231E-1,5.2098805E-1,8.792887E-1,2.2691777E0,2.4292402E0,9.899828E-1,1.375771E1,4.4518495E0,4.0055523E0,4.184654E1,3.6219976E0,7.3836794E0,-3.4443685E-1,5.031802E0,-3.4956872E0,-4.1664693E-1,-3.4058407E-1,9.755474E0,-5.488864E-1,2.2524885E1,1.8061085E1,-6.4107144E-1,2.2235363E0,2.6441313E1,6.6642013E0,2.8270048E1,1.6851353E1,4.8983547E1],"split_indices":[17,17,9,17,16,18,17,5,17,4,4,17,1,1,1,14,14,14,4,0,0,0,18,20,0,18,8,0,3,2,8,0,0,0,0,0,0,0,0,0,0,0,0,0,0,0,0,0,0,0,0,0,0,0,0,0,0,0,0,0,0,0,0],"split_type":[0,0,0,0,0,0,0,0,0,0,0,0,0,0,0,0,0,0,0,0,0,0,0,0,0,0,0,0,0,0,0,0,0,0,0,0,0,0,0,0,0,0,0,0,0,0,0,0,0,0,0,0,0,0,0,0,0,0,0,0,0,0,0],"sum_hessian":[8.933587E6,8.933404E6,1.83E2,8.931863E6,1.541E3,8.3E1,1E2,8.85848E6,7.3383E4,7.53E2,7.88E2,2.5E1,5.8E1,7.7E1,2.3E1,8.180047E6,6.78433E5,6.717E4,6.213E3,6.98E2,5.5E1,5E0,7.83E2,2.1E1,4E0,2.1E1,3.7E1,1.7E1,6E1,7E0,1.6E1,7.112559E6,1.067488E6,4.00693E5,2.7774E5,5.7915E4,9.255E3,5.46E3,7.53E2,3.25E2,3.73E2,1.4E1,4.1E1,2E0,3E0,3.79E2,4.04E2,3E0,1.8E1,1E0,3E0,3E0,1.8E1,3E0,3.4E1,1.1E1,6E0,2E0,5.8E1,2E0,5E0,2E0,1.4E1],"tree_param":{"num_deleted":"0","num_feature":"23","num_nodes":"63","size_leaf_vector":"1"}},{"base_weights":[3.3983134E-4,-4.1118464E-3,1.703584E2,-1.1928463E-2,2.5431664E1,1.16230446E2,2.6389E2,-3.9936278E-2,2.5090826E0,1.4413966E1,4.6039894E1,3.5512657E1,1.4305518E2,2.1717279E2,3.8658826E2,-9.541668E-2,3.294277E-1,2.001731E0,6.299024E0,1.2161703E1,5.1742313E1,1.315806E2,4.0604614E1,6.757534E1,1.7945879E1,1.07928055E2,2.1499295E2,-2.616131E0,2.2557013E2,2.1398781E2,4.664118E1,-9.566801E-3,9.433223E0,2.4101112E-2,1.0599964E-1,1.5744331E-1,3.4002656E-1,2.7418914E0,5.666581E-1,1.6790737E0,8.643603E-1,1.0449669E1,3.9340045E0,1.7064264E1,3.0141017E0,2.804713E0,6.183702E0,7.373671E0,-3.7174872E-1,9.599814E-1,7.216624E0,7.2647324E0,1.3539154E1,1.2790206E1,2.853009E1,5.186226E-1,2.3273933E1,2.4492443E1,-1.9307642E0],"categories":[],"categories_nodes":[],"categories_segments":[],"categories_sizes":[],"default_left":[0,0,0,0,0,0,0,0,0,0,0,0,0,0,0,0,0,0,0,0,0,0,0,0,0,0,0,0,0,0,0,0,0,0,0,0,0,0,0,0,0,0,0,0,0,0,0,0,0,0,0,0,0,0,0,0,0,0,0],"id":8,"left_children":[1,3,5,7,9,11,13,15,17,19,21,23,25,27,29,31,33,35,37,39,41,43,45,47,49,51,53,-1,55,57,-1,-1,-1,-1,-1,-1,-1,-1,-1,-1,-1,-1,-1,-1,-1,-1,-1,-1,-1,-1,-1,-1,-1,-1,-1,-1,-1,-1,-1],"loss_changes":[6.775025E6,1.7761394E6,1.137678E6,6.305708E5,6.221841E5,3.1842362E5,3.63167E5,1.8099884E5,1.8866256E5,1.4962231E5,4.3652912E5,2.0468188E4,2.5073075E5,1.4016775E5,1.5171875E5,1.8225034E5,7.450478E4,5.1709875E4,1.5451125E5,2.7320547E4,6.0451812E4,2.1623419E5,2.3758362E5,6.297992E3,1.1419863E4,6.1844438E4,1.6447612E5,0E0,9.69155E4,7.4934875E4,0E0,0E0,0E0,0E0,0E0,0E0,0E0,0E0,0E0,0E0,0E0,0E0,0E0,0E0,0E0,0E0,0E0,0E0,0E0,0E0,0E0,0E0,0E0,0E0,0E0,0E0,0E0,0E0,0E0],"parents":[2147483647,0,0,1,1,2,2,3,3,4,4,5,5,6,6,7,7,8,8,9,9,10,10,11,11,12,12,13,13,14,14,15,15,16,16,17,17,18,18,19,19,20,20,21,21,22,22,23,23,24,24,25,25,26,26,28,28,29,29],"right_children":[2,4,6,8,10,12,14,16,18,20,22,24,26,28,30,32,34,36,38,40,42,44,46,48,50,52,54,-1,56,58,-1,-1,-1,-1,-1,-1,-1,-1,-1,-1,-1,-1,-1,-1,-1,-1,-1,-1,-1,-1,-1,-1,-1,-1,-1,-1,-1,-1,-1],"split_conditions":[2.43E2,4.4E1,7.944336E-1,5E0,6.3554688E0,7E0,7.62E2,1E0,1.6E1,7.1E1,1.4111328E0,1E1,1E1,6.430664E-1,1.0673828E0,1.61E2,3E0,7E0,7.871094E-1,1.2E1,6E0,3.2E1,1.11E2,6.3046875E0,5.9277344E-1,5E0,3.37E2,-2.616131E0,9.256E3,1.015625E0,4.664118E1,-9.566801E-3,9.433223E0,2.4101112E-2,1.0599964E-1,1.5744331E-1,3.4002656E-1,2.7418914E0,5.666581E-1,1.6790737E0,8.643603E-1,1.0449669E1,3.9340045E0,1.7064264E1,3.0141017E0,2.804713E0,6.183702E0,7.373671E0,-3.7174872E-1,9.599814E-1,7.216624E0,7.2647324E0,1.3539154E1,1.2790206E1,2.853009E1,5.186226E-1,2.3273933E1,2.4492443E1,-1.9307642E0],"split_indices":[17,17,9,17,16,18,17,17,17,4,12,0,1,8,10,19,19,19,5,0,0,4,19,7,10,1,17,0,3,10,0,0,0,0,0,0,0,0,0,0,0,0,0,0,0,0,0,0,0,0,0,0,0,0,0,0,0,0,0],"split_type":[0,0,0,0,0,0,0,0,0,0,0,0,0,0,0,0,0,0,0,0,0,0,0,0,0,0,0,0,0,0,0,0,0,0,0,0,0,0,0,0,0,0,0,0,0,0,0,0,0,0,0,0,0,0,0,0,0,0,0],"sum_hessian":[8.933556E6,8.933324E6,2.32E2,8.930581E6,2.743E3,1.49E2,8.3E1,8.832456E6,9.8125E4,1.789E3,9.54E2,3.8E1,1.11E2,6.3E1,2E1,7.679027E6,1.153429E6,8.6542E4,1.1583E4,1.689E3,1E2,5.5E1,8.99E2,1.2E1,2.6E1,7.7E1,3.4E1,2E0,6.1E1,8E0,1.2E1,7.679008E6,1.9E1,1.028908E6,1.24521E5,6.6291E4,2.0251E4,3.35E2,1.1248E4,7.27E2,9.62E2,1.7E1,8.3E1,3.9E1,1.6E1,5.67E2,3.32E2,1.1E1,1E0,2.4E1,2E0,3.6E1,4.1E1,1.7E1,1.7E1,2E0,5.9E1,7E0,1E0],"tree_param":{"num_deleted":"0","num_feature":"23","num_nodes":"59","size_leaf_vector":"1"}},{"base_weights":[2.3369506E-4,-4.571579E-3,1.2427375E2,-1.1343598E-2,1.8957302E1,7.591781E1,1.9080867E2,-4.114556E-2,1.843999E0,1.0685766E1,3.5248104E1,2.6361847E1,9.414652E1,1.6430426E2,3.7026154E2,-4.1291114E-2,1.2251411E2,1.4442751E0,4.754732E0,9.570457E0,4.1981293E1,4.2003605E1,3.432553E1,6.7812355E1,6.020024E0,3.3457788E2,8.581849E1,6.480201E1,1.9913927E2,-5.582828E-1,3.936128E1,-6.6512534E-3,5.575765E-2,1.6912708E1,-4.313469E0,1.2753357E-1,3.5353824E-1,4.4124404E-1,2.875476E0,1.0491298E0,-1.6510749E-1,8.902867E0,2.5243092E0,2.7582004E0,6.615926E0,1.6225623E0,7.632333E0,1.3279842E0,-1.9077877E0,2.8668685E0,4.1152153E1,3.971586E0,1.0678115E1,1.8283008E0,1.0173656E1,2.7003447E1,1.6341106E1],"categories":[],"categories_nodes":[],"categories_segments":[],"categories_sizes":[],"default_left":[0,0,0,0,0,0,0,0,0,0,0,0,0,0,0,0,0,0,0,0,0,0,0,0,0,0,0,0,0,0,0,0,0,0,0,0,0,0,0,0,0,0,0,0,0,0,0,0,0,0,0,0,0,0,0,0,0],"id":9,"left_children":[1,3,5,7,9,11,13,15,17,19,21,23,25,27,29,31,33,35,37,39,41,-1,43,45,47,49,51,53,55,-1,-1,-1,-1,-1,-1,-1,-1,-1,-1,-1,-1,-1,-1,-1,-1,-1,-1,-1,-1,-1,-1,-1,-1,-1,-1,-1,-1],"loss_changes":[5.3351405E6,1.1471809E6,1.0905515E6,4.937947E5,4.2923462E5,1.7929938E5,5.994275E5,1.5679828E5,1.6425325E5,7.332911E4,3.6031125E5,4.700092E4,2.5389062E5,4.2661675E5,1.5621875E5,1.3275684E5,9.1107875E4,4.384725E4,1.3985422E5,2.1171297E4,5.381028E4,0E0,2.275955E5,6.313297E3,7.55079E3,8.751222E4,1.3348675E5,5.821314E4,1.7569375E5,0E0,0E0,0E0,0E0,0E0,0E0,0E0,0E0,0E0,0E0,0E0,0E0,0E0,0E0,0E0,0E0,0E0,0E0,0E0,0E0,0E0,0E0,0E0,0E0,0E0,0E0,0E0,0E0],"parents":[2147483647,0,0,1,1,2,2,3,3,4,4,5,5,6,6,7,7,8,8,9,9,10,10,11,11,12,12,13,13,14,14,15,15,16,16,17,17,18,18,19,19,20,20,22,22,23,23,24,24,25,25,26,26,27,27,28,28],"right_children":[2,4,6,8,10,12,14,16,18,20,22,24,26,28,30,32,34,36,38,40,42,-1,44,46,48,50,52,54,56,-1,-1,-1,-1,-1,-1,-1,-1,-1,-1,-1,-1,-1,-1,-1,-1,-1,-1,-1,-1,-1,-1,-1,-1,-1,-1,-1,-1],"split_conditions":[1.84E2,3.9E1,3.47E2,4E0,3.0585938E0,8.041992E-1,1.2E1,5.04E2,1.3E1,7.1E1,-7.519531E-1,1E1,5.7958984E-1,5.932617E-1,8.8046875E0,2E0,3.02E2,1.2E1,3.2E1,1.6904297E0,6E0,4.2003605E1,1.1E1,2.3203125E0,5.2337646E-2,5E0,5E0,6.3046875E0,1.3E1,-5.582828E-1,3.936128E1,-6.6512534E-3,5.575765E-2,1.6912708E1,-4.313469E0,1.2753357E-1,3.5353824E-1,4.4124404E-1,2.875476E0,1.0491298E0,-1.6510749E-1,8.902867E0,2.5243092E0,2.7582004E0,6.615926E0,1.6225623E0,7.632333E0,1.3279842E0,-1.9077877E0,2.8668685E0,4.1152153E1,3.971586E0,1.0678115E1,1.8283008E0,1.0173656E1,2.7003447E1,1.6341106E1],"split_indices":[17,17,17,17,16,7,1,19,17,4,20,0,13,9,5,18,18,1,0,12,0,0,1,14,9,1,1,15,0,0,0,0,0,0,0,0,0,0,0,0,0,0,0,0,0,0,0,0,0,0,0,0,0,0,0,0,0],"split_type":[0,0,0,0,0,0,0,0,0,0,0,0,0,0,0,0,0,0,0,0,0,0,0,0,0,0,0,0,0,0,0,0,0,0,0,0,0,0,0,0,0,0,0,0,0,0,0,0,0,0,0,0,0,0,0,0,0],"sum_hessian":[8.934063E6,8.933719E6,3.44E2,8.930531E6,3.188E3,2.01E2,1.43E2,8.789351E6,1.4118E5,2.116E3,1.072E3,5.5E1,1.46E2,1.27E2,1.6E1,8.789342E6,9E0,1.24135E5,1.7045E4,2.045E3,7.1E1,1E0,1.071E3,1.7E1,3.8E1,3E0,1.43E2,3.4E1,9.3E1,1E0,1.5E1,8.434138E6,3.55204E5,7E0,2E0,1.14858E5,9.277E3,1.6807E4,2.38E2,1.89E3,1.55E2,1.7E1,5.4E1,8.86E2,1.85E2,3E0,1.4E1,3E1,8E0,1E0,2E0,4.6E1,9.7E1,1.6E1,1.8E1,2.8E1,6.5E1],"tree_param":{"num_deleted":"0","num_feature":"23","num_nodes":"57","size_leaf_vector":"1"}},{"base_weights":[2.5460124E-4,-4.0889382E-3,1.1297549E2,-1.1978477E-2,1.36185875E1,8.202576E1,2.0362866E2,-4.4250876E-2,1.2438139E0,1.0175924E1,3.6546616E1,3.491312E1,1.10489975E2,1.6199026E2,3.266732E2,-8.398299E-2,2.2790414E-1,9.3675375E-1,3.038332E0,3.365296E1,8.962886E0,3.2060562E1,7.5594284E1,5.5515343E1,1.1572135E1,7.884242E1,1.6838205E2,1.1376753E1,1.8198595E2,1.3645866E2,3.7555126E1,-8.405802E-3,1.0470141E1,2.2650803E-2,4.270041E0,5.9488375E-2,1.4814417E-1,2.6557434E-1,8.5174435E-1,2.6609597E0,2.060449E1,7.1535933E-1,1.9112414E0,2.485513E0,4.509901E0,3.0376625E0,9.903065E0,9.1749144E-1,6.893983E0,4.6198487E-1,2.6001127E0,-1.9948128E0,8.502981E0,-1.5115176E0,1.7929462E1,2.2891867E0,-9.0147895E-1,1.9521143E1,-9.686329E-2,1.7481398E1,-2.9585721E0],"categories":[],"categories_nodes":[],"categories_segments":[],"categories_sizes":[],"default_left":[0,0,0,0,0,0,0,0,0,0,0,0,0,0,0,0,0,0,0,0,0,0,0,0,0,0,0,0,0,0,0,0,0,0,0,0,0,0,0,0,0,0,0,0,0,0,0,0,0,0,0,0,0,0,0,0,0,0,0,0,0],"id":10,"left_children":[1,3,5,7,9,11,13,15,17,19,21,23,25,27,29,31,33,35,37,39,41,43,45,47,49,51,53,55,57,59,-1,-1,-1,-1,-1,-1,-1,-1,-1,-1,-1,-1,-1,-1,-1,-1,-1,-1,-1,-1,-1,-1,-1,-1,-1,-1,-1,-1,-1,-1,-1],"loss_changes":[4.3836245E6,9.6007206E5,9.395425E5,3.6181572E5,4.075855E5,3.4102075E5,3.6669E5,9.4118836E4,1.232505E5,1.2764641E5,1.14653E5,4.6893312E4,2.7483838E5,2.0012188E5,1.16265E5,5.9724887E4,6.573567E4,3.556575E4,6.847575E4,2.5976966E5,7.837022E4,5.5454E4,6.819772E4,3.1711906E4,4.6862705E3,6.750319E4,1.1491425E5,2.5135317E3,1.440955E5,4.8455438E4,0E0,0E0,0E0,0E0,0E0,0E0,0E0,0E0,0E0,0E0,0E0,0E0,0E0,0E0,0E0,0E0,0E0,0E0,0E0,0E0,0E0,0E0,0E0,0E0,0E0,0E0,0E0,0E0,0E0,0E0,0E0],"parents":[2147483647,0,0,1,1,2,2,3,3,4,4,5,5,6,6,7,7,8,8,9,9,10,10,11,11,12,12,13,13,14,14,15,15,16,16,17,17,18,18,19,19,20,20,21,21,22,22,23,23,24,24,25,25,26,26,27,27,28,28,29,29],"right_children":[2,4,6,8,10,12,14,16,18,20,22,24,26,28,30,32,34,36,38,40,42,44,46,48,50,52,54,56,58,60,-1,-1,-1,-1,-1,-1,-1,-1,-1,-1,-1,-1,-1,-1,-1,-1,-1,-1,-1,-1,-1,-1,-1,-1,-1,-1,-1,-1,-1,-1,-1],"split_conditions":[1.84E2,2.9E1,8.2714844E-1,3E0,7.3E1,2.8930664E-1,7.49E2,4.1870117E-1,9E0,2.1113281E0,1.2E1,1.6E1,9E0,3.02E2,2E0,2.27E2,1.19E2,1.0947266E0,7.1E1,3.2E1,7E1,1.06E2,1.7756E4,1.3E1,2.8222656E0,1.0214844E0,4E1,1.5E1,7.95E2,6.39E2,3.7555126E1,-8.405802E-3,1.0470141E1,2.2650803E-2,4.270041E0,5.9488375E-2,1.4814417E-1,2.6557434E-1,8.5174435E-1,2.6609597E0,2.060449E1,7.1535933E-1,1.9112414E0,2.485513E0,4.509901E0,3.0376625E0,9.903065E0,9.1749144E-1,6.893983E0,4.6198487E-1,2.6001127E0,-1.9948128E0,8.502981E0,-1.5115176E0,1.7929462E1,2.2891867E0,-9.0147895E-1,1.9521143E1,-9.686329E-2,1.7481398E1,-2.9585721E0],"split_indices":[17,17,9,17,19,9,17,5,17,5,1,0,1,17,1,19,18,14,4,0,4,17,3,2,11,6,18,0,18,19,0,0,0,0,0,0,0,0,0,0,0,0,0,0,0,0,0,0,0,0,0,0,0,0,0,0,0,0,0,0,0],"split_type":[0,0,0,0,0,0,0,0,0,0,0,0,0,0,0,0,0,0,0,0,0,0,0,0,0,0,0,0,0,0,0,0,0,0,0,0,0,0,0,0,0,0,0,0,0,0,0,0,0,0,0,0,0,0,0,0,0,0,0,0,0],"sum_hessian":[8.933182E6,8.93284E6,3.42E2,8.927671E6,5.169E3,2.57E2,8.5E1,8.70399E6,2.23681E5,4.496E3,6.73E2,9.8E1,1.59E2,6.6E1,1.9E1,7.595167E6,1.108823E6,1.91001E5,3.268E4,2.19E2,4.277E3,6.06E2,6.7E1,5.1E1,4.7E1,1.05E2,5.4E1,8E0,5.8E1,5E0,1.4E1,7.595163E6,4E0,1.108788E6,3.5E1,1.1735E5,7.3651E4,3.0549E4,2.131E3,2.12E2,7E0,3.632E3,6.45E2,3.93E2,2.13E2,2.4E1,4.3E1,1.2E1,3.9E1,3.3E1,1.4E1,6E0,9.9E1,3E0,5.1E1,5E0,3E0,5.4E1,4E0,4E0,1E0],"tree_param":{"num_deleted":"0","num_feature":"23","num_nodes":"61","size_leaf_vector":"1"}},{"base_weights":[2.467827E-4,-3.7017032E-3,1.024058E2,-8.836325E-3,1.7356123E1,8.013882E1,2.0940555E2,-2.6547998E-2,2.164437E0,1.2948715E1,4.007802E1,3.205974E1,1.0253515E2,-1.5887378E1,2.3561914E2,-5.3107347E-2,5.391464E-1,1.767012E0,5.3987803E0,9.068126E0,2.089582E1,3.545322E1,8.4399506E1,5.1576633E1,7.886177E0,3.658265E1,1.3206848E2,-3.97984E0,-3.2778573E0,1.7730101E2,3.4780307E2,1.6664898E-2,-8.810768E-3,5.363047E-2,1.200441E1,1.3013227E-1,3.2759273E-1,4.8522124E-1,4.954965E0,7.949788E-1,3.8357391E0,5.071304E0,1.6877291E0,9.691051E0,3.3135853E0,4.6965046E0,1.070685E1,5.7471776E-1,6.3838215E0,4.312849E0,4.687166E-1,6.105217E-1,5.955431E0,3.0702057E1,1.189909E1,8.711653E-1,-7.787399E-1,1.940417E1,-1.005461E0,3.7602707E1,1.4958999E1],"categories":[],"categories_nodes":[],"categories_segments":[],"categories_sizes":[],"default_left":[0,0,0,0,0,0,0,0,0,0,0,0,0,0,0,0,0,0,0,0,0,0,0,0,0,0,0,0,0,0,0,0,0,0,0,0,0,0,0,0,0,0,0,0,0,0,0,0,0,0,0,0,0,0,0,0,0,0,0,0,0],"id":11,"left_children":[1,3,5,7,9,11,13,15,17,19,21,23,25,27,29,31,33,35,37,39,41,43,45,47,49,51,53,-1,55,57,59,-1,-1,-1,-1,-1,-1,-1,-1,-1,-1,-1,-1,-1,-1,-1,-1,-1,-1,-1,-1,-1,-1,-1,-1,-1,-1,-1,-1,-1,-1],"loss_changes":[3.6122408E6,7.9626894E5,7.96493E5,3.4375694E5,2.6377906E5,3.047815E5,3.5051625E5,1.3309198E5,9.278434E4,6.801934E4,8.35135E4,4.349858E4,3.7372162E5,2.0552588E3,2.543135E5,6.5078906E4,1.3481144E5,4.517336E4,1.9027881E5,4.8380867E4,8.569119E4,5.098378E4,2.6230188E4,2.8377828E4,4.6064043E3,4.3191555E4,2.5500475E5,0E0,4.458149E2,1.20235625E5,1.1000125E4,0E0,0E0,0E0,0E0,0E0,0E0,0E0,0E0,0E0,0E0,0E0,0E0,0E0,0E0,0E0,0E0,0E0,0E0,0E0,0E0,0E0,0E0,0E0,0E0,0E0,0E0,0E0,0E0,0E0,0E0],"parents":[2147483647,0,0,1,1,2,2,3,3,4,4,5,5,6,6,7,7,8,8,9,9,10,10,11,11,12,12,13,13,14,14,15,15,16,16,17,17,18,18,19,19,20,20,21,21,22,22,23,23,24,24,25,25,26,26,28,28,29,29,30,30],"right_children":[2,4,6,8,10,12,14,16,18,20,22,24,26,28,30,32,34,36,38,40,42,44,46,48,50,52,54,-1,56,58,60,-1,-1,-1,-1,-1,-1,-1,-1,-1,-1,-1,-1,-1,-1,-1,-1,-1,-1,-1,-1,-1,-1,-1,-1,-1,-1,-1,-1,-1,-1],"split_conditions":[1.84E2,4.4E1,5.88E2,6E0,9.3E1,2.8930664E-1,6.3046875E0,2E0,1.9E1,4E0,1.2E1,1.6E1,5E0,1.7E1,1E1,3.1E1,2.55E2,8E0,3.2E1,7.1E1,5.7958984E-1,-1.7578125E-1,1.1E2,1.3E1,1.88E2,1.59E2,5.7958984E-1,-3.97984E0,2E0,2.5E1,3.2E1,1.6664898E-2,-8.810768E-3,5.363047E-2,1.200441E1,1.3013227E-1,3.2759273E-1,4.8522124E-1,4.954965E0,7.949788E-1,3.8357391E0,5.071304E0,1.6877291E0,9.691051E0,3.3135853E0,4.6965046E0,1.070685E1,5.7471776E-1,6.3838215E0,4.312849E0,4.687166E-1,6.105217E-1,5.955431E0,3.0702057E1,1.189909E1,8.711653E-1,-7.787399E-1,1.940417E1,-1.005461E0,3.7602707E1,1.4958999E1],"split_indices":[17,17,17,17,19,9,15,18,17,19,1,0,1,0,1,4,19,19,0,4,13,21,17,2,17,19,13,0,1,0,2,0,0,0,0,0,0,0,0,0,0,0,0,0,0,0,0,0,0,0,0,0,0,0,0,0,0,0,0,0,0],"split_type":[0,0,0,0,0,0,0,0,0,0,0,0,0,0,0,0,0,0,0,0,0,0,0,0,0,0,0,0,0,0,0,0,0,0,0,0,0,0,0,0,0,0,0,0,0,0,0,0,0,0,0,0,0,0,0,0,0,0,0,0,0],"sum_hessian":[8.933516E6,8.933173E6,3.43E2,8.930533E6,2.64E3,2.86E2,5.7E1,8.858341E6,7.2192E4,2.213E3,4.27E2,9.2E1,1.94E2,6E0,5.1E1,8.461094E6,3.97247E5,6.4294E4,7.898E3,1.489E3,7.24E2,3.89E2,3.8E1,5E1,4.2E1,6.1E1,1.33E2,1E0,5E0,3.6E1,1.5E1,1.162446E6,7.298648E6,3.97239E5,8E0,4.9133E4,1.5161E4,7.803E3,9.5E1,1.436E3,5.3E1,8.4E1,6.4E2,1.2E1,3.77E2,1.6E1,2.2E1,1.1E1,3.9E1,2E0,4E1,2.7E1,3.4E1,7E0,1.26E2,1E0,4E0,3.3E1,3E0,1.2E1,3E0],"tree_param":{"num_deleted":"0","num_feature":"23","num_nodes":"61","size_leaf_vector":"1"}},{"base_weights":[2.907383E-4,-2.1539885E-3,1.4613963E2,-5.893795E-3,3.219652E1,1.14997185E2,2.4922131E2,-2.0348616E-2,2.8125045E0,2.2804558E1,4.9746033E1,9.002146E1,2.0962996E2,2.0884157E2,3.7184704E1,-4.669897E-2,6.232823E-1,2.2213702E0,7.5743604E0,5.3788686E0,3.0280956E1,1.3557329E2,4.5972992E1,1.1522165E2,3.833799E1,-5.5099016E-1,2.4159515E1,7.8110825E1,2.2563768E2,-7.4512386E-3,1.7152121E-2,6.2136006E-2,1.04812765E1,1.933523E-1,6.570278E-1,3.0341399E0,6.652476E-1,-1.0882167E-1,1.8635567E0,2.2264936E0,4.4786916E0,4.9726057E0,2.3110975E1,5.400121E0,1.6493714E0,1.2451326E-1,1.24942665E1,5.257616E0,-7.1718163E0,1.1566715E1,-3.6327298E0,3.0360764E1,1.5188158E1],"categories":[],"categories_nodes":[],"categories_segments":[],"categories_sizes":[],"default_left":[0,0,0,0,0,0,0,0,0,0,0,0,0,0,0,0,0,0,0,0,0,0,0,0,0,0,0,0,0,0,0,0,0,0,0,0,0,0,0,0,0,0,0,0,0,0,0,0,0,0,0,0,0],"id":12,"left_children":[1,3,5,7,9,11,13,15,17,19,21,23,25,27,-1,29,31,33,35,37,39,41,43,45,47,-1,-1,49,51,-1,-1,-1,-1,-1,-1,-1,-1,-1,-1,-1,-1,-1,-1,-1,-1,-1,-1,-1,-1,-1,-1,-1,-1],"loss_changes":[3.1915878E6,1.0756952E6,4.38479E5,3.6388725E5,1.6936238E5,2.5040675E5,5.37965E4,1.5071397E5,1.2826875E5,8.815356E4,1.0774944E5,1.1794506E5,1.6310875E5,3.7076875E4,0E0,5.1814773E4,6.990367E4,5.0737344E4,1.0533316E5,1.7641967E4,5.373247E4,1.01883375E5,8.0945125E4,7.006494E4,5.782716E4,0E0,0E0,2.9426324E4,7.4169625E4,0E0,0E0,0E0,0E0,0E0,0E0,0E0,0E0,0E0,0E0,0E0,0E0,0E0,0E0,0E0,0E0,0E0,0E0,0E0,0E0,0E0,0E0,0E0,0E0],"parents":[2147483647,0,0,1,1,2,2,3,3,4,4,5,5,6,6,7,7,8,8,9,9,10,10,11,11,12,12,13,13,15,15,16,16,17,17,18,18,19,19,20,20,21,21,22,22,23,23,24,24,27,27,28,28],"right_children":[2,4,6,8,10,12,14,16,18,20,22,24,26,28,-1,30,32,34,36,38,40,42,44,46,48,-1,-1,50,52,-1,-1,-1,-1,-1,-1,-1,-1,-1,-1,-1,-1,-1,-1,-1,-1,-1,-1,-1,-1,-1,-1,-1,-1],"split_conditions":[3.41E2,8.3E1,1.1269531E0,8E0,1.06E2,1.1E1,1.1E1,1.3046875E0,2.7E1,6E0,3.5429688E0,2.2E1,2.4035645E-1,2.6E1,3.7184704E1,1E0,5.52E2,7.1E1,1.3398438E0,5.9E1,4.3E1,2.4589844E0,2.4E1,1.5595703E0,4.77E2,-5.5099016E-1,2.4159515E1,2.73E2,1.5E1,-7.4512386E-3,1.7152121E-2,6.2136006E-2,1.04812765E1,1.933523E-1,6.570278E-1,3.0341399E0,6.652476E-1,-1.0882167E-1,1.8635567E0,2.2264936E0,4.4786916E0,4.9726057E0,2.3110975E1,5.400121E0,1.6493714E0,1.2451326E-1,1.24942665E1,5.257616E0,-7.1718163E0,1.1566715E1,-3.6327298E0,3.0360764E1,1.5188158E1],"split_indices":[17,17,8,17,19,1,1,5,17,1,7,0,9,2,0,17,19,4,5,19,4,6,0,6,19,0,0,5,0,0,0,0,0,0,0,0,0,0,0,0,0,0,0,0,0,0,0,0,0,0,0,0,0],"split_type":[0,0,0,0,0,0,0,0,0,0,0,0,0,0,0,0,0,0,0,0,0,0,0,0,0,0,0,0,0,0,0,0,0,0,0,0,0,0,0,0,0,0,0,0,0,0,0,0,0,0,0,0,0],"sum_hessian":[8.933243E6,8.933095E6,1.48E2,8.932059E6,1.036E3,1.16E2,3.2E1,8.886484E6,4.5575E4,6.77E2,3.59E2,9.4E1,2.2E1,2.7E1,5E0,8.53698E6,3.49504E5,4.0544E4,5.031E3,2.04E2,4.73E2,1.3E1,3.46E2,6.2E1,3.2E1,3E0,1.9E1,4E0,2.3E1,7.571899E6,9.65081E5,3.49499E5,5E0,3.8029E4,2.515E3,1.94E2,4.837E3,1.38E2,6.6E1,3.07E2,1.66E2,8E0,5E0,2.71E2,7.5E1,5E0,5.7E1,2.9E1,3E0,3E0,1E0,9E0,1.4E1],"tree_param":{"num_deleted":"0","num_feature":"23","num_nodes":"53","size_leaf_vector":"1"}},{"base_weights":[4.1556294E-4,-1.8223434E-3,1.3288289E2,-5.2741934E-3,2.9745316E1,1.1299635E2,2.7521887E2,-1.6048824E-2,3.1043134E0,1.8603054E1,4.6605965E1,7.711408E1,1.7244267E2,-5.7398045E-1,2.9281199E1,-4.4382486E-2,5.4074985E-1,2.3610306E0,8.73769E0,2.5594988E0,2.5421879E1,2.4917303E1,5.891257E1,5.9488096E0,9.315739E1,1.9695155E2,8.569661E1,9.861349E-3,-9.007902E-3,5.384295E-2,9.626392E0,1.4615187E-1,4.0309316E-1,6.945101E-1,7.8874865E0,-2.3890085E0,4.2344877E-1,1.2546527E0,3.5809562E0,3.6030254E0,-7.9562306E-1,2.4199076E1,5.4714913E0,4.1000686E0,-8.875123E-1,2.0804619E1,7.575985E0,3.797611E0,2.0921255E1,-3.6678922E0,1.2592135E1],"categories":[],"categories_nodes":[],"categories_segments":[],"categories_sizes":[],"default_left":[0,0,0,0,0,0,0,0,0,0,0,0,0,0,0,0,0,0,0,0,0,0,0,0,0,0,0,0,0,0,0,0,0,0,0,0,0,0,0,0,0,0,0,0,0,0,0,0,0,0,0],"id":13,"left_children":[1,3,5,7,9,11,13,15,17,19,21,23,25,-1,-1,27,29,31,33,35,37,39,41,43,45,47,49,-1,-1,-1,-1,-1,-1,-1,-1,-1,-1,-1,-1,-1,-1,-1,-1,-1,-1,-1,-1,-1,-1,-1,-1],"loss_changes":[2.656467E6,9.172435E5,3.8106475E5,2.9925572E5,1.9346344E5,2.6762725E5,8.8621125E4,1.404223E5,1.2910934E5,6.843766E4,1.07705875E5,9.789247E4,8.081575E4,0E0,0E0,5.5346008E4,9.565766E4,4.0921266E4,4.5113006E5,8.494002E3,5.8126125E4,5.5736797E4,1.8185725E5,9.585436E3,1.1810544E5,6.15405E4,7.2804195E4,0E0,0E0,0E0,0E0,0E0,0E0,0E0,0E0,0E0,0E0,0E0,0E0,0E0,0E0,0E0,0E0,0E0,0E0,0E0,0E0,0E0,0E0,0E0,0E0],"parents":[2147483647,0,0,1,1,2,2,3,3,4,4,5,5,6,6,7,7,8,8,9,9,10,10,11,11,12,12,15,15,16,16,17,17,18,18,19,19,20,20,21,21,22,22,23,23,24,24,25,25,26,26],"right_children":[2,4,6,8,10,12,14,16,18,20,22,24,26,-1,-1,28,30,32,34,36,38,40,42,44,46,48,50,-1,-1,-1,-1,-1,-1,-1,-1,-1,-1,-1,-1,-1,-1,-1,-1,-1,-1,-1,-1,-1,-1,-1,-1],"split_conditions":[3.41E2,8.3E1,1.2E1,1E1,2.6464844E-1,9.1259766E-1,8.8046875E0,2E0,6.3554688E0,6E0,5E0,1.5595703E0,2.5E1,-5.7398045E-1,2.9281199E1,1.9226074E-2,5.04E2,5E0,3.2E1,1.3E1,4.5507812E0,5.78125E-1,4.6240234E-1,1E1,3.0932617E-1,4.23E2,2.6E1,9.861349E-3,-9.007902E-3,5.384295E-2,9.626392E0,1.4615187E-1,4.0309316E-1,6.945101E-1,7.8874865E0,-2.3890085E0,4.2344877E-1,1.2546527E0,3.5809562E0,3.6030254E0,-7.9562306E-1,2.4199076E1,5.4714913E0,4.1000686E0,-8.875123E-1,2.0804619E1,7.575985E0,3.797611E0,2.0921255E1,-3.6678922E0,1.2592135E1],"split_indices":[17,17,1,17,10,10,5,19,14,1,1,6,0,0,0,6,19,19,0,4,14,8,13,0,10,17,0,0,0,0,0,0,0,0,0,0,0,0,0,0,0,0,0,0,0,0,0,0,0,0,0],"split_type":[0,0,0,0,0,0,0,0,0,0,0,0,0,0,0,0,0,0,0,0,0,0,0,0,0,0,0,0,0,0,0,0,0,0,0,0,0,0,0,0,0,0,0,0,0,0,0,0,0,0,0],"sum_hessian":[8.932945E6,8.932796E6,1.49E2,8.931761E6,1.035E3,1.33E2,1.6E1,8.900921E6,3.084E4,6.25E2,4.1E2,8.5E1,4.8E1,1E0,1.5E1,8.469916E6,4.31005E5,2.7247E4,3.593E3,1.87E2,4.38E2,1.5E2,2.6E2,1.6E1,6.9E1,3.6E1,1.2E1,2.051198E6,6.418718E6,4.30996E5,9E0,1.771E4,9.537E3,3.505E3,8.8E1,1E1,1.77E2,1.97E2,2.41E2,1.12E2,3.8E1,4E0,2.56E2,4E0,1.2E1,7E0,6.2E1,3E0,3.3E1,3E0,9E0],"tree_param":{"num_deleted":"0","num_feature":"23","num_nodes":"51","size_leaf_vector":"1"}},{"base_weights":[1.10362904E-4,-2.0494345E-3,9.168308E1,-4.460387E-3,2.421002E1,7.724538E1,2.3598528E2,-2.2485515E-2,1.5571139E0,1.34791975E1,4.0737183E1,4.830494E1,1.2159141E2,5.888829E1,2.791741E1,-6.197014E-2,2.4971083E-1,1.3055613E0,7.1718426E0,5.0766397E0,3.172639E1,1.323606E2,3.399933E1,2.7319437E1,7.528209E1,1.5962534E2,2.1519016E1,6.538597E0,8.659271E0,1.9463046E-2,-8.802502E-3,1.562929E-2,9.897285E-2,6.4687856E-2,1.9860445E-1,6.111683E-1,5.1256084E0,1.5612288E0,2.8176734E-1,2.5860744E0,1.7533243E1,4.8795533E0,2.0060951E1,2.849136E0,7.6859674E0,1.1665156E1,2.2180364E0,9.545348E0,5.263177E0,1.2903758E1,2.1387054E1,-5.967338E0,9.3694315E0,8.4842235E-1,7.3474914E-2],"categories":[],"categories_nodes":[],"categories_segments":[],"categories_sizes":[],"default_left":[0,0,0,0,0,0,0,0,0,0,0,0,0,0,0,0,0,0,0,0,0,0,0,0,0,0,0,0,0,0,0,0,0,0,0,0,0,0,0,0,0,0,0,0,0,0,0,0,0,0,0,0,0,0,0],"id":14,"left_children":[1,3,5,7,9,11,13,15,17,19,21,23,25,27,-1,29,31,33,35,37,39,41,43,45,47,49,51,53,-1,-1,-1,-1,-1,-1,-1,-1,-1,-1,-1,-1,-1,-1,-1,-1,-1,-1,-1,-1,-1,-1,-1,-1,-1,-1,-1],"loss_changes":[1.7689466E6,5.2146297E5,4.12189E5,2.5142052E5,1.5695172E5,2.398045E5,1.1737156E5,9.490427E4,1.4394875E5,8.278332E4,2.0924706E5,6.4657688E4,2.82189E5,7.073908E3,0E0,5.1557805E4,7.7332914E4,4.3726062E4,2.0380745E5,8.800617E3,1.3704167E5,1.1958997E5,7.414759E4,2.8154215E4,1.6270531E4,5.06035E4,1.3954494E5,2.9865387E1,0E0,0E0,0E0,0E0,0E0,0E0,0E0,0E0,0E0,0E0,0E0,0E0,0E0,0E0,0E0,0E0,0E0,0E0,0E0,0E0,0E0,0E0,0E0,0E0,0E0,0E0,0E0],"parents":[2147483647,0,0,1,1,2,2,3,3,4,4,5,5,6,6,7,7,8,8,9,9,10,10,11,11,12,12,13,13,15,15,16,16,17,17,18,18,19,19,20,20,21,21,22,22,23,23,24,24,25,25,26,26,27,27],"right_children":[2,4,6,8,10,12,14,16,18,20,22,24,26,28,-1,30,32,34,36,38,40,42,44,46,48,50,52,54,-1,-1,-1,-1,-1,-1,-1,-1,-1,-1,-1,-1,-1,-1,-1,-1,-1,-1,-1,-1,-1,-1,-1,-1,-1,-1,-1],"split_conditions":[2.56E2,8.9E1,1.2E1,5E0,1.03E2,8.232422E-1,3.8549805E-1,5.371094E-1,6.3554688E0,1.9229E4,1.5449219E0,2.69E2,2.5E1,3.3691406E-1,2.791741E1,3.1E1,1.4130859E0,8.9941406E-1,3.2E1,2E1,5.07E2,1.3251953E0,1.2E1,1.5026855E-1,6.748047E-1,1.1220703E0,2.7E1,1.6E1,8.659271E0,1.9463046E-2,-8.802502E-3,1.562929E-2,9.897285E-2,6.4687856E-2,1.9860445E-1,6.111683E-1,5.1256084E0,1.5612288E0,2.8176734E-1,2.5860744E0,1.7533243E1,4.8795533E0,2.0060951E1,2.849136E0,7.6859674E0,1.1665156E1,2.2180364E0,9.545348E0,5.263177E0,1.2903758E1,2.1387054E1,-5.967338E0,9.3694315E0,8.4842235E-1,7.3474914E-2],"split_indices":[18,19,1,18,18,10,10,14,14,3,13,19,0,10,0,4,5,16,0,4,19,12,1,8,9,10,0,2,0,0,0,0,0,0,0,0,0,0,0,0,0,0,0,0,0,0,0,0,0,0,0,0,0,0,0],"split_type":[0,0,0,0,0,0,0,0,0,0,0,0,0,0,0,0,0,0,0,0,0,0,0,0,0,0,0,0,0,0,0,0,0,0,0,0,0,0,0,0,0,0,0,0,0,0,0,0,0,0,0,0,0,0,0],"sum_hessian":[8.93332E6,8.933111E6,2.09E2,8.932223E6,8.88E2,1.92E2,1.7E1,8.830297E6,1.01926E5,5.4E2,3.48E2,1.18E2,7.4E1,4E0,1.3E1,7.711651E6,1.118646E6,9.7557E4,4.369E3,3.71E2,1.69E2,2.2E1,3.26E2,6.8E1,5E1,5.3E1,2.1E1,2E0,2E0,7.10851E5,7.0008E6,9.93261E5,1.25385E5,4.9574E4,4.7983E4,4.268E3,1.01E2,6.4E1,3.07E2,1.64E2,5E0,1.1E1,1.1E1,2.91E2,3.5E1,2E0,6.6E1,2.4E1,2.6E1,3.7E1,1.6E1,1E1,1.1E1,1E0,1E0],"tree_param":{"num_deleted":"0","num_feature":"23","num_nodes":"55","size_leaf_vector":"1"}},{"base_weights":[5.226851E-4,-1.857798E-3,8.8446976E1,-5.504121E-3,1.4638361E1,6.574683E1,1.5912122E2,-2.3862703E-2,1.1282394E0,8.112416E0,2.4911385E1,1.5714743E1,7.989005E1,1.9680537E2,4.7904556E1,-5.6564156E-2,2.0229827E-1,9.427908E-1,4.0810976E0,6.4510884E0,3.0836493E1,3.9823235E1,2.3813858E1,3.1861465E1,-7.7883544E0,7.00541E1,1.7536634E1,-1.3901237E0,2.0237292E2,-4.2598526E1,9.282227E1,-5.6676595E-3,4.4360023E0,1.0893055E-2,5.516785E-2,7.7249885E-2,3.0318892E-1,3.6595795E-1,3.9615333E0,1.0658298E0,3.1390136E-1,2.5092857E0,1.6895926E1,8.203892E0,2.0689263E0,4.9974303E0,-6.4607567E-1,5.3653234E-1,-2.428944E0,1.6354149E1,5.8784904E0,6.134448E0,2.1508179E1,-5.640296E0,1.3318564E0,4.3438606E0,1.1096985E1],"categories":[],"categories_nodes":[],"categories_segments":[],"categories_sizes":[],"default_left":[0,0,0,0,0,0,0,0,0,0,0,0,0,0,0,0,0,0,0,0,0,0,0,0,0,0,0,0,0,0,0,0,0,0,0,0,0,0,0,0,0,0,0,0,0,0,0,0,0,0,0,0,0,0,0,0,0],"id":15,"left_children":[1,3,5,7,9,11,13,15,17,19,21,23,25,27,29,31,33,35,37,39,41,-1,43,45,47,49,-1,-1,51,53,55,-1,-1,-1,-1,-1,-1,-1,-1,-1,-1,-1,-1,-1,-1,-1,-1,-1,-1,-1,-1,-1,-1,-1,-1,-1,-1],"loss_changes":[1.8809541E6,4.7689616E5,3.7068175E5,1.8589469E5,1.4883816E5,1.28704875E5,2.27164E5,6.5001242E4,7.7928516E4,5.114867E4,3.401258E5,1.6462871E4,1.1702031E5,5.3835875E4,7.252109E4,3.835085E4,3.6218375E4,4.763617E4,1.2575067E5,1.7668832E4,6.723193E4,0E0,1.5446025E5,1.8122877E4,4.189866E3,1.2569025E5,0E0,0E0,5.5280375E4,6.0519326E3,3.3133438E3,0E0,0E0,0E0,0E0,0E0,0E0,0E0,0E0,0E0,0E0,0E0,0E0,0E0,0E0,0E0,0E0,0E0,0E0,0E0,0E0,0E0,0E0,0E0,0E0,0E0,0E0],"parents":[2147483647,0,0,1,1,2,2,3,3,4,4,5,5,6,6,7,7,8,8,9,9,10,10,11,11,12,12,13,13,14,14,15,15,16,16,17,17,18,18,19,19,20,20,22,22,23,23,24,24,25,25,28,28,29,29,30,30],"right_children":[2,4,6,8,10,12,14,16,18,20,22,24,26,28,30,32,34,36,38,40,42,-1,44,46,48,50,-1,-1,52,54,56,-1,-1,-1,-1,-1,-1,-1,-1,-1,-1,-1,-1,-1,-1,-1,-1,-1,-1,-1,-1,-1,-1,-1,-1,-1,-1],"split_conditions":[2.43E2,5E1,9.238281E-1,4E0,6.3554688E0,2.1191406E0,2.5E1,1E0,1.9E1,7.1E1,6.121826E-2,7.977E3,1.2E1,9.256E3,2.7E1,1.19E2,8.676758E-1,1.2E1,3.2E1,1.2E1,6.7333984E-1,3.9823235E1,1.4111328E0,2.5E1,1.6699219E-1,6.0429688E0,1.7536634E1,-1.3901237E0,8.256836E-1,1.0878906E0,9.8779297E-1,-5.6676595E-3,4.4360023E0,1.0893055E-2,5.516785E-2,7.7249885E-2,3.0318892E-1,3.6595795E-1,3.9615333E0,1.0658298E0,3.1390136E-1,2.5092857E0,1.6895926E1,8.203892E0,2.0689263E0,4.9974303E0,-6.4607567E-1,5.3653234E-1,-2.428944E0,1.6354149E1,5.8784904E0,6.134448E0,2.1508179E1,-5.640296E0,1.3318564E0,4.3438606E0,1.1096985E1],"split_indices":[17,17,10,17,16,6,0,17,17,4,6,3,1,3,0,18,14,1,0,0,9,0,12,0,9,6,0,0,9,8,8,0,0,0,0,0,0,0,0,0,0,0,0,0,0,0,0,0,0,0,0,0,0,0,0,0,0],"split_type":[0,0,0,0,0,0,0,0,0,0,0,0,0,0,0,0,0,0,0,0,0,0,0,0,0,0,0,0,0,0,0,0,0,0,0,0,0,0,0,0,0,0,0,0,0,0,0,0,0,0,0,0,0,0,0,0,0],"sum_hessian":[8.933725E6,8.933486E6,2.39E2,8.931263E6,2.223E3,1.83E2,5.6E1,8.788946E6,1.42317E5,1.361E3,8.62E2,4.1E1,1.42E2,4.1E1,1.5E1,7.678661E6,1.110285E6,1.33909E5,8.408E3,1.27E3,9.1E1,1E0,8.61E2,2.4E1,1.7E1,1.31E2,1.1E1,1E0,4E1,5E0,1E1,7.678643E6,1.8E1,8.76147E5,2.34138E5,1.23818E5,1.0091E4,8.311E3,9.7E1,5.58E2,7.12E2,8.9E1,2E0,4.2E1,8.19E2,1.6E1,8E0,1E1,7E0,1.2E1,1.19E2,4E0,3.6E1,4E0,1E0,4E0,6E0],"tree_param":{"num_deleted":"0","num_feature":"23","num_nodes":"57","size_leaf_vector":"1"}},{"base_weights":[5.313667E-4,-2.622155E-3,5.5623276E1,-7.4357004E-3,5.787114E0,4.4723007E1,1.3808377E2,-2.2850549E-2,9.43267E-1,4.0070105E0,1.3441775E1,2.2569056E1,6.2355762E1,8.7057755E1,2.1436124E2,-5.8482803E-2,1.4911576E-1,9.3875015E-1,7.6996E1,3.361801E0,1.6723955E1,3.8190754E1,1.278519E1,4.198859E1,6.343219E0,2.1336912E1,8.118812E1,-1.6699337E1,1.11707924E2,2.4547871E2,8.217103E1,6.3071237E-3,-1.0486325E-2,7.566693E-3,6.0271706E-2,5.3389788E-2,1.6398698E-1,1.334335E1,-6.089187E0,2.595156E-1,9.3679947E-1,1.3610679E0,1.0732679E1,6.835784E-1,2.1987948E0,3.1909208E0,7.475393E0,1.7173283E-1,4.6565237E0,-3.1374424E0,3.21675E0,2.3060577E1,7.080218E0,-3.6159465E0,-2.5724116E-1,1.2779993E1,-2.397413E0,1.5530235E1,3.1515638E1,9.843635E0,-2.5838146E-1],"categories":[],"categories_nodes":[],"categories_segments":[],"categories_sizes":[],"default_left":[0,0,0,0,0,0,0,0,0,0,0,0,0,0,0,0,0,0,0,0,0,0,0,0,0,0,0,0,0,0,0,0,0,0,0,0,0,0,0,0,0,0,0,0,0,0,0,0,0,0,0,0,0,0,0,0,0,0,0,0,0],"id":16,"left_children":[1,3,5,7,9,11,13,15,17,19,21,23,25,27,29,31,33,35,37,39,41,-1,43,45,47,49,51,53,55,57,59,-1,-1,-1,-1,-1,-1,-1,-1,-1,-1,-1,-1,-1,-1,-1,-1,-1,-1,-1,-1,-1,-1,-1,-1,-1,-1,-1,-1,-1,-1],"loss_changes":[1.5669568E6,2.4894769E5,4.4631962E5,1.307999E5,1.0103403E5,1.7354125E5,2.0059162E5,5.3817668E4,4.8815445E4,4.9333773E4,3.3153738E5,6.308983E4,1.9019375E5,9.844141E4,6.326775E4,4.101679E4,5.022452E4,4.041908E4,7.7371484E4,2.6365297E4,7.982207E4,0E0,7.6349516E4,2.6764719E4,2.0619607E4,4.737519E4,2.4099325E5,2.186208E3,7.087153E4,3.91245E4,9.243281E3,0E0,0E0,0E0,0E0,0E0,0E0,0E0,0E0,0E0,0E0,0E0,0E0,0E0,0E0,0E0,0E0,0E0,0E0,0E0,0E0,0E0,0E0,0E0,0E0,0E0,0E0,0E0,0E0,0E0,0E0],"parents":[2147483647,0,0,1,1,2,2,3,3,4,4,5,5,6,6,7,7,8,8,9,9,10,10,11,11,12,12,13,13,14,14,15,15,16,16,17,17,18,18,19,19,20,20,22,22,23,23,24,24,25,25,26,26,27,27,28,28,29,29,30,30],"right_children":[2,4,6,8,10,12,14,16,18,20,22,24,26,28,30,32,34,36,38,40,42,-1,44,46,48,50,52,54,56,58,60,-1,-1,-1,-1,-1,-1,-1,-1,-1,-1,-1,-1,-1,-1,-1,-1,-1,-1,-1,-1,-1,-1,-1,-1,-1,-1,-1,-1,-1,-1],"split_conditions":[1.45E2,2.3E1,5.88E2,4E0,6.3554688E0,3.0395508E-1,9E0,3.3325195E-1,3.37E2,7.1E1,-7.519531E-1,1.2E1,5E0,8.256836E-1,3.2E1,1.9226074E-2,4.8486328E-1,1.21875E0,3.02E2,7.4570312E0,3.2E1,3.8190754E1,8E0,2.631836E-1,1.2E1,9.5E1,5.7958984E-1,1.7E1,2.5E1,7.66E2,5.5E1,6.3071237E-3,-1.0486325E-2,7.566693E-3,6.0271706E-2,5.3389788E-2,1.6398698E-1,1.334335E1,-6.089187E0,2.595156E-1,9.3679947E-1,1.3610679E0,1.0732679E1,6.835784E-1,2.1987948E0,3.1909208E0,7.475393E0,1.7173283E-1,4.6565237E0,-3.1374424E0,3.21675E0,2.3060577E1,7.080218E0,-3.6159465E0,-2.5724116E-1,1.2779993E1,-2.397413E0,1.5530235E1,3.1515638E1,9.843635E0,-2.5838146E-1],"split_indices":[17,17,17,18,16,9,1,5,19,4,20,0,1,8,2,7,8,16,18,7,0,0,1,10,1,18,13,0,0,17,2,0,0,0,0,0,0,0,0,0,0,0,0,0,0,0,0,0,0,0,0,0,0,0,0,0,0,0,0,0,0],"split_type":[0,0,0,0,0,0,0,0,0,0,0,0,0,0,0,0,0,0,0,0,0,0,0,0,0,0,0,0,0,0,0,0,0,0,0,0,0,0,0,0,0,0,0,0,0,0,0,0,0,0,0,0,0,0,0,0,0,0,0,0,0],"sum_hessian":[8.933232E6,8.932727E6,5.05E2,8.925308E6,7.419E3,4.48E2,5.7E1,8.782902E6,1.42406E5,6.021E3,1.398E3,2E2,2.48E2,3.6E1,2.1E1,7.275404E6,1.507498E6,1.42399E5,7E0,5.732E3,2.89E2,1E0,1.397E3,9E1,1.1E2,7.9E1,1.69E2,7E0,2.9E1,1.6E1,5E0,2.009334E6,5.26607E6,1.297417E6,2.10081E5,9.0274E4,5.2125E4,5E0,2E0,5.085E3,6.47E2,2.81E2,8E0,8.5E2,5.47E2,7.1E1,1.9E1,1E2,1E1,1.3E1,6.6E1,9E0,1.6E2,2E0,5E0,2.6E1,3E0,9E0,7E0,4E0,1E0],"tree_param":{"num_deleted":"0","num_feature":"23","num_nodes":"61","size_leaf_vector":"1"}},{"base_weights":[-8.819141E-6,-2.7522347E-3,5.0588142E1,-9.568792E-3,3.4393532E0,4.0186504E1,1.25422066E2,-2.8623454E-2,5.699279E-1,2.1594048E0,9.268222E0,2.1056541E1,5.536673E1,1.4179216E2,-1.4235749E1,-2.8689347E-2,6.736948E1,5.6386876E-1,3.2137913E1,1.4640533E0,5.021471E0,7.65171E0,7.4724045E1,3.7251022E1,6.463245E0,1.5350893E2,4.8228523E1,1.2334183E2,2.6857431E1,-4.766441E0,1.6101159E0,-5.945971E-3,1.0871336E-2,1.6534914E1,-3.042528E0,5.6265038E-2,1.41957035E1,8.398196E-1,8.627728E0,2.0581198E-1,-7.709992E-2,1.2056873E0,4.2358437E-1,4.1045076E-1,1.6460899E0,5.9469093E1,1.4365713E-1,2.7419136E0,6.8991823E0,-3.6981702E-1,1.664134E0,3.68163E0,2.7187094E1,5.495652E0,-2.6445332E0,-2.687694E0,1.3064435E1,-9.282118E-1,1.4995371E0],"categories":[],"categories_nodes":[],"categories_segments":[],"categories_sizes":[],"default_left":[0,0,0,0,0,0,0,0,0,0,0,0,0,0,0,0,0,0,0,0,0,0,0,0,0,0,0,0,0,0,0,0,0,0,0,0,0,0,0,0,0,0,0,0,0,0,0,0,0,0,0,0,0,0,0,0,0,0,0],"id":17,"left_children":[1,3,5,7,9,11,13,15,17,19,21,23,25,27,29,31,33,35,37,39,41,43,45,47,49,51,53,55,-1,-1,57,-1,-1,-1,-1,-1,-1,-1,-1,-1,-1,-1,-1,-1,-1,-1,-1,-1,-1,-1,-1,-1,-1,-1,-1,-1,-1,-1,-1],"loss_changes":[1.2398259E6,2.0959748E5,3.6983038E5,9.844414E4,1.3169227E5,1.2244906E5,1.3651038E5,3.8336195E4,5.4260883E4,2.880357E4,3.3548806E5,4.4896492E4,1.556835E5,7.4981625E4,4.0511821E3,3.6493438E4,8.810727E4,4.876918E4,6.892547E4,1.5471381E4,1.5565375E4,9.687895E4,2.9116525E6,2.5500656E4,1.0683266E4,1.9884138E5,1.1434916E5,5.819125E4,0E0,0E0,1.1391923E3,0E0,0E0,0E0,0E0,0E0,0E0,0E0,0E0,0E0,0E0,0E0,0E0,0E0,0E0,0E0,0E0,0E0,0E0,0E0,0E0,0E0,0E0,0E0,0E0,0E0,0E0,0E0,0E0],"parents":[2147483647,0,0,1,1,2,2,3,3,4,4,5,5,6,6,7,7,8,8,9,9,10,10,11,11,12,12,13,13,14,14,15,15,16,16,17,17,18,18,19,19,20,20,21,21,22,22,23,23,24,24,25,25,26,26,27,27,30,30],"right_children":[2,4,6,8,10,12,14,16,18,20,22,24,26,28,30,32,34,36,38,40,42,44,46,48,50,52,54,56,-1,-1,58,-1,-1,-1,-1,-1,-1,-1,-1,-1,-1,-1,-1,-1,-1,-1,-1,-1,-1,-1,-1,-1,-1,-1,-1,-1,-1,-1,-1],"split_conditions":[1.49E2,1.4E1,5.88E2,1.6279297E0,6.3554688E0,3.0395508E-1,2.5E1,2.27E2,1.11E2,4.890625E0,3.2E1,1.2E1,3.1347656E-1,1.3691406E0,6.29E2,3.4179688E-1,1.6430664E-1,5.52E2,2.4E1,2.4E1,7E0,2.0212E4,3.5302734E-1,2.631836E-1,4.2E1,2.4E1,9.765625E-4,6.958008E-1,2.6857431E1,-4.766441E0,5.937E3,-5.945971E-3,1.0871336E-2,1.6534914E1,-3.042528E0,5.6265038E-2,1.41957035E1,8.398196E-1,8.627728E0,2.0581198E-1,-7.709992E-2,1.2056873E0,4.2358437E-1,4.1045076E-1,1.6460899E0,5.9469093E1,1.4365713E-1,2.7419136E0,6.8991823E0,-3.6981702E-1,1.664134E0,3.68163E0,2.7187094E1,5.495652E0,-2.6445332E0,-2.687694E0,1.3064435E1,-9.282118E-1,1.4995371E0],"split_indices":[17,17,17,5,14,9,0,19,18,7,0,0,9,10,17,14,13,19,19,0,0,3,7,10,18,0,20,6,0,0,3,0,0,0,0,0,0,0,0,0,0,0,0,0,0,0,0,0,0,0,0,0,0,0,0,0,0,0,0],"split_type":[0,0,0,0,0,0,0,0,0,0,0,0,0,0,0,0,0,0,0,0,0,0,0,0,0,0,0,0,0,0,0,0,0,0,0,0,0,0,0,0,0,0,0,0,0,0,0,0,0,0,0,0,0,0,0,0,0,0,0],"sum_hessian":[8.933469E6,8.932986E6,4.83E2,8.915332E6,1.7654E4,4.26E2,5.7E1,8.631517E6,2.83815E5,1.4477E4,3.177E3,1.9E2,2.36E2,5.1E1,6E0,8.63151E6,7E0,2.83762E5,5.3E1,1.1649E4,2.828E3,3.102E3,7.5E1,8.9E1,1.01E2,1.4E1,2.22E2,4.7E1,4E0,1E0,5E0,7.052217E6,1.579293E6,3E0,4E0,2.83761E5,1E0,3.8E1,1.5E1,9.203E3,2.446E3,2.82E2,2.546E3,2.213E3,8.89E2,8E0,6.7E1,7E1,1.9E1,5.1E1,5E1,8E0,6E0,2.04E2,1.8E1,2E0,4.5E1,3E0,2E0],"tree_param":{"num_deleted":"0","num_feature":"23","num_nodes":"59","size_leaf_vector":"1"}},{"base_weights":[1.4342992E-4,-1.2827105E-3,8.52499E1,-3.4955752E-3,1.8941034E1,7.045532E1,1.9141557E2,-1.2375431E-2,1.673712E0,6.011832E0,2.402556E1,5.3292114E1,1.2369853E2,-7.1913993E-1,2.0412639E2,-3.9238714E-2,2.480101E-1,6.8834466E-1,2.9046764E0,1.3197301E1,2.853791E-1,-1.20151006E-1,2.9728872E1,-8.716539E0,6.3138645E1,1.6791737E2,7.941567E1,1.4782226E1,2.7887043E1,7.6572592E-3,-7.6905503E-3,1.5160078E-2,8.596582E-2,2.7577007E-2,1.7183423E-1,2.2080193E-1,7.3744076E-1,5.929386E-1,4.314546E0,2.3247747E-1,-3.0510552E0,-3.3754772E-1,2.9524446E0,6.2739806E0,2.6398392E0,1.8424624E-1,-4.6327424E0,1.2448682E1,5.036099E0,5.450477E0,2.038575E1,9.401928E0,2.8777558E-1],"categories":[],"categories_nodes":[],"categories_segments":[],"categories_sizes":[],"default_left":[0,0,0,0,0,0,0,0,0,0,0,0,0,0,0,0,0,0,0,0,0,0,0,0,0,0,0,0,0,0,0,0,0,0,0,0,0,0,0,0,0,0,0,0,0,0,0,0,0,0,0,0,0],"id":18,"left_children":[1,3,5,7,9,11,13,15,17,19,21,23,25,-1,27,29,31,33,35,37,39,41,43,45,47,49,51,-1,-1,-1,-1,-1,-1,-1,-1,-1,-1,-1,-1,-1,-1,-1,-1,-1,-1,-1,-1,-1,-1,-1,-1,-1,-1],"loss_changes":[1.0860726E6,3.7444166E5,2.1530862E5,1.3302655E5,6.838656E4,1.1245119E5,4.6138125E4,6.2148152E4,5.705492E4,1.2192246E4,1.0307306E5,6.394925E4,4.236747E4,0E0,9.8455625E3,3.5133434E4,4.89973E4,1.1102622E4,6.5098312E4,2.8240947E4,1.0555343E4,1.4082266E4,6.4179375E4,6.254379E3,6.1086125E4,4.286222E4,2.0220844E4,0E0,0E0,0E0,0E0,0E0,0E0,0E0,0E0,0E0,0E0,0E0,0E0,0E0,0E0,0E0,0E0,0E0,0E0,0E0,0E0,0E0,0E0,0E0,0E0,0E0,0E0],"parents":[2147483647,0,0,1,1,2,2,3,3,4,4,5,5,6,6,7,7,8,8,9,9,10,10,11,11,12,12,14,14,15,15,16,16,17,17,18,18,19,19,20,20,21,21,22,22,23,23,24,24,25,25,26,26],"right_children":[2,4,6,8,10,12,14,16,18,20,22,24,26,-1,28,30,32,34,36,38,40,42,44,46,48,50,52,-1,-1,-1,-1,-1,-1,-1,-1,-1,-1,-1,-1,-1,-1,-1,-1,-1,-1,-1,-1,-1,-1,-1,-1,-1,-1],"split_conditions":[3.47E2,8.3E1,1.2E1,8E0,4.5507812E0,1.1269531E0,8.8046875E0,7.0458984E-1,1.1679688E0,1.3154297E0,3E0,1.5390625E0,1.5E1,-7.1913993E-1,1.0361328E0,1.9226074E-2,1.4902344E0,2.8833008E-1,1.9E1,1.2626953E0,2.2E1,1.78E2,5.0859375E0,1.13220215E-1,9E0,1.0810547E0,7.92E2,1.4782226E1,2.7887043E1,7.6572592E-3,-7.6905503E-3,1.5160078E-2,8.596582E-2,2.7577007E-2,1.7183423E-1,2.2080193E-1,7.3744076E-1,5.929386E-1,4.314546E0,2.3247747E-1,-3.0510552E0,-3.3754772E-1,2.9524446E0,6.2739806E0,2.6398392E0,1.8424624E-1,-4.6327424E0,1.2448682E1,5.036099E0,5.450477E0,2.038575E1,9.401928E0,2.8777558E-1],"split_indices":[17,17,1,18,14,8,5,14,16,11,1,12,0,0,8,6,5,13,17,11,19,19,5,12,0,9,18,0,0,0,0,0,0,0,0,0,0,0,0,0,0,0,0,0,0,0,0,0,0,0,0,0,0],"split_type":[0,0,0,0,0,0,0,0,0,0,0,0,0,0,0,0,0,0,0,0,0,0,0,0,0,0,0,0,0,0,0,0,0,0,0,0,0,0,0,0,0,0,0,0,0,0,0,0,0,0,0,0,0],"sum_hessian":[8.933121E6,8.932973E6,1.48E2,8.931931E6,1.042E3,1.32E2,1.6E1,8.884892E6,4.7039E4,2.95E2,7.47E2,1.02E2,3E1,1E0,1.5E1,8.053985E6,8.30907E5,2.6127E4,2.0912E4,1.3E2,1.65E2,1.43E2,6.04E2,1.4E1,8.8E1,1.3E1,1.7E1,1.1E1,4E0,1.976619E6,6.077366E6,7.17772E5,1.13135E5,1.8656E4,7.471E3,1.8094E4,2.818E3,1.06E2,2.4E1,1.56E2,9E0,1.3E2,1.3E1,5.3E1,5.51E2,1.2E1,2E0,1.3E1,7.5E1,4E0,9E0,1.4E1,3E0],"tree_param":{"num_deleted":"0","num_feature":"23","num_nodes":"53","size_leaf_vector":"1"}},{"base_weights":[-1.877454E-5,-2.0095797E-3,4.2911293E1,-3.9574862E-3,8.1485E0,3.1182735E1,7.819482E1,-2.0846743E-2,6.3248146E-1,8.7059027E-1,1.4985866E1,6.6615744E0,4.132708E1,5.523322E1,1.6123735E2,9.709031E-2,-5.764904E-2,4.62239E-1,2.157308E0,6.2222695E-1,1.05675125E1,9.2967354E1,1.3418494E1,-1.970509E0,4.1925274E1,2.890574E1,6.848769E1,1.0430689E2,2.7235027E1,4.9136906E1,1.9102992E2,1.9125663E-2,-1.585131E-2,-9.071652E-3,1.1632785E-2,3.8201164E-2,1.6205902E-1,5.445964E0,2.0929503E-1,1.6592772E-1,-6.163471E-1,1.6889251E0,1.8710714E1,1.8405584E1,1.3014977E0,-1.3673815E0,2.817634E-1,1.0947188E1,1.8594284E0,3.9341092E0,3.1929414E-3,1.5709412E1,4.945618E0,-2.6430416E-1,1.2127284E1,3.9453971E0,-4.609488E0,4.148728E-1,5.6309776E0,1.3094164E1,2.3838741E1],"categories":[],"categories_nodes":[],"categories_segments":[],"categories_sizes":[],"default_left":[0,0,0,0,0,0,0,0,0,0,0,0,0,0,0,0,0,0,0,0,0,0,0,0,0,0,0,0,0,0,0,0,0,0,0,0,0,0,0,0,0,0,0,0,0,0,0,0,0,0,0,0,0,0,0,0,0,0,0,0,0],"id":19,"left_children":[1,3,5,7,9,11,13,15,17,19,21,23,25,27,29,31,33,35,37,39,-1,41,43,45,47,49,51,53,55,57,59,-1,-1,-1,-1,-1,-1,-1,-1,-1,-1,-1,-1,-1,-1,-1,-1,-1,-1,-1,-1,-1,-1,-1,-1,-1,-1,-1,-1,-1,-1],"loss_changes":[7.631762E5,1.4182644E5,1.6799556E5,9.599924E4,1.06194625E5,7.757209E4,1.8251131E5,3.776166E4,5.9931836E4,2.6857432E4,1.3270658E5,2.8561803E4,7.185769E4,1.09180484E5,5.8091188E4,4.980382E4,3.8147695E4,1.930009E4,7.7886266E4,7.2941846E3,0E0,1.4899997E5,7.094581E4,4.3389023E3,2.6129201E4,4.6532094E4,1.0422703E5,5.3879406E4,5.1396293E4,1.7416992E3,1.848875E3,0E0,0E0,0E0,0E0,0E0,0E0,0E0,0E0,0E0,0E0,0E0,0E0,0E0,0E0,0E0,0E0,0E0,0E0,0E0,0E0,0E0,0E0,0E0,0E0,0E0,0E0,0E0,0E0,0E0,0E0],"parents":[2147483647,0,0,1,1,2,2,3,3,4,4,5,5,6,6,7,7,8,8,9,9,10,10,11,11,12,12,13,13,14,14,15,15,16,16,17,17,18,18,19,19,21,21,22,22,23,23,24,24,25,25,26,26,27,27,28,28,29,29,30,30],"right_children":[2,4,6,8,10,12,14,16,18,20,22,24,26,28,30,32,34,36,38,40,-1,42,44,46,48,50,52,54,56,58,60,-1,-1,-1,-1,-1,-1,-1,-1,-1,-1,-1,-1,-1,-1,-1,-1,-1,-1,-1,-1,-1,-1,-1,-1,-1,-1,-1,-1,-1,-1],"split_conditions":[1.6E2,5E1,3.69E2,3E0,3.7182617E-1,1.0236E4,1.1E1,2.3254395E-2,9E0,1.127E3,5.7958984E-1,1.17E2,4.8486328E-1,1.5E1,7.4853516E-1,1.9226074E-2,1E0,1.2E1,7.69043E-2,2.1640625E0,1.05675125E1,7.8125E-1,7.026367E-1,5.84375E0,1.69E2,3.5180664E-1,4.6E1,3.73E2,7.92E2,5.136719E-1,1.0673828E0,1.9125663E-2,-1.585131E-2,-9.071652E-3,1.1632785E-2,3.8201164E-2,1.6205902E-1,5.445964E0,2.0929503E-1,1.6592772E-1,-6.163471E-1,1.6889251E0,1.8710714E1,1.8405584E1,1.3014977E0,-1.3673815E0,2.817634E-1,1.0947188E1,1.8594284E0,3.9341092E0,3.1929414E-3,1.5709412E1,4.945618E0,-2.6430416E-1,1.2127284E1,3.9453971E0,-4.609488E0,4.148728E-1,5.6309776E0,1.3094164E1,2.3838741E1],"split_indices":[19,18,18,19,13,3,1,9,18,18,13,18,9,0,8,7,18,1,7,11,0,11,15,5,19,9,18,19,19,10,8,0,0,0,0,0,0,0,0,0,0,0,0,0,0,0,0,0,0,0,0,0,0,0,0,0,0,0,0,0,0],"split_type":[0,0,0,0,0,0,0,0,0,0,0,0,0,0,0,0,0,0,0,0,0,0,0,0,0,0,0,0,0,0,0,0,0,0,0,0,0,0,0,0,0,0,0,0,0,0,0,0,0,0,0,0,0,0,0,0,0,0,0,0,0],"sum_hessian":[8.933551E6,8.933138E6,4.13E2,8.931005E6,2.133E3,3.12E2,1.01E2,8.70013E6,2.30875E5,1.034E3,1.099E3,9.2E1,2.2E2,8.1E1,2E1,2.069187E6,6.630943E6,2.07689E5,2.3186E4,1.033E3,1E0,2E1,1.079E3,7.5E1,1.7E1,1.53E2,6.7E1,2.8E1,5.3E1,5E0,1.5E1,1.512113E6,5.57074E5,5.571902E6,1.059041E6,1.94238E5,1.3451E4,2.7E1,2.3159E4,8.97E2,1.36E2,1.2E1,8E0,1E0,1.078E3,2.1E1,5.4E1,3E0,1.4E1,1.12E2,4.1E1,1E1,5.7E1,4E0,2.4E1,4.6E1,7E0,1E0,4E0,9E0,6E0],"tree_param":{"num_deleted":"0","num_feature":"23","num_nodes":"61","size_leaf_vector":"1"}},{"base_weights":[3.5521766E-4,-1.5369491E-3,4.8504147E1,-4.3821954E-3,6.9573674E0,3.6874065E1,1.01967445E2,-1.991997E-2,5.5362177E-1,1.27710846E2,6.708124E0,8.454125E0,4.6271923E1,-2.1213604E1,1.1342115E2,-2.0481152E-2,1.2998137E1,4.3423182E-1,2.0211768E0,2.034498E2,1.0563179E1,4.481654E0,1.2403748E1,1.42249365E1,-2.4612734E1,1.5299765E1,6.0926636E1,1.9656214E0,-3.392883E1,9.756483E1,2.14731E2,-3.8563476E-3,1.7774515E-2,2.5861302E-1,2.924007E1,3.151534E-2,1.4350007E-1,1.643593E-1,6.28297E-1,2.5344598E0,2.4462616E1,1.3258694E0,5.296851E-2,3.7494436E-1,1.9647735E0,3.662617E1,1.1542019E0,3.4377968E0,4.495012E-1,-3.9340878E0,1.1366087E0,9.114116E-1,8.79422E0,1.4993362E1,5.2104273E0,2.6712713E-1,-4.303928E0,1.345885E1,7.8545775E0,2.408328E1,2.9823277E0],"categories":[],"categories_nodes":[],"categories_segments":[],"categories_sizes":[],"default_left":[0,0,0,0,0,0,0,0,0,0,0,0,0,0,0,0,0,0,0,0,0,0,0,0,0,0,0,0,0,0,0,0,0,0,0,0,0,0,0,0,0,0,0,0,0,0,0,0,0,0,0,0,0,0,0,0,0,0,0,0,0],"id":20,"left_children":[1,3,5,7,9,11,13,15,17,19,21,23,25,27,29,31,33,35,37,39,41,43,45,47,49,51,53,-1,55,57,59,-1,-1,-1,-1,-1,-1,-1,-1,-1,-1,-1,-1,-1,-1,-1,-1,-1,-1,-1,-1,-1,-1,-1,-1,-1,-1,-1,-1,-1,-1],"loss_changes":[8.197768E5,1.7684975E5,2.1124131E5,7.740914E4,1.08634125E5,7.647519E4,9.014706E4,6.345892E4,4.2377875E4,6.2913977E4,4.613561E4,1.4517869E4,9.689753E4,4.3063496E3,6.0507938E4,3.1134035E4,1.0882086E6,2.6655227E4,2.9266555E4,2.3633172E4,1.0995746E2,2.901554E4,3.059925E5,1.2217242E4,6.7054155E3,3.094691E4,1.0374675E5,0E0,1.9792339E3,2.1004562E4,2.0740844E4,0E0,0E0,0E0,0E0,0E0,0E0,0E0,0E0,0E0,0E0,0E0,0E0,0E0,0E0,0E0,0E0,0E0,0E0,0E0,0E0,0E0,0E0,0E0,0E0,0E0,0E0,0E0,0E0,0E0,0E0],"parents":[2147483647,0,0,1,1,2,2,3,3,4,4,5,5,6,6,7,7,8,8,9,9,10,10,11,11,12,12,13,13,14,14,15,15,16,16,17,17,18,18,19,19,20,20,21,21,22,22,23,23,24,24,25,25,26,26,28,28,29,29,30,30],"right_children":[2,4,6,8,10,12,14,16,18,20,22,24,26,28,30,32,34,36,38,40,42,44,46,48,50,52,54,-1,56,58,60,-1,-1,-1,-1,-1,-1,-1,-1,-1,-1,-1,-1,-1,-1,-1,-1,-1,-1,-1,-1,-1,-1,-1,-1,-1,-1,-1,-1,-1,-1],"split_conditions":[1.84E2,3.6E1,9.1259766E-1,1.9130859E0,7.7783203E-1,6E0,3.02E2,1.9E1,1.2E1,2.3E1,6.3554688E0,1.789093E-3,5E0,1.0870361E-1,1.2E1,6.723633E-1,3.2E1,6.723633E-1,5.5322266E-1,2.1E1,3.2E1,7.1E1,9.802246E-2,1E1,4E0,1.1269531E0,5.7958984E-1,1.9656214E0,1.4E1,1.4E1,3.2E1,-3.8563476E-3,1.7774515E-2,2.5861302E-1,2.924007E1,3.151534E-2,1.4350007E-1,1.643593E-1,6.28297E-1,2.5344598E0,2.4462616E1,1.3258694E0,5.296851E-2,3.7494436E-1,1.9647735E0,3.662617E1,1.1542019E0,3.4377968E0,4.495012E-1,-3.9340878E0,1.1366087E0,9.114116E-1,8.79422E0,1.4993362E1,5.2104273E0,2.6712713E-1,-4.303928E0,1.345885E1,7.8545775E0,2.408328E1,2.9823277E0],"split_indices":[17,17,10,5,5,18,17,17,1,0,16,15,1,6,1,8,0,8,10,0,4,4,7,0,18,8,13,0,0,0,2,0,0,0,0,0,0,0,0,0,0,0,0,0,0,0,0,0,0,0,0,0,0,0,0,0,0,0,0,0,0],"split_type":[0,0,0,0,0,0,0,0,0,0,0,0,0,0,0,0,0,0,0,0,0,0,0,0,0,0,0,0,0,0,0,0,0,0,0,0,0,0,0,0,0,0,0,0,0,0,0,0,0,0,0,0,0,0,0,0,0,0,0,0,0],"sum_hessian":[8.93224E6,8.931893E6,3.47E2,8.928244E6,3.649E3,2.87E2,6E1,8.686371E6,2.41873E5,6E0,3.643E3,7.2E1,2.15E2,5E0,5.5E1,8.685998E6,3.73E2,2.23678E5,1.8195E4,3E0,3E0,2.621E3,1.022E3,6.2E1,1E1,7E1,1.45E2,1E0,4E0,5E1,5E0,7.959893E6,7.26105E5,3.61E2,1.2E1,1.99895E5,2.3783E4,1.6716E4,1.479E3,1E0,2E0,2E0,1E0,2.502E3,1.19E2,1E0,1.021E3,1.9E1,4.3E1,7E0,3E0,6.6E1,4E0,1.1E1,1.34E2,1E0,3E0,1.4E1,3.6E1,4E0,1E0],"tree_param":{"num_deleted":"0","num_feature":"23","num_nodes":"61","size_leaf_vector":"1"}},{"base_weights":[3.7958627E-4,-1.6169287E-3,3.528569E1,-4.0640817E-3,5.131702E0,2.9420847E1,1.0543585E2,-1.8692322E-2,5.483593E-1,2.1547878E1,4.5741E0,1.3842045E1,4.1157074E1,6.281824E1,1.7798486E2,8.657362E-2,-5.134634E-2,5.439698E-1,8.175632E1,5.017424E-1,3.8884274E1,4.038118E0,2.1450396E1,2.7781694E1,2.8693726E0,1.2898445E2,3.517919E1,8.4241806E1,-4.218448E1,3.705758E1,1.9796074E1,7.8935884E-2,-1.4012953E-3,-7.972317E-3,9.812168E-3,5.4126896E-2,1.1476043E1,1.1715411E1,-5.9899473E0,9.6122074E-1,-5.62405E-1,3.512475E1,2.8041663E0,5.453373E-1,-1.0486132E-1,6.355083E0,1.4074769E0,-5.4106345E0,3.152474E0,-3.3802353E-2,2.724845E0,4.446695E0,2.502945E1,4.644046E0,6.4294577E-1,-2.5548666E0,9.678406E0,-8.083826E0,-7.266724E-1,4.4063134E0,8.185503E-1],"categories":[],"categories_nodes":[],"categories_segments":[],"categories_sizes":[],"default_left":[0,0,0,0,0,0,0,0,0,0,0,0,0,0,0,0,0,0,0,0,0,0,0,0,0,0,0,0,0,0,0,0,0,0,0,0,0,0,0,0,0,0,0,0,0,0,0,0,0,0,0,0,0,0,0,0,0,0,0,0,0],"id":21,"left_children":[1,3,5,7,9,11,13,15,17,19,21,23,25,27,29,31,33,35,37,39,41,43,45,47,49,51,53,55,57,59,-1,-1,-1,-1,-1,-1,-1,-1,-1,-1,-1,-1,-1,-1,-1,-1,-1,-1,-1,-1,-1,-1,-1,-1,-1,-1,-1,-1,-1,-1,-1],"loss_changes":[6.293346E5,1.1221475E5,2.0348262E5,7.215191E4,3.8820242E4,8.482775E4,1.0275566E5,2.9899074E4,8.2038734E4,5.084837E4,3.712825E4,3.1002375E4,1.3335494E5,6.4591664E4,2.7274344E4,1.4558123E5,2.815828E4,7.096082E4,7.247625E4,3.6741038E3,2.4470978E5,2.8757094E4,3.797408E4,2.9869344E4,9.0398545E3,1.5252997E5,8.097584E4,3.445883E4,6.4960547E3,1.765039E2,0E0,0E0,0E0,0E0,0E0,0E0,0E0,0E0,0E0,0E0,0E0,0E0,0E0,0E0,0E0,0E0,0E0,0E0,0E0,0E0,0E0,0E0,0E0,0E0,0E0,0E0,0E0,0E0,0E0,0E0,0E0],"parents":[2147483647,0,0,1,1,2,2,3,3,4,4,5,5,6,6,7,7,8,8,9,9,10,10,11,11,12,12,13,13,14,14,15,15,16,16,17,17,18,18,19,19,20,20,21,21,22,22,23,23,24,24,25,25,26,26,27,27,28,28,29,29],"right_children":[2,4,6,8,10,12,14,16,18,20,22,24,26,28,30,32,34,36,38,40,42,44,46,48,50,52,54,56,58,60,-1,-1,-1,-1,-1,-1,-1,-1,-1,-1,-1,-1,-1,-1,-1,-1,-1,-1,-1,-1,-1,-1,-1,-1,-1,-1,-1,-1,-1,-1,-1],"split_conditions":[1.45E2,3.2E1,6.91E2,3E0,1.3398438E0,3.0395508E-1,1.1318359E0,1.9226074E-2,1.79E2,2.2692871E-1,1.54E2,1.2E1,3.1347656E-1,1.066E3,7.64E2,3.1E1,1E0,5.04E2,7.49E2,7.871094E-1,6.121826E-2,2.4E1,1.63E2,1.1E1,3.0517578E-1,2.8E1,2.4E1,8.081E3,1.3E1,7E0,1.9796074E1,7.8935884E-2,-1.4012953E-3,-7.972317E-3,9.812168E-3,5.4126896E-2,1.1476043E1,1.1715411E1,-5.9899473E0,9.6122074E-1,-5.62405E-1,3.512475E1,2.8041663E0,5.453373E-1,-1.0486132E-1,6.355083E0,1.4074769E0,-5.4106345E0,3.152474E0,-3.3802353E-2,2.724845E0,4.446695E0,2.502945E1,4.644046E0,6.4294577E-1,-2.5548666E0,9.678406E0,-8.083826E0,-7.266724E-1,4.4063134E0,8.185503E-1],"split_indices":[17,17,17,19,5,9,10,6,18,9,19,0,9,17,17,4,18,19,19,5,6,0,19,4,10,0,0,3,0,0,0,0,0,0,0,0,0,0,0,0,0,0,0,0,0,0,0,0,0,0,0,0,0,0,0,0,0,0,0,0,0],"split_type":[0,0,0,0,0,0,0,0,0,0,0,0,0,0,0,0,0,0,0,0,0,0,0,0,0,0,0,0,0,0,0,0,0,0,0,0,0,0,0,0,0,0,0,0,0,0,0,0,0,0,0,0,0,0,0,0,0,0,0,0,0],"sum_hessian":[8.933362E6,8.932858E6,5.04E2,8.928603E6,4.255E3,4.67E2,3.7E1,8.698273E6,2.3033E5,1.38E2,4.117E3,2.02E2,2.65E2,2.5E1,1.2E1,2.059408E6,6.638865E6,2.30319E5,1.1E1,6.3E1,7.5E1,3.992E3,1.25E2,8.8E1,1.14E2,1.5E1,2.5E2,2.1E1,4E0,2E0,1E1,2.57848E5,1.80156E6,5.579572E6,1.059293E6,2.30315E5,4E0,9E0,2E0,2.5E1,3.8E1,1E0,7.4E1,3.123E3,8.69E2,1.7E1,1.08E2,3E0,8.5E1,1.02E2,1.2E1,1E1,5E0,1.79E2,7.1E1,2E0,1.9E1,1E0,3E0,1E0,1E0],"tree_param":{"num_deleted":"0","num_feature":"23","num_nodes":"61","size_leaf_vector":"1"}},{"base_weights":[3.0701503E-4,-1.5722502E-3,3.3082367E1,-6.178683E-3,2.3251207E0,2.2770817E1,6.667267E1,-3.5874575E-2,1.782141E-1,1.3166126E1,1.9484385E0,2.0884722E1,1.0458036E2,5.410673E1,1.5905309E2,-3.5957344E-2,8.5397255E1,1.1448158E-1,6.706539E-1,5.008632E0,2.667093E2,1.400785E0,6.7036333E0,1.47665615E1,4.923732E1,6.0518355E0,2.4528128E1,1.8169239E1,7.450146E1,1.8797409E2,6.6774325E0,5.597161E-3,-6.411057E-3,1.8079206E1,-3.7686589E0,8.052382E-3,5.664894E-2,6.676934E-2,5.692881E0,2.051516E-1,5.137544E0,1.4606564E0,6.36644E1,1.3277784E-1,3.679437E0,4.088296E-1,2.055295E0,6.5230575E0,1.2989645E0,5.6811066E0,-5.2123985E0,-1.518854E0,3.0935009E0,1.057495E0,9.543976E0,1.0071262E1,5.2217126E0,3.5315864E0,2.0003927E1],"categories":[],"categories_nodes":[],"categories_segments":[],"categories_sizes":[],"default_left":[0,0,0,0,0,0,0,0,0,0,0,0,0,0,0,0,0,0,0,0,0,0,0,0,0,0,0,0,0,0,0,0,0,0,0,0,0,0,0,0,0,0,0,0,0,0,0,0,0,0,0,0,0,0,0,0,0,0,0],"id":22,"left_children":[1,3,5,7,9,11,13,15,17,19,21,23,25,27,29,31,33,35,37,39,41,43,45,47,49,51,-1,53,55,57,-1,-1,-1,-1,-1,-1,-1,-1,-1,-1,-1,-1,-1,-1,-1,-1,-1,-1,-1,-1,-1,-1,-1,-1,-1,-1,-1,-1,-1],"loss_changes":[5.553848E5,9.573982E4,1.7357556E5,4.88169E4,7.204063E4,5.7101125E4,1.2510244E5,5.4299133E4,3.881017E4,1.2234059E6,4.441267E4,6.5467047E4,1.1485963E5,7.606475E4,1.7799562E4,1.9872857E4,9.715803E4,1.6805848E4,2.3546254E4,7.874796E4,1.7063046E6,3.9462914E4,6.3679516E4,2.724525E4,5.6034734E4,4.079749E3,0E0,2.227768E4,3.1821375E4,7.2170625E3,0E0,0E0,0E0,0E0,0E0,0E0,0E0,0E0,0E0,0E0,0E0,0E0,0E0,0E0,0E0,0E0,0E0,0E0,0E0,0E0,0E0,0E0,0E0,0E0,0E0,0E0,0E0,0E0,0E0],"parents":[2147483647,0,0,1,1,2,2,3,3,4,4,5,5,6,6,7,7,8,8,9,9,10,10,11,11,12,12,13,13,14,14,15,15,16,16,17,17,18,18,19,19,20,20,21,21,22,22,23,23,24,24,25,25,27,27,28,28,29,29],"right_children":[2,4,6,8,10,12,14,16,18,20,22,24,26,28,30,32,34,36,38,40,42,44,46,48,50,52,-1,54,56,58,-1,-1,-1,-1,-1,-1,-1,-1,-1,-1,-1,-1,-1,-1,-1,-1,-1,-1,-1,-1,-1,-1,-1,-1,-1,-1,-1,-1,-1],"split_conditions":[1.45E2,1.4E1,4.12E2,1E0,1.0214844E0,3.2E1,1.2E1,5.04E2,1.4082031E0,1.6269531E0,1.2E1,1.1E1,4.8E1,7.944336E-1,3.2E1,1.9226074E-2,1.81E2,1.2E1,2.7E2,3.9E1,2.9E1,2.73E2,1.9E1,6E0,5.859375E-3,7.4853516E-1,2.4528128E1,2.529297E-1,1.4E1,1.3E1,6.6774325E0,5.597161E-3,-6.411057E-3,1.8079206E1,-3.7686589E0,8.052382E-3,5.664894E-2,6.676934E-2,5.692881E0,2.051516E-1,5.137544E0,1.4606564E0,6.36644E1,1.3277784E-1,3.679437E0,4.088296E-1,2.055295E0,6.5230575E0,1.2989645E0,5.6811066E0,-5.2123985E0,-1.518854E0,3.0935009E0,1.057495E0,9.543976E0,1.0071262E1,5.2217126E0,3.5315864E0,2.0003927E1],"split_indices":[17,17,17,17,5,0,1,19,14,11,1,1,2,9,2,5,18,1,18,17,0,13,19,0,22,8,0,20,0,2,0,0,0,0,0,0,0,0,0,0,0,0,0,0,0,0,0,0,0,0,0,0,0,0,0,0,0,0,0],"split_type":[0,0,0,0,0,0,0,0,0,0,0,0,0,0,0,0,0,0,0,0,0,0,0,0,0,0,0,0,0,0,0,0,0,0,0,0,0,0,0,0,0,0,0,0,0,0,0,0,0,0,0,0,0,0,0,0,0,0,0],"sum_hessian":[8.933327E6,8.932821E6,5.06E2,8.915172E6,1.7649E4,3.89E2,1.17E2,7.678564E6,1.236608E6,5.91E2,1.7058E4,3.82E2,7E0,1.05E2,1.2E1,7.678558E6,6E0,1.094905E6,1.41703E5,5.74E2,1.7E1,1.5298E4,1.76E3,3.16E2,6.6E1,5E0,2E0,3.9E1,6.6E1,8E0,4E0,1.800235E6,5.878323E6,3E0,3E0,1.018398E6,7.6507E4,1.41697E5,6E0,5.41E2,3.3E1,1.1E1,6E0,1.5268E4,3E1,1.482E3,2.78E2,9E0,3.07E2,6.2E1,4E0,3E0,2E0,3.7E1,2E0,2.8E1,3.8E1,1E0,7E0],"tree_param":{"num_deleted":"0","num_feature":"23","num_nodes":"59","size_leaf_vector":"1"}},{"base_weights":[2.703212E-4,-7.859181E-4,4.661627E1,-2.054913E-3,1.1376232E1,3.7897816E1,1.3065594E2,-9.96808E-3,9.212985E-1,9.005479E0,2.8351332E1,1.950201E1,6.1561428E1,4.1185E1,1.6904537E1,-4.0653635E-2,1.1085354E-1,9.106891E-1,4.2272198E1,8.03308E0,4.3899372E1,1.0466966E1,5.008532E1,1.1452447E2,1.6103914E1,-4.935413E0,6.529517E1,-1.2791386E1,6.441631E0,-4.0705563E-3,6.7403574E0,5.3505646E-3,4.7772832E-2,2.6149694E-2,1.5260553E-1,-9.232384E-1,7.945289E0,1.2885231E-2,1.2908934E0,1.2860751E0,8.077781E0,1.5915297E0,-2.199766E0,3.807387E0,8.265102E0,1.8054394E0,1.4341723E1,1.7896432E0,-6.940667E0,1.204275E1,5.6572704E0,-1.67673E-1,-1.6358246E0],"categories":[],"categories_nodes":[],"categories_segments":[],"categories_sizes":[],"default_left":[0,0,0,0,0,0,0,0,0,0,0,0,0,0,0,0,0,0,0,0,0,0,0,0,0,0,0,0,0,0,0,0,0,0,0,0,0,0,0,0,0,0,0,0,0,0,0,0,0,0,0,0,0],"id":23,"left_children":[1,3,5,7,9,11,13,15,17,19,21,23,25,27,-1,29,31,33,35,37,39,41,43,45,47,-1,49,51,-1,-1,-1,-1,-1,-1,-1,-1,-1,-1,-1,-1,-1,-1,-1,-1,-1,-1,-1,-1,-1,-1,-1,-1,-1],"loss_changes":[4.3992125E5,1.2899007E5,1.41199E5,6.5273637E4,3.9732984E4,7.899572E4,5.3313094E4,3.2839164E4,3.3246754E4,2.9230656E4,4.6448727E4,3.1714078E4,3.7951156E4,1.0514672E4,0E0,2.4742494E4,3.7744113E4,3.0317371E4,3.828193E4,3.2927574E4,2.5334703E4,1.2609378E4,1.6764922E4,5.859551E3,1.7796354E4,0E0,2.7914031E4,9.6872986E1,0E0,0E0,0E0,0E0,0E0,0E0,0E0,0E0,0E0,0E0,0E0,0E0,0E0,0E0,0E0,0E0,0E0,0E0,0E0,0E0,0E0,0E0,0E0,0E0,0E0],"parents":[2147483647,0,0,1,1,2,2,3,3,4,4,5,5,6,6,7,7,8,8,9,9,10,10,11,11,12,12,13,13,15,15,16,16,17,17,18,18,19,19,20,20,21,21,22,22,23,23,24,24,26,26,27,27],"right_children":[2,4,6,8,10,12,14,16,18,20,22,24,26,28,-1,30,32,34,36,38,40,42,44,46,48,-1,50,52,-1,-1,-1,-1,-1,-1,-1,-1,-1,-1,-1,-1,-1,-1,-1,-1,-1,-1,-1,-1,-1,-1,-1,-1,-1],"split_conditions":[2.7E2,8.2E1,1.2E1,6E0,1.2E1,7.944336E-1,5.932617E-1,2.8881836E-1,3.47E2,2.73E2,1.6083984E0,-4.008789E-1,6.430664E-1,8.8046875E0,1.6904537E1,1.59E2,5.4589844E-1,9.135742E-1,2.8E1,6E0,3.1347656E-1,2.9E1,1.51E2,5E0,3.330078E-1,-4.935413E0,1.08E2,6.9023438E0,6.441631E0,-4.0705563E-3,6.7403574E0,5.3505646E-3,4.7772832E-2,2.6149694E-2,1.5260553E-1,-9.232384E-1,7.945289E0,1.2885231E-2,1.2908934E0,1.2860751E0,8.077781E0,1.5915297E0,-2.199766E0,3.807387E0,8.265102E0,1.8054394E0,1.4341723E1,1.7896432E0,-6.940667E0,1.204275E1,5.6572704E0,-1.67673E-1,-1.6358246E0],"split_indices":[17,17,1,18,1,9,8,5,19,13,12,22,8,5,0,19,8,16,2,1,9,18,19,1,22,0,18,5,0,0,0,0,0,0,0,0,0,0,0,0,0,0,0,0,0,0,0,0,0,0,0,0,0],"split_type":[0,0,0,0,0,0,0,0,0,0,0,0,0,0,0,0,0,0,0,0,0,0,0,0,0,0,0,0,0,0,0,0,0,0,0,0,0,0,0,0,0,0,0,0,0,0,0,0,0,0,0,0,0],"sum_hessian":[8.934649E6,8.934448E6,2.01E2,8.933453E6,9.95E2,1.84E2,1.7E1,8.857545E6,7.5908E4,8.75E2,1.2E2,1.05E2,7.9E1,6E0,1.1E1,7.06358E6,1.793965E6,7.589E4,1.8E1,8.53E2,2.2E1,6.7E1,5.3E1,2E0,1.03E2,2E0,7.7E1,2E0,4E0,7.063576E6,4E0,1.551452E6,2.42513E5,3.6931E4,3.8959E4,8E0,1E1,3.26E2,5.27E2,1.3E1,9E0,5.8E1,9E0,4.1E1,1.2E1,1E0,1E0,1.02E2,1E0,8E0,6.9E1,1E0,1E0],"tree_param":{"num_deleted":"0","num_feature":"23","num_nodes":"53","size_leaf_vector":"1"}},{"base_weights":[3.0665164E-4,-5.546011E-4,5.218525E1,-1.9967922E-3,1.0677373E1,4.2069862E1,1.24116684E2,-1.0514587E-2,7.281179E-1,6.7834225E0,2.004751E1,7.596336E1,3.0063196E1,4.9163124E1,1.572437E2,-3.9670587E-2,9.136396E-2,7.1596307E-1,5.190399E1,-3.2273793E0,1.1025964E1,4.134222E1,1.1989503E1,1.4357814E1,9.45242E1,2.5451733E1,1.2049207E2,-1.568767E0,6.274074E0,3.6303012E0,1.6382307E1,5.4459604E-3,-7.3107663E-3,-1.1223938E-3,2.335493E-2,4.435625E-2,2.205709E-1,6.5154457E0,-5.626656E0,5.257041E-1,-6.9309753E-1,1.0420378E0,6.455831E0,1.6152737E1,2.3147526E0,8.8233024E-1,4.8235874E0,-3.378554E0,2.5824862E0,-3.123487E-1,9.870367E0,3.215451E0,-4.992403E0,1.3580562E1,2.7802417E0],"categories":[],"categories_nodes":[],"categories_segments":[],"categories_sizes":[],"default_left":[0,0,0,0,0,0,0,0,0,0,0,0,0,0,0,0,0,0,0,0,0,0,0,0,0,0,0,0,0,0,0,0,0,0,0,0,0,0,0,0,0,0,0,0,0,0,0,0,0,0,0,0,0,0,0],"id":24,"left_children":[1,3,5,7,9,11,13,15,17,19,21,23,25,27,29,31,33,35,37,39,41,43,45,47,49,51,53,-1,-1,-1,-1,-1,-1,-1,-1,-1,-1,-1,-1,-1,-1,-1,-1,-1,-1,-1,-1,-1,-1,-1,-1,-1,-1,-1,-1],"loss_changes":[4.0152375E5,1.3757455E5,9.976291E4,5.5550516E4,4.382342E4,5.020178E4,3.2174219E4,2.6226674E4,6.4020586E4,3.634032E4,5.9934234E4,3.628278E4,3.705283E4,7.967334E3,5.418125E2,2.1606617E4,2.865667E4,4.1790465E4,4.030629E4,8.079085E3,1.8496938E4,2.0550519E5,2.9046738E4,6.4670693E3,1.0825969E4,5.1034508E4,8.6646094E2,0E0,0E0,0E0,0E0,0E0,0E0,0E0,0E0,0E0,0E0,0E0,0E0,0E0,0E0,0E0,0E0,0E0,0E0,0E0,0E0,0E0,0E0,0E0,0E0,0E0,0E0,0E0,0E0],"parents":[2147483647,0,0,1,1,2,2,3,3,4,4,5,5,6,6,7,7,8,8,9,9,10,10,11,11,12,12,13,13,14,14,15,15,16,16,17,17,18,18,19,19,20,20,21,21,22,22,23,23,24,24,25,25,26,26],"right_children":[2,4,6,8,10,12,14,16,18,20,22,24,26,28,30,32,34,36,38,40,42,44,46,48,50,52,54,-1,-1,-1,-1,-1,-1,-1,-1,-1,-1,-1,-1,-1,-1,-1,-1,-1,-1,-1,-1,-1,-1,-1,-1,-1,-1,-1,-1],"split_conditions":[3.41E2,7.6E1,1.2E1,5E0,2.9638672E-1,1.1E1,6.508789E-1,2.8955078E-1,1.71E2,6E0,3.2836914E-1,5.136719E-1,9.5E2,8.8046875E0,0E0,1.9226074E-2,2.4438477E-1,4.5742188E0,7.49E2,1.4863281E0,3.3398438E-1,4.1289062E0,1.2E1,1.3154297E0,3.84E2,7.95E2,1.4E1,-1.568767E0,6.274074E0,3.6303012E0,1.6382307E1,5.4459604E-3,-7.3107663E-3,-1.1223938E-3,2.335493E-2,4.435625E-2,2.205709E-1,6.5154457E0,-5.626656E0,5.257041E-1,-6.9309753E-1,1.0420378E0,6.455831E0,1.6152737E1,2.3147526E0,8.8233024E-1,4.8235874E0,-3.378554E0,2.5824862E0,-3.123487E-1,9.870367E0,3.215451E0,-4.992403E0,1.3580562E1,2.7802417E0],"split_indices":[17,17,1,19,10,0,10,14,18,1,9,9,19,5,20,5,5,5,19,11,21,7,1,11,17,18,0,0,0,0,0,0,0,0,0,0,0,0,0,0,0,0,0,0,0,0,0,0,0,0,0,0,0,0,0],"split_type":[0,0,0,0,0,0,0,0,0,0,0,0,0,0,0,0,0,0,0,0,0,0,0,0,0,0,0,0,0,0,0,0,0,0,0,0,0,0,0,0,0,0,0,0,0,0,0,0,0,0,0,0,0,0,0],"sum_hessian":[8.933781E6,8.933635E6,1.46E2,8.93243E6,1.205E3,1.3E2,1.6E1,8.829424E6,1.03006E5,8.53E2,3.52E2,3.2E1,9.8E1,6E0,1E1,6.864823E6,1.964601E6,1.02983E5,2.3E1,2.54E2,5.99E2,9.5E1,2.57E2,8E0,2.4E1,9.5E1,3E0,1E0,5E0,1E0,9E0,1.799361E6,5.065462E6,1.14121E6,8.23391E5,8.7065E4,1.5918E4,2.1E1,2E0,7.7E1,1.77E2,5.94E2,5E0,1.1E1,8.4E1,2.38E2,1.9E1,1E0,7E0,1E0,2.3E1,8.8E1,7E0,2E0,1E0],"tree_param":{"num_deleted":"0","num_feature":"23","num_nodes":"55","size_leaf_vector":"1"}},{"base_weights":[1.2739394E-4,-6.420426E-4,4.5691765E1,-1.657664E-3,1.2841819E1,3.3073547E1,9.5937195E1,-5.738827E-3,1.5918697E0,1.0234169E1,3.353132E1,2.0848448E1,6.903675E1,2.1239874E1,1.2238403E2,-1.5666585E-2,3.2873094E-1,-1.5340824E-1,2.9102995E0,5.631214E0,1.923121E1,1.6739436E2,2.5013992E1,6.446775E1,1.1324072E1,1.315397E0,7.921064E1,-1.228277E0,3.9603004E1,8.065075E1,1.4871764E2,-2.9068987E-3,1.3152954E-2,-7.9261875E-3,5.4443058E-2,-1.7277108E-1,7.4246794E-2,1.8636218E-1,9.369276E-1,7.199666E0,4.4144854E-1,7.3588023E0,1.6022877E0,1.6952591E0,2.0403984E1,1.5962723E1,2.0118928E0,-4.348893E-1,8.029506E0,-3.7553163E0,1.6118679E0,4.662911E0,-8.192551E0,1.2978194E1,4.2400146E0,-2.9954457E-1,4.82271E0,2.4035957E0,1.0644049E1,2.9266078E0,1.5612465E1],"categories":[],"categories_nodes":[],"categories_segments":[],"categories_sizes":[],"default_left":[0,0,0,0,0,0,0,0,0,0,0,0,0,0,0,0,0,0,0,0,0,0,0,0,0,0,0,0,0,0,0,0,0,0,0,0,0,0,0,0,0,0,0,0,0,0,0,0,0,0,0,0,0,0,0,0,0,0,0,0,0],"id":25,"left_children":[1,3,5,7,9,11,13,15,17,19,21,23,25,27,29,31,33,35,37,39,41,43,45,47,49,51,53,-1,55,57,59,-1,-1,-1,-1,-1,-1,-1,-1,-1,-1,-1,-1,-1,-1,-1,-1,-1,-1,-1,-1,-1,-1,-1,-1,-1,-1,-1,-1,-1,-1],"loss_changes":[3.1408153E5,1.1652142E5,9.081244E4,5.809448E4,3.7619125E4,5.175917E4,5.4416125E4,2.9586172E4,5.2508777E4,2.5911078E4,8.340593E4,3.7768258E4,2.0822484E4,6.510924E3,6.2968438E3,1.7070906E4,2.2603465E4,1.385381E4,8.785715E4,3.3330977E4,3.5351094E4,1.9495625E4,4.5087332E4,1.8408164E4,1.925336E4,2.6016094E4,4.1297594E4,0E0,2.5736191E3,1.3019852E4,3.5443906E3,0E0,0E0,0E0,0E0,0E0,0E0,0E0,0E0,0E0,0E0,0E0,0E0,0E0,0E0,0E0,0E0,0E0,0E0,0E0,0E0,0E0,0E0,0E0,0E0,0E0,0E0,0E0,0E0,0E0,0E0],"parents":[2147483647,0,0,1,1,2,2,3,3,4,4,5,5,6,6,7,7,8,8,9,9,10,10,11,11,12,12,13,13,14,14,15,15,16,16,17,17,18,18,19,19,20,20,21,21,22,22,23,23,24,24,25,25,26,26,28,28,29,29,30,30],"right_children":[2,4,6,8,10,12,14,16,18,20,22,24,26,28,30,32,34,36,38,40,42,44,46,48,50,52,54,-1,56,58,60,-1,-1,-1,-1,-1,-1,-1,-1,-1,-1,-1,-1,-1,-1,-1,-1,-1,-1,-1,-1,-1,-1,-1,-1,-1,-1,-1,-1,-1,-1],"split_conditions":[3.47E2,1.06E2,1.1E1,1.2E1,2.07E2,1.1269531E0,6.2109375E-1,1.734375E0,6E0,9E0,-2.3828125E-1,9E0,2.6E1,2.4035645E-1,2.9E1,6.723633E-1,2.524414E-1,3E1,6.3554688E0,1.0913086E-1,-6.689453E-2,5E0,1.08E2,4.3579102E-1,-1.6748047E-1,2.73E2,1.4E1,-1.228277E0,1.1E1,1.2E1,5.605469E-1,-2.9068987E-3,1.3152954E-2,-7.9261875E-3,5.4443058E-2,-1.7277108E-1,7.4246794E-2,1.8636218E-1,9.369276E-1,7.199666E0,4.4144854E-1,7.3588023E0,1.6022877E0,1.6952591E0,2.0403984E1,1.5962723E1,2.0118928E0,-4.348893E-1,8.029506E0,-3.7553163E0,1.6118679E0,4.662911E0,-8.192551E0,1.2978194E1,4.2400146E0,-2.9954457E-1,4.82271E0,2.4035957E0,1.0644049E1,2.9266078E0,1.5612465E1],"split_indices":[17,19,1,17,17,8,10,5,1,1,22,0,2,9,2,8,14,4,14,11,22,1,19,9,20,5,0,0,0,1,8,0,0,0,0,0,0,0,0,0,0,0,0,0,0,0,0,0,0,0,0,0,0,0,0,0,0,0,0,0,0],"split_type":[0,0,0,0,0,0,0,0,0,0,0,0,0,0,0,0,0,0,0,0,0,0,0,0,0,0,0,0,0,0,0,0,0,0,0,0,0,0,0,0,0,0,0,0,0,0,0,0,0,0,0,0,0,0,0,0,0,0,0,0,0],"sum_hessian":[8.933729E6,8.93358E6,1.49E2,8.932875E6,7.05E2,1.21E2,2.8E1,8.910057E6,2.2818E4,6.28E2,7.7E1,9.2E1,2.9E1,8E0,2E1,8.653213E6,2.56844E5,9.82E3,1.2998E4,4.17E2,2.11E2,3E0,7.4E1,1.5E1,7.7E1,4E0,2.5E1,3E0,5E0,1E1,1E1,7.931079E6,7.22134E5,8.8828E4,1.68016E5,3.561E3,6.259E3,1.1187E4,1.811E3,6E0,4.11E2,1E1,2.01E2,1E0,2E0,1E0,7.3E1,3E0,1.2E1,6E0,7.1E1,3E0,1E0,9E0,1.6E1,1E0,4E0,4E0,6E0,1E0,9E0],"tree_param":{"num_deleted":"0","num_feature":"23","num_nodes":"61","size_leaf_vector":"1"}},{"base_weights":[2.920689E-4,-8.241245E-4,2.4060804E1,-4.5868256E-3,1.7447604E0,3.2391644E1,2.3395092E0,-1.1689245E-2,4.409803E-1,1.502054E0,2.0889671E1,2.5692799E1,7.828214E1,-2.7222416E1,2.2201017E1,7.91151E-2,-3.9529353E-2,4.3658465E-1,8.29934E1,9.7900784E-1,7.47625E0,4.3898792E1,7.4939594E0,2.162729E1,1.1253076E2,2.1356409E0,8.72988E1,-1.272748E1,-6.252952E1,6.0256866E1,3.1263845E0,6.998967E-2,-9.577418E-4,-6.4793886E-3,9.569156E-3,3.2968145E-2,1.9952819E-1,9.94963E0,-9.5415175E-1,1.4711164E-2,2.2166629E-1,3.5742054E0,4.986014E-1,-6.478652E-1,6.744346E0,-3.5172278E-1,2.8784704E0,1.346597E1,4.7033387E-1,2.667861E0,-1.2042981E0,4.3141985E0,1.061774E1,-2.2372773E0,1.3455589E0,-6.828158E0,3.698739E-1,1.2086848E1,-7.327386E-1,-5.8457446E-1,3.2881649E0],"categories":[],"categories_nodes":[],"categories_segments":[],"categories_sizes":[],"default_left":[0,0,0,0,0,0,0,0,0,0,0,0,0,0,0,0,0,0,0,0,0,0,0,0,0,0,0,0,0,0,0,0,0,0,0,0,0,0,0,0,0,0,0,0,0,0,0,0,0,0,0,0,0,0,0,0,0,0,0,0,0],"id":26,"left_children":[1,3,5,7,9,11,13,15,17,19,21,23,25,27,29,31,33,35,37,39,41,-1,43,45,47,49,51,53,55,57,59,-1,-1,-1,-1,-1,-1,-1,-1,-1,-1,-1,-1,-1,-1,-1,-1,-1,-1,-1,-1,-1,-1,-1,-1,-1,-1,-1,-1,-1,-1],"loss_changes":[2.3993356E5,5.8676902E4,7.488647E4,2.8210516E4,8.924114E4,8.915653E4,6.923671E4,2.2182016E4,5.070143E4,5.9286664E4,1.3418995E6,8.950158E4,2.5437047E4,2.3132715E4,5.0860906E4,1.13363375E5,2.294236E4,2.3304127E4,1.2727238E4,1.7966512E4,1.0725769E5,0E0,1.9700736E5,4.575715E4,2.6384031E4,2.3553196E3,2.1282078E4,9.383318E3,5.4832734E3,9.72919E4,1.3208466E4,0E0,0E0,0E0,0E0,0E0,0E0,0E0,0E0,0E0,0E0,0E0,0E0,0E0,0E0,0E0,0E0,0E0,0E0,0E0,0E0,0E0,0E0,0E0,0E0,0E0,0E0,0E0,0E0,0E0,0E0],"parents":[2147483647,0,0,1,1,2,2,3,3,4,4,5,5,6,6,7,7,8,8,9,9,10,10,11,11,12,12,13,13,14,14,15,15,16,16,17,17,18,18,19,19,20,20,22,22,23,23,24,24,25,25,26,26,27,27,28,28,29,29,30,30],"right_children":[2,4,6,8,10,12,14,16,18,20,22,24,26,28,30,32,34,36,38,40,42,-1,44,46,48,50,52,54,56,58,60,-1,-1,-1,-1,-1,-1,-1,-1,-1,-1,-1,-1,-1,-1,-1,-1,-1,-1,-1,-1,-1,-1,-1,-1,-1,-1,-1,-1,-1,-1],"split_conditions":[1.6E2,4.5507812E0,2.5E1,4E0,3.2E1,2.2E1,2.7E1,1.9226074E-2,1.71E2,2.0335E4,9E0,7.99E2,2.9E1,7.944336E-1,2.9E1,3.1E1,1E0,1.2E1,1E1,8E0,1.9226074E-2,4.3898792E1,8E1,6.3554688E0,1.4E1,5.932617E-1,6.123047E-1,2.54E2,1.2324219E0,4.3E1,3.47E2,6.998967E-2,-9.577418E-4,-6.4793886E-3,9.569156E-3,3.2968145E-2,1.9952819E-1,9.94963E0,-9.5415175E-1,1.4711164E-2,2.2166629E-1,3.5742054E0,4.986014E-1,-6.478652E-1,6.744346E0,-3.5172278E-1,2.8784704E0,1.346597E1,4.7033387E-1,2.667861E0,-1.2042981E0,4.3141985E0,1.061774E1,-2.2372773E0,1.3455589E0,-6.828158E0,3.698739E-1,1.2086848E1,-7.327386E-1,-5.8457446E-1,3.2881649E0],"split_indices":[19,14,0,19,0,0,0,6,18,3,4,18,4,10,0,4,19,1,1,1,7,0,4,14,0,8,10,18,8,2,18,0,0,0,0,0,0,0,0,0,0,0,0,0,0,0,0,0,0,0,0,0,0,0,0,0,0,0,0,0,0],"split_type":[0,0,0,0,0,0,0,0,0,0,0,0,0,0,0,0,0,0,0,0,0,0,0,0,0,0,0,0,0,0,0,0,0,0,0,0,0,0,0,0,0,0,0,0,0,0,0,0,0,0,0,0,0,0,0,0,0,0,0,0,0],"sum_hessian":[8.934012E6,8.933599E6,4.13E2,8.914385E6,1.9214E4,2.98E2,1.15E2,8.774519E6,1.39866E5,1.8975E4,2.39E2,2.62E2,3.6E1,4.6E1,6.9E1,2.058954E6,6.715565E6,1.3986E5,6E0,1.7449E4,1.526E3,6E0,2.33E2,2.52E2,1E1,4E0,3.2E1,3.4E1,1.2E1,2.2E1,4.7E1,2.57392E5,1.801562E6,5.658363E6,1.057202E6,1.30885E5,8.975E3,5E0,1E0,1.0436E4,7.013E3,1.22E2,1.404E3,1.9E2,4.3E1,5.6E1,1.96E2,8E0,2E0,1E0,3E0,1.1E1,2.1E1,2.5E1,9E0,1.1E1,1E0,1.1E1,1.1E1,3.7E1,1E1],"tree_param":{"num_deleted":"0","num_feature":"23","num_nodes":"61","size_leaf_vector":"1"}},{"base_weights":[1.967192E-4,-9.849397E-4,2.0639875E1,-2.490983E-3,3.6759639E0,5.7464075E0,2.9271166E1,-8.0152685E-3,6.4548534E-1,6.453748E1,3.4501379E0,5.4265114E1,1.4294025E0,2.5468433E1,9.805571E1,-3.4426104E-2,7.989631E-2,6.402795E-1,1.1462409E1,2.0836885E1,2.4929895E1,1.2383872E1,2.8600404E0,9.536826E1,3.9064825E0,-1.2233793E1,1.8947647E1,4.549881E0,3.532516E1,1.0494682E2,-3.418477E-1,4.5170053E-3,-6.6475086E-3,5.015733E-3,4.7138043E-2,2.7893348E-2,1.4731343E-1,3.9900574E-1,6.3250275E0,6.177282E0,1.0394119E0,1.6664751E-1,7.033521E-1,1.0780748E1,1.1590993E-1,2.8537774E0,-1.0122827E0,-1.3747046E0,2.4605803E0,-1.4443359E0,2.664419E0,1.7506071E0,-4.436642E0,2.863765E0,6.929046E0,4.2813573E0,1.2128554E1],"categories":[],"categories_nodes":[],"categories_segments":[],"categories_sizes":[],"default_left":[0,0,0,0,0,0,0,0,0,0,0,0,0,0,0,0,0,0,0,0,0,0,0,0,0,0,0,0,0,0,0,0,0,0,0,0,0,0,0,0,0,0,0,0,0,0,0,0,0,0,0,0,0,0,0,0,0],"id":27,"left_children":[1,3,5,7,9,11,13,15,17,19,21,23,25,27,29,31,33,35,-1,37,-1,39,41,43,45,47,49,51,53,55,-1,-1,-1,-1,-1,-1,-1,-1,-1,-1,-1,-1,-1,-1,-1,-1,-1,-1,-1,-1,-1,-1,-1,-1,-1,-1,-1],"loss_changes":[2.1788378E5,4.9468656E4,6.550339E4,3.1964107E4,4.994779E4,3.9567477E4,8.100709E4,2.0557426E4,4.468354E4,1.010352E5,1.9166945E4,3.1421785E4,4.2326008E4,6.3365312E4,1.2011984E4,1.736847E4,2.3813914E4,2.2715754E4,0E0,8.525089E3,0E0,2.123011E4,1.702642E4,9.710211E3,3.3321582E3,6.030411E3,2.0455512E4,6.4773363E4,4.47165E4,8.199266E3,0E0,0E0,0E0,0E0,0E0,0E0,0E0,0E0,0E0,0E0,0E0,0E0,0E0,0E0,0E0,0E0,0E0,0E0,0E0,0E0,0E0,0E0,0E0,0E0,0E0,0E0,0E0],"parents":[2147483647,0,0,1,1,2,2,3,3,4,4,5,5,6,6,7,7,8,8,9,9,10,10,11,11,12,12,13,13,14,14,15,15,16,16,17,17,19,19,21,21,22,22,23,23,24,24,25,25,26,26,27,27,28,28,29,29],"right_children":[2,4,6,8,10,12,14,16,18,20,22,24,26,28,30,32,34,36,-1,38,-1,40,42,44,46,48,50,52,54,56,-1,-1,-1,-1,-1,-1,-1,-1,-1,-1,-1,-1,-1,-1,-1,-1,-1,-1,-1,-1,-1,-1,-1,-1,-1,-1,-1],"split_conditions":[1.44E2,3.5E1,6E0,2.4355469E0,7.7783203E-1,1.1E1,7.51E2,2.5585938E-1,3.37E2,5.908203E-1,2.7597656E0,1.3535156E0,1.69E2,3.2E1,5.5E1,1.9226074E-2,1.2E1,3.1E1,1.1462409E1,4.8876953E-1,2.4929895E1,9E0,2.0645E4,4.4804688E0,3.0297852E-1,9.223633E-1,2.6E1,1.4111328E0,1.2E1,9E0,-3.418477E-1,4.5170053E-3,-6.6475086E-3,5.015733E-3,4.7138043E-2,2.7893348E-2,1.4731343E-1,3.9900574E-1,6.3250275E0,6.177282E0,1.0394119E0,1.6664751E-1,7.033521E-1,1.0780748E1,1.1590993E-1,2.8537774E0,-1.0122827E0,-1.3747046E0,2.4605803E0,-1.4443359E0,2.664419E0,1.7506071E0,-4.436642E0,2.863765E0,6.929046E0,4.2813573E0,1.2128554E1],"split_indices":[17,17,1,14,5,4,17,5,19,8,5,12,19,4,2,7,1,4,0,7,0,4,3,7,8,9,2,12,1,1,0,0,0,0,0,0,0,0,0,0,0,0,0,0,0,0,0,0,0,0,0,0,0,0,0,0,0],"split_type":[0,0,0,0,0,0,0,0,0,0,0,0,0,0,0,0,0,0,0,0,0,0,0,0,0,0,0,0,0,0,0,0,0,0,0,0,0,0,0,0,0,0,0,0,0,0,0,0,0,0,0,0,0,0,0,0,0],"sum_hessian":[8.933666E6,8.933156E6,5.1E2,8.9295E6,3.656E3,1.88E2,3.22E2,8.854017E6,7.5483E4,1.2E1,3.644E3,1.4E1,1.74E2,3.07E2,1.5E1,6.808557E6,2.04546E6,7.5481E4,2E0,1.1E1,1E0,2.24E2,3.42E3,7E0,7E0,9.8E1,7.6E1,9.9E1,2.08E2,1.4E1,1E0,1.954472E6,4.854085E6,1.901049E6,1.44411E5,5.2643E4,2.2838E4,9E0,2E0,7E0,2.17E2,2.661E3,7.59E2,6E0,1E0,2E0,5E0,9.5E1,3E0,1.4E1,6.2E1,7.9E1,2E1,1.76E2,3.2E1,4E0,1E1],"tree_param":{"num_deleted":"0","num_feature":"23","num_nodes":"57","size_leaf_vector":"1"}},{"base_weights":[2.3260339E-4,-6.3852826E-4,2.207977E1,-2.3226943E-3,3.2264836E0,1.7739483E1,6.883263E1,-7.312032E-3,5.9608215E-1,1.6868187E1,2.7767024E0,-4.5471616E0,2.4583529E1,2.8421705E1,1.2077024E2,-7.346695E-3,6.912972E1,4.940184E0,5.323389E-1,3.5963097E1,-1.1790563E1,3.8887534E0,-3.1330302E0,1.1317844E0,-4.115054E1,-1.1242859E-2,3.2762547E1,-4.0525565E0,4.5596924E1,7.118215E1,1.5106274E2,-2.2785035E-3,1.14386035E-2,-3.9985673E0,1.175889E1,1.654459E-1,3.3739407E1,3.9301157E-2,2.4824558E-1,1.3592869E0,8.089086E0,-2.2325304E-1,-1.9411904E0,7.4176216E0,3.712238E-1,-2.690538E-1,-2.4346766E0,-1.7904419E0,2.1827092E0,-6.7462473E0,1.6284574E0,3.7736207E-1,-3.4357293E0,1.0970728E1,2.750656E0,2.4548903E-1,4.8339996E0,-1.9578272E0,8.965304E0,1.6823286E1,2.3639581E0],"categories":[],"categories_nodes":[],"categories_segments":[],"categories_sizes":[],"default_left":[0,0,0,0,0,0,0,0,0,0,0,0,0,0,0,0,0,0,0,0,0,0,0,0,0,0,0,0,0,0,0,0,0,0,0,0,0,0,0,0,0,0,0,0,0,0,0,0,0,0,0,0,0,0,0,0,0,0,0,0,0],"id":28,"left_children":[1,3,5,7,9,11,13,15,17,19,21,23,25,27,29,31,33,35,37,39,41,43,45,47,49,51,53,-1,55,57,59,-1,-1,-1,-1,-1,-1,-1,-1,-1,-1,-1,-1,-1,-1,-1,-1,-1,-1,-1,-1,-1,-1,-1,-1,-1,-1,-1,-1,-1,-1],"loss_changes":[1.7182311E5,4.855021E4,6.975966E4,2.665645E4,2.8521879E4,4.9647906E4,5.6848016E4,2.122019E4,2.0439014E4,8.18418E4,2.9672953E4,1.6164267E4,4.997689E4,2.449554E4,3.2076875E3,1.664049E4,3.0242164E4,1.1652165E6,1.9767666E4,8.830784E4,4.34033E3,4.673023E4,6.621478E3,2.7524936E4,1.7357734E4,8.433441E3,7.1056234E4,0E0,1.6563105E3,1.4998227E4,8.364078E3,0E0,0E0,0E0,0E0,0E0,0E0,0E0,0E0,0E0,0E0,0E0,0E0,0E0,0E0,0E0,0E0,0E0,0E0,0E0,0E0,0E0,0E0,0E0,0E0,0E0,0E0,0E0,0E0,0E0,0E0],"parents":[2147483647,0,0,1,1,2,2,3,3,4,4,5,5,6,6,7,7,8,8,9,9,10,10,11,11,12,12,13,13,14,14,15,15,16,16,17,17,18,18,19,19,20,20,21,21,22,22,23,23,24,24,25,25,26,26,28,28,29,29,30,30],"right_children":[2,4,6,8,10,12,14,16,18,20,22,24,26,28,30,32,34,36,38,40,42,44,46,48,50,52,54,-1,56,58,60,-1,-1,-1,-1,-1,-1,-1,-1,-1,-1,-1,-1,-1,-1,-1,-1,-1,-1,-1,-1,-1,-1,-1,-1,-1,-1,-1,-1,-1,-1],"split_conditions":[1.84E2,3.1E1,1.1318359E0,6E0,1.1E1,4E0,7.64E2,5.04E2,2.8271484E-1,1.6083984E0,2.5E1,8.3740234E-1,1.1347656E0,2.8E1,1.3388672E0,5.4589844E-1,1.9E1,1.6513672E0,1.2E1,9E0,2.861328E-1,-7.519531E-1,1.51E2,1.59E2,2.73E2,4.0351562E0,5.7958984E-1,-4.0525565E0,3E0,7.92E2,2.73E2,-2.2785035E-3,1.14386035E-2,-3.9985673E0,1.175889E1,1.654459E-1,3.3739407E1,3.9301157E-2,2.4824558E-1,1.3592869E0,8.089086E0,-2.2325304E-1,-1.9411904E0,7.4176216E0,3.712238E-1,-2.690538E-1,-2.4346766E0,-1.7904419E0,2.1827092E0,-6.7462473E0,1.6284574E0,3.7736207E-1,-3.4357293E0,1.0970728E1,2.750656E0,2.4548903E-1,4.8339996E0,-1.9578272E0,8.965304E0,1.6823286E1,2.3639581E0],"split_indices":[17,17,10,18,4,1,17,19,6,12,0,10,6,2,10,8,0,11,1,1,10,20,17,19,7,11,13,0,1,17,7,0,0,0,0,0,0,0,0,0,0,0,0,0,0,0,0,0,0,0,0,0,0,0,0,0,0,0,0,0,0],"split_type":[0,0,0,0,0,0,0,0,0,0,0,0,0,0,0,0,0,0,0,0,0,0,0,0,0,0,0,0,0,0,0,0,0,0,0,0,0,0,0,0,0,0,0,0,0,0,0,0,0,0,0,0,0,0,0,0,0,0,0,0,0],"sum_hessian":[8.933213E6,8.932862E6,3.51E2,8.928204E6,4.658E3,3.23E2,2.8E1,8.85438E6,7.3824E4,1.47E2,4.511E3,7.6E1,2.47E2,1.7E1,1.1E1,8.854377E6,3E0,1.066E3,7.2758E4,8.8E1,5.9E1,3.797E3,7.14E2,6.7E1,9E0,6.2E1,1.85E2,3E0,1.4E1,6E0,5E0,7.857835E6,9.96542E5,1E0,2E0,1.057E3,9E0,6.7908E4,4.85E3,6E1,2.8E1,2.7E1,3.2E1,8E0,3.789E3,7.01E2,1.3E1,3.5E1,3.2E1,6E0,3E0,5.7E1,5E0,1E1,1.75E2,1E0,1.3E1,1E0,5E0,4E0,1E0],"tree_param":{"num_deleted":"0","num_feature":"23","num_nodes":"61","size_leaf_vector":"1"}},{"base_weights":[1.264271E-4,-5.984208E-4,2.3090689E1,-1.8343588E-3,4.0808544E0,2.0534843E1,1.2725246E2,-7.0492723E-3,6.1035955E-1,4.4870434E1,3.8140745E0,-4.1591322E-1,2.8667336E1,1.6583277E0,1.4320976E1,-2.3286587E-2,9.667164E-2,4.2644083E-1,2.9290733E0,2.2294746E2,1.0170091E0,1.9331656E1,3.2597108E0,8.110659E0,-3.0909775E1,-4.170794E0,3.97689E1,6.4116144E-3,-5.4570884E-3,9.364442E-3,5.1231384E-1,1.3475649E-2,1.4292555E-1,9.826134E-1,1.2378099E-1,-1.6861056E0,3.3120167E1,5.7300014E0,-1.3495921E0,7.531472E-1,1.7524208E1,5.3328586E-1,-3.5739812E-1,-1.9431447E0,2.174921E0,-7.918223E-1,-4.5234604E0,2.957847E-1,-4.0996633E0,1.2048159E1,3.3315637E0],"categories":[],"categories_nodes":[],"categories_segments":[],"categories_sizes":[],"default_left":[0,0,