{"learner":{"attributes":{"best_iteration":"80","best_score":"1.8821913680800373","scikit_learn":"{\"_estimator_type\": \"regressor\"}"},"feature_names":["date_block_num","month","shop_id","item_id","item_category_id","cnt_item_id_by_month_lag_1","cnt_item_id_by_month_lag_2","cnt_item_id_by_month_lag_3","cnt_shop_id_by_month_lag_1","cnt_shop_id_by_month_lag_2","cnt_shop_id_by_month_lag_3","cnt_item_category_by_month_lag_1","cnt_item_category_by_month_lag_2","cnt_item_category_by_month_lag_3","cnt_item_category_by_shop_id_month_lag_1","cnt_item_category_by_shop_id_month_lag_2","cnt_item_category_by_shop_id_month_lag_3","cnt_item_id_by_shop_id_month_lag_1","cnt_item_id_by_shop_id_month_lag_2","cnt_item_id_by_shop_id_month_lag_3","z_item_price_mean_lag_1","z_item_price_mean_lag_2","z_item_price_mean_lag_3"],"feature_types":["int","int","int","int","int","float","float","float","float","float","float","float","float","float","float","float","float","float","float","float","float","float","float"],"gradient_booster":{"model":{"gbtree_model_param":{"num_parallel_tree":"1","num_trees":"121"},"iteration_indptr":[0,1,2,3,4,5,6,7,8,9,10,11,12,13,14,15,16,17,18,19,20,21,22,23,24,25,26,27,28,29,30,31,32,33,34,35,36,37,38,39,40,41,42,43,44,45,46,47,48,49,50,51,52,53,54,55,56,57,58,59,60,61,62,63,64,65,66,67,68,69,70,71,72,73,74,75,76,77,78,79,80,81,82,83,84,85,86,87,88,89,90,91,92,93,94,95,96,97,98,99,100,101,102,103,104,105,106,107,108,109,110,111,112,113,114,115,116,117,118,119,120,121],"tree_info":[0,0,0,0,0,0,0,0,0,0,0,0,0,0,0,0,0,0,0,0,0,0,0,0,0,0,0,0,0,0,0,0,0,0,0,0,0,0,0,0,0,0,0,0,0,0,0,0,0,0,0,0,0,0,0,0,0,0,0,0,0,0,0,0,0,0,0,0,0,0,0,0,0,0,0,0,0,0,0,0,0,0,0,0,0,0,0,0,0,0,0,0,0,0,0,0,0,0,0,0,0,0,0,0,0,0,0,0,0,0,0,0,0,0,0,0,0,0,0,0,0],"trees":[{"base_weights":[-2.348901E-3,-9.581749E-3,3.4403033E2,-1.8232873E-2,6.487631E1,1.7869862E2,5.206816E2,-7.1414605E-2,4.972768E0,1.521446E1,1.02984795E2,7.645637E1,2.377528E2,5.934886E2,1.9415973E2,-4.266605E-3,3.052937E-2,1.289667E-1,6.382811E-1,2.4007206E-1,8.9631647E-1,3.5231967E0,2.024571E0,5.497274E-1,3.111301E0,8.893893E0,3.5013204E0,7.995656E-1,1.8128191E1,1.5750977E0,9.0282135E0],"categories":[],"categories_nodes":[],"categories_segments":[],"categories_sizes":[],"default_left":[0,0,0,0,0,0,0,0,0,0,0,0,0,0,0,0,0,0,0,0,0,0,0,0,0,0,0,0,0,0,0],"id":0,"left_children":[1,3,5,7,9,11,13,15,17,19,21,23,25,27,29,-1,-1,-1,-1,-1,-1,-1,-1,-1,-1,-1,-1,-1,-1,-1,-1],"loss_changes":[1.5424059E7,3.4793925E6,3.683712E6,1.6450265E6,1.5617718E6,3.9462425E5,1.330004E6,4.7286706E5,7.17757E5,3.77886E4,2.29387E5,4.077692E4,2.623505E5,2.8641E5,1.806286E5,0E0,0E0,0E0,0E0,0E0,0E0,0E0,0E0,0E0,0E0,0E0,0E0,0E0,0E0,0E0,0E0],"parents":[2147483647,0,0,1,1,2,2,3,3,4,4,5,5,6,6,7,7,8,8,9,9,10,10,11,11,12,12,13,13,14,14],"right_children":[2,4,6,8,10,12,14,16,18,20,22,24,26,28,30,-1,-1,-1,-1,-1,-1,-1,-1,-1,-1,-1,-1,-1,-1,-1,-1],"split_conditions":[2.6E2,7.4E1,7.2509766E-1,3.6523438E0,5.3320312E0,4.5996094E-1,2.5E1,8.442383E-1,5.3320312E0,1.07578125E1,2.5E1,4E0,2.5E1,8.339844E-1,2.7E1,-4.266605E-3,3.052937E-2,1.289667E-1,6.382811E-1,2.4007206E-1,8.9631647E-1,3.5231967E0,2.024571E0,5.497274E-1,3.111301E0,8.893893E0,3.5013204E0,7.995656E-1,1.8128191E1,1.5750977E0,9.0282135E0],"split_indices":[19,19,8,5,15,9,0,5,15,5,0,15,0,11,0,0,0,0,0,0,0,0,0,0,0,0,0,0,0,0,0],"split_type":[0,0,0,0,0,0,0,0,0,0,0,0,0,0,0,0,0,0,0,0,0,0,0,0,0,0,0,0,0,0,0],"sum_hessian":[6.19854E6,6.198411E6,1.29E2,6.197586E6,8.25E2,6.8E1,6.1E1,6.132245E6,6.5341E4,3.59E2,4.66E2,2.6E1,4.2E1,4.9E1,1.2E1,5.757895E6,3.7435E5,6.2749E4,2.592E3,2.42E2,1.17E2,3.29E2,1.37E2,9E0,1.7E1,2.7E1,1.5E1,1E0,4.8E1,6E0,6E0],"tree_param":{"num_deleted":"0","num_feature":"23","num_nodes":"31","size_leaf_vector":"1"}},{"base_weights":[-5.045278E-4,-7.928356E-3,3.7022766E2,-1.6060682E-2,9.193282E1,8.117668E1,4.279492E2,-6.4201936E-2,5.411915E0,2.8405304E1,1.3065125E2,3.066063E1,1.4736177E2,5.023625E2,1.8511821E2,-3.249709E-3,5.6698523E-2,1.3036488E-1,6.894188E-1,6.52953E-1,3.9694784E0,2.7393064E0,4.5059543E0,1.2589941E0,3.40848E-2,4.726567E0,8.122132E-1,1.037355E1,1.624679E1,9.9031764E-1,9.288266E0],"categories":[],"categories_nodes":[],"categories_segments":[],"categories_sizes":[],"default_left":[0,0,0,0,0,0,0,0,0,0,0,0,0,0,0,0,0,0,0,0,0,0,0,0,0,0,0,0,0,0,0],"id":1,"left_children":[1,3,5,7,9,11,13,15,17,19,21,23,25,27,29,-1,-1,-1,-1,-1,-1,-1,-1,-1,-1,-1,-1,-1,-1,-1,-1],"loss_changes":[1.7039886E7,4.6353625E6,2.02847E6,1.6198608E6,1.3438035E6,6.866825E4,1.74469E6,5.297836E5,1.0208901E6,1.4064053E5,2.436875E5,4.7152676E3,5.8129844E3,2.3463E5,4.8484944E5,0E0,0E0,0E0,0E0,0E0,0E0,0E0,0E0,0E0,0E0,0E0,0E0,0E0,0E0,0E0,0E0],"parents":[2147483647,0,0,1,1,2,2,3,3,4,4,5,5,6,6,7,7,8,8,9,9,10,10,11,11,12,12,13,13,14,14],"right_children":[2,4,6,8,10,12,14,16,18,20,22,24,26,28,30,-1,-1,-1,-1,-1,-1,-1,-1,-1,-1,-1,-1,-1,-1,-1,-1],"split_conditions":[2.8E2,9.3E1,3.7246094E0,4.109375E0,5.3359375E0,1E0,2.5E1,3E0,5.2539062E0,1.6650391E0,4E0,5.3320312E0,8.300781E-2,3.75E2,2.7E1,-3.249709E-3,5.6698523E-2,1.3036488E-1,6.894188E-1,6.52953E-1,3.9694784E0,2.7393064E0,4.5059543E0,1.2589941E0,3.40848E-2,4.726567E0,8.122132E-1,1.037355E1,1.624679E1,9.9031764E-1,9.288266E0],"split_indices":[18,18,11,5,16,19,0,18,14,13,1,15,21,18,0,0,0,0,0,0,0,0,0,0,0,0,0,0,0,0,0],"split_type":[0,0,0,0,0,0,0,0,0,0,0,0,0,0,0,0,0,0,0,0,0,0,0,0,0,0,0,0,0,0,0],"sum_hessian":[6.199678E6,6.199555E6,1.23E2,6.199008E6,5.47E2,2.1E1,1.02E2,6.144513E6,5.4495E4,2.08E2,3.39E2,1.3E1,8E0,7.7E1,2.5E1,6.008844E6,1.35669E5,5.1378E4,3.117E3,1.97E2,1.1E1,1.15E2,2.24E2,9E0,4E0,7E0,1E0,1.8E1,5.9E1,1.2E1,1.3E1],"tree_param":{"num_deleted":"0","num_feature":"23","num_nodes":"31","size_leaf_vector":"1"}},{"base_weights":[2.8822113E-5,-8.682785E-3,3.877077E2,-2.1466885E-2,7.558851E1,1.2904327E2,4.6325943E2,-6.9388315E-2,7.510376E0,4.036598E1,1.0640632E2,5.018711E1,2.0717525E2,5.201882E2,2.7149942E2,-3.963005E-3,3.922669E-2,1.8259539E-1,5.6977403E-1,9.530753E-1,3.3512943E0,2.6493895E0,4.769297E0,2.6625066E0,4.8065946E-1,3.3409388E0,1.0072592E1,1.1386444E1,1.7540962E1,9.637034E0,2.3337922E0],"categories":[],"categories_nodes":[],"categories_segments":[],"categories_sizes":[],"default_left":[0,0,0,0,0,0,0,0,0,0,0,0,0,0,0,0,0,0,0,0,0,0,0,0,0,0,0,0,0,0,0],"id":2,"left_children":[1,3,5,7,9,11,13,15,17,19,21,23,25,27,29,-1,-1,-1,-1,-1,-1,-1,-1,-1,-1,-1,-1,-1,-1,-1,-1],"loss_changes":[2.0941726E7,5.9920575E6,2.644008E6,2.2374735E6,1.132282E6,1.9159275E5,9.85966E5,5.319105E5,6.4060075E5,2.9667462E5,5.12608E5,2.2260527E4,1.5184944E5,4.462E5,2.3031112E5,0E0,0E0,0E0,0E0,0E0,0E0,0E0,0E0,0E0,0E0,0E0,0E0,0E0,0E0,0E0,0E0],"parents":[2147483647,0,0,1,1,2,2,3,3,4,4,5,5,6,6,7,7,8,8,9,9,10,10,11,11,12,12,13,13,14,14],"right_children":[2,4,6,8,10,12,14,16,18,20,22,24,26,28,30,-1,-1,-1,-1,-1,-1,-1,-1,-1,-1,-1,-1,-1,-1,-1,-1],"split_conditions":[2.83E2,6.5E1,3.8549805E-1,7E0,1E1,1.126709E-1,2.4E1,2E0,2.3E1,2.0099E4,1.45E2,1.7E1,1.6E1,4.26E2,4.3E1,-3.963005E-3,3.922669E-2,1.8259539E-1,5.6977403E-1,9.530753E-1,3.3512943E0,2.6493895E0,4.769297E0,2.6625066E0,4.8065946E-1,3.3409388E0,1.0072592E1,1.1386444E1,1.7540962E1,9.637034E0,2.3337922E0],"split_indices":[17,17,9,17,19,9,0,17,17,3,17,0,0,17,2,0,0,0,0,0,0,0,0,0,0,0,0,0,0,0,0],"split_type":[0,0,0,0,0,0,0,0,0,0,0,0,0,0,0,0,0,0,0,0,0,0,0,0,0,0,0,0,0,0,0],"sum_hessian":[6.200256E6,6.200118E6,1.38E2,6.199071E6,1.047E3,3.2E1,1.06E2,6.15988E6,3.9191E4,4.9E2,5.57E2,1.7E1,1.5E1,8E1,2.6E1,5.891555E6,2.68325E5,3.4869E4,4.322E3,4.39E2,5.1E1,4.17E2,1.4E2,7E0,1E1,1E1,5E0,2.8E1,5.2E1,2E1,6E0],"tree_param":{"num_deleted":"0","num_feature":"23","num_nodes":"31","size_leaf_vector":"1"}},{"base_weights":[-6.5009383E-4,-7.829656E-3,3.7614758E2,-2.0882022E-2,7.438901E1,1.8788065E2,5.0567834E2,-6.690749E-2,7.2249517E0,3.814515E1,1.088936E2,4.362219E1,2.5977554E2,5.552409E2,2.8327576E2,-3.8391284E-3,3.8173802E-2,1.7712113E-1,5.639916E-1,9.3964696E-1,3.99042E0,2.718858E0,4.671116E0,3.1242054E0,6.8498E-1,7.634848E-1,8.455881E0,1.0885271E0,1.6917542E1,1.0094381E1,1.3540027E0],"categories":[],"categories_nodes":[],"categories_segments":[],"categories_sizes":[],"default_left":[0,0,0,0,0,0,0,0,0,0,0,0,0,0,0,0,0,0,0,0,0,0,0,0,0,0,0,0,0,0,0],"id":3,"left_children":[1,3,5,7,9,11,13,15,17,19,21,23,25,27,29,-1,-1,-1,-1,-1,-1,-1,-1,-1,-1,-1,-1,-1,-1,-1,-1],"loss_changes":[1.6740231E7,6.019217E6,2.760426E6,2.0668396E6,1.3543155E6,5.0693875E5,5.57404E5,5.0367647E5,5.9794475E5,3.3911756E5,4.571045E5,1.9917469E4,1.62995E5,2.22202E5,1.740745E5,0E0,0E0,0E0,0E0,0E0,0E0,0E0,0E0,0E0,0E0,0E0,0E0,0E0,0E0,0E0,0E0],"parents":[2147483647,0,0,1,1,2,2,3,3,4,4,5,5,6,6,7,7,8,8,9,9,10,10,11,11,12,12,13,13,14,14],"right_children":[2,4,6,8,10,12,14,16,18,20,22,24,26,28,30,-1,-1,-1,-1,-1,-1,-1,-1,-1,-1,-1,-1,-1,-1,-1,-1],"split_conditions":[3.02E2,6.5E1,6.586914E-1,7E0,2.8632812E0,1.6933594E0,2.5E1,2E0,2.4E1,7.1E1,1.45E2,2E1,5E0,9E0,6.91E2,-3.8391284E-3,3.8173802E-2,1.7712113E-1,5.639916E-1,9.3964696E-1,3.99042E0,2.718858E0,4.671116E0,3.1242054E0,6.8498E-1,7.634848E-1,8.455881E0,1.0885271E0,1.6917542E1,1.0094381E1,1.3540027E0],"split_indices":[17,17,9,17,16,11,0,17,17,4,17,4,18,4,18,0,0,0,0,0,0,0,0,0,0,0,0,0,0,0,0],"split_type":[0,0,0,0,0,0,0,0,0,0,0,0,0,0,0,0,0,0,0,0,0,0,0,0,0,0,0,0,0,0,0],"sum_hessian":[6.198752E6,6.198635E6,1.17E2,6.197549E6,1.086E3,4.9E1,6.8E1,6.158432E6,3.9117E4,5.31E2,5.55E2,1.7E1,3.2E1,5.4E1,1.4E1,5.889905E6,2.68527E5,3.5112E4,4.005E3,4.97E2,3.4E1,4.02E2,1.53E2,3E0,1.4E1,3E0,2.9E1,1E0,5.3E1,1.1E1,3E0],"tree_param":{"num_deleted":"0","num_feature":"23","num_nodes":"31","size_leaf_vector":"1"}},{"base_weights":[2.0176624E-3,-5.6835455E-3,3.663453E2,-1.8146986E-2,7.2505585E1,1.7303516E2,4.6564514E2,-5.891138E-2,7.9584613E0,3.8352226E1,1.0648033E2,9.3329865E1,3.4265982E2,4.0670456E2,6.662758E2,-3.096052E-3,6.1574735E-2,1.9694686E-1,6.162673E-1,9.05392E-1,3.6438284E0,2.5803902E0,4.640447E0,5.351035E0,1.4041017E0,4.7392635E0,1.1824927E1,1.1563382E0,1.2506727E1,3.814211E0,2.0672562E1],"categories":[],"categories_nodes":[],"categories_segments":[],"categories_sizes":[],"default_left":[0,0,0,0,0,0,0,0,0,0,0,0,0,0,0,0,0,0,0,0,0,0,0,0,0,0,0,0,0,0,0],"id":4,"left_children":[1,3,5,7,9,11,13,15,17,19,21,23,25,27,29,-1,-1,-1,-1,-1,-1,-1,-1,-1,-1,-1,-1,-1,-1,-1,-1],"loss_changes":[1.7489434E7,5.602258E6,2.39561E6,2.0153218E6,1.2307735E6,5.841476E5,6.52872E5,5.766491E5,5.524505E5,3.5741388E5,5.086625E5,1.2083909E5,5.4350125E4,2.38832E5,9.7819E4,0E0,0E0,0E0,0E0,0E0,0E0,0E0,0E0,0E0,0E0,0E0,0E0,0E0,0E0,0E0,0E0],"parents":[2147483647,0,0,1,1,2,2,3,3,4,4,5,5,6,6,7,7,8,8,9,9,10,10,11,11,12,12,13,13,14,14],"right_children":[2,4,6,8,10,12,14,16,18,20,22,24,26,28,30,-1,-1,-1,-1,-1,-1,-1,-1,-1,-1,-1,-1,-1,-1,-1,-1],"split_conditions":[2.99E2,6.6E1,5.9472656E-1,8E0,4E0,1.73E2,7.49E2,3E0,2.7E1,7.1E1,1.45E2,2E1,5E0,9E0,6.586914E-1,-3.096052E-3,6.1574735E-2,1.9694686E-1,6.162673E-1,9.05392E-1,3.6438284E0,2.5803902E0,4.640447E0,5.351035E0,1.4041017E0,4.7392635E0,1.1824927E1,1.1563382E0,1.2506727E1,3.814211E0,2.0672562E1],"split_indices":[17,17,9,17,16,19,17,17,17,4,17,4,1,4,9,0,0,0,0,0,0,0,0,0,0,0,0,0,0,0,0],"split_type":[0,0,0,0,0,0,0,0,0,0,0,0,0,0,0,0,0,0,0,0,0,0,0,0,0,0,0,0,0,0,0],"sum_hessian":[6.199098E6,6.198969E6,1.29E2,6.197905E6,1.064E3,4.5E1,8.4E1,6.166393E6,3.1512E4,5.32E2,5.32E2,3.2E1,1.3E1,6.8E1,1.6E1,6.039701E6,1.26692E5,2.8372E4,3.14E3,4.86E2,4.6E1,3.76E2,1.56E2,1E1,2.2E1,4E0,9E0,2E0,6.6E1,1E0,1.5E1],"tree_param":{"num_deleted":"0","num_feature":"23","num_nodes":"31","size_leaf_vector":"1"}},{"base_weights":[-9.8446595E-5,-7.7953245E-3,3.777837E2,-1.9492963E-2,6.850774E1,7.581711E1,4.336535E2,-6.902826E-2,5.977164E0,4.100171E1,1.0836832E2,3.292588E1,7.044611E0,3.7347467E2,6.1643195E2,-3.6277657E-3,3.360595E-2,1.4723536E-1,5.2108425E-1,9.3842614E-1,2.4511316E0,2.6231978E0,4.7738447E0,3.8014096E-1,2.063565E0,6.432157E0,1.2482654E1,1.1281387E1,2.112093E1],"categories":[],"categories_nodes":[],"categories_segments":[],"categories_sizes":[],"default_left":[0,0,0,0,0,0,0,0,0,0,0,0,0,0,0,0,0,0,0,0,0,0,0,0,0,0,0,0,0],"id":5,"left_children":[1,3,5,7,9,11,13,15,17,19,21,23,-1,25,27,-1,-1,-1,-1,-1,-1,-1,-1,-1,-1,-1,-1,-1,-1],"loss_changes":[1.8027934E7,4.9689735E6,2.087822E6,1.8413201E6,1.154505E6,1.3519903E5,8.6694E5,3.7943884E5,6.185554E5,2.4524362E5,4.399145E5,1.2156559E4,0E0,4.47547E5,1.64184E5,0E0,0E0,0E0,0E0,0E0,0E0,0E0,0E0,0E0,0E0,0E0,0E0,0E0,0E0],"parents":[2147483647,0,0,1,1,2,2,3,3,4,4,5,5,6,6,7,7,8,8,9,9,10,10,11,11,13,13,14,14],"right_children":[2,4,6,8,10,12,14,16,18,20,22,24,-1,26,28,-1,-1,-1,-1,-1,-1,-1,-1,-1,-1,-1,-1,-1,-1],"split_conditions":[2.92E2,6.5E1,3.2910156E0,6E0,6.5E1,6.2890625E-1,7.49E2,2E0,2.3E1,2.0099E4,1.47E2,8E0,7.044611E0,5E0,2E0,-3.6277657E-3,3.360595E-2,1.4723536E-1,5.2108425E-1,9.3842614E-1,2.4511316E0,2.6231978E0,4.7738447E0,3.8014096E-1,2.063565E0,6.432157E0,1.2482654E1,1.1281387E1,2.112093E1],"split_indices":[17,17,15,17,19,9,17,17,17,3,17,1,0,1,1,0,0,0,0,0,0,0,0,0,0,0,0,0,0],"split_type":[0,0,0,0,0,0,0,0,0,0,0,0,0,0,0,0,0,0,0,0,0,0,0,0,0,0,0,0,0],"sum_hessian":[6.199946E6,6.199821E6,1.25E2,6.198764E6,1.057E3,2E1,1.05E2,6.14798E6,5.0784E4,6.27E2,4.3E2,1.7E1,3E0,8.2E1,2.3E1,5.890905E6,2.57075E5,4.6428E4,4.356E3,5.08E2,1.19E2,3.07E2,1.23E2,1.2E1,5E0,1.9E1,6.3E1,8E0,1.5E1],"tree_param":{"num_deleted":"0","num_feature":"23","num_nodes":"29","size_leaf_vector":"1"}},{"base_weights":[6.2965957E-4,-7.0461384E-3,3.542169E2,-1.8976962E-2,6.992206E1,1.8405563E2,4.5877524E2,-5.3288903E-2,8.333291E0,3.563527E1,9.856629E1,4.9279064E1,2.401124E2,5.171509E2,2.5982803E2,-2.9623166E-3,6.042081E-2,1.8214996E-1,4.5152116E-1,8.5982394E-1,3.1163738E0,2.4311829E0,4.4768515E0,2.019308E0,-2.4246377E-1,2.6725623E-1,7.799554E0,1.2869439E1,1.921413E1,8.913958E0,2.221284E0],"categories":[],"categories_nodes":[],"categories_segments":[],"categories_sizes":[],"default_left":[0,0,0,0,0,0,0,0,0,0,0,0,0,0,0,0,0,0,0,0,0,0,0,0,0,0,0,0,0,0,0],"id":6,"left_children":[1,3,5,7,9,11,13,15,17,19,21,23,25,27,29,-1,-1,-1,-1,-1,-1,-1,-1,-1,-1,-1,-1,-1,-1,-1,-1],"loss_changes":[1.6852594E7,5.17123E6,2.278748E6,1.7759926E6,1.033793E6,3.8724762E5,7.7944E5,5.7996194E5,3.8506962E5,2.2612894E5,4.94961E5,1.862211E4,1.68401E5,3.16598E5,1.18812625E5,0E0,0E0,0E0,0E0,0E0,0E0,0E0,0E0,0E0,0E0,0E0,0E0,0E0,0E0,0E0,0E0],"parents":[2147483647,0,0,1,1,2,2,3,3,4,4,5,5,6,6,7,7,8,8,9,9,10,10,11,11,12,12,13,13,14,14],"right_children":[2,4,6,8,10,12,14,16,18,20,22,24,26,28,30,-1,-1,-1,-1,-1,-1,-1,-1,-1,-1,-1,-1,-1,-1,-1,-1],"split_conditions":[3.02E2,6.5E1,6.635742E-1,9E0,1E1,7E0,2.5E1,3E0,1.9E1,2.4238281E0,1.49E2,1.850586E-1,1.2626953E0,9.711914E-1,4.91E2,-2.9623166E-3,6.042081E-2,1.8214996E-1,4.5152116E-1,8.5982394E-1,3.1163738E0,2.4311829E0,4.4768515E0,2.019308E0,-2.4246377E-1,2.6725623E-1,7.799554E0,1.2869439E1,1.921413E1,8.913958E0,2.221284E0],"split_indices":[17,17,9,17,19,18,0,17,17,12,17,10,12,10,19,0,0,0,0,0,0,0,0,0,0,0,0,0,0,0,0],"split_type":[0,0,0,0,0,0,0,0,0,0,0,0,0,0,0,0,0,0,0,0,0,0,0,0,0,0,0,0,0,0,0],"sum_hessian":[6.198328E6,6.198195E6,1.33E2,6.197139E6,1.056E3,5.2E1,8.1E1,6.171786E6,2.5353E4,4.82E2,5.74E2,1.6E1,3.6E1,6.1E1,2E1,6.039005E6,1.32781E5,1.8969E4,6.384E3,4.39E2,4.3E1,4.29E2,1.45E2,1.2E1,4E0,3E0,3.3E1,3.9E1,2.2E1,1.6E1,4E0],"tree_param":{"num_deleted":"0","num_feature":"23","num_nodes":"31","size_leaf_vector":"1"}},{"base_weights":[1.9189011E-4,-6.3944384E-3,3.2057733E2,-1.5912859E-2,5.5822933E1,1.8158093E2,4.4092776E2,-7.4970216E-2,2.9578767E0,1.4531404E1,9.124558E1,4.571238E1,2.1689673E2,5.184238E2,1.5691153E2,-3.092647E-3,4.2499803E-2,7.6923415E-2,4.4522637E-1,2.956954E-1,9.9689335E-1,2.499611E0,5.286043E0,1.7979916E0,4.5669353E-1,4.8058786E0,9.456516E0,7.479043E-1,1.58220825E1,6.856609E0,8.309285E-1],"categories":[],"categories_nodes":[],"categories_segments":[],"categories_sizes":[],"default_left":[0,0,0,0,0,0,0,0,0,0,0,0,0,0,0,0,0,0,0,0,0,0,0,0,0,0,0,0,0,0,0],"id":7,"left_children":[1,3,5,7,9,11,13,15,17,19,21,23,25,27,29,-1,-1,-1,-1,-1,-1,-1,-1,-1,-1,-1,-1,-1,-1,-1,-1],"loss_changes":[1.308426E7,3.293E6,2.024556E6,1.0881149E6,1.5432812E6,2.8117675E5,1.374716E6,2.547983E5,5.6446425E5,4.2342023E4,3.63355E5,5.0075215E3,2.030035E5,2.14531E5,1.4270231E5,0E0,0E0,0E0,0E0,0E0,0E0,0E0,0E0,0E0,0E0,0E0,0E0,0E0,0E0,0E0,0E0],"parents":[2147483647,0,0,1,1,2,2,3,3,4,4,5,5,6,6,7,7,8,8,9,9,10,10,11,11,12,12,13,13,14,14],"right_children":[2,4,6,8,10,12,14,16,18,20,22,24,26,28,30,-1,-1,-1,-1,-1,-1,-1,-1,-1,-1,-1,-1,-1,-1,-1,-1],"split_conditions":[2.83E2,6.6E1,7.7197266E-1,2.3945312E0,5.2539062E0,3.9355469E0,2.5E1,3E0,5.2539062E0,1.7773438E0,1.2E1,5.9472656E-1,9E0,2E1,4.91E2,-3.092647E-3,4.2499803E-2,7.6923415E-2,4.4522637E-1,2.956954E-1,9.9689335E-1,2.499611E0,5.286043E0,1.7979916E0,4.5669353E-1,4.8058786E0,9.456516E0,7.479043E-1,1.58220825E1,6.856609E0,8.309285E-1],"split_indices":[18,18,8,5,14,7,0,18,14,16,1,9,1,4,18,0,0,0,0,0,0,0,0,0,0,0,0,0,0,0,0],"split_type":[0,0,0,0,0,0,0,0,0,0,0,0,0,0,0,0,0,0,0,0,0,0,0,0,0,0,0,0,0,0,0],"sum_hessian":[6.19688E6,6.196754E6,1.26E2,6.195699E6,1.055E3,6E1,6.6E1,6.075054E6,1.20645E5,4.88E2,5.67E2,1.3E1,4.7E1,5.1E1,1.5E1,5.962656E6,1.12398E5,1.16777E5,3.868E3,3.92E2,9.6E1,5.21E2,4.6E1,8E0,5E0,3.2E1,1.5E1,1E0,5E1,9E0,6E0],"tree_param":{"num_deleted":"0","num_feature":"23","num_nodes":"31","size_leaf_vector":"1"}},{"base_weights":[7.105046E-4,-6.0783727E-3,3.3583273E2,-1.7403817E-2,6.54547E1,1.4691801E2,4.287515E2,-6.415605E-2,5.612745E0,3.4404316E1,9.537941E1,4.8507317E1,2.4550757E2,2.5158359E2,5.078268E2,-1.9333818E-3,5.74053E0,1.3103129E-1,4.2865133E-1,8.0781597E-1,3.7211323E0,1.1972259E1,2.747962E0,2.4525576E0,4.6411002E-1,1.9338794E0,8.473297E0,7.8552237E0,-3.705544E-1,-2.9633152E-1,1.5522625E1],"categories":[],"categories_nodes":[],"categories_segments":[],"categories_sizes":[],"default_left":[0,0,0,0,0,0,0,0,0,0,0,0,0,0,0,0,0,0,0,0,0,0,0,0,0,0,0,0,0,0,0],"id":8,"left_children":[1,3,5,7,9,11,13,15,17,19,21,23,25,27,29,-1,-1,-1,-1,-1,-1,-1,-1,-1,-1,-1,-1,-1,-1,-1,-1],"loss_changes":[1.4133561E7,4.595781E6,2.116969E6,1.631436E6,9.920545E5,4.0459638E5,9.9935E5,3.4125297E5,5.5126075E5,3.496877E5,5.78094E5,2.3943996E4,1.1860625E5,8.0900875E4,2.86418E5,0E0,0E0,0E0,0E0,0E0,0E0,0E0,0E0,0E0,0E0,0E0,0E0,0E0,0E0,0E0,0E0],"parents":[2147483647,0,0,1,1,2,2,3,3,4,4,5,5,6,6,7,7,8,8,9,9,10,10,11,11,12,12,13,13,14,14],"right_children":[2,4,6,8,10,12,14,16,18,20,22,24,26,28,30,-1,-1,-1,-1,-1,-1,-1,-1,-1,-1,-1,-1,-1,-1,-1,-1],"split_conditions":[2.8E2,6.5E1,5.9472656E-1,6E0,4E0,1.16E2,4.52E2,3.12E2,1.9E1,7E1,9E0,2.1E1,3.0688477E-1,6.7E2,-1.9091797E-1,-1.9333818E-3,5.74053E0,1.3103129E-1,4.2865133E-1,8.0781597E-1,3.7211323E0,1.1972259E1,2.747962E0,2.4525576E0,4.6411002E-1,1.9338794E0,8.473297E0,7.8552237E0,-3.705544E-1,-2.9633152E-1,1.5522625E1],"split_indices":[17,17,9,17,16,19,17,19,17,4,4,4,9,18,20,0,0,0,0,0,0,0,0,0,0,0,0,0,0,0,0],"split_type":[0,0,0,0,0,0,0,0,0,0,0,0,0,0,0,0,0,0,0,0,0,0,0,0,0,0,0,0,0,0,0],"sum_hessian":[6.199139E6,6.199015E6,1.24E2,6.197944E6,1.071E3,4.2E1,8.2E1,6.146902E6,5.1042E4,5.27E2,5.44E2,2.2E1,2E1,2.7E1,5.5E1,6.146894E6,8E0,4.4638E4,6.404E3,4.88E2,3.9E1,5E0,5.39E2,1E1,1.2E1,4E0,1.6E1,2.6E1,1E0,1E0,5.4E1],"tree_param":{"num_deleted":"0","num_feature":"23","num_nodes":"31","size_leaf_vector":"1"}},{"base_weights":[-1.660824E-3,-5.904193E-3,3.08283E2,-1.4528829E-2,6.413483E1,1.19735435E2,3.7535162E2,-8.0992006E-2,2.4186938E0,1.7750698E1,9.685806E1,2.4216005E1,1.7379558E2,4.3394833E2,1.7518047E2,-3.5033578E-3,2.4328196E-2,6.361691E-2,4.1631156E-1,3.0758306E-1,1.39426E0,2.5362613E0,4.587968E0,1.049213E0,-4.1944645E-2,5.4874916E0,5.6069154E-1,5.706221E-1,1.3551313E1,7.9775534E0,-7.1597284E-1],"categories":[],"categories_nodes":[],"categories_segments":[],"categories_sizes":[],"default_left":[0,0,0,0,0,0,0,0,0,0,0,0,0,0,0,0,0,0,0,0,0,0,0,0,0,0,0,0,0,0,0],"id":9,"left_children":[1,3,5,7,9,11,13,15,17,19,21,23,25,27,29,-1,-1,-1,-1,-1,-1,-1,-1,-1,-1,-1,-1,-1,-1,-1,-1],"loss_changes":[8.1082785E6,3.4287412E6,1.0198025E6,1.0022237E6,1.2625772E6,1.2002209E5,6.31033E5,1.9255306E5,5.6285425E5,7.396143E4,3.202485E5,2.9061963E3,1.7173031E4,3.37415E5,3.0298025E5,0E0,0E0,0E0,0E0,0E0,0E0,0E0,0E0,0E0,0E0,0E0,0E0,0E0,0E0,0E0,0E0],"parents":[2147483647,0,0,1,1,2,2,3,3,4,4,5,5,6,6,7,7,8,8,9,9,10,10,11,11,12,12,13,13,14,14],"right_children":[2,4,6,8,10,12,14,16,18,20,22,24,26,28,30,-1,-1,-1,-1,-1,-1,-1,-1,-1,-1,-1,-1,-1,-1,-1,-1],"split_conditions":[3.44E2,7.6E1,5.932617E-1,1.9550781E0,5.2539062E0,2.281189E-3,2.5E1,2E0,5.2539062E0,2.6E1,1.85E2,3.745E3,2.73E2,8.089E3,4.91E2,-3.5033578E-3,2.4328196E-2,6.361691E-2,4.1631156E-1,3.0758306E-1,1.39426E0,2.5362613E0,4.587968E0,1.049213E0,-4.1944645E-2,5.4874916E0,5.6069154E-1,5.706221E-1,1.3551313E1,7.9775534E0,-7.1597284E-1],"split_indices":[18,18,10,5,14,16,0,18,14,19,19,3,6,3,19,0,0,0,0,0,0,0,0,0,0,0,0,0,0,0,0],"split_type":[0,0,0,0,0,0,0,0,0,0,0,0,0,0,0,0,0,0,0,0,0,0,0,0,0,0,0,0,0,0,0],"sum_hessian":[6.198202E6,6.198118E6,8.4E1,6.197286E6,8.32E2,2.3E1,6.1E1,6.03251E6,1.64776E5,3.45E2,4.87E2,9E0,1.4E1,4.6E1,1.5E1,5.799808E6,2.32702E5,1.60599E5,4.177E3,2.75E2,7E1,4.02E2,8.5E1,6E0,3E0,1.3E1,1E0,2E0,4.4E1,1E1,5E0],"tree_param":{"num_deleted":"0","num_feature":"23","num_nodes":"31","size_leaf_vector":"1"}},{"base_weights":[-1.8265077E-4,-6.0173776E-3,2.9104068E2,-1.5022442E-2,5.2449997E1,5.7488976E1,3.4331558E2,-7.8446865E-2,2.3166125E0,1.4303302E1,8.411287E1,2.5717136E1,2.9202244E0,2.7394833E2,5.4819525E2,-3.9091217E-3,1.4982455E-2,6.161237E-2,3.7859023E-1,1.605574E0,3.5228658E-1,1.7421212E0,3.1661735E0,-2.796992E-2,8.9437324E-1,9.733374E0,4.541475E0,3.284462E0,1.8095936E1],"categories":[],"categories_nodes":[],"categories_segments":[],"categories_sizes":[],"default_left":[0,0,0,0,0,0,0,0,0,0,0,0,0,0,0,0,0,0,0,0,0,0,0,0,0,0,0,0,0],"id":10,"left_children":[1,3,5,7,9,11,13,15,17,19,21,23,-1,25,27,-1,-1,-1,-1,-1,-1,-1,-1,-1,-1,-1,-1,-1,-1],"loss_changes":[1.0530179E7,2.929104E6,1.491804E6,9.168436E5,1.2839338E6,2.7496555E4,1.242575E6,1.808655E5,4.44618E5,4.7803734E4,3.1631325E5,1.7078203E3,0E0,4.20181E5,4.999425E5,0E0,0E0,0E0,0E0,0E0,0E0,0E0,0E0,0E0,0E0,0E0,0E0,0E0,0E0],"parents":[2147483647,0,0,1,1,2,2,3,3,4,4,5,5,6,6,7,7,8,8,9,9,10,10,11,11,13,13,14,14],"right_children":[2,4,6,8,10,12,14,16,18,20,22,24,-1,26,28,-1,-1,-1,-1,-1,-1,-1,-1,-1,-1,-1,-1,-1,-1],"split_conditions":[2.83E2,6.5E1,1.1416E4,1.9550781E0,5.2539062E0,1.5771484E0,1.1E1,5.7714844E-1,5.2539062E0,-2.4414062E-3,1.02E2,0E0,2.9202244E0,2.5E1,3.6132812E-1,-3.9091217E-3,1.4982455E-2,6.161237E-2,3.7859023E-1,1.605574E0,3.5228658E-1,1.7421212E0,3.1661735E0,-2.796992E-2,8.9437324E-1,9.733374E0,4.541475E0,3.284462E0,1.8095936E1],"split_indices":[18,18,3,5,14,11,1,5,14,22,18,21,0,0,9,0,0,0,0,0,0,0,0,0,0,0,0,0,0],"split_type":[0,0,0,0,0,0,0,0,0,0,0,0,0,0,0,0,0,0,0,0,0,0,0,0,0,0,0,0,0],"sum_hessian":[6.20099E6,6.200867E6,1.23E2,6.199804E6,1.063E3,2.3E1,1E2,6.035626E6,1.64178E5,4.83E2,5.8E2,1.4E1,9E0,7.7E1,2.3E1,5.538595E6,4.97031E5,1.60095E5,4.083E3,2.8E1,4.55E2,2.64E2,3.16E2,2E0,1.2E1,5.3E1,2.4E1,3E0,2E1],"tree_param":{"num_deleted":"0","num_feature":"23","num_nodes":"29","size_leaf_vector":"1"}},{"base_weights":[-3.755696E-4,-5.8829044E-3,3.0395395E2,-1.3693437E-2,6.3330795E1,1.0908585E2,4.0167047E2,-4.4876356E-2,4.735551E0,1.1065791E1,9.0721146E1,4.9498264E1,1.6742392E2,3.24743E2,5.729468E2,-3.7982278E-3,1.5212218E-2,1.1242228E-1,5.031057E-1,2.9004145E-1,1.7533516E0,1.1975613E1,2.6155674E0,3.001827E0,9.0673155E-1,6.5196056E0,3.2072194E0,2.9255238E0,1.08368E1,7.47735E0,1.8242805E1],"categories":[],"categories_nodes":[],"categories_segments":[],"categories_sizes":[],"default_left":[0,0,0,0,0,0,0,0,0,0,0,0,0,0,0,0,0,0,0,0,0,0,0,0,0,0,0,0,0,0,0],"id":11,"left_children":[1,3,5,7,9,11,13,15,17,19,21,23,25,27,29,-1,-1,-1,-1,-1,-1,-1,-1,-1,-1,-1,-1,-1,-1,-1,-1],"loss_changes":[1.0376654E7,3.0664492E6,2.081096E6,9.178835E5,1.0928395E6,1.2577634E5,7.34716E5,2.7777444E5,4.8069988E5,1.6761598E4,5.01011E5,1.679798E4,2.7797062E4,4.03985E5,4.33745E4,0E0,0E0,0E0,0E0,0E0,0E0,0E0,0E0,0E0,0E0,0E0,0E0,0E0,0E0,0E0,0E0],"parents":[2147483647,0,0,1,1,2,2,3,3,4,4,5,5,6,6,7,7,8,8,9,9,10,10,11,11,12,12,13,13,14,14],"right_children":[2,4,6,8,10,12,14,16,18,20,22,24,26,28,30,-1,-1,-1,-1,-1,-1,-1,-1,-1,-1,-1,-1,-1,-1,-1,-1],"split_conditions":[3.12E2,8E1,5.932617E-1,7E0,3.6328125E-1,3.3862305E-1,1E1,5.390625E-1,5.2539062E0,7E1,5.78125E-1,2.5756836E-1,2.2E1,6.7626953E-1,6.269531E-1,-3.7982278E-3,1.5212218E-2,1.1242228E-1,5.031057E-1,2.9004145E-1,1.7533516E0,1.1975613E1,2.6155674E0,3.001827E0,9.0673155E-1,6.5196056E0,3.2072194E0,2.9255238E0,1.08368E1,7.47735E0,1.8242805E1],"split_indices":[18,18,10,18,13,10,1,14,14,4,13,8,0,8,8,0,0,0,0,0,0,0,0,0,0,0,0,0,0,0,0],"split_type":[0,0,0,0,0,0,0,0,0,0,0,0,0,0,0,0,0,0,0,0,0,0,0,0,0,0,0,0,0,0,0],"sum_hessian":[6.198796E6,6.198685E6,1.11E2,6.197922E6,7.63E2,3.8E1,7.3E1,6.157494E6,4.0428E4,2.63E2,5E2,2E1,1.8E1,5.3E1,2E1,5.363311E6,7.94183E5,3.7362E4,3.066E3,2.57E2,6E0,4E0,4.96E2,4E0,1.6E1,8E0,1E1,8E0,4.5E1,3E0,1.7E1],"tree_param":{"num_deleted":"0","num_feature":"23","num_nodes":"31","size_leaf_vector":"1"}},{"base_weights":[9.2672656E-4,-4.444465E-3,3.1619998E2,-1.182447E-2,6.333223E1,3.980809E2,1.0599969E2,-4.811766E-2,4.0718975E0,1.5559179E1,9.335214E1,8.061121E1,4.290613E2,1.5369623E2,3.836601E0,-2.512237E-3,4.581308E-2,1.0404718E-1,4.4021943E-1,3.5316324E-1,2.9017909E0,1.3810438E1,2.7346542E0,7.6803774E-1,3.7147138E0,1.0526379E1,1.630974E1,1.2941233E0,5.7993937E0,1.1728946E0,-9.666475E-1],"categories":[],"categories_nodes":[],"categories_segments":[],"categories_sizes":[],"default_left":[0,0,0,0,0,0,0,0,0,0,0,0,0,0,0,0,0,0,0,0,0,0,0,0,0,0,0,0,0,0,0],"id":12,"left_children":[1,3,5,7,9,11,13,15,17,19,21,23,25,27,29,-1,-1,-1,-1,-1,-1,-1,-1,-1,-1,-1,-1,-1,-1,-1,-1],"loss_changes":[1.0529639E7,2.8979238E6,1.757161E6,9.187679E5,1.033993E6,6.95299E5,1.5181162E5,3.4479497E5,3.4942188E5,8.466859E4,3.0231175E5,1.559818E4,3.61447E5,8.2398875E4,1.6039306E4,0E0,0E0,0E0,0E0,0E0,0E0,0E0,0E0,0E0,0E0,0E0,0E0,0E0,0E0,0E0,0E0],"parents":[2147483647,0,0,1,1,2,2,3,3,4,4,5,5,6,6,7,7,8,8,9,9,10,10,11,11,12,12,13,13,14,14],"right_children":[2,4,6,8,10,12,14,16,18,20,22,24,26,28,30,-1,-1,-1,-1,-1,-1,-1,-1,-1,-1,-1,-1,-1,-1,-1,-1],"split_conditions":[3.47E2,8.2E1,2.5E1,4.109375E0,4E0,1.1416E4,4.77E2,3E0,2.4E1,7E1,9E0,1.1201172E0,6.07E2,2.281189E-3,7.76E2,-2.512237E-3,4.581308E-2,1.0404718E-1,4.4021943E-1,3.5316324E-1,2.9017909E0,1.3810438E1,2.7346542E0,7.6803774E-1,3.7147138E0,1.0526379E1,1.630974E1,1.2941233E0,5.7993937E0,1.1728946E0,-9.666475E-1],"split_indices":[18,18,0,5,16,3,19,18,18,4,4,7,18,16,19,0,0,0,0,0,0,0,0,0,0,0,0,0,0,0,0],"split_type":[0,0,0,0,0,0,0,0,0,0,0,0,0,0,0,0,0,0,0,0,0,0,0,0,0,0,0,0,0,0,0],"sum_hessian":[6.199863E6,6.199759E6,1.04E2,6.199038E6,7.21E2,7.4E1,3E1,6.144432E6,5.4606E4,2.79E2,4.42E2,7E0,6.7E1,2E1,1E1,6.00855E6,1.35882E5,5.1666E4,2.94E3,2.68E2,1.1E1,1E0,4.41E2,4E0,3E0,4.3E1,2.4E1,6E0,1.4E1,5E0,5E0],"tree_param":{"num_deleted":"0","num_feature":"23","num_nodes":"31","size_leaf_vector":"1"}},{"base_weights":[8.127688E-6,-6.007666E-3,2.283337E2,-1.1621236E-2,5.3910652E1,5.4721405E1,2.8784738E2,-4.709785E-2,4.0046515E0,1.3280781E1,8.309322E1,6.6664314E0,3.50158E1,2.2786734E2,4.3730203E2,-3.4767813E-3,2.2061849E-2,9.642822E-2,5.189365E-1,1.9031838E-1,8.059074E-1,2.1799223E0,3.5549922E0,5.568393E-1,1.9966112E0,2.2541437E0,7.795577E0,5.5319014E0,1.451966E1],"categories":[],"categories_nodes":[],"categories_segments":[],"categories_sizes":[],"default_left":[0,0,0,0,0,0,0,0,0,0,0,0,0,0,0,0,0,0,0,0,0,0,0,0,0,0,0,0,0],"id":13,"left_children":[1,3,5,7,9,11,13,15,17,19,21,-1,23,25,27,-1,-1,-1,-1,-1,-1,-1,-1,-1,-1,-1,-1,-1,-1],"loss_changes":[8.514793E6,1.8761264E6,1.666714E6,8.8312075E5,7.6368825E5,1.3273706E5,9.56585E5,3.307287E5,5.701169E5,2.5339742E4,1.2727625E5,0E0,1.9297547E4,4.106545E5,2.76101E5,0E0,0E0,0E0,0E0,0E0,0E0,0E0,0E0,0E0,0E0,0E0,0E0,0E0,0E0],"parents":[2147483647,0,0,1,1,2,2,3,3,4,4,5,5,6,6,7,7,8,8,9,9,10,10,12,12,13,13,14,14],"right_children":[2,4,6,8,10,12,14,16,18,20,22,-1,24,26,28,-1,-1,-1,-1,-1,-1,-1,-1,-1,-1,-1,-1,-1,-1],"split_conditions":[2.33E2,8.2E1,2.4160156E0,4.109375E0,5.2539062E0,2E0,1E1,6.8066406E-1,5.2539062E0,1.07578125E1,1.59E2,6.6664314E0,5.2539062E0,4.284668E-1,5.136719E-1,-3.4767813E-3,2.2061849E-2,9.642822E-2,5.189365E-1,1.9031838E-1,8.059074E-1,2.1799223E0,3.5549922E0,5.568393E-1,1.9966112E0,2.2541437E0,7.795577E0,5.5319014E0,1.451966E1],"split_indices":[19,19,11,5,14,1,1,5,14,5,19,0,14,9,10,0,0,0,0,0,0,0,0,0,0,0,0,0,0],"split_type":[0,0,0,0,0,0,0,0,0,0,0,0,0,0,0,0,0,0,0,0,0,0,0,0,0,0,0,0,0],"sum_hessian":[6.198848E6,6.198686E6,1.62E2,6.198042E6,6.44E2,4.2E1,1.2E2,6.143774E6,5.4268E4,2.7E2,3.74E2,3E0,3.9E1,8.8E1,3.2E1,5.64728E6,4.96494E5,5.1224E4,3.044E3,1.8E2,9E1,2.92E2,8.2E1,2.7E1,1.2E1,1.6E1,7.2E1,6E0,2.6E1],"tree_param":{"num_deleted":"0","num_feature":"23","num_nodes":"29","size_leaf_vector":"1"}},{"base_weights":[5.126075E-4,-5.6729643E-3,2.4851385E2,-1.38877025E-2,4.0621883E1,1.0893041E2,3.688693E2,-7.88089E-2,1.8520846E0,1.2005892E1,7.017277E1,1.7258831E1,1.4058147E2,4.3070554E2,1.3786722E2,-3.2159376E-3,2.037989E-2,4.6138223E-2,2.4105519E-1,1.5932934E0,2.9378644E-1,1.6309515E0,3.09395E0,-2.9801214E-1,6.817294E-1,2.3561263E0,5.297851E0,1.1366316E1,1.8274546E1,6.7621884E0,-4.07258E-1],"categories":[],"categories_nodes":[],"categories_segments":[],"categories_sizes":[],"default_left":[0,0,0,0,0,0,0,0,0,0,0,0,0,0,0,0,0,0,0,0,0,0,0,0,0,0,0,0,0,0,0],"id":14,"left_children":[1,3,5,7,9,11,13,15,17,19,21,23,25,27,29,-1,-1,-1,-1,-1,-1,-1,-1,-1,-1,-1,-1,-1,-1,-1,-1],"loss_changes":[9.53048E6,2.0691358E6,2.539625E6,7.5089394E5,1.0587302E6,2.095325E5,1.097784E6,1.2892374E5,4.0479175E5,5.73799E4,3.1373675E5,3.3155913E3,1.03139375E5,2.91612E5,2.6006447E5,0E0,0E0,0E0,0E0,0E0,0E0,0E0,0E0,0E0,0E0,0E0,0E0,0E0,0E0,0E0,0E0],"parents":[2147483647,0,0,1,1,2,2,3,3,4,4,5,5,6,6,7,7,8,8,9,9,10,10,11,11,12,12,13,13,14,14],"right_children":[2,4,6,8,10,12,14,16,18,20,22,24,26,28,30,-1,-1,-1,-1,-1,-1,-1,-1,-1,-1,-1,-1,-1,-1,-1,-1],"split_conditions":[2.54E2,5.7E1,6.4697266E-1,1.6201172E0,5.2539062E0,1E0,2.5E1,2E0,1.07578125E1,-2.4414062E-3,9E0,5.4003906E-1,2.7E1,1.2E1,5.57E2,-3.2159376E-3,2.037989E-2,4.6138223E-2,2.4105519E-1,1.5932934E0,2.9378644E-1,1.6309515E0,3.09395E0,-2.9801214E-1,6.817294E-1,2.3561263E0,5.297851E0,1.1366316E1,1.8274546E1,6.7621884E0,-4.07258E-1],"split_indices":[18,18,10,5,14,19,0,18,5,22,1,5,2,1,19,0,0,0,0,0,0,0,0,0,0,0,0,0,0,0,0],"split_type":[0,0,0,0,0,0,0,0,0,0,0,0,0,0,0,0,0,0,0,0,0,0,0,0,0,0,0,0,0,0,0],"sum_hessian":[6.199905E6,6.199752E6,1.53E2,6.1985E6,1.252E3,7.2E1,8.1E1,5.990093E6,2.08407E5,6.37E2,6.15E2,1.9E1,5.3E1,6.3E1,1.8E1,5.773887E6,2.16206E5,1.98332E5,1.0075E4,3.1E1,6.06E2,4.18E2,1.97E2,3E0,1.6E1,2.1E1,3.2E1,5.2E1,1.1E1,1.1E1,7E0],"tree_param":{"num_deleted":"0","num_feature":"23","num_nodes":"31","size_leaf_vector":"1"}},{"base_weights":[4.0013602E-4,-6.0550426E-3,2.496161E2,-1.6875993E-2,4.3448723E1,1.9144667E2,4.3462405E2,-6.2964E-2,4.0911317E0,2.2505148E1,6.431839E1,6.7284706E1,2.2181161E2,2.2657452E1,4.6977426E2,-2.986343E-3,2.517818E-2,9.538262E-2,3.2018712E-1,6.1851627E-1,2.73186E0,1.4564108E1,1.8883653E0,2.6797261E0,1.2182862E0,3.143973E0,8.186856E0,1.45003E0,-1.2759857E-1,1.4421383E1,1.3662676E0],"categories":[],"categories_nodes":[],"categories_segments":[],"categories_sizes":[],"default_left":[0,0,0,0,0,0,0,0,0,0,0,0,0,0,0,0,0,0,0,0,0,0,0,0,0,0,0,0,0,0,0],"id":15,"left_children":[1,3,5,7,9,11,13,15,17,19,21,23,25,27,29,-1,-1,-1,-1,-1,-1,-1,-1,-1,-1,-1,-1,-1,-1,-1,-1],"loss_changes":[9.989085E6,2.9149925E6,1.615955E6,1.1733986E6,6.7265875E5,4.490775E5,5.263455E5,2.022808E5,4.1256362E5,9.7495E4,4.0640075E5,1.0704625E4,5.56069E5,3.2507842E3,1.30471E5,0E0,0E0,0E0,0E0,0E0,0E0,0E0,0E0,0E0,0E0,0E0,0E0,0E0,0E0,0E0,0E0],"parents":[2147483647,0,0,1,1,2,2,3,3,4,4,5,5,6,6,7,7,8,8,9,9,10,10,11,11,12,12,13,13,14,14],"right_children":[2,4,6,8,10,12,14,16,18,20,22,24,26,28,30,-1,-1,-1,-1,-1,-1,-1,-1,-1,-1,-1,-1,-1,-1,-1,-1],"split_conditions":[2.43E2,5E1,5.84E2,5E0,4.0802002E-2,1.3486328E0,3.7246094E0,2E0,1.6E1,7.1E1,9.802246E-2,6.5625E-1,5E0,2E0,2.2148438E0,-2.986343E-3,2.517818E-2,9.538262E-2,3.2018712E-1,6.1851627E-1,2.73186E0,1.4564108E1,1.8883653E0,2.6797261E0,1.2182862E0,3.143973E0,8.186856E0,1.45003E0,-1.2759857E-1,1.4421383E1,1.3662676E0],"split_indices":[17,17,17,17,7,7,11,17,17,4,7,8,1,1,9,0,0,0,0,0,0,0,0,0,0,0,0,0,0,0,0],"split_type":[0,0,0,0,0,0,0,0,0,0,0,0,0,0,0,0,0,0,0,0,0,0,0,0,0,0,0,0,0,0,0],"sum_hessian":[6.199339E6,6.19918E6,1.59E2,6.197638E6,1.542E3,1.23E2,3.6E1,6.128879E6,6.8759E4,7.71E2,7.71E2,2.5E1,9.8E1,3E0,3.3E1,5.89007E6,2.38809E5,6.0395E4,8.364E3,7.52E2,1.9E1,1E0,7.7E2,1.2E1,1.3E1,3.1E1,6.7E1,1E0,2E0,3.2E1,1E0],"tree_param":{"num_deleted":"0","num_feature":"23","num_nodes":"31","size_leaf_vector":"1"}},{"base_weights":[-3.3005662E-4,-5.6940946E-3,2.591561E2,-1.6382044E-2,4.2529907E1,4.620537E1,2.9791678E2,-6.128796E-2,3.9957752E0,2.3099916E1,7.038225E1,7.377926E0,8.667665E1,1.6992226E2,3.356338E2,-2.893214E-3,2.4173543E-2,8.890265E-2,2.8298405E-1,6.0205257E-1,1.952744E0,1.4375267E1,2.0626688E0,5.9969616E-1,-4.2535445E-1,2.9028783E0,-9.414986E-2,3.1554663E0,7.8970475E0,9.114162E0,1.5573898E1],"categories":[],"categories_nodes":[],"categories_segments":[],"categories_sizes":[],"default_left":[0,0,0,0,0,0,0,0,0,0,0,0,0,0,0,0,0,0,0,0,0,0,0,0,0,0,0,0,0,0,0],"id":16,"left_children":[1,3,5,7,9,11,13,15,17,19,21,23,25,27,29,-1,-1,-1,-1,-1,-1,-1,-1,-1,-1,-1,-1,-1,-1,-1,-1],"loss_changes":[8.617992E6,2.8183205E6,1.041032E6,1.1166468E6,8.40637E5,3.2652191E4,4.47969E5,1.868154E5,3.8501238E5,1.1530997E5,3.8183125E5,3.7200515E3,9.741844E3,1.2863025E5,2.73552E5,0E0,0E0,0E0,0E0,0E0,0E0,0E0,0E0,0E0,0E0,0E0,0E0,0E0,0E0,0E0,0E0],"parents":[2147483647,0,0,1,1,2,2,3,3,4,4,5,5,6,6,7,7,8,8,9,9,10,10,11,11,12,12,13,13,14,14],"right_children":[2,4,6,8,10,12,14,16,18,20,22,24,26,28,30,-1,-1,-1,-1,-1,-1,-1,-1,-1,-1,-1,-1,-1,-1,-1,-1],"split_conditions":[2.83E2,5E1,1.5595703E0,5E0,3.3046875E0,7E0,3E0,2E0,1.4E1,2.0405E4,-7.1875E-1,1.9226074E-2,1.1416E4,6.91E2,7.43E2,-2.893214E-3,2.4173543E-2,8.890265E-2,2.8298405E-1,6.0205257E-1,1.952744E0,1.4375267E1,2.0626688E0,5.9969616E-1,-4.2535445E-1,2.9028783E0,-9.414986E-2,3.1554663E0,7.8970475E0,9.114162E0,1.5573898E1],"split_indices":[17,17,6,17,16,1,1,17,17,3,20,7,3,17,17,0,0,0,0,0,0,0,0,0,0,0,0,0,0,0,0],"split_type":[0,0,0,0,0,0,0,0,0,0,0,0,0,0,0,0,0,0,0,0,0,0,0,0,0,0,0,0,0,0,0],"sum_hessian":[6.199434E6,6.199307E6,1.27E2,6.197751E6,1.556E3,2E1,1.07E2,6.129152E6,6.8599E4,9.18E2,6.38E2,1.1E1,9E0,2.6E1,8.1E1,5.890349E6,2.38803E5,5.7654E4,1.0945E4,8.58E2,6E1,1E0,6.37E2,7E0,4E0,8E0,1E0,1.7E1,9E0,7.2E1,9E0],"tree_param":{"num_deleted":"0","num_feature":"23","num_nodes":"31","size_leaf_vector":"1"}},{"base_weights":[3.8145971E-4,-8.058427E-3,1.742451E2,-2.7039176E-2,1.6253723E1,1.1252163E2,2.7338232E2,-6.788949E-2,2.658538E0,1.155817E1,4.3078476E1,4.1873505E1,1.414728E2,1.8234161E2,3.6615964E2,-3.5391308E-3,1.1093445E-2,6.246331E-2,1.467978E-1,1.1009016E0,3.194601E-1,1.1494367E1,1.2497699E0,2.316874E0,3.7423372E-1,1.2427974E1,3.9280667E0,2.864118E0,6.766642E0,1.16571245E1,6.019891E0],"categories":[],"categories_nodes":[],"categories_segments":[],"categories_sizes":[],"default_left":[0,0,0,0,0,0,0,0,0,0,0,0,0,0,0,0,0,0,0,0,0,0,0,0,0,0,0,0,0,0,0],"id":17,"left_children":[1,3,5,7,9,11,13,15,17,19,21,23,25,27,29,-1,-1,-1,-1,-1,-1,-1,-1,-1,-1,-1,-1,-1,-1,-1,-1],"loss_changes":[9.118334E6,1.9137264E6,1.797236E6,6.7939906E5,9.0980275E5,3.75339E5,8.77841E5,1.3370914E5,1.1951244E5,1.4017312E5,4.985875E5,5.7268086E4,3.090745E5,1.9812638E5,1.027245E5,0E0,0E0,0E0,0E0,0E0,0E0,0E0,0E0,0E0,0E0,0E0,0E0,0E0,0E0,0E0,0E0],"parents":[2147483647,0,0,1,1,2,2,3,3,4,4,5,5,6,6,7,7,8,8,9,9,10,10,11,11,12,12,13,13,14,14],"right_children":[2,4,6,8,10,12,14,16,18,20,22,24,26,28,30,-1,-1,-1,-1,-1,-1,-1,-1,-1,-1,-1,-1,-1,-1,-1,-1],"split_conditions":[1.68E2,1.9E1,5.9472656E-1,4E0,7.1E1,1.1396484E0,4.59E2,5.307617E-1,9E0,1.1E1,4.5654297E-1,1.5E1,9E0,2.7E2,2.5E1,-3.5391308E-3,1.1093445E-2,6.246331E-2,1.467978E-1,1.1009016E0,3.194601E-1,1.1494367E1,1.2497699E0,2.316874E0,3.7423372E-1,1.2427974E1,3.9280667E0,2.864118E0,6.766642E0,1.16571245E1,6.019891E0],"split_indices":[17,17,9,17,4,6,17,5,17,4,5,0,4,17,0,0,0,0,0,0,0,0,0,0,0,0,0,0,0,0,0],"split_type":[0,0,0,0,0,0,0,0,0,0,0,0,0,0,0,0,0,0,0,0,0,0,0,0,0,0,0,0,0,0,0],"sum_hessian":[6.200391E6,6.200092E6,2.99E2,6.192865E6,7.227E3,1.86E2,1.13E2,6.100078E6,9.2787E4,6.152E3,1.075E3,5.5E1,1.31E2,5.9E1,5.4E1,5.473734E6,6.26344E5,7.3763E4,1.9024E4,2.13E2,5.939E3,3E0,1.072E3,2.4E1,3.1E1,3E0,1.28E2,2.1E1,3.8E1,4.6E1,8E0],"tree_param":{"num_deleted":"0","num_feature":"23","num_nodes":"31","size_leaf_vector":"1"}},{"base_weights":[4.8159983E-4,-4.278088E-3,2.0591925E2,-1.1328188E-2,4.160671E1,4.780539E1,2.526492E2,-4.6025414E-2,3.0127811E0,1.0893197E1,6.7332436E1,1.32476E1,8.486846E1,3.0419803E2,1.03425064E2,-3.411085E-3,1.2083282E-2,7.4795164E-2,3.6988547E-1,1.3271066E0,2.7267423E-1,4.67121E0,1.872045E0,6.4247984E-1,-1.2004607E-1,3.39782E0,4.899852E-1,5.5567775E0,1.1412711E1,2.0227112E-1,5.926461E0],"categories":[],"categories_nodes":[],"categories_segments":[],"categories_sizes":[],"default_left":[0,0,0,0,0,0,0,0,0,0,0,0,0,0,0,0,0,0,0,0,0,0,0,0,0,0,0,0,0,0,0],"id":18,"left_children":[1,3,5,7,9,11,13,15,17,19,21,23,25,27,29,-1,-1,-1,-1,-1,-1,-1,-1,-1,-1,-1,-1,-1,-1,-1,-1],"loss_changes":[6.077006E6,1.8188991E6,1.043028E6,6.504653E5,8.289179E5,4.2472617E4,8.072375E5,1.8615538E5,3.403795E5,2.8364543E4,2.3619625E5,2.8338416E3,2.9314297E4,6.448415E5,2.7410888E5,0E0,0E0,0E0,0E0,0E0,0E0,0E0,0E0,0E0,0E0,0E0,0E0,0E0,0E0,0E0,0E0],"parents":[2147483647,0,0,1,1,2,2,3,3,4,4,5,5,6,6,7,7,8,8,9,9,10,10,11,11,12,12,13,13,14,14],"right_children":[2,4,6,8,10,12,14,16,18,20,22,24,26,28,30,-1,-1,-1,-1,-1,-1,-1,-1,-1,-1,-1,-1,-1,-1,-1,-1],"split_conditions":[2.55E2,6.5E1,1.9465E4,5E0,5.2539062E0,1E0,2.5E1,5.175781E-1,5.2539062E0,-2.4414062E-3,1.1E1,6.747E3,6.8359375E-3,7.3535156E-1,2.7E1,-3.411085E-3,1.2083282E-2,7.4795164E-2,3.6988547E-1,1.3271066E0,2.7267423E-1,4.67121E0,1.872045E0,6.4247984E-1,-1.2004607E-1,3.39782E0,4.899852E-1,5.5567775E0,1.1412711E1,2.0227112E-1,5.926461E0],"split_indices":[18,18,3,18,14,19,0,14,14,22,4,3,22,8,0,0,0,0,0,0,0,0,0,0,0,0,0,0,0,0,0],"split_type":[0,0,0,0,0,0,0,0,0,0,0,0,0,0,0,0,0,0,0,0,0,0,0,0,0,0,0,0,0,0,0],"sum_hessian":[6.200334E6,6.200192E6,1.42E2,6.199143E6,1.049E3,3.3E1,1.09E2,6.128825E6,7.0318E4,4.79E2,5.7E2,1.8E1,1.5E1,8E1,2.9E1,5.325728E6,8.03097E5,6.6605E4,3.713E3,2.3E1,4.56E2,2.8E1,5.42E2,1.2E1,6E0,1E1,5E0,3.3E1,4.7E1,1.5E1,1.4E1],"tree_param":{"num_deleted":"0","num_feature":"23","num_nodes":"31","size_leaf_vector":"1"}},{"base_weights":[3.841014E-4,-4.4711046E-3,2.2240323E2,-9.37609E-3,5.7646465E1,1.2432962E2,3.3810513E2,-3.4251247E-2,4.697062E0,1.1520525E1,8.337013E1,6.123468E1,1.7711258E2,2.4234203E2,5.15715E2,-2.198327E-3,2.3807181E-2,1.1176238E-1,4.4344035E-1,2.5453407E-1,2.9470367E0,5.817878E0,2.3343582E0,7.0868444E-1,2.4262905E0,7.1406107E0,2.3442225E0,-2.5223514E-1,8.064268E0,1.6349087E1,4.4874377E0],"categories":[],"categories_nodes":[],"categories_segments":[],"categories_sizes":[],"default_left":[0,0,0,0,0,0,0,0,0,0,0,0,0,0,0,0,0,0,0,0,0,0,0,0,0,0,0,0,0,0,0],"id":19,"left_children":[1,3,5,7,9,11,13,15,17,19,21,23,25,27,29,-1,-1,-1,-1,-1,-1,-1,-1,-1,-1,-1,-1,-1,-1,-1,-1],"loss_changes":[6.693172E6,1.7527452E6,1.4802215E6,7.255979E5,6.244109E5,2.3657212E5,8.78665E5,1.9917925E5,3.1921125E5,4.9008695E4,1.880725E5,2.4317234E4,2.1858325E5,2.8378725E5,1.10491E5,0E0,0E0,0E0,0E0,0E0,0E0,0E0,0E0,0E0,0E0,0E0,0E0,0E0,0E0,0E0,0E0],"parents":[2147483647,0,0,1,1,2,2,3,3,4,4,5,5,6,6,7,7,8,8,9,9,10,10,11,11,12,12,13,13,14,14],"right_children":[2,4,6,8,10,12,14,16,18,20,22,24,26,28,30,-1,-1,-1,-1,-1,-1,-1,-1,-1,-1,-1,-1,-1,-1,-1,-1],"split_conditions":[2.79E2,9.5E1,8E0,8E0,3.3046875E0,6.738281E-1,9.711914E-1,2E0,5.3359375E0,1.6650391E0,-1.6748047E-1,3.3862305E-1,2.5E1,3.3046875E0,2.4E1,-2.198327E-3,2.3807181E-2,1.1176238E-1,4.4344035E-1,2.5453407E-1,2.9470367E0,5.817878E0,2.3343582E0,7.0868444E-1,2.4262905E0,7.1406107E0,2.3442225E0,-2.5223514E-1,8.064268E0,1.6349087E1,4.4874377E0],"split_indices":[18,18,1,18,16,10,10,18,16,13,22,10,0,16,0,0,0,0,0,0,0,0,0,0,0,0,0,0,0,0,0],"split_type":[0,0,0,0,0,0,0,0,0,0,0,0,0,0,0,0,0,0,0,0,0,0,0,0,0,0,0,0,0,0,0],"sum_hessian":[6.19846E6,6.198326E6,1.34E2,6.1978E6,5.26E2,7.4E1,6E1,6.165216E6,3.2584E4,1.89E2,3.37E2,3.5E1,3.9E1,4.1E1,1.9E1,5.887654E6,2.77562E5,2.9722E4,2.862E3,1.84E2,5E0,1.4E1,3.23E2,1.3E1,2.2E1,2.3E1,1.6E1,4E0,3.7E1,1.7E1,2E0],"tree_param":{"num_deleted":"0","num_feature":"23","num_nodes":"31","size_leaf_vector":"1"}},{"base_weights":[1.404612E-3,-3.9006756E-3,2.8033786E2,-1.1832098E-2,5.97788E1,8.810046E1,3.285404E2,-3.9699417E-2,6.72582E0,2.766071E1,7.611587E1,1.6853868E2,3.0151901E1,2.8959232E2,1.6019938E1,-2.2222132E-3,4.5773853E-2,1.6196314E-1,5.087473E-1,1.2526952E0,5.238444E-1,1.7252975E0,3.3098269E0,2.266303E0,1.0051066E1,1.5510943E0,-4.422047E-1,1.2495173E1,7.346062E0],"categories":[],"categories_nodes":[],"categories_segments":[],"categories_sizes":[],"default_left":[0,0,0,0,0,0,0,0,0,0,0,0,0,0,0,0,0,0,0,0,0,0,0,0,0,0,0,0,0],"id":20,"left_children":[1,3,5,7,9,11,13,15,17,19,21,23,25,27,-1,-1,-1,-1,-1,-1,-1,-1,-1,-1,-1,-1,-1,-1,-1],"loss_changes":[9.219687E6,2.9393155E6,1.049043E6,1.1637666E6,4.2871475E5,1.1131833E5,5.43557E5,3.321665E5,3.46554E5,3.9198016E4,3.3814275E5,1.2644172E5,1.6784395E4,3.27553E5,0E0,0E0,0E0,0E0,0E0,0E0,0E0,0E0,0E0,0E0,0E0,0E0,0E0,0E0,0E0],"parents":[2147483647,0,0,1,1,2,2,3,3,4,4,5,5,6,6,7,7,8,8,9,9,10,10,11,11,12,12,13,13],"right_children":[2,4,6,8,10,12,14,16,18,20,22,24,26,28,-1,-1,-1,-1,-1,-1,-1,-1,-1,-1,-1,-1,-1,-1,-1],"split_conditions":[3.41E2,7.6E1,1.9465E4,9E0,6.767578E-1,5.908203E-1,1.2E1,3E0,2.9E1,1.2E1,1.39E2,6.25E2,7.43E2,1.1E1,1.6019938E1,-2.2222132E-3,4.5773853E-2,1.6196314E-1,5.087473E-1,1.2526952E0,5.238444E-1,1.7252975E0,3.3098269E0,2.266303E0,1.0051066E1,1.5510943E0,-4.422047E-1,1.2495173E1,7.346062E0],"split_indices":[17,17,3,17,12,8,1,17,17,0,17,17,17,0,0,0,0,0,0,0,0,0,0,0,0,0,0,0,0],"split_type":[0,0,0,0,0,0,0,0,0,0,0,0,0,0,0,0,0,0,0,0,0,0,0,0,0,0,0,0,0],"sum_hessian":[6.199084E6,6.198968E6,1.16E2,6.198147E6,8.21E2,2.4E1,9.2E1,6.172618E6,2.5529E4,2.78E2,5.43E2,9E0,1.5E1,8E1,1.2E1,6.039996E6,1.32622E5,2.26E4,2.929E3,1.15E2,1.63E2,3.54E2,1.89E2,7E0,2E0,1E1,5E0,1.8E1,6.2E1],"tree_param":{"num_deleted":"0","num_feature":"23","num_nodes":"29","size_leaf_vector":"1"}},{"base_weights":[1.8559789E-4,-4.286024E-3,2.4037074E2,-1.2682168E-2,4.816294E1,1.20088936E2,3.2686935E2,-3.8158424E-2,6.2527423E0,3.5288544E1,8.144704E1,5.8560204E1,2.1486401E2,1.3314395E1,2.637796E2,-2.1418906E-3,4.43631E-2,1.3550536E-1,3.429009E-1,6.4211655E-1,1.4332299E0,4.717023E0,2.293666E0,-3.1007203E-1,2.2435718E0,1.0206102E0,6.6689506E0,6.3847256E0,1.1453079E1],"categories":[],"categories_nodes":[],"categories_segments":[],"categories_sizes":[],"default_left":[0,0,0,0,0,0,0,0,0,0,0,0,0,0,0,0,0,0,0,0,0,0,0,0,0,0,0,0,0],"id":21,"left_children":[1,3,5,7,9,11,13,15,17,19,21,23,25,-1,27,-1,-1,-1,-1,-1,-1,-1,-1,-1,-1,-1,-1,-1,-1],"loss_changes":[6.662721E6,2.506853E6,1.14818E6,9.8925406E5,4.591525E5,2.7686906E5,3.354645E5,3.1121356E5,2.2549662E5,1.34106E5,9.7813375E4,3.713808E4,1.603125E4,0E0,1.717085E5,0E0,0E0,0E0,0E0,0E0,0E0,0E0,0E0,0E0,0E0,0E0,0E0,0E0,0E0],"parents":[2147483647,0,0,1,1,2,2,3,3,4,4,5,5,6,6,7,7,8,8,9,9,10,10,11,11,12,12,14,14],"right_children":[2,4,6,8,10,12,14,16,18,20,22,24,26,-1,28,-1,-1,-1,-1,-1,-1,-1,-1,-1,-1,-1,-1,-1,-1],"split_conditions":[3.02E2,6.5E1,6.9433594E-1,9E0,1.03E2,1.58E2,1.2E1,3E0,1.9E1,7.872E3,3.9355469E0,1.3251953E0,7.983E3,1.3314395E1,7.49E2,-2.1418906E-3,4.43631E-2,1.3550536E-1,3.429009E-1,6.4211655E-1,1.4332299E0,4.717023E0,2.293666E0,-3.1007203E-1,2.2435718E0,1.0206102E0,6.6689506E0,6.3847256E0,1.1453079E1],"split_indices":[17,17,9,17,19,19,0,17,17,3,7,11,3,0,17,0,0,0,0,0,0,0,0,0,0,0,0,0,0],"split_type":[0,0,0,0,0,0,0,0,0,0,0,0,0,0,0,0,0,0,0,0,0,0,0,0,0,0,0,0,0],"sum_hessian":[6.198764E6,6.19865E6,1.14E2,6.197571E6,1.079E3,4.9E1,6.5E1,6.172474E6,2.5097E4,7.8E2,2.99E2,3.1E1,1.8E1,2E1,4.5E1,6.040128E6,1.32346E5,1.8797E4,6.3E3,3.71E2,4.09E2,1.6E1,2.83E2,6E0,2.5E1,1E0,1.7E1,3.4E1,1.1E1],"tree_param":{"num_deleted":"0","num_feature":"23","num_nodes":"29","size_leaf_vector":"1"}},{"base_weights":[1.8270871E-4,-4.838433E-3,2.3177441E2,-1.4518366E-2,3.8998592E1,1.4046136E2,3.4761792E2,-5.315813E-2,3.4481702E0,2.174024E1,6.2025288E1,3.2177147E1,1.7501805E2,2.3981245E2,4.2460983E2,-1.6011825E-3,5.395111E0,8.094991E-2,2.6191705E-1,5.259254E-1,2.1937995E0,1.4173224E1,1.8137002E0,3.0547327E-1,1.8694568E0,3.0733786E0,5.847258E0,7.969232E0,-1.577024E0,9.700244E0,1.5278727E1],"categories":[],"categories_nodes":[],"categories_segments":[],"categories_sizes":[],"default_left":[0,0,0,0,0,0,0,0,0,0,0,0,0,0,0,0,0,0,0,0,0,0,0,0,0,0,0,0,0,0,0],"id":22,"left_children":[1,3,5,7,9,11,13,15,17,19,21,23,25,27,29,-1,-1,-1,-1,-1,-1,-1,-1,-1,-1,-1,-1,-1,-1,-1,-1],"loss_changes":[7.2153945E6,2.3407675E6,1.3566285E6,8.293224E5,6.09559E5,2.8190525E5,3.502405E5,2.3667577E5,2.7091125E5,1.889489E5,3.8628825E5,1.2631939E4,5.7944E4,2.24612E5,6.077E4,0E0,0E0,0E0,0E0,0E0,0E0,0E0,0E0,0E0,0E0,0E0,0E0,0E0,0E0,0E0,0E0],"parents":[2147483647,0,0,1,1,2,2,3,3,4,4,5,5,6,6,7,7,8,8,9,9,10,10,11,11,12,12,13,13,14,14],"right_children":[2,4,6,8,10,12,14,16,18,20,22,24,26,28,30,-1,-1,-1,-1,-1,-1,-1,-1,-1,-1,-1,-1,-1,-1,-1,-1],"split_conditions":[2.6E2,5E1,7.988281E-1,5E0,3.3046875E0,2.1640625E0,5.88E2,3.12E2,1.6E1,2.0099E4,-7.1875E-1,8E0,5E0,7.72E2,1.1005859E0,-1.6011825E-3,5.395111E0,8.094991E-2,2.6191705E-1,5.259254E-1,2.1937995E0,1.4173224E1,1.8137002E0,3.0547327E-1,1.8694568E0,3.0733786E0,5.847258E0,7.969232E0,-1.577024E0,9.700244E0,1.5278727E1],"split_indices":[17,17,9,17,16,11,17,19,17,3,20,1,1,19,10,0,0,0,0,0,0,0,0,0,0,0,0,0,0,0,0],"split_type":[0,0,0,0,0,0,0,0,0,0,0,0,0,0,0,0,0,0,0,0,0,0,0,0,0,0,0,0,0,0,0],"sum_hessian":[6.200008E6,6.199875E6,1.33E2,6.198338E6,1.537E3,7.6E1,5.7E1,6.129936E6,6.8402E4,8.8E2,6.57E2,1.9E1,5.7E1,2.6E1,3.1E1,6.12993E6,6E0,5.9901E4,8.501E3,8.15E2,6.5E1,1E0,6.56E2,1.2E1,7E0,1.4E1,4.3E1,2.4E1,2E0,1.7E1,1.4E1],"tree_param":{"num_deleted":"0","num_feature":"23","num_nodes":"31","size_leaf_vector":"1"}},{"base_weights":[-7.029913E-4,-5.7933745E-3,2.1573688E2,-1.1982851E-2,5.5346554E1,6.541124E1,2.5540399E2,-3.1566497E-2,7.8203373E0,3.0747873E1,7.33565E1,3.5681263E1,2.0765326E2,1.7675223E2,3.309461E2,-2.0571433E-3,4.601071E-2,2.0012423E-1,5.86856E-1,6.996318E-1,2.5368235E0,1.2824303E1,2.0777662E0,1.9093342E0,-6.311279E-2,1.7681782E-1,7.5788956E0,4.3832855E0,1.1051244E1,8.243343E0,1.2086112E1],"categories":[],"categories_nodes":[],"categories_segments":[],"categories_sizes":[],"default_left":[0,0,0,0,0,0,0,0,0,0,0,0,0,0,0,0,0,0,0,0,0,0,0,0,0,0,0,0,0,0,0],"id":23,"left_children":[1,3,5,7,9,11,13,15,17,19,21,23,25,27,29,-1,-1,-1,-1,-1,-1,-1,-1,-1,-1,-1,-1,-1,-1,-1,-1],"loss_changes":[6.8099965E6,2.1244692E6,8.505195E5,9.5103394E5,3.0418925E5,1.2691614E5,6.08292E5,3.5823903E5,2.08554E5,1.15433875E5,5.405305E5,3.0091906E4,4.6262984E4,2.7757188E5,8.611E4,0E0,0E0,0E0,0E0,0E0,0E0,0E0,0E0,0E0,0E0,0E0,0E0,0E0,0E0,0E0,0E0],"parents":[2147483647,0,0,1,1,2,2,3,3,4,4,5,5,6,6,7,7,8,8,9,9,10,10,11,11,12,12,13,13,14,14],"right_children":[2,4,6,8,10,12,14,16,18,20,22,24,26,28,30,-1,-1,-1,-1,-1,-1,-1,-1,-1,-1,-1,-1,-1,-1,-1,-1],"split_conditions":[2.7E2,8.2E1,1.9465E4,1.2E1,9E0,1.2E1,8.305664E-1,3E0,7.1E1,7E1,9E0,2E1,3.6376953E-1,1.2E1,1.1308594E0,-2.0571433E-3,4.601071E-2,2.0012423E-1,5.86856E-1,6.996318E-1,2.5368235E0,1.2824303E1,2.0777662E0,1.9093342E0,-6.311279E-2,1.7681782E-1,7.5788956E0,4.3832855E0,1.1051244E1,8.243343E0,1.2086112E1],"split_indices":[17,17,3,17,19,1,8,17,4,4,4,4,8,1,8,0,0,0,0,0,0,0,0,0,0,0,0,0,0,0,0],"split_type":[0,0,0,0,0,0,0,0,0,0,0,0,0,0,0,0,0,0,0,0,0,0,0,0,0,0,0,0,0,0,0],"sum_hessian":[6.201124E6,6.200979E6,1.45E2,6.200287E6,6.92E2,3.1E1,1.14E2,6.184824E6,1.5463E4,2.94E2,3.98E2,2.7E1,4E0,5.8E1,5.6E1,6.041984E6,1.4284E5,1.4086E4,1.377E3,2.6E2,3.4E1,3E0,3.95E2,1.5E1,1.2E1,1E0,3E0,5.2E1,6E0,3.5E1,2.1E1],"tree_param":{"num_deleted":"0","num_feature":"23","num_nodes":"31","size_leaf_vector":"1"}},{"base_weights":[1.2291103E-3,-3.7037598E-3,2.3838493E2,-1.3286289E-2,3.6886154E1,1.9815195E2,3.9977173E2,-4.078486E-2,4.380765E0,1.966167E1,6.04543E1,4.3466507E1,2.212426E2,1.4271157E1,1.0650659E1,-2.4100603E-3,2.4763716E-2,1.0145459E-1,2.7680692E-1,5.1468897E-1,1.6107798E0,1.3986858E1,1.7685937E0,2.102166E0,5.332898E-2,1.3125988E1,6.0616174E0,1.2740119E0,-2.8974244E-1],"categories":[],"categories_nodes":[],"categories_segments":[],"categories_sizes":[],"default_left":[0,0,0,0,0,0,0,0,0,0,0,0,0,0,0,0,0,0,0,0,0,0,0,0,0,0,0,0,0],"id":24,"left_children":[1,3,5,7,9,11,13,15,17,19,21,23,25,-1,27,-1,-1,-1,-1,-1,-1,-1,-1,-1,-1,-1,-1,-1,-1],"loss_changes":[7.2918075E6,2.1919832E6,7.29083E5,7.490532E5,6.5214375E5,3.63525E5,7.117495E5,2.1106644E5,1.8660125E5,7.827916E4,3.776875E5,1.6821744E4,2.62842E5,0E0,3.972288E3,0E0,0E0,0E0,0E0,0E0,0E0,0E0,0E0,0E0,0E0,0E0,0E0,0E0,0E0],"parents":[2147483647,0,0,1,1,2,2,3,3,4,4,5,5,6,6,7,7,8,8,9,9,10,10,11,11,12,12,14,14],"right_children":[2,4,6,8,10,12,14,16,18,20,22,24,26,-1,28,-1,-1,-1,-1,-1,-1,-1,-1,-1,-1,-1,-1,-1,-1],"split_conditions":[2.92E2,5E1,7.49E2,7E0,3.3046875E0,3.005371E-1,5.5E1,2E0,1.8E1,2.0506E4,-7.1875E-1,2.2E1,3.0981445E-1,1.4271157E1,1.3E1,-2.4100603E-3,2.4763716E-2,1.0145459E-1,2.7680692E-1,5.1468897E-1,1.6107798E0,1.3986858E1,1.7685937E0,2.102166E0,5.332898E-2,1.3125988E1,6.0616174E0,1.2740119E0,-2.8974244E-1],"split_indices":[17,17,17,17,16,9,2,17,17,3,20,0,10,0,0,0,0,0,0,0,0,0,0,0,0,0,0,0,0],"split_type":[0,0,0,0,0,0,0,0,0,0,0,0,0,0,0,0,0,0,0,0,0,0,0,0,0,0,0,0,0],"sum_hessian":[6.200958E6,6.200831E6,1.27E2,6.199222E6,1.609E3,1.04E2,2.3E1,6.160669E6,3.8553E4,9.31E2,6.78E2,1.4E1,9E1,1.9E1,4E0,5.891671E6,2.68998E5,3.1966E4,6.587E3,8.69E2,6.2E1,1E0,6.77E2,8E0,6E0,5E0,8.5E1,1E0,3E0],"tree_param":{"num_deleted":"0","num_feature":"23","num_nodes":"29","size_leaf_vector":"1"}},{"base_weights":[1.3294654E-4,-6.6853412E-3,1.3237206E2,-1.4874667E-2,2.4087696E1,9.455401E1,2.4524171E2,-4.8739843E-2,3.0553277E0,1.3197825E1,4.0152756E1,2.8069372E1,1.11737076E2,7.614517E1,2.9325223E2,-1.4687462E-3,4.309985E0,7.1195856E-2,2.0754907E-1,3.574391E-1,1.9925628E0,1.0160296E0,1.9027128E0,1.6613714E0,2.4910203E-1,1.2421486E1,3.1209743E0,1.2836298E0,5.373233E0,5.1117263E0,1.0419339E1],"categories":[],"categories_nodes":[],"categories_segments":[],"categories_sizes":[],"default_left":[0,0,0,0,0,0,0,0,0,0,0,0,0,0,0,0,0,0,0,0,0,0,0,0,0,0,0,0,0,0,0],"id":25,"left_children":[1,3,5,7,9,11,13,15,17,19,21,23,25,27,29,-1,-1,-1,-1,-1,-1,-1,-1,-1,-1,-1,-1,-1,-1,-1,-1],"loss_changes":[5.595407E6,1.2232132E6,1.3325305E6,6.443341E5,3.6779588E5,2.7155875E5,6.145665E5,1.9236562E5,1.7813581E5,8.4825516E4,1.21545625E5,2.7095172E4,3.890195E5,5.626661E4,3.29488E5,0E0,0E0,0E0,0E0,0E0,0E0,0E0,0E0,0E0,0E0,0E0,0E0,0E0,0E0,0E0,0E0],"parents":[2147483647,0,0,1,1,2,2,3,3,4,4,5,5,6,6,7,7,8,8,9,9,10,10,11,11,12,12,13,13,14,14],"right_children":[2,4,6,8,10,12,14,16,18,20,22,24,26,28,30,-1,-1,-1,-1,-1,-1,-1,-1,-1,-1,-1,-1,-1,-1,-1,-1],"split_conditions":[1.55E2,3.9E1,4.07E2,5E0,4E0,1.0913086E-1,5.9472656E-1,3.12E2,1.4E1,7.1E1,1.02E2,2.4E1,7.5E-1,2.13E2,6E0,-1.4687462E-3,4.309985E0,7.1195856E-2,2.0754907E-1,3.574391E-1,1.9925628E0,1.0160296E0,1.9027128E0,1.6613714E0,2.4910203E-1,1.2421486E1,3.1209743E0,1.2836298E0,5.373233E0,5.1117263E0,1.0419339E1],"split_indices":[17,17,17,17,19,12,9,19,17,4,17,4,12,19,1,0,0,0,0,0,0,0,0,0,0,0,0,0,0,0,0],"split_type":[0,0,0,0,0,0,0,0,0,0,0,0,0,0,0,0,0,0,0,0,0,0,0,0,0,0,0,0,0,0,0],"sum_hessian":[6.199552E6,6.199234E6,3.18E2,6.197129E6,2.105E3,2.4E2,7.8E1,6.12952E6,6.7609E4,1.256E3,8.49E2,5E1,1.9E2,1.8E1,6E1,6.129512E6,8E0,5.7464E4,1.0145E4,1.228E3,2.8E1,6.71E2,1.78E2,2E1,3E1,3E0,1.87E2,1.5E1,3E0,2E1,4E1],"tree_param":{"num_deleted":"0","num_feature":"23","num_nodes":"31","size_leaf_vector":"1"}},{"base_weights":[4.4291167E-4,-3.0248472E-3,1.8016582E2,-9.452783E-3,3.10883E1,8.948998E1,2.3545593E2,-3.419841E-2,2.923498E0,8.177027E0,5.4440865E1,3.5067562E1,1.3117172E2,2.7262787E2,8.362314E1,-3.0442104E-3,1.10062715E-2,7.1564935E-2,3.2473376E-1,1.8131576E-1,2.4337616E0,1.1407234E1,1.5630423E0,-3.496362E-1,1.2126399E0,4.383364E0,-9.1359764E-1,6.3443475E0,1.0401363E1,-8.999255E-3,4.932804E0],"categories":[],"categories_nodes":[],"categories_segments":[],"categories_sizes":[],"default_left":[0,0,0,0,0,0,0,0,0,0,0,0,0,0,0,0,0,0,0,0,0,0,0,0,0,0,0,0,0,0,0],"id":26,"left_children":[1,3,5,7,9,11,13,15,17,19,21,23,25,27,29,-1,-1,-1,-1,-1,-1,-1,-1,-1,-1,-1,-1,-1,-1,-1,-1],"loss_changes":[3.8729458E6,1.2388642E6,5.704955E5,4.4980728E5,6.849655E5,1.0128453E5,3.838265E5,1.658268E5,2.2037556E5,1.0024068E5,4.5744475E5,6.200424E3,6.938644E4,1.6785E5,1.1069297E5,0E0,0E0,0E0,0E0,0E0,0E0,0E0,0E0,0E0,0E0,0E0,0E0,0E0,0E0,0E0,0E0],"parents":[2147483647,0,0,1,1,2,2,3,3,4,4,5,5,6,6,7,7,8,8,9,9,10,10,11,11,12,12,13,13,14,14],"right_children":[2,4,6,8,10,12,14,16,18,20,22,24,26,28,30,-1,-1,-1,-1,-1,-1,-1,-1,-1,-1,-1,-1,-1,-1,-1,-1],"split_conditions":[3E2,5.7E1,6.352539E-1,6E0,4E0,4.2822266E-1,2.5E1,4.753418E-1,5.2539062E0,7.1E1,9E0,2.2302246E-1,6.2109375E-1,9.711914E-1,2.7E1,-3.0442104E-3,1.10062715E-2,7.1564935E-2,3.2473376E-1,1.8131576E-1,2.4337616E0,1.1407234E1,1.5630423E0,-3.496362E-1,1.2126399E0,4.383364E0,-9.1359764E-1,6.3443475E0,1.0401363E1,-8.999255E-3,4.932804E0],"split_indices":[18,18,10,18,16,10,0,14,14,4,4,12,10,10,0,0,0,0,0,0,0,0,0,0,0,0,0,0,0,0,0],"split_type":[0,0,0,0,0,0,0,0,0,0,0,0,0,0,0,0,0,0,0,0,0,0,0,0,0,0,0,0,0,0,0],"sum_hessian":[6.198991E6,6.198873E6,1.18E2,6.197593E6,1.28E3,4.6E1,7.2E1,6.145742E6,5.1851E4,6.47E2,6.33E2,2.1E1,2.5E1,5.7E1,1.5E1,5.262948E6,8.82794E5,4.8547E4,3.304E3,6.3E2,1.7E1,3E0,6.3E2,2E0,1.9E1,2.3E1,2E0,3.4E1,2.3E1,8E0,7E0],"tree_param":{"num_deleted":"0","num_feature":"23","num_nodes":"31","size_leaf_vector":"1"}},{"base_weights":[7.443883E-4,-3.186024E-3,1.855745E2,-7.6435544E-3,4.81972E1,6.4004005E1,2.3602383E2,-3.3093918E-2,2.9775474E0,1.244468E1,6.805234E1,1.7034431E1,8.814333E1,2.394259E2,-9.6767986E-1,-2.3520966E-3,2.3227049E-2,6.941546E-2,3.6613777E-1,2.4365579E-1,1.8641092E0,4.488374E0,1.8615222E0,7.272432E-1,-7.5655185E-2,3.0624316E0,6.8257076E-1,5.9100485E0,8.473127E0],"categories":[],"categories_nodes":[],"categories_segments":[],"categories_sizes":[],"default_left":[0,0,0,0,0,0,0,0,0,0,0,0,0,0,0,0,0,0,0,0,0,0,0,0,0,0,0,0,0],"id":27,"left_children":[1,3,5,7,9,11,13,15,17,19,21,23,25,27,-1,-1,-1,-1,-1,-1,-1,-1,-1,-1,-1,-1,-1,-1,-1],"loss_changes":[4.5222275E6,1.3320901E6,7.85521E5,4.709933E5,4.0586638E5,4.3735734E4,9.44015E4,2.2485353E5,3.2089797E5,4.3655445E4,1.6809012E5,2.2386611E3,2.093114E4,9.35275E4,0E0,0E0,0E0,0E0,0E0,0E0,0E0,0E0,0E0,0E0,0E0,0E0,0E0,0E0,0E0],"parents":[2147483647,0,0,1,1,2,2,3,3,4,4,5,5,6,6,7,7,8,8,9,9,10,10,11,11,12,12,13,13],"right_children":[2,4,6,8,10,12,14,16,18,20,22,24,26,28,-1,-1,-1,-1,-1,-1,-1,-1,-1,-1,-1,-1,-1,-1,-1],"split_conditions":[2.83E2,9.3E1,5.932617E-1,6E0,1.0974E4,2.1054688E0,2.2148438E0,1E0,5.2539062E0,1.2E2,1.1416E4,7.983E3,4.67E2,9.711914E-1,-9.6767986E-1,-2.3520966E-3,2.3227049E-2,6.941546E-2,3.6613777E-1,2.4365579E-1,1.8641092E0,4.488374E0,1.8615222E0,7.272432E-1,-7.5655185E-2,3.0624316E0,6.8257076E-1,5.9100485E0,8.473127E0],"split_indices":[18,19,10,18,3,7,10,5,14,18,3,3,18,10,0,0,0,0,0,0,0,0,0,0,0,0,0,0,0],"split_type":[0,0,0,0,0,0,0,0,0,0,0,0,0,0,0,0,0,0,0,0,0,0,0,0,0,0,0,0,0],"sum_hessian":[6.200084E6,6.199954E6,1.3E2,6.199382E6,5.72E2,3.9E1,9.1E1,6.146977E6,5.2405E4,2.05E2,3.67E2,1.4E1,2.5E1,9E1,1E0,5.820327E6,3.2665E5,4.889E4,3.515E3,1.9E2,1.5E1,2.3E1,3.44E2,1E1,4E0,2E1,5E0,4.9E1,4.1E1],"tree_param":{"num_deleted":"0","num_feature":"23","num_nodes":"29","size_leaf_vector":"1"}},{"base_weights":[1.6543732E-4,-6.284191E-3,1.13833824E2,-1.64025E-2,1.7699972E1,9.474335E1,2.9232803E2,-5.216156E-2,2.2421095E0,1.2621335E1,3.4606117E1,5.6183556E1,1.2405892E2,1.7234915E2,1.3073084E1,-1.5715681E-3,3.6228175E0,5.363335E-2,1.5853329E-1,3.209805E-1,8.48096E-1,1.3791885E1,1.0003643E0,2.010017E0,2.4629375E-1,1.3944579E0,4.8962674E0,6.734395E0,-9.09243E-1],"categories":[],"categories_nodes":[],"categories_segments":[],"categories_sizes":[],"default_left":[0,0,0,0,0,0,0,0,0,0,0,0,0,0,0,0,0,0,0,0,0,0,0,0,0,0,0,0,0],"id":28,"left_children":[1,3,5,7,9,11,13,15,17,19,21,23,25,27,-1,-1,-1,-1,-1,-1,-1,-1,-1,-1,-1,-1,-1,-1,-1],"loss_changes":[4.5526175E6,1.110877E6,1.160731E6,5.004858E5,3.0348412E5,3.5179625E5,4.74661E5,1.651322E5,1.3349456E5,8.156978E4,4.178823E5,7.209072E4,5.3767175E5,2.2354556E5,0E0,0E0,0E0,0E0,0E0,0E0,0E0,0E0,0E0,0E0,0E0,0E0,0E0,0E0,0E0],"parents":[2147483647,0,0,1,1,2,2,3,3,4,4,5,5,6,6,7,7,8,8,9,9,10,10,11,11,12,12,13,13],"right_children":[2,4,6,8,10,12,14,16,18,20,22,24,26,28,-1,-1,-1,-1,-1,-1,-1,-1,-1,-1,-1,-1,-1,-1,-1],"split_conditions":[1.45E2,2.9E1,6.29E2,4E0,5.3359375E0,3.0688477E-1,1.1220703E0,3.12E2,1.2E1,7.8E1,-7.1875E-1,2.4E1,5E0,9.41E2,1.3073084E1,-1.5715681E-3,3.6228175E0,5.363335E-2,1.5853329E-1,3.209805E-1,8.48096E-1,1.3791885E1,1.0003643E0,2.010017E0,2.4629375E-1,1.3944579E0,4.8962674E0,6.734395E0,-9.09243E-1],"split_indices":[17,17,17,17,16,9,9,19,17,17,20,0,1,17,0,0,0,0,0,0,0,0,0,0,0,0,0,0,0],"split_type":[0,0,0,0,0,0,0,0,0,0,0,0,0,0,0,0,0,0,0,0,0,0,0,0,0,0,0,0,0],"sum_hessian":[6.200912E6,6.200562E6,3.5E2,6.197022E6,3.54E3,3.18E2,3.2E1,6.100435E6,9.6587E4,2.724E3,8.16E2,1.39E2,1.79E2,1.9E1,1.3E1,6.100425E6,1E1,8.4039E4,1.2548E4,2.428E3,2.96E2,1E0,8.15E2,1.13E2,2.6E1,6.1E1,1.18E2,1.5E1,4E0],"tree_param":{"num_deleted":"0","num_feature":"23","num_nodes":"29","size_leaf_vector":"1"}},{"base_weights":[6.0669692E-5,-3.7141785E-3,2.3335863E2,-9.277369E-3,5.1076866E1,2.4186058E1,2.669181E2,-2.8134072E-2,6.401444E0,3.4684074E1,7.531863E1,4.167218E1,-1.9024122E1,2.2632324E2,1.4015102E1,-1.7675791E-3,3.8874533E-2,1.4999485E-1,4.4986668E-1,3.6474615E-1,1.3001183E0,1.7197127E0,3.248742E0,1.7268593E0,-4.928526E-2,-1.21403486E-1,-1.0843859E0,4.3693643E0,7.9733887E0],"categories":[],"categories_nodes":[],"categories_segments":[],"categories_sizes":[],"default_left":[0,0,0,0,0,0,0,0,0,0,0,0,0,0,0,0,0,0,0,0,0,0,0,0,0,0,0,0,0],"id":29,"left_children":[1,3,5,7,9,11,13,15,17,19,21,23,25,27,-1,-1,-1,-1,-1,-1,-1,-1,-1,-1,-1,-1,-1,-1,-1],"loss_changes":[5.462794E6,1.762238E6,6.95693E5,7.4956644E5,2.6493112E5,1.2612203E4,5.627605E5,2.5198622E5,2.1895531E5,7.831197E4,1.5282625E5,7.911092E3,1.1705012E3,1.8570575E5,0E0,0E0,0E0,0E0,0E0,0E0,0E0,0E0,0E0,0E0,0E0,0E0,0E0,0E0,0E0],"parents":[2147483647,0,0,1,1,2,2,3,3,4,4,5,5,6,6,7,7,8,8,9,9,10,10,11,11,12,12,13,13],"right_children":[2,4,6,8,10,12,14,16,18,20,22,24,26,28,-1,-1,-1,-1,-1,-1,-1,-1,-1,-1,-1,-1,-1,-1,-1],"split_conditions":[3.41E2,8.6E1,2.5E0,1.1E1,2.6464844E-1,5.5E2,1.2E1,3E0,3.2E1,6E0,9E0,1.1373E4,1.9226074E-2,5E0,1.4015102E1,-1.7675791E-3,3.8874533E-2,1.4999485E-1,4.4986668E-1,3.6474615E-1,1.3001183E0,1.7197127E0,3.248742E0,1.7268593E0,-4.928526E-2,-1.21403486E-1,-1.0843859E0,4.3693643E0,7.9733887E0],"split_indices":[17,17,6,17,10,17,1,17,17,1,1,3,6,1,0,0,0,0,0,0,0,0,0,0,0,0,0,0,0],"split_type":[0,0,0,0,0,0,0,0,0,0,0,0,0,0,0,0,0,0,0,0,0,0,0,0,0,0,0,0,0],"sum_hessian":[6.201424E6,6.201325E6,9.9E1,6.200651E6,6.74E2,1.4E1,8.5E1,6.182467E6,1.8184E4,4.04E2,2.7E2,1E1,4E0,7.3E1,1.2E1,6.041977E6,1.4049E5,1.5636E4,2.548E3,1.13E2,2.91E2,1.77E2,9.3E1,7E0,3E0,3E0,1E0,2.6E1,4.7E1],"tree_param":{"num_deleted":"0","num_feature":"23","num_nodes":"29","size_leaf_vector":"1"}},{"base_weights":[7.307249E-4,-3.0694697E-3,2.2376009E2,-1.0740266E-2,3.558455E1,6.408432E0,2.4398303E2,-3.2298416E-2,4.296357E0,2.6330538E1,7.46306E1,2.4345217E1,-1.0020857E1,1.7774176E2,3.196469E2,-9.755249E-4,4.3522515E0,9.7417176E-2,2.5677568E-1,5.017531E-1,1.2565756E0,6.4500546E-1,2.652286E0,1.0056179E0,-1.9753636E-1,5.014347E-2,-3.7903476E-1,-6.414486E-1,5.8239174E0,2.3278732E0,1.0250448E1],"categories":[],"categories_nodes":[],"categories_segments":[],"categories_sizes":[],"default_left":[0,0,0,0,0,0,0,0,0,0,0,0,0,0,0,0,0,0,0,0,0,0,0,0,0,0,0,0,0,0,0],"id":30,"left_children":[1,3,5,7,9,11,13,15,17,19,21,23,25,27,29,-1,-1,-1,-1,-1,-1,-1,-1,-1,-1,-1,-1,-1,-1,-1,-1],"loss_changes":[5.272963E6,1.6927774E6,4.608505E5,5.756562E5,4.8027212E5,3.3598306E3,4.08093E5,1.9611131E5,1.38049E5,1.6079419E5,1.8441312E5,1.7979534E3,2.2068652E2,1.8270025E5,1.961835E5,0E0,0E0,0E0,0E0,0E0,0E0,0E0,0E0,0E0,0E0,0E0,0E0,0E0,0E0,0E0,0E0],"parents":[2147483647,0,0,1,1,2,2,3,3,4,4,5,5,6,6,7,7,8,8,9,9,10,10,11,11,12,12,13,13,14,14],"right_children":[2,4,6,8,10,12,14,16,18,20,22,24,26,28,30,-1,-1,-1,-1,-1,-1,-1,-1,-1,-1,-1,-1,-1,-1,-1,-1],"split_conditions":[3.47E2,5.7E1,1.13342285E-1,8E0,1.42E2,5.68E2,5.88E2,3.12E2,1.9E1,7E1,7.812E3,8.510742E-1,3.039E3,2.5E1,-1.9091797E-1,-9.755249E-4,4.3522515E0,9.7417176E-2,2.5677568E-1,5.017531E-1,1.2565756E0,6.4500546E-1,2.652286E0,1.0056179E0,-1.9753636E-1,5.014347E-2,-3.7903476E-1,-6.414486E-1,5.8239174E0,2.3278732E0,1.0250448E1],"split_indices":[17,17,12,17,17,17,17,19,17,4,3,8,3,2,20,0,0,0,0,0,0,0,0,0,0,0,0,0,0,0,0],"split_type":[0,0,0,0,0,0,0,0,0,0,0,0,0,0,0,0,0,0,0,0,0,0,0,0,0,0,0,0,0,0,0],"sum_hessian":[6.201083E6,6.200979E6,1.04E2,6.199644E6,1.335E3,9E0,9.5E1,6.168769E6,3.0875E4,1.081E3,2.54E2,4E0,5E0,5.3E1,4.2E1,6.168761E6,8E0,2.4779E4,6.096E3,6.7E2,4.11E2,5.3E1,2.01E2,3E0,1E0,1E0,4E0,4E0,4.9E1,4E0,3.8E1],"tree_param":{"num_deleted":"0","num_feature":"23","num_nodes":"31","size_leaf_vector":"1"}},{"base_weights":[1.06202686E-4,-3.4081587E-3,2.1935968E2,-8.625589E-3,5.57245E1,2.5901718E2,1.0236293E2,-2.5394382E-2,6.5855627E0,3.5809288E1,7.968814E1,1.9673245E2,3.8151093E2,1.3451703E1,1.526953E2,-1.684302E-3,3.832271E-2,1.5349741E-1,4.7987345E-1,6.2244785E-1,1.5062798E0,2.2236652E0,6.6128483E0,5.844623E-1,6.589122E0,8.433419E0,1.4167494E1,-2.0677055E-1,1.4569088E0,5.476011E0,-1.3719879E0],"categories":[],"categories_nodes":[],"categories_segments":[],"categories_sizes":[],"default_left":[0,0,0,0,0,0,0,0,0,0,0,0,0,0,0,0,0,0,0,0,0,0,0,0,0,0,0,0,0,0,0],"id":31,"left_children":[1,3,5,7,9,11,13,15,17,19,21,23,25,27,29,-1,-1,-1,-1,-1,-1,-1,-1,-1,-1,-1,-1,-1,-1,-1,-1],"loss_changes":[4.7789155E6,1.8023908E6,4.259645E5,6.853969E5,2.7320062E5,4.607445E5,1.1953359E5,2.4768012E5,2.17229E5,6.788397E4,1.8402038E5,2.0270775E5,3.7982E4,8.521329E3,1.1347741E5,0E0,0E0,0E0,0E0,0E0,0E0,0E0,0E0,0E0,0E0,0E0,0E0,0E0,0E0,0E0,0E0],"parents":[2147483647,0,0,1,1,2,2,3,3,4,4,5,5,6,6,7,7,8,8,9,9,10,10,11,11,12,12,13,13,14,14],"right_children":[2,4,6,8,10,12,14,16,18,20,22,24,26,28,30,-1,-1,-1,-1,-1,-1,-1,-1,-1,-1,-1,-1,-1,-1,-1,-1],"split_conditions":[3.74E2,9.4E1,2.4E1,1.2E1,2.6416016E-1,9.8779297E-1,5.9472656E-1,3E0,3.6E1,1.03E4,3.2E1,3.2910156E0,7.63E2,1.54E2,8.99E2,-1.684302E-3,3.832271E-2,1.5349741E-1,4.7987345E-1,6.2244785E-1,1.5062798E0,2.2236652E0,6.6128483E0,5.844623E-1,6.589122E0,8.433419E0,1.4167494E1,-2.0677055E-1,1.4569088E0,5.476011E0,-1.3719879E0],"split_indices":[17,17,0,17,10,9,9,17,17,3,0,15,17,19,18,0,0,0,0,0,0,0,0,0,0,0,0,0,0,0,0],"split_type":[0,0,0,0,0,0,0,0,0,0,0,0,0,0,0,0,0,0,0,0,0,0,0,0,0,0,0,0,0,0,0],"sum_hessian":[6.199065E6,6.198967E6,9.8E1,6.198388E6,5.79E2,7.2E1,2.6E1,6.182667E6,1.5721E4,3.18E2,2.61E2,5E1,2.2E1,1E1,1.6E1,6.04011E6,1.42557E5,1.36E4,2.121E3,1.57E2,1.61E2,2.53E2,8E0,6E0,4.4E1,1.3E1,9E0,7E0,3E0,1.4E1,2E0],"tree_param":{"num_deleted":"0","num_feature":"23","num_nodes":"31","size_leaf_vector":"1"}},{"base_weights":[-8.0039026E-4,-4.0074578E-3,1.834442E2,-8.897458E-3,4.492026E1,1.5001183E2,3.8923065E2,-2.5706349E-2,5.719897E0,1.7707842E1,5.734855E1,1.8943306E1,1.80205E2,3.2336304E0,1.2703294E1,-7.789676E-4,4.6569395E0,1.3791145E-1,4.2876917E-1,8.359306E-1,1.4249553E-1,9.013641E-1,2.1418388E0,8.075811E-1,-9.072171E-1,7.4503975E0,4.302313E0],"categories":[],"categories_nodes":[],"categories_segments":[],"categories_sizes":[],"default_left":[0,0,0,0,0,0,0,0,0,0,0,0,0,0,0,0,0,0,0,0,0,0,0,0,0,0,0],"id":32,"left_children":[1,3,5,7,9,11,13,15,17,19,21,23,25,-1,-1,-1,-1,-1,-1,-1,-1,-1,-1,-1,-1,-1,-1],"loss_changes":[3.6450442E6,1.3610412E6,6.6848325E5,5.965357E5,2.267215E5,3.7270775E5,7.78645E4,2.4861E5,1.7435994E5,2.7899914E4,1.7447988E5,8.646097E3,1.4705525E5,0E0,0E0,0E0,0E0,0E0,0E0,0E0,0E0,0E0,0E0,0E0,0E0,0E0,0E0],"parents":[2147483647,0,0,1,1,2,2,3,3,4,4,5,5,6,6,7,7,8,8,9,9,10,10,11,11,12,12],"right_children":[2,4,6,8,10,12,14,16,18,20,22,24,26,-1,-1,-1,-1,-1,-1,-1,-1,-1,-1,-1,-1,-1,-1],"split_conditions":[3.02E2,8.3E1,1.2E1,1.1E1,5.2539062E0,3.7246094E0,3.09E2,2.38E2,3.5E1,1.2E1,6E0,5.0664062E0,1.5E1,3.2336304E0,1.2703294E1,-7.789676E-4,4.6569395E0,1.3791145E-1,4.2876917E-1,8.359306E-1,1.4249553E-1,9.013641E-1,2.1418388E0,8.075811E-1,-9.072171E-1,7.4503975E0,4.302313E0],"split_indices":[17,17,1,17,14,11,17,19,17,0,1,7,0,0,0,0,0,0,0,0,0,0,0,0,0,0,0],"split_type":[0,0,0,0,0,0,0,0,0,0,0,0,0,0,0,0,0,0,0,0,0,0,0,0,0,0,0],"sum_hessian":[6.195675E6,6.195568E6,1.07E2,6.194895E6,6.73E2,9.4E1,1.3E1,6.176773E6,1.8122E4,2.12E2,4.61E2,1.8E1,7.6E1,2E0,1.1E1,6.176764E6,9E0,1.6025E4,2.097E3,1.18E2,9.4E1,1.58E2,3.03E2,1.6E1,2E0,2.4E1,5.2E1],"tree_param":{"num_deleted":"0","num_feature":"23","num_nodes":"27","size_leaf_vector":"1"}},{"base_weights":[2.3792064E-4,-3.3613301E-3,1.78035E2,-1.0724738E-2,2.8439194E1,1.3020708E2,2.746353E2,-4.5835182E-2,2.1523173E0,1.603075E1,4.5005802E1,3.202107E1,1.5546234E2,-8.229743E-1,2.8323553E2,-2.863893E-3,8.921034E-3,5.2388478E-2,1.9546868E-1,3.7874535E-1,2.2734575E0,1.2450357E1,1.2611284E0,-4.442848E-1,2.0056467E0,2.5294583E0,5.540987E0,9.340439E0,4.4630294E0],"categories":[],"categories_nodes":[],"categories_segments":[],"categories_sizes":[],"default_left":[0,0,0,0,0,0,0,0,0,0,0,0,0,0,0,0,0,0,0,0,0,0,0,0,0,0,0,0,0],"id":33,"left_children":[1,3,5,7,9,11,13,15,17,19,21,23,25,-1,27,-1,-1,-1,-1,-1,-1,-1,-1,-1,-1,-1,-1,-1,-1],"loss_changes":[3.9720712E6,1.298192E6,5.319955E5,4.7063088E5,3.2884425E5,2.074935E5,1.1493625E5,1.0386366E5,1.753474E5,1.8582975E5,7.308226E5,3.280692E4,1.21643625E5,0E0,8.776475E4,0E0,0E0,0E0,0E0,0E0,0E0,0E0,0E0,0E0,0E0,0E0,0E0,0E0,0E0],"parents":[2147483647,0,0,1,1,2,2,3,3,4,4,5,5,6,6,7,7,8,8,9,9,10,10,11,11,12,12,14,14],"right_children":[2,4,6,8,10,12,14,16,18,20,22,24,26,-1,28,-1,-1,-1,-1,-1,-1,-1,-1,-1,-1,-1,-1,-1,-1],"split_conditions":[3.02E2,5E1,9.1259766E-1,4E0,3.3046875E0,3.2910156E0,9E0,1E0,1.6E1,7.1E1,9E0,6.723633E-1,5E0,-8.229743E-1,2.4E1,-2.863893E-3,8.921034E-3,5.2388478E-2,1.9546868E-1,3.7874535E-1,2.2734575E0,1.2450357E1,1.2611284E0,-4.442848E-1,2.0056467E0,2.5294583E0,5.540987E0,9.340439E0,4.4630294E0],"split_indices":[17,17,10,17,16,15,4,17,17,4,4,8,1,0,0,0,0,0,0,0,0,0,0,0,0,0,0,0,0],"split_type":[0,0,0,0,0,0,0,0,0,0,0,0,0,0,0,0,0,0,0,0,0,0,0,0,0,0,0,0,0],"sum_hessian":[6.19869E6,6.198566E6,1.24E2,6.196963E6,1.603E3,8.5E1,3.9E1,6.097982E6,9.8981E4,9.18E2,6.85E2,1.8E1,6.7E1,1E0,3.8E1,5.3276E6,7.70382E5,9.0556E4,8.425E3,8.7E2,4.8E1,4E0,6.81E2,8E0,1E1,2.1E1,4.6E1,3E1,8E0],"tree_param":{"num_deleted":"0","num_feature":"23","num_nodes":"29","size_leaf_vector":"1"}},{"base_weights":[-2.1307902E-7,-4.7241277E-3,1.2288062E2,-1.2214492E-2,2.054902E1,9.870227E1,2.4964853E2,-4.5132883E-2,2.041618E0,1.2156652E1,3.6393562E1,2.9579353E1,1.1766809E2,2.707713E2,5.597177E0,-1.3605745E-3,4.3130703E0,4.9319033E-2,1.6586791E-1,2.7264583E-1,7.603189E-1,1.34534E0,6.004794E-1,1.9948567E0,3.085497E-1,9.924483E0,3.148061E0,8.727717E0,1.2605819E0,-1.3673778E-1,5.088993E-1],"categories":[],"categories_nodes":[],"categories_segments":[],"categories_sizes":[],"default_left":[0,0,0,0,0,0,0,0,0,0,0,0,0,0,0,0,0,0,0,0,0,0,0,0,0,0,0,0,0,0,0],"id":34,"left_children":[1,3,5,7,9,11,13,15,17,19,21,23,25,27,29,-1,-1,-1,-1,-1,-1,-1,-1,-1,-1,-1,-1,-1,-1,-1,-1],"loss_changes":[3.5985915E6,9.5438694E5,6.9806975E5,4.189633E5,2.997142E5,2.6065538E5,1.90363E5,1.9263139E5,1.3554838E5,5.951692E4,1.06961375E5,3.137707E4,3.840515E5,1.42125E5,5.994813E2,0E0,0E0,0E0,0E0,0E0,0E0,0E0,0E0,0E0,0E0,0E0,0E0,0E0,0E0,0E0,0E0],"parents":[2147483647,0,0,1,1,2,2,3,3,4,4,5,5,6,6,7,7,8,8,9,9,10,10,11,11,12,12,13,13,14,14],"right_children":[2,4,6,8,10,12,14,16,18,20,22,24,26,28,30,-1,-1,-1,-1,-1,-1,-1,-1,-1,-1,-1,-1,-1,-1,-1,-1],"split_conditions":[1.86E2,3.9E1,6.29E2,4E0,2.8632812E0,1.5595703E0,2.5E1,2.55E2,1.4E1,8.1E1,2.4E1,1E1,5.78125E-1,1.066E3,2.9E1,-1.3605745E-3,4.3130703E0,4.9319033E-2,1.6586791E-1,2.7264583E-1,7.603189E-1,1.34534E0,6.004794E-1,1.9948567E0,3.085497E-1,9.924483E0,3.148061E0,8.727717E0,1.2605819E0,-1.3673778E-1,5.088993E-1],"split_indices":[17,17,17,17,16,6,0,19,17,17,0,0,13,17,0,0,0,0,0,0,0,0,0,0,0,0,0,0,0,0,0],"split_type":[0,0,0,0,0,0,0,0,0,0,0,0,0,0,0,0,0,0,0,0,0,0,0,0,0,0,0,0,0,0,0],"sum_hessian":[6.199361E6,6.199124E6,2.37E2,6.196867E6,2.257E3,2.01E2,3.6E1,6.099113E6,9.7754E4,1.477E3,7.8E2,4.4E1,1.57E2,3.3E1,3E0,6.099105E6,8E0,8.775E4,1.0004E4,1.2E3,2.77E2,5.13E2,2.67E2,1.4E1,3E1,7E0,1.5E2,3E1,3E0,2E0,1E0],"tree_param":{"num_deleted":"0","num_feature":"23","num_nodes":"31","size_leaf_vector":"1"}},{"base_weights":[9.84647E-4,-2.05394E-3,1.6924426E2,-5.1130033E-3,4.883699E1,2.1298856E2,3.7331997E1,-2.1253075E-2,3.7189002E0,2.4961977E1,7.299912E1,9.393625E1,2.5634183E2,8.127253E1,-5.3967697E1,-1.8004673E-3,2.5294263E-2,8.3255604E-2,4.3332705E-1,2.2291699E-1,1.6740092E0,6.186901E0,1.8788993E0,-3.4289923E-2,3.558853E0,6.2877655E0,1.0239825E1,4.059978E-1,3.0668619E0,-2.0906768E0,1.198826E0],"categories":[],"categories_nodes":[],"categories_segments":[],"categories_sizes":[],"default_left":[0,0,0,0,0,0,0,0,0,0,0,0,0,0,0,0,0,0,0,0,0,0,0,0,0,0,0,0,0,0,0],"id":35,"left_children":[1,3,5,7,9,11,13,15,17,19,21,23,25,27,29,-1,-1,-1,-1,-1,-1,-1,-1,-1,-1,-1,-1,-1,-1,-1,-1],"loss_changes":[3.1884482E6,9.262843E5,6.3188E5,3.726303E5,2.2161319E5,3.983735E5,1.2336162E5,2.0682716E5,2.7073478E5,1.0613087E5,2.4871138E5,5.7259797E4,1.4564625E5,2.7019E4,1.888878E4,0E0,0E0,0E0,0E0,0E0,0E0,0E0,0E0,0E0,0E0,0E0,0E0,0E0,0E0,0E0,0E0],"parents":[2147483647,0,0,1,1,2,2,3,3,4,4,5,5,6,6,7,7,8,8,9,9,10,10,11,11,12,12,13,13,14,14],"right_children":[2,4,6,8,10,12,14,16,18,20,22,24,26,28,30,-1,-1,-1,-1,-1,-1,-1,-1,-1,-1,-1,-1,-1,-1,-1,-1],"split_conditions":[3.12E2,1.2E2,2.5E1,9E0,1.06E2,6.8115234E-1,4.77E2,1.2441406E0,7.1E1,1.8628E4,1.5458984E0,1E0,1.1757812E0,1.9226074E-2,2.7E1,-1.8004673E-3,2.5294263E-2,8.3255604E-2,4.3332705E-1,2.2291699E-1,1.6740092E0,6.186901E0,1.8788993E0,-3.4289923E-2,3.558853E0,6.2877655E0,1.0239825E1,4.059978E-1,3.0668619E0,-2.0906768E0,1.198826E0],"split_indices":[18,19,0,18,18,8,19,5,4,3,13,19,8,7,0,0,0,0,0,0,0,0,0,0,0,0,0,0,0,0,0],"split_type":[0,0,0,0,0,0,0,0,0,0,0,0,0,0,0,0,0,0,0,0,0,0,0,0,0,0,0,0,0,0,0],"sum_hessian":[6.200063E6,6.199953E6,1.1E2,6.199566E6,3.87E2,8.2E1,2.8E1,6.172814E6,2.6752E4,1.96E2,1.91E2,2.3E1,5.9E1,1.9E1,9E0,5.907885E6,2.64929E5,2.459E4,2.162E3,1.26E2,7E1,1.2E1,1.79E2,5E0,1.8E1,4.1E1,1.8E1,5E0,1.4E1,8E0,1E0],"tree_param":{"num_deleted":"0","num_feature":"23","num_nodes":"31","size_leaf_vector":"1"}},{"base_weights":[2.5660984E-4,-4.6231695E-3,1.2088508E2,-1.1632835E-2,1.9591545E1,9.335942E1,2.2524231E2,-4.3427985E-2,1.9639889E0,1.150779E1,3.500088E1,4.863345E1,1.2381776E2,2.5414272E2,5.724675E0,-2.7306231E-3,8.561159E-3,4.7539815E-2,1.5758517E-1,2.9281947E-1,1.8647718E0,6.91975E0,1.0148634E0,7.3209244E-1,2.5211422E0,1.2373978E1,3.2693217E0,8.053543E0,1.0916785E0,1.5117909E0,-1.2206129E0],"categories":[],"categories_nodes":[],"categories_segments":[],"categories_sizes":[],"default_left":[0,0,0,0,0,0,0,0,0,0,0,0,0,0,0,0,0,0,0,0,0,0,0,0,0,0,0,0,0,0,0],"id":36,"left_children":[1,3,5,7,9,11,13,15,17,19,21,23,25,27,29,-1,-1,-1,-1,-1,-1,-1,-1,-1,-1,-1,-1,-1,-1,-1,-1],"loss_changes":[3.658017E6,8.517748E5,6.914005E5,3.8937294E5,2.756712E5,2.6497225E5,3.2363075E5,9.546416E4,1.2247431E5,1.28079266E5,1.6457081E5,6.877794E4,4.47763E5,1.2835375E5,1.7855924E4,0E0,0E0,0E0,0E0,0E0,0E0,0E0,0E0,0E0,0E0,0E0,0E0,0E0,0E0,0E0,0E0],"parents":[2147483647,0,0,1,1,2,2,3,3,4,4,5,5,6,6,7,7,8,8,9,9,10,10,11,11,12,12,13,13,14,14],"right_children":[2,4,6,8,10,12,14,16,18,20,22,24,26,28,30,-1,-1,-1,-1,-1,-1,-1,-1,-1,-1,-1,-1,-1,-1,-1,-1],"split_conditions":[1.82E2,3.9E1,5.4E2,4E0,2.8632812E0,3.0688477E-1,2.5E1,1E0,1.4E1,7.1E1,7.8271484E-1,1.9465E4,3.1347656E-1,1.066E3,9.3896484E-1,-2.7306231E-3,8.561159E-3,4.7539815E-2,1.5758517E-1,2.9281947E-1,1.8647718E0,6.91975E0,1.0148634E0,7.3209244E-1,2.5211422E0,1.2373978E1,3.2693217E0,8.053543E0,1.0916785E0,1.5117909E0,-1.2206129E0],"split_indices":[17,17,17,17,16,9,0,17,17,4,5,3,9,17,8,0,0,0,0,0,0,0,0,0,0,0,0,0,0,0,0],"split_type":[0,0,0,0,0,0,0,0,0,0,0,0,0,0,0,0,0,0,0,0,0,0,0,0,0,0,0,0,0,0,0],"sum_hessian":[6.201169E6,6.20092E6,2.49E2,6.198704E6,2.216E3,1.99E2,5E1,6.100525E6,9.8179E4,1.455E3,7.61E2,8.2E1,1.17E2,4.4E1,6E0,5.329148E6,7.71377E5,8.8028E4,1.0151E4,1.408E3,4.7E1,3E0,7.58E2,5E1,3.2E1,4E0,1.13E2,4.1E1,3E0,3E0,3E0],"tree_param":{"num_deleted":"0","num_feature":"23","num_nodes":"31","size_leaf_vector":"1"}},{"base_weights":[-6.7702006E-4,-3.6251936E-3,1.11862816E2,-6.5197134E-3,2.8585835E1,1.4712106E2,3.1139774E1,-5.3779088E-2,1.0570604E0,7.800848E0,4.178987E1,1.0922063E2,2.7995358E2,-2.816771E1,6.715688E1,-2.8476594E-3,5.7767173E-3,1.8914884E-2,8.2723975E-2,1.2084997E0,1.5451339E-1,5.1642103E0,1.141547E0,-1.7279194E-1,3.6146219E0,6.049336E-1,9.894148E0,1.0743718E0,-2.2066545E0,1.54512E-1,3.826686E0],"categories":[],"categories_nodes":[],"categories_segments":[],"categories_sizes":[],"default_left":[0,0,0,0,0,0,0,0,0,0,0,0,0,0,0,0,0,0,0,0,0,0,0,0,0,0,0,0,0,0,0],"id":37,"left_children":[1,3,5,7,9,11,13,15,17,19,21,23,25,27,29,-1,-1,-1,-1,-1,-1,-1,-1,-1,-1,-1,-1,-1,-1,-1,-1],"loss_changes":[2.0436701E6,5.127913E5,4.5879725E5,3.1143856E5,1.7173531E5,5.3029875E5,1.12095516E5,6.0125195E4,1.9119772E5,2.084689E4,1.7817969E5,1.1790925E5,3.0614625E5,6.2449457E4,1.2015664E5,0E0,0E0,0E0,0E0,0E0,0E0,0E0,0E0,0E0,0E0,0E0,0E0,0E0,0E0,0E0,0E0],"parents":[2147483647,0,0,1,1,2,2,3,3,4,4,5,5,6,6,7,7,8,8,9,9,10,10,11,11,12,12,13,13,14,14],"right_children":[2,4,6,8,10,12,14,16,18,20,22,24,26,28,30,-1,-1,-1,-1,-1,-1,-1,-1,-1,-1,-1,-1,-1,-1,-1,-1],"split_conditions":[2.33E2,8.3E1,2.5E1,1.3330078E0,5.3320312E0,1.0693359E0,2.7E1,4.3652344E-1,1.3105469E0,-2.4414062E-3,-1.6748047E-1,2.5761719E0,1.2558594E0,7.495117E-1,2.1640625E0,-2.8476594E-3,5.7767173E-3,1.8914884E-2,8.2723975E-2,1.2084997E0,1.5451339E-1,5.1642103E0,1.141547E0,-1.7279194E-1,3.6146219E0,6.049336E-1,9.894148E0,1.0743718E0,-2.2066545E0,1.54512E-1,3.826686E0],"split_indices":[19,19,0,5,15,10,0,14,14,22,22,14,11,10,11,0,0,0,0,0,0,0,0,0,0,0,0,0,0,0,0],"split_type":[0,0,0,0,0,0,0,0,0,0,0,0,0,0,0,0,0,0,0,0,0,0,0,0,0,0,0,0,0,0,0],"sum_hessian":[6.196825E6,6.196663E6,1.62E2,6.196037E6,6.26E2,1.12E2,5E1,5.932435E6,2.63602E5,2.44E2,3.82E2,8.9E1,2.3E1,1.9E1,3.1E1,5.083409E6,8.49026E5,2.10738E5,5.2864E4,1.7E1,2.27E2,9E0,3.73E2,8E0,8.1E1,4E0,1.9E1,8E0,1.1E1,1.6E1,1.5E1],"tree_param":{"num_deleted":"0","num_feature":"23","num_nodes":"31","size_leaf_vector":"1"}},{"base_weights":[-5.3649454E-4,-2.545791E-3,1.4773718E2,-7.8795655E-3,2.1827692E1,1.9352415E2,4.287801E1,-5.1514678E-2,9.754024E-1,6.2067113E0,3.876415E1,1.2373305E2,2.9883737E2,8.091886E1,1.0711581E1,-1.6323234E-3,1.1967812E-1,1.3112581E-2,5.982017E-2,1.6517684E0,1.7031394E-1,3.8255408E0,1.020851E0,4.0471587E0,6.92979E-1,9.429669E0,2.5631392E0,-3.0859947E-1,3.3524282E0,1.1987725E0,-1.7913963E0],"categories":[],"categories_nodes":[],"categories_segments":[],"categories_sizes":[],"default_left":[0,0,0,0,0,0,0,0,0,0,0,0,0,0,0,0,0,0,0,0,0,0,0,0,0,0,0,0,0,0,0],"id":38,"left_children":[1,3,5,7,9,11,13,15,17,19,21,23,25,27,29,-1,-1,-1,-1,-1,-1,-1,-1,-1,-1,-1,-1,-1,-1,-1,-1],"loss_changes":[1.8402926E6,7.218366E5,3.9390462E5,2.659218E5,4.00317E5,3.800255E5,3.2283426E4,6.944864E4,1.4440416E5,2.000983E4,2.9958288E5,3.7858188E4,3.8455375E4,3.6133258E4,3.673682E4,0E0,0E0,0E0,0E0,0E0,0E0,0E0,0E0,0E0,0E0,0E0,0E0,0E0,0E0,0E0,0E0],"parents":[2147483647,0,0,1,1,2,2,3,3,4,4,5,5,6,6,7,7,8,8,9,9,10,10,11,11,12,12,13,13,14,14],"right_children":[2,4,6,8,10,12,14,16,18,20,22,24,26,28,30,-1,-1,-1,-1,-1,-1,-1,-1,-1,-1,-1,-1,-1,-1,-1,-1],"split_conditions":[3.69E2,5.3E1,2.4E1,1.3330078E0,5.2539062E0,9.711914E-1,5E2,5.2539062E0,8.544922E-1,2.281189E-3,1.4111328E0,2.73E2,2.73E2,4E0,1.0117188E0,-1.6323234E-3,1.1967812E-1,1.3112581E-2,5.982017E-2,1.6517684E0,1.7031394E-1,3.8255408E0,1.020851E0,4.0471587E0,6.92979E-1,9.429669E0,2.5631392E0,-3.0859947E-1,3.3524282E0,1.1987725E0,-1.7913963E0],"split_indices":[18,18,0,5,14,10,18,14,14,14,12,6,5,14,10,0,0,0,0,0,0,0,0,0,0,0,0,0,0,0,0],"split_type":[0,0,0,0,0,0,0,0,0,0,0,0,0,0,0,0,0,0,0,0,0,0,0,0,0,0,0,0,0,0,0],"sum_hessian":[6.199424E6,6.199341E6,8.3E1,6.197828E6,1.513E3,5.7E1,2.6E1,5.934475E6,2.63353E5,7.88E2,7.25E2,3.6E1,2.1E1,1.1E1,1.5E1,5.930226E6,4.249E3,1.72298E5,9.1055E4,7E0,7.81E2,3.5E1,6.9E2,3.2E1,4E0,1.9E1,2E0,3E0,8E0,1.1E1,4E0],"tree_param":{"num_deleted":"0","num_feature":"23","num_nodes":"31","size_leaf_vector":"1"}},{"base_weights":[5.2107236E-5,-2.2998396E-3,1.2534135E2,-4.98137E-3,3.602667E1,9.95903E1,2.4059682E2,-2.8336797E-2,2.0198965E0,1.819268E1,5.611521E1,7.69728E1,2.3469524E2,2.966397E2,5.460471E1,-2.463343E-3,8.917707E-3,4.7750525E-2,2.7458706E-1,4.3425432E-1,3.0424225E0,7.2203004E-1,2.1369429E0,2.9464607E0,1.2492017E0,2.0456128E0,8.897647E0,4.1364474E0,1.0681243E1,-7.258353E-1,2.9552174E0],"categories":[],"categories_nodes":[],"categories_segments":[],"categories_sizes":[],"default_left":[0,0,0,0,0,0,0,0,0,0,0,0,0,0,0,0,0,0,0,0,0,0,0,0,0,0,0,0,0,0,0],"id":39,"left_children":[1,3,5,7,9,11,13,15,17,19,21,23,25,27,29,-1,-1,-1,-1,-1,-1,-1,-1,-1,-1,-1,-1,-1,-1,-1,-1],"loss_changes":[1.8273741E6,5.9886975E5,3.1373512E5,2.931245E5,1.6392856E5,2.736325E5,1.9046138E5,1.0728488E5,2.1585747E5,7.427569E4,1.0253825E5,5.8660188E4,1.10639E5,7.9923875E4,2.4973256E4,0E0,0E0,0E0,0E0,0E0,0E0,0E0,0E0,0E0,0E0,0E0,0E0,0E0,0E0,0E0,0E0],"parents":[2147483647,0,0,1,1,2,2,3,3,4,4,5,5,6,6,7,7,8,8,9,9,10,10,11,11,12,12,13,13,14,14],"right_children":[2,4,6,8,10,12,14,16,18,20,22,24,26,28,30,-1,-1,-1,-1,-1,-1,-1,-1,-1,-1,-1,-1,-1,-1,-1,-1],"split_conditions":[2.83E2,1.06E2,1.1220703E0,5E0,1.06E2,1.2E1,2.5E1,4.753418E-1,5.2539062E0,5.07E2,4E0,2.3E1,5.908203E-1,1.0878906E0,2.7E1,-2.463343E-3,8.917707E-3,4.7750525E-2,2.7458706E-1,4.3425432E-1,3.0424225E0,7.2203004E-1,2.1369429E0,2.9464607E0,1.2492017E0,2.0456128E0,8.897647E0,4.1364474E0,1.0681243E1,-7.258353E-1,2.9552174E0],"split_indices":[18,19,8,18,18,1,0,14,14,19,1,0,8,9,0,0,0,0,0,0,0,0,0,0,0,0,0,0,0,0,0],"split_type":[0,0,0,0,0,0,0,0,0,0,0,0,0,0,0,0,0,0,0,0,0,0,0,0,0,0,0,0,0,0,0],"sum_hessian":[6.198771E6,6.198656E6,1.15E2,6.198196E6,4.6E2,9.6E1,1.9E1,6.127521E6,7.0675E4,2.45E2,2.15E2,8.4E1,1.2E1,1.4E1,5E0,5.258959E6,8.68562E5,6.6674E4,4.001E3,2.36E2,9E0,7E1,1.45E2,5.1E1,3.3E1,4E0,8E0,5E0,9E0,2E0,3E0],"tree_param":{"num_deleted":"0","num_feature":"23","num_nodes":"31","size_leaf_vector":"1"}},{"base_weights":[1.09154294E-4,-4.817552E-3,8.898045E1,-1.27522275E-2,1.2286078E1,6.2324886E1,1.5096739E2,-3.9392706E-2,1.674688E0,8.982844E0,2.6485073E1,2.3750427E2,5.731923E1,7.6270874E1,1.7914766E2,-2.5425889E-3,7.7203354E-3,3.8583957E-2,1.00958414E-1,8.742949E-1,2.2536774E-1,2.079262E0,7.053231E-1,-8.523409E-2,1.3686656E1,6.181332E-1,2.009252E0,3.8529065E0,1.8537933E-1,4.5749216E0,7.447345E0],"categories":[],"categories_nodes":[],"categories_segments":[],"categories_sizes":[],"default_left":[0,0,0,0,0,0,0,0,0,0,0,0,0,0,0,0,0,0,0,0,0,0,0,0,0,0,0,0,0,0,0],"id":40,"left_children":[1,3,5,7,9,11,13,15,17,19,21,23,25,27,29,-1,-1,-1,-1,-1,-1,-1,-1,-1,-1,-1,-1,-1,-1,-1,-1],"loss_changes":[2.7183375E6,6.0470194E5,5.548955E5,2.7856006E5,1.8731262E5,1.9459744E5,1.9741675E5,8.210947E4,6.3257594E4,9.598709E4,9.393656E4,3.33601E5,8.2317625E4,1.097823E5,8.5271E4,0E0,0E0,0E0,0E0,0E0,0E0,0E0,0E0,0E0,0E0,0E0,0E0,0E0,0E0,0E0,0E0],"parents":[2147483647,0,0,1,1,2,2,3,3,4,4,5,5,6,6,7,7,8,8,9,9,10,10,11,11,12,12,13,13,14,14],"right_children":[2,4,6,8,10,12,14,16,18,20,22,24,26,28,30,-1,-1,-1,-1,-1,-1,-1,-1,-1,-1,-1,-1,-1,-1,-1,-1],"split_conditions":[1.45E2,2.7E1,3.39E2,4E0,7.1E1,9E0,5.9472656E-1,4.2211914E-1,1E1,2.5605469E0,1.1953125E0,2.8E1,1E0,4.81E2,1.1826172E0,-2.5425889E-3,7.7203354E-3,3.8583957E-2,1.00958414E-1,8.742949E-1,2.2536774E-1,2.079262E0,7.053231E-1,-8.523409E-2,1.3686656E1,6.181332E-1,2.009252E0,3.8529065E0,1.8537933E-1,4.5749216E0,7.447345E0],"split_indices":[17,17,17,17,4,4,9,5,17,5,7,2,6,17,9,0,0,0,0,0,0,0,0,0,0,0,0,0,0,0,0],"split_type":[0,0,0,0,0,0,0,0,0,0,0,0,0,0,0,0,0,0,0,0,0,0,0,0,0,0,0,0,0,0,0],"sum_hessian":[6.200867E6,6.200525E6,3.42E2,6.196526E6,3.999E3,2.41E2,1.01E2,6.10022E6,9.6306E4,3.246E3,7.53E2,5E0,2.36E2,2.9E1,7.2E1,5.291365E6,8.08855E5,7.831E4,1.7996E4,2.19E2,3.027E3,4.7E1,7.06E2,3E0,2E0,5E1,1.86E2,1.6E1,1.3E1,5.5E1,1.7E1],"tree_param":{"num_deleted":"0","num_feature":"23","num_nodes":"31","size_leaf_vector":"1"}},{"base_weights":[-1.4642201E-4,-4.8711244E-3,8.811028E1,-1.5352888E-2,9.0351715E0,7.075735E1,2.188417E2,-3.860177E-2,1.5121636E0,8.253611E0,7.31177E1,3.0537317E1,9.241166E1,1.3970575E2,9.771382E0,-2.4604192E-3,7.867462E-3,3.980399E-2,1.12983E-1,2.078659E-1,8.345832E-1,3.5612315E-1,6.3653703E0,1.0465459E0,-2.4563582E0,2.3531833E0,4.896614E0,-4.2692447E-1,5.128137E0],"categories":[],"categories_nodes":[],"categories_segments":[],"categories_sizes":[],"default_left":[0,0,0,0,0,0,0,0,0,0,0,0,0,0,0,0,0,0,0,0,0,0,0,0,0,0,0,0,0],"id":41,"left_children":[1,3,5,7,9,11,13,15,17,19,21,23,25,27,-1,-1,-1,-1,-1,-1,-1,-1,-1,-1,-1,-1,-1,-1,-1],"loss_changes":[2.5800385E6,5.872271E5,7.335355E5,2.1982958E5,3.5867825E5,2.5349238E5,2.6425275E5,7.963437E4,3.8765703E4,1.83578E5,7.318317E5,5.5222695E4,1.72458E5,1.2009059E5,0E0,0E0,0E0,0E0,0E0,0E0,0E0,0E0,0E0,0E0,0E0,0E0,0E0,0E0,0E0],"parents":[2147483647,0,0,1,1,2,2,3,3,4,4,5,5,6,6,7,7,8,8,9,9,10,10,11,11,12,12,13,13],"right_children":[2,4,6,8,10,12,14,16,18,20,22,24,26,28,-1,-1,-1,-1,-1,-1,-1,-1,-1,-1,-1,-1,-1,-1,-1],"split_conditions":[1.49E2,1.9E1,5.88E2,4E0,3.2E1,6E0,9E0,1E0,1.2E1,8.6E1,5.859375E-3,7.95E2,3.84E2,1.1416E4,9.771382E0,-2.4604192E-3,7.867462E-3,3.980399E-2,1.12983E-1,2.078659E-1,8.345832E-1,3.5612315E-1,6.3653703E0,1.0465459E0,-2.4563582E0,2.3531833E0,4.896614E0,-4.2692447E-1,5.128137E0],"split_indices":[17,17,17,17,0,1,1,17,1,17,20,18,17,3,0,0,0,0,0,0,0,0,0,0,0,0,0,0,0],"split_type":[0,0,0,0,0,0,0,0,0,0,0,0,0,0,0,0,0,0,0,0,0,0,0,0,0,0,0,0,0],"sum_hessian":[6.19761E6,6.197279E6,3.31E2,6.190103E6,7.176E3,2.94E2,3.7E1,6.097303E6,9.28E4,7.091E3,8.5E1,1.04E2,1.9E2,2.3E1,1.4E1,5.328422E6,7.68881E5,8.575E4,7.05E3,6.643E3,4.48E2,6E1,2.5E1,1.01E2,3E0,1.61E2,2.9E1,4E0,1.9E1],"tree_param":{"num_deleted":"0","num_feature":"23","num_nodes":"29","size_leaf_vector":"1"}},{"base_weights":[-1.4729018E-4,-2.55443E-3,1.353146E2,-5.628054E-3,3.023338E1,1.0048973E2,3.1475027E2,-3.7770264E-2,1.2035404E0,1.61262E1,5.1994663E1,1.8976044E2,6.988354E1,3.5796982E2,7.5484436E1,-2.2527575E-3,1.0379568E-2,3.275143E-2,3.926925E-1,1.6412371E-1,1.135E0,4.0688157E0,1.3748318E0,1.0039116E0,7.241559E0,2.4292083E0,-1.8868254E0,1.9436111E0,1.1207943E1,3.062715E0,-1.6441862E-1],"categories":[],"categories_nodes":[],"categories_segments":[],"categories_sizes":[],"default_left":[0,0,0,0,0,0,0,0,0,0,0,0,0,0,0,0,0,0,0,0,0,0,0,0,0,0,0,0,0,0,0],"id":42,"left_children":[1,3,5,7,9,11,13,15,17,19,21,23,25,27,29,-1,-1,-1,-1,-1,-1,-1,-1,-1,-1,-1,-1,-1,-1,-1,-1],"loss_changes":[2.0198895E6,5.7629875E5,6.477794E5,2.409861E5,1.9239869E5,2.4026594E5,1.4354212E5,8.6507125E4,2.1338934E5,8.861922E4,1.1938831E5,1.7750194E5,1.1317344E5,3.378725E4,1.0027504E4,0E0,0E0,0E0,0E0,0E0,0E0,0E0,0E0,0E0,0E0,0E0,0E0,0E0,0E0,0E0,0E0],"parents":[2147483647,0,0,1,1,2,2,3,3,4,4,5,5,6,6,7,7,8,8,9,9,10,10,11,11,12,12,13,13,14,14],"right_children":[2,4,6,8,10,12,14,16,18,20,22,24,26,28,30,-1,-1,-1,-1,-1,-1,-1,-1,-1,-1,-1,-1,-1,-1,-1,-1],"split_conditions":[3.12E2,8.9E1,1.1884766E0,3E0,1.03E2,1.2E1,2.4E1,5.917969E-1,3E1,1.7761E4,1.5458984E0,5.136719E-1,7.92E2,0E0,1.2255859E0,-2.2527575E-3,1.0379568E-2,3.275143E-2,3.926925E-1,1.6412371E-1,1.135E0,4.0688157E0,1.3748318E0,1.0039116E0,7.241559E0,2.4292083E0,-1.8868254E0,1.9436111E0,1.1207943E1,3.062715E0,-1.6441862E-1],"split_indices":[18,19,8,19,18,0,0,5,18,3,13,10,19,21,8,0,0,0,0,0,0,0,0,0,0,0,0,0,0,0,0],"split_type":[0,0,0,0,0,0,0,0,0,0,0,0,0,0,0,0,0,0,0,0,0,0,0,0,0,0,0,0,0,0,0],"sum_hessian":[6.201274E6,6.201165E6,1.09E2,6.200536E6,6.29E2,9.3E1,1.6E1,6.039982E6,1.60554E5,3.83E2,2.46E2,2.2E1,7.1E1,1.3E1,3E0,5.504637E6,5.35345E5,1.59059E5,1.495E3,2.58E2,1.25E2,1.5E1,2.31E2,6E0,1.6E1,6.6E1,5E0,1E0,1.2E1,2E0,1E0],"tree_param":{"num_deleted":"0","num_feature":"23","num_nodes":"31","size_leaf_vector":"1"}},{"base_weights":[8.6462527E-4,-1.1961771E-2,8.184175E0,-4.94301E-2,7.747186E-1,4.2180724E0,3.7298363E1,1.7465249E-1,-8.40775E-2,5.3609264E-1,2.3955986E0,1.9775381E1,2.914275E0,5.078721E1,2.6423264E0,2.6102033E-2,-2.0630955E-4,-3.5692763E-3,5.623332E-3,5.3744887E-5,2.6329003E-2,5.6852896E-2,1.6159625E-1,6.1656996E-3,1.9318132E0,6.557351E-2,3.0937675E-1,1.16123E0,5.169867E0,6.252524E-2,4.6801502E-1],"categories":[],"categories_nodes":[],"categories_segments":[],"categories_sizes":[],"default_left":[0,0,0,0,0,0,0,0,0,0,0,0,0,0,0,0,0,0,0,0,0,0,0,0,0,0,0,0,0,0,0],"id":43,"left_children":[1,3,5,7,9,11,13,15,17,19,21,23,25,27,29,-1,-1,-1,-1,-1,-1,-1,-1,-1,-1,-1,-1,-1,-1,-1,-1],"loss_changes":[6.5088306E5,1.8249539E5,1.1203488E6,4.588396E4,1.0887045E5,1.73193E5,5.436379E5,9.9907375E4,4.850135E4,4.477472E4,5.4059234E4,5.765524E5,4.245817E4,1.2205538E6,2.3246223E3,0E0,0E0,0E0,0E0,0E0,0E0,0E0,0E0,0E0,0E0,0E0,0E0,0E0,0E0,0E0,0E0],"parents":[2147483647,0,0,1,1,2,2,3,3,4,4,5,5,6,6,7,7,8,8,9,9,10,10,11,11,12,12,13,13,14,14],"right_children":[2,4,6,8,10,12,14,16,18,20,22,24,26,28,30,-1,-1,-1,-1,-1,-1,-1,-1,-1,-1,-1,-1,-1,-1,-1,-1],"split_conditions":[5.2539062E0,1.2441406E0,2.0327E4,3.1E1,5.9472656E-1,1.1E1,2.0982E4,1.9226074E-2,3.5058594E-1,2.5170898E-1,4.6953125E0,8E0,7.7E1,7.4853516E-1,1.5625E0,2.6102033E-2,-2.0630955E-4,-3.5692763E-3,5.623332E-3,5.3744887E-5,2.6329003E-2,5.6852896E-2,1.6159625E-1,6.1656996E-3,1.9318132E0,6.557351E-2,3.0937675E-1,1.16123E0,5.169867E0,6.252524E-2,4.6801502E-1],"split_indices":[14,5,3,4,8,4,3,6,14,14,5,4,4,8,10,0,0,0,0,0,0,0,0,0,0,0,0,0,0,0,0],"split_type":[0,0,0,0,0,0,0,0,0,0,0,0,0,0,0,0,0,0,0,0,0,0,0,0,0,0,0,0,0,0,0],"sum_hessian":[6.201106E6,6.191403E6,9.703E3,5.909924E6,2.81479E5,8.541E3,1.162E3,7.91417E5,5.118507E6,2.45359E5,3.612E4,6.59E2,7.882E3,8.36E2,3.26E2,1.63824E5,6.27593E5,4.535558E6,5.82949E5,9.568E4,1.49679E5,3.0944E4,5.176E3,4.59E2,2E2,7.177E3,7.05E2,7.62E2,7.4E1,3.14E2,1.2E1],"tree_param":{"num_deleted":"0","num_feature":"23","num_nodes":"31","size_leaf_vector":"1"}},{"base_weights":[-3.5960137E-4,-2.8847312E-3,1.0014158E2,-7.029861E-3,1.6263409E1,6.2389553E1,1.5430008E2,-4.3283857E-2,8.9035594E-1,5.315062E0,3.2736156E1,1.6426521E1,8.349409E1,1.2783504E2,2.897103E2,-2.4762088E-3,5.319553E-3,1.49943605E-2,6.519928E-2,1.0906367E-1,1.3234311E0,4.268942E0,8.370696E-1,9.206468E-1,-2.4655452E0,1.6422702E0,5.3671207E0,5.276886E-1,4.2234E0,3.3026388E0,1.0564574E1],"categories":[],"categories_nodes":[],"categories_segments":[],"categories_sizes":[],"default_left":[0,0,0,0,0,0,0,0,0,0,0,0,0,0,0,0,0,0,0,0,0,0,0,0,0,0,0,0,0,0,0],"id":44,"left_children":[1,3,5,7,9,11,13,15,17,19,21,23,25,27,29,-1,-1,-1,-1,-1,-1,-1,-1,-1,-1,-1,-1,-1,-1,-1,-1],"loss_changes":[1.5676174E6,4.1798075E5,3.0695112E5,2.0162947E5,2.8459962E5,8.968516E4,1.7823962E5,5.1586938E4,1.205788E5,6.1718945E4,3.2860088E5,4.73519E4,1.6355944E5,7.568631E4,5.3532812E4,0E0,0E0,0E0,0E0,0E0,0E0,0E0,0E0,0E0,0E0,0E0,0E0,0E0,0E0,0E0,0E0],"parents":[2147483647,0,0,1,1,2,2,3,3,4,4,5,5,6,6,7,7,8,8,9,9,10,10,11,11,12,12,13,13,14,14],"right_children":[2,4,6,8,10,12,14,16,18,20,22,24,26,28,30,-1,-1,-1,-1,-1,-1,-1,-1,-1,-1,-1,-1,-1,-1,-1,-1],"split_conditions":[2.39E2,5E1,8E0,1.4404297E0,5.3359375E0,2.7E1,1.046875E0,3.3325195E-1,1.1914062E0,7.1E1,1.2880859E0,7.59E2,7.49E2,3.3046875E0,6.27E2,-2.4762088E-3,5.319553E-3,1.49943605E-2,6.519928E-2,1.0906367E-1,1.3234311E0,4.268942E0,8.370696E-1,9.206468E-1,-2.4655452E0,1.6422702E0,5.3671207E0,5.276886E-1,4.2234E0,3.3026388E0,1.0564574E1],"split_indices":[18,18,1,5,16,2,8,5,14,4,13,18,18,16,18,0,0,0,0,0,0,0,0,0,0,0,0,0,0,0,0],"split_type":[0,0,0,0,0,0,0,0,0,0,0,0,0,0,0,0,0,0,0,0,0,0,0,0,0,0,0,0,0,0,0],"sum_hessian":[6.199264E6,6.199109E6,1.55E2,6.197531E6,1.578E3,9.3E1,6.2E1,5.956877E6,2.40654E5,9.49E2,6.29E2,3E1,6.3E1,5.4E1,8E0,5.056982E6,8.99895E5,1.84494E5,5.616E4,9.11E2,3.8E1,2.5E1,6.04E2,2.7E1,3E0,5E1,1.3E1,6E0,4.8E1,3E0,5E0],"tree_param":{"num_deleted":"0","num_feature":"23","num_nodes":"31","size_leaf_vector":"1"}},{"base_weights":[2.4052376E-4,-2.3198265E-3,1.0489328E2,-4.535919E-3,2.9267328E1,8.212323E1,2.643655E2,-2.5203582E-2,1.7599754E0,3.7526746E0,4.6000706E1,1.1774365E1,9.88672E1,2.8096613E2,-2.9891083E-1,7.0043462E-3,-2.1120398E-3,4.6154883E-2,3.9230856E-1,1.8487607E0,6.1446726E-2,6.9116837E-1,1.9582008E0,2.3612504E0,7.203721E-2,2.401504E0,5.956151E0,2.253718E0,9.516405E0],"categories":[],"categories_nodes":[],"categories_segments":[],"categories_sizes":[],"default_left":[0,0,0,0,0,0,0,0,0,0,0,0,0,0,0,0,0,0,0,0,0,0,0,0,0,0,0,0,0],"id":45,"left_children":[1,3,5,7,9,11,13,15,17,19,21,23,25,27,-1,-1,-1,-1,-1,-1,-1,-1,-1,-1,-1,-1,-1,-1,-1],"loss_changes":[1.6648772E6,4.0209725E5,5.2092725E5,2.260522E5,2.0014497E5,1.5668156E5,8.707925E4,7.163386E4,1.7984666E5,1.8311014E4,1.23400375E5,1.6887809E4,1.8226562E5,9.78755E4,0E0,0E0,0E0,0E0,0E0,0E0,0E0,0E0,0E0,0E0,0E0,0E0,0E0,0E0,0E0],"parents":[2147483647,0,0,1,1,2,2,3,3,4,4,5,5,6,6,7,7,8,8,9,9,10,10,11,11,12,12,13,13],"right_children":[2,4,6,8,10,12,14,16,18,20,22,24,26,28,-1,-1,-1,-1,-1,-1,-1,-1,-1,-1,-1,-1,-1,-1,-1],"split_conditions":[2.33E2,1.02E2,1.1884766E0,5E0,3.3046875E0,1.0217E4,2.2148438E0,3.1E1,3.3E1,-2.4414062E-3,6E0,0E0,1.1E1,5.5E2,-2.9891083E-1,7.0043462E-3,-2.1120398E-3,4.6154883E-2,3.9230856E-1,1.8487607E0,6.1446726E-2,6.9116837E-1,1.9582008E0,2.3612504E0,7.203721E-2,2.401504E0,5.956151E0,2.253718E0,9.516405E0],"split_indices":[19,18,8,19,16,3,9,4,18,22,1,20,1,19,0,0,0,0,0,0,0,0,0,0,0,0,0,0,0],"split_type":[0,0,0,0,0,0,0,0,0,0,0,0,0,0,0,0,0,0,0,0,0,0,0,0,0,0,0,0,0],"sum_hessian":[6.199205E6,6.199055E6,1.5E2,6.198587E6,4.68E2,1.33E2,1.7E1,6.126825E6,7.1762E4,1.86E2,2.82E2,2.6E1,1.07E2,1.6E1,1E0,9.11277E5,5.215548E6,7.0386E4,1.376E3,4E0,1.82E2,1.3E2,1.52E2,2E0,2.4E1,9.2E1,1.5E1,3E0,1.3E1],"tree_param":{"num_deleted":"0","num_feature":"23","num_nodes":"29","size_leaf_vector":"1"}},{"base_weights":[-6.629455E-4,-4.12867E-3,9.616116E1,-9.713127E-3,1.5919071E1,7.396179E1,1.836402E2,-3.07969E-2,1.9002452E0,2.1058365E2,1.5522337E1,2.2222345E1,8.850338E1,2.0678212E2,1.3314195E0,-2.2280521E-3,7.7616978E-3,4.6826553E-2,1.3732487E-1,3.2134023E-1,7.9996133E0,2.7402297E-1,7.31335E-1,2.097634E0,-1.3122878E-2,9.775822E0,2.4060016E0,6.9850082E0,1.5292636E0,-1.5723389E0,3.7200513E0],"categories":[],"categories_nodes":[],"categories_segments":[],"categories_sizes":[],"default_left":[0,0,0,0,0,0,0,0,0,0,0,0,0,0,0,0,0,0,0,0,0,0,0,0,0,0,0,0,0,0,0],"id":46,"left_children":[1,3,5,7,9,11,13,15,17,19,21,23,25,27,29,-1,-1,-1,-1,-1,-1,-1,-1,-1,-1,-1,-1,-1,-1,-1,-1],"loss_changes":[2.0650779E6,5.5097956E5,4.15827E5,2.4942742E5,1.6347388E5,1.3307938E5,1.8659688E5,7.710593E4,6.1434484E4,4.4590984E4,1.2242775E5,4.4693867E4,2.4220538E5,1.4398188E5,5.0162027E4,0E0,0E0,0E0,0E0,0E0,0E0,0E0,0E0,0E0,0E0,0E0,0E0,0E0,0E0,0E0,0E0],"parents":[2147483647,0,0,1,1,2,2,3,3,4,4,5,5,6,6,7,7,8,8,9,9,10,10,11,11,12,12,13,13,14,14],"right_children":[2,4,6,8,10,12,14,16,18,20,22,24,26,28,30,-1,-1,-1,-1,-1,-1,-1,-1,-1,-1,-1,-1,-1,-1,-1,-1],"split_conditions":[1.91E2,3.9E1,5.84E2,5E0,7.8271484E-1,1.5595703E0,1.066E3,1E0,1.6E1,2E1,4E0,1E1,3.4003906E0,2.4E1,1.5625E0,-2.2280521E-3,7.7616978E-3,4.6826553E-2,1.3732487E-1,3.2134023E-1,7.9996133E0,2.7402297E-1,7.31335E-1,2.097634E0,-1.3122878E-2,9.775822E0,2.4060016E0,6.9850082E0,1.5292636E0,-1.5723389E0,3.7200513E0],"split_indices":[17,17,17,17,5,6,17,17,17,0,19,0,6,0,8,0,0,0,0,0,0,0,0,0,0,0,0,0,0,0,0],"split_type":[0,0,0,0,0,0,0,0,0,0,0,0,0,0,0,0,0,0,0,0,0,0,0,0,0,0,0,0,0,0,0],"sum_hessian":[6.196401E6,6.196179E6,2.22E2,6.194008E6,2.171E3,1.79E2,4.3E1,6.126381E6,6.7627E4,3E0,2.168E3,4E1,1.39E2,3.8E1,5E0,5.326593E6,7.99788E5,6.0021E4,7.606E3,1E0,2E0,1.261E3,9.07E2,1.2E1,2.8E1,3E0,1.36E2,3.2E1,6E0,4E0,1E0],"tree_param":{"num_deleted":"0","num_feature":"23","num_nodes":"31","size_leaf_vector":"1"}},{"base_weights":[-4.686972E-5,-3.0517373E-3,1.3974095E2,-8.887854E-3,1.9503674E1,1.157298E2,3.2874084E2,-2.6834726E-2,2.1941185E0,1.5586227E1,4.7878944E1,1.915323E2,8.89004E1,1.3241225E0,1.03728695E1,-8.1089017E-4,2.6998436E0,5.5660326E-2,1.5960276E-1,2.765544E-1,6.9758064E-1,1.2558025E0,8.567745E0,2.7276683E0,6.498518E0,-3.9592513E-1,3.05009E0],"categories":[],"categories_nodes":[],"categories_segments":[],"categories_sizes":[],"default_left":[0,0,0,0,0,0,0,0,0,0,0,0,0,0,0,0,0,0,0,0,0,0,0,0,0,0,0],"id":47,"left_children":[1,3,5,7,9,11,13,15,17,19,21,23,25,-1,-1,-1,-1,-1,-1,-1,-1,-1,-1,-1,-1,-1,-1],"loss_changes":[2.603346E6,7.0580044E5,5.550115E5,2.4504633E5,2.0514262E5,2.2231712E5,4.9292375E4,1.07893195E5,5.3025203E4,7.935603E4,3.052335E5,5.063175E4,1.20809875E5,0E0,0E0,0E0,0E0,0E0,0E0,0E0,0E0,0E0,0E0,0E0,0E0,0E0,0E0],"parents":[2147483647,0,0,1,1,2,2,3,3,4,4,5,5,6,6,7,7,8,8,9,9,10,10,11,11,12,12],"right_children":[2,4,6,8,10,12,14,16,18,20,22,24,26,-1,-1,-1,-1,-1,-1,-1,-1,-1,-1,-1,-1,-1,-1],"split_conditions":[2.87E2,4.5E1,1.2E1,6E0,1.45E2,1.1E1,3.09E2,2.31E2,2E1,5.2539062E0,3.2E1,6.5625E-1,6.958008E-1,1.3241225E0,1.03728695E1,-8.1089017E-4,2.6998436E0,5.5660326E-2,1.5960276E-1,2.765544E-1,6.9758064E-1,1.2558025E0,8.567745E0,2.7276683E0,6.498518E0,-3.9592513E-1,3.05009E0],"split_indices":[17,17,1,17,17,0,17,19,17,14,0,8,6,0,0,0,0,0,0,0,0,0,0,0,0,0,0],"split_type":[0,0,0,0,0,0,0,0,0,0,0,0,0,0,0,0,0,0,0,0,0,0,0,0,0,0,0],"sum_hessian":[6.199869E6,6.199737E6,1.32E2,6.197884E6,1.853E3,1.19E2,1.3E1,6.147802E6,5.0082E4,1.63E3,2.23E2,2.9E1,9E1,1E0,1.2E1,6.14779E6,1.2E1,4.5187E4,4.895E3,8.92E2,7.38E2,2.19E2,4E0,7E0,2.2E1,1E1,8E1],"tree_param":{"num_deleted":"0","num_feature":"23","num_nodes":"27","size_leaf_vector":"1"}},{"base_weights":[9.037355E-4,-3.1348735E-3,7.793812E1,-1.3216062E-2,7.786663E0,6.533991E1,2.4290501E2,-1.3478001E-2,1.741516E2,3.813948E1,6.754385E0,3.1465239E1,8.925703E1,9.930518E1,3.3017883E2,-1.0046955E-3,3.9281506E-2,6.1263223E0,-9.8220664E-1,8.49403E0,8.999224E-1,1.3999519E-1,5.763764E-1,7.802131E-2,1.3015407E0,6.3633406E-1,3.6288261E0,8.120244E-1,7.2351418E0,5.6270356E0,1.1589245E1],"categories":[],"categories_nodes":[],"categories_segments":[],"categories_sizes":[],"default_left":[0,0,0,0,0,0,0,0,0,0,0,0,0,0,0,0,0,0,0,0,0,0,0,0,0,0,0,0,0,0,0],"id":48,"left_children":[1,3,5,7,9,11,13,15,17,19,21,23,25,27,29,-1,-1,-1,-1,-1,-1,-1,-1,-1,-1,-1,-1,-1,-1,-1,-1],"loss_changes":[1.9518279E6,4.8694556E5,6.469316E5,2.82517E5,2.507704E5,2.3961988E5,2.3657212E5,1.6393892E5,6.670534E4,5.14091E5,2.0152862E5,4.3309938E4,3.7483662E5,9.7120086E4,1.1381125E4,0E0,0E0,0E0,0E0,0E0,0E0,0E0,0E0,0E0,0E0,0E0,0E0,0E0,0E0,0E0,0E0],"parents":[2147483647,0,0,1,1,2,2,3,3,4,4,5,5,6,6,7,7,8,8,9,9,10,10,11,11,12,12,13,13,14,14],"right_children":[2,4,6,8,10,12,14,16,18,20,22,24,26,28,30,-1,-1,-1,-1,-1,-1,-1,-1,-1,-1,-1,-1,-1,-1,-1,-1],"split_conditions":[1.54E2,1.8E1,7.62E2,3.37E2,1.1308594E0,3.0395508E-1,6E0,4E0,3.02E2,9E0,5.7E1,6E0,5E0,1.4160156E0,7.72E2,-1.0046955E-3,3.9281506E-2,6.1263223E0,-9.8220664E-1,8.49403E0,8.999224E-1,1.3999519E-1,5.763764E-1,7.802131E-2,1.3015407E0,6.3633406E-1,3.6288261E0,8.120244E-1,7.2351418E0,5.6270356E0,1.1589245E1],"split_indices":[17,17,17,19,5,9,1,17,18,4,17,1,1,9,17,0,0,0,0,0,0,0,0,0,0,0,0,0,0,0,0],"split_type":[0,0,0,0,0,0,0,0,0,0,0,0,0,0,0,0,0,0,0,0,0,0,0,0,0,0,0,0,0,0,0],"sum_hessian":[6.201042E6,6.200722E6,3.2E2,6.192709E6,8.013E3,2.99E2,2.1E1,6.192701E6,8E0,2.62E2,7.751E3,1.25E2,1.74E2,9E0,1.2E1,6.100417E6,9.2284E4,7E0,1E0,7E0,2.55E2,6.64E3,1.111E3,3.7E1,8.8E1,5.6E1,1.18E2,7E0,2E0,5E0,7E0],"tree_param":{"num_deleted":"0","num_feature":"23","num_nodes":"31","size_leaf_vector":"1"}},{"base_weights":[6.9044443E-4,-2.387133E-3,6.2271076E1,-1.0650712E-2,5.40658E0,5.4234848E1,1.8475769E2,-4.8783123E-2,6.0022104E-1,4.6014385E0,6.2968426E1,1.4622655E1,7.089599E1,6.0179134E1,2.5484882E2,4.602215E-3,-2.3647149E-3,6.367611E-3,3.7812542E-2,8.700375E-2,6.046117E-1,1.886018E1,8.7063134E-1,3.4795775E0,2.7626383E-1,1.6610575E0,4.209016E0,2.6741025E0,-1.9657805E0,8.83245E0,3.0294333E0],"categories":[],"categories_nodes":[],"categories_segments":[],"categories_sizes":[],"default_left":[0,0,0,0,0,0,0,0,0,0,0,0,0,0,0,0,0,0,0,0,0,0,0,0,0,0,0,0,0,0,0],"id":49,"left_children":[1,3,5,7,9,11,13,15,17,19,21,23,25,27,29,-1,-1,-1,-1,-1,-1,-1,-1,-1,-1,-1,-1,-1,-1,-1,-1],"loss_changes":[1.1878211E6,2.7702678E5,2.8835012E5,1.4415197E5,4.3778384E5,1.8958056E5,1.3976475E5,3.5379312E4,9.313013E4,2.4666458E5,2.4785998E6,4.6511684E4,2.0890025E5,3.79361E4,2.982025E4,0E0,0E0,0E0,0E0,0E0,0E0,0E0,0E0,0E0,0E0,0E0,0E0,0E0,0E0,0E0,0E0],"parents":[2147483647,0,0,1,1,2,2,3,3,4,4,5,5,6,6,7,7,8,8,9,9,10,10,11,11,12,12,13,13,14,14],"right_children":[2,4,6,8,10,12,14,16,18,20,22,24,26,28,30,-1,-1,-1,-1,-1,-1,-1,-1,-1,-1,-1,-1,-1,-1,-1,-1],"split_conditions":[1.55E2,5.2539062E0,7.59E2,1E0,3.2E1,2.1640625E0,1.0400391E0,3.1E1,6.9921875E-1,3.2E1,9E0,1.0961914E-1,1.1E1,9.9121094E-1,1.5E1,4.602215E-3,-2.3647149E-3,6.367611E-3,3.7812542E-2,8.700375E-2,6.046117E-1,1.886018E1,8.7063134E-1,3.4795775E0,2.7626383E-1,1.6610575E0,4.209016E0,2.6741025E0,-1.9657805E0,8.83245E0,3.0294333E0],"split_indices":[19,14,18,5,0,11,10,4,14,18,4,11,1,10,0,0,0,0,0,0,0,0,0,0,0,0,0,0,0,0,0],"split_type":[0,0,0,0,0,0,0,0,0,0,0,0,0,0,0,0,0,0,0,0,0,0,0,0,0,0,0,0,0,0,0],"sum_hessian":[6.198125E6,6.19782E6,3.05E2,6.188367E6,9.453E3,2.88E2,1.7E1,5.824769E6,3.63598E5,9.324E3,1.29E2,8.6E1,2.02E2,7E0,1E1,7.53474E5,5.071295E6,2.29017E5,1.34581E5,8.406E3,9.18E2,6E0,1.23E2,3E0,8.3E1,1.67E2,3.5E1,6E0,1E0,7E0,3E0],"tree_param":{"num_deleted":"0","num_feature":"23","num_nodes":"31","size_leaf_vector":"1"}},{"base_weights":[6.975114E-4,-2.286969E-3,1.0926298E2,-7.327793E-3,1.6179714E1,7.500225E1,1.7113986E2,-2.2588301E-2,2.4400063E0,1.1541854E1,3.0915573E1,1.6256607E1,9.090512E1,1.3949986E2,3.0369107E2,-2.059177E-3,8.182344E-3,5.9792317E-2,1.5329978E-1,2.4166708E0,3.227342E-1,4.0632832E-1,1.2241378E0,7.368266E-1,-1.4583955E0,9.451036E-1,3.4625795E0,8.642575E0,3.5548537E0,1.9685739E0,9.599903E0],"categories":[],"categories_nodes":[],"categories_segments":[],"categories_sizes":[],"default_left":[0,0,0,0,0,0,0,0,0,0,0,0,0,0,0,0,0,0,0,0,0,0,0,0,0,0,0,0,0,0,0],"id":50,"left_children":[1,3,5,7,9,11,13,15,17,19,21,23,25,27,29,-1,-1,-1,-1,-1,-1,-1,-1,-1,-1,-1,-1,-1,-1,-1,-1],"loss_changes":[2.021364E6,5.05624E5,3.420735E5,2.3143069E5,1.3145438E5,1.020505E5,1.9310138E5,8.375478E4,4.58095E4,7.842041E4,7.852072E4,1.5204981E4,1.2236806E5,1.1218356E5,1.24518125E4,0E0,0E0,0E0,0E0,0E0,0E0,0E0,0E0,0E0,0E0,0E0,0E0,0E0,0E0,0E0,0E0],"parents":[2147483647,0,0,1,1,2,2,3,3,4,4,5,5,6,6,7,7,8,8,9,9,10,10,11,11,12,12,13,13,14,14],"right_children":[2,4,6,8,10,12,14,16,18,20,22,24,26,28,30,-1,-1,-1,-1,-1,-1,-1,-1,-1,-1,-1,-1,-1,-1,-1,-1],"split_conditions":[2.42E2,4.4E1,8.256836E-1,7E0,1.01E2,7.548828E-1,1.1E1,1E0,1.9E1,1.0234375E0,2.6E1,4.2211914E-1,5E0,1.4E1,7.0458984E-1,-2.059177E-3,8.182344E-3,5.9792317E-2,1.5329978E-1,2.4166708E0,3.227342E-1,4.0632832E-1,1.2241378E0,7.368266E-1,-1.4583955E0,9.451036E-1,3.4625795E0,8.642575E0,3.5548537E0,1.9685739E0,9.599903E0],"split_indices":[17,17,9,17,17,6,1,17,17,5,18,9,1,18,8,0,0,0,0,0,0,0,0,0,0,0,0,0,0,0,0],"split_type":[0,0,0,0,0,0,0,0,0,0,0,0,0,0,0,0,0,0,0,0,0,0,0,0,0,0,0,0,0,0,0],"sum_hessian":[6.198768E6,6.1986E6,1.68E2,6.196671E6,1.929E3,1.1E2,5.8E1,6.158272E6,3.8399E4,1.469E3,4.6E2,2.4E1,8.6E1,4.9E1,9E0,5.327554E6,8.30718E5,3.2895E4,5.504E3,1.5E1,1.454E3,1.68E2,2.92E2,2.2E1,2E0,2.6E1,6E1,4E0,4.5E1,1E0,8E0],"tree_param":{"num_deleted":"0","num_feature":"23","num_nodes":"31","size_leaf_vector":"1"}},{"base_weights":[-3.4540388E-4,-3.684248E-3,8.722142E1,-1.0635722E-2,1.0605733E1,6.8929886E1,1.7704172E2,-2.7879339E-2,