{"learner":{"attributes":{"best_iteration":"13","best_score":"2.082236636447998","scikit_learn":"{\"_estimator_type\": \"regressor\"}"},"feature_names":["date_block_num","month","shop_id","item_id","item_category_id","cnt_item_id_by_month_lag_1","cnt_item_id_by_month_lag_2","cnt_item_id_by_month_lag_3","cnt_shop_id_by_month_lag_1","cnt_shop_id_by_month_lag_2","cnt_shop_id_by_month_lag_3","cnt_item_category_by_month_lag_1","cnt_item_category_by_month_lag_2","cnt_item_category_by_month_lag_3","cnt_item_category_by_shop_id_month_lag_1","cnt_item_category_by_shop_id_month_lag_2","cnt_item_category_by_shop_id_month_lag_3","cnt_item_id_by_shop_id_month_lag_1","cnt_item_id_by_shop_id_month_lag_2","cnt_item_id_by_shop_id_month_lag_3","z_item_price_mean_lag_1","z_item_price_mean_lag_2","z_item_price_mean_lag_3"],"feature_types":["int","int","int","int","int","float","float","float","float","float","float","float","float","float","float","float","float","float","float","float","float","float","float"],"gradient_booster":{"model":{"gbtree_model_param":{"num_parallel_tree":"1","num_trees":"50"},"iteration_indptr":[0,1,2,3,4,5,6,7,8,9,10,11,12,13,14,15,16,17,18,19,20,21,22,23,24,25,26,27,28,29,30,31,32,33,34,35,36,37,38,39,40,41,42,43,44,45,46,47,48,49,50],"tree_info":[0,0,0,0,0,0,0,0,0,0,0,0,0,0,0,0,0,0,0,0,0,0,0,0,0,0,0,0,0,0,0,0,0,0,0,0,0,0,0,0,0,0,0,0,0,0,0,0,0,0],"trees":[{"base_weights":[1.1066844E-5,-8.113782E-3,3.8525748E2,-1.9535841E-2,6.735033E1,1.7895094E2,5.090832E2,-7.1405225E-2,4.780662E0,1.9350441E1,1.12140175E2,2.7443348E1,2.3821777E2,6.013956E2,2.2515984E2,-1.1284886E-1,1.83524E0,4.141418E0,2.2957258E1,1.3813801E1,4.4344296E1,8.8941505E1,1.480846E2,3.9832737E1,2.4733565E0,1.3228587E2,2.892102E2,4.824057E2,7.349033E2,3.083575E2,7.617472E0,-1.6318174E-1,5.580124E-1,1.726356E0,1.20269165E1,3.3091085E0,9.627089E0,1.378819E1,3.968905E1,2.9463592E0,1.6000961E1,3.1817184E1,8.5795204E1,4.049954E1,8.657761E1,1.3493443E2,2.1609735E2,4.2275826E1,3.142892E-1,4.956306E-1,1.0305321E0,2.9365075E0,1.4149028E1,3.4633606E1,1.2642577E1,2.8168E0,4.912511E1,7.477932E1,1.1339845E1,3.2287903E1,9.164499E1,1.5975059E1,-2.4738003E-2,8.359361E-3,-1.9659786E-2,2.604349E-2,1.1643352E-1,1.7223468E-1,1.808064E1,9.9248785E-1,1.4566683E1,2.8451762E-1,8.514288E-1,8.604652E-1,2.291534E0,1.3205539E0,9.824409E0,2.2463724E1,3.4556272E0,2.5629222E0,2.2162889E-1,3.500457E0,1.4609978E0,2.3831782E0,6.919487E0,4.8505955E0,1.2003566E1,6.6887474E0,1.0513261E1,1.1392755E1,1.7066689E1,7.8846703E0,2.4451952E1,7.1324027E-1,4.419891E0,-1.2125238E-2,1.2325162E-1,1.0868358E1,1.6199471E0,2.780532E0,-1.7796127E-2],"categories":[],"categories_nodes":[],"categories_segments":[],"categories_sizes":[],"default_left":[0,0,0,0,0,0,0,0,0,0,0,0,0,0,0,0,0,0,0,0,0,0,0,0,0,0,0,0,0,0,0,0,0,0,0,0,0,0,0,0,0,0,0,0,0,0,0,0,0,0,0,0,0,0,0,0,0,0,0,0,0,0,0,0,0,0,0,0,0,0,0,0,0,0,0,0,0,0,0,0,0,0,0,0,0,0,0,0,0,0,0,0,0,0,0,0,0,0,0,0,0],"id":0,"left_children":[1,3,5,7,9,11,13,15,17,19,21,23,25,27,29,31,33,35,37,39,41,43,45,47,49,51,53,55,57,59,61,63,65,67,69,71,73,75,77,79,81,83,85,-1,87,89,91,93,-1,-1,95,-1,-1,-1,-1,-1,-1,-1,-1,-1,97,99,-1,-1,-1,-1,-1,-1,-1,-1,-1,-1,-1,-1,-1,-1,-1,-1,-1,-1,-1,-1,-1,-1,-1,-1,-1,-1,-1,-1,-1,-1,-1,-1,-1,-1,-1,-1,-1,-1,-1],"loss_changes":[2.5344888E7,6.2294745E6,4.20209E6,2.0156338E6,2.947488E6,5.8795025E5,2.533916E6,6.3285144E5,1.0053855E6,9.091403E4,5.68695E5,6.2483955E3,1.9074225E5,6.28166E5,5.1635E5,2.646791E5,1.8903794E5,3.8166E5,4.50041E5,1.2912945E4,5.738836E4,2.639485E5,1.95392E5,9.996699E2,2.239714E1,1.0468094E4,2.0907575E5,1.6355E5,1.21422E5,1.3326E4,6.4829877E2,6.0127562E4,9.870442E4,1.20490625E5,5.0332138E5,1.7525819E5,1.4927712E5,9.130259E4,9.73399E5,1.4528142E3,1.1122234E4,2.5385E4,2.3932266E4,0E0,1.4648225E5,1.42799E5,1.290145E5,3.0822266E2,0E0,0E0,2.0672684E0,0E0,0E0,0E0,0E0,0E0,0E0,0E0,0E0,0E0,1.7360547E3,9.177754E2,0E0,0E0,0E0,0E0,0E0,0E0,0E0,0E0,0E0,0E0,0E0,0E0,0E0,0E0,0E0,0E0,0E0,0E0,0E0,0E0,0E0,0E0,0E0,0E0,0E0,0E0,0E0,0E0,0E0,0E0,0E0,0E0,0E0,0E0,0E0,0E0,0E0,0E0,0E0],"parents":[2147483647,0,0,1,1,2,2,3,3,4,4,5,5,6,6,7,7,8,8,9,9,10,10,11,11,12,12,13,13,14,14,15,15,16,16,17,17,18,18,19,19,20,20,21,21,22,22,23,23,24,24,25,25,26,26,27,27,28,28,29,29,30,30,31,31,32,32,33,33,34,34,35,35,36,36,37,37,38,38,39,39,40,40,41,41,42,42,44,44,45,45,46,46,47,47,50,50,60,60,61,61],"right_children":[2,4,6,8,10,12,14,16,18,20,22,24,26,28,30,32,34,36,38,40,42,44,46,48,50,52,54,56,58,60,62,64,66,68,70,72,74,76,78,80,82,84,86,-1,88,90,92,94,-1,-1,96,-1,-1,-1,-1,-1,-1,-1,-1,-1,98,100,-1,-1,-1,-1,-1,-1,-1,-1,-1,-1,-1,-1,-1,-1,-1,-1,-1,-1,-1,-1,-1,-1,-1,-1,-1,-1,-1,-1,-1,-1,-1,-1,-1,-1,-1,-1,-1,-1,-1],"split_conditions":[2.83E2,6.5E1,6.328125E-1,3.5996094E0,7.03125E0,7E0,2.5E1,3E0,7.03125E0,5.5E1,1.17E2,7E0,2.5E1,9.711914E-1,5.57E2,6.6015625E-1,7.03125E0,5.859375E-1,1.4671875E1,4.1757812E0,1.2E2,9E0,4.8486328E-1,2.3254395E-2,2.1E1,1.6748047E0,4.3E1,3.2E1,5.5E1,6.91E2,1.1308594E0,3.1E1,5.131836E-1,2.27E2,3.2E1,1.4671875E1,1.4671875E1,5.7E1,6E0,9.503174E-2,-4.638672E-2,7.2E1,1.3369141E0,4.049954E1,7E0,9E0,1.25E2,7E0,3.142892E-1,4.956306E-1,3E0,2.9365075E0,1.4149028E1,3.4633606E1,1.2642577E1,2.8168E0,4.912511E1,7.477932E1,1.1339845E1,3.2287903E1,2.8E1,2.9E1,-2.4738003E-2,8.359361E-3,-1.9659786E-2,2.604349E-2,1.1643352E-1,1.7223468E-1,1.808064E1,9.9248785E-1,1.4566683E1,2.8451762E-1,8.514288E-1,8.604652E-1,2.291534E0,1.3205539E0,9.824409E0,2.2463724E1,3.4556272E0,2.5629222E0,2.2162889E-1,3.500457E0,1.4609978E0,2.3831782E0,6.919487E0,4.8505955E0,1.2003566E1,6.6887474E0,1.0513261E1,1.1392755E1,1.7066689E1,7.8846703E0,2.4451952E1,7.1324027E-1,4.419891E0,-1.2125238E-2,1.2325162E-1,1.0868358E1,1.6199471E0,2.780532E0,-1.7796127E-2],"split_indices":[18,18,10,5,14,19,0,18,14,19,19,15,2,10,19,5,14,8,5,5,18,4,8,10,4,5,2,4,2,18,10,4,14,19,0,5,5,18,0,8,20,4,11,0,1,1,18,2,0,0,1,0,0,0,0,0,0,0,0,0,2,2,0,0,0,0,0,0,0,0,0,0,0,0,0,0,0,0,0,0,0,0,0,0,0,0,0,0,0,0,0,0,0,0,0,0,0,0,0,0,0],"split_type":[0,0,0,0,0,0,0,0,0,0,0,0,0,0,0,0,0,0,0,0,0,0,0,0,0,0,0,0,0,0,0,0,0,0,0,0,0,0,0,0,0,0,0,0,0,0,0,0,0,0,0,0,0,0,0,0,0,0,0,0,0,0,0,0,0,0,0,0,0,0,0,0,0,0,0,0,0,0,0,0,0,0,0,0,0,0,0,0,0,0,0,0,0,0,0,0,0,0,0,0,0],"sum_hessian":[8.096994E6,8.096825E6,1.69E2,8.095454E6,1.371E3,6.5E1,1.04E2,8.008914E6,8.654E4,6.63E2,7.08E2,1.9E1,4.6E1,7.7E1,2.7E1,7.838534E6,1.7038E5,8.3602E4,2.938E3,5.45E2,1.18E2,4.34E2,2.74E2,1.2E1,7E0,1.7E1,2.9E1,4.5E1,3.2E1,1.9E1,8E0,7.291476E6,5.47058E5,1.68581E5,1.799E3,7.2591E4,1.1011E4,1.9E3,1.038E3,9.2E1,4.53E2,9.3E1,2.5E1,1E0,4.33E2,2.34E2,4E1,1.1E1,1E0,1E0,6E0,2E0,1.5E1,2E1,9E0,1E0,4.4E1,3.1E1,1E0,1.7E1,2E0,3E0,5E0,8.69594E5,6.421882E6,3.6696E5,1.80098E5,1.68579E5,2E0,1.773E3,2.6E1,6.6653E4,5.938E3,1.0227E4,7.84E2,1.889E3,1.1E1,2.6E1,1.012E3,1E0,9.1E1,2.8E1,4.25E2,7.9E1,1.4E1,1.4E1,1.1E1,2.14E2,2.19E2,1.52E2,8.2E1,8E0,3.2E1,1E0,1E1,1E0,5E0,1E0,1E0,1E0,2E0],"tree_param":{"num_deleted":"0","num_feature":"23","num_nodes":"101","size_leaf_vector":"1"}},{"base_weights":[-1.0478803E-4,-7.224943E-3,3.4365744E2,-1.5483708E-2,7.9805084E1,1.4959793E2,4.3854575E2,-5.9113357E-2,5.0239015E0,1.954885E1,1.1754795E2,2.7087053E1,1.954002E2,5.0998358E2,2.011968E2,-9.0483874E-2,2.311068E0,4.1971946E0,2.3830387E1,1.368282E1,5.074141E1,2.5960632E2,1.1058215E2,3.62552E1,2.7341282E0,1.1988837E2,2.2985841E2,3.1366968E2,5.6210266E1,4.0668552E1,2.9661407E1,-1.3558969E-1,7.0982134E-1,2.1161067E0,1.4718199E1,1.9951164E0,6.392577E0,1.387185E1,6.820969E1,3.1107104E0,1.5505939E1,3.828136E1,1.1113833E2,1.3472405E1,3.4632288E2,1.0369809E2,1.8889589E2,3.862853E1,3.028905E-1,9.214651E-1,4.7765493E-1,1.5497134E0,1.2478512E2,1.0672819E1,2.7237512E2,5.548914E-2,3.4531654E1,6.708231E1,-2.3010252E-2,-1.7379405E-2,1.1715097E-2,5.6234866E-2,2.4286044E-1,1.4961067E-1,3.199114E-1,1.1109362E0,1.7424103E1,1.9803664E-1,1.3152995E1,5.191784E-1,1.1218785E0,1.0061125E0,2.0377629E0,1.7061056E1,6.001204E0,1.6818303E0,1.7129505E-1,1.7044318E0,6.953394E-1,7.2932065E-1,4.5722585E0,1.3281852E-1,1.2704369E1,2.2955701E0,3.1714377E-1,1.6152925E1,4.498063E1,7.794399E0,1.2019914E1,-2.120817E-1,1.94194E1,6.873722E-1,4.0457635E0,-1.1685477E-2,1.18289046E-1,1.3296532E1,3.647189E0,2.8016592E1,4.861112E0,-1.1479803E-2,7.705664E0],"categories":[],"categories_nodes":[],"categories_segments":[],"categories_sizes":[],"default_left":[0,0,0,0,0,0,0,0,0,0,0,0,0,0,0,0,0,0,0,0,0,0,0,0,0,0,0,0,0,0,0,0,0,0,0,0,0,0,0,0,0,0,0,0,0,0,0,0,0,0,0,0,0,0,0,0,0,0,0,0,0,0,0,0,0,0,0,0,0,0,0,0,0,0,0,0,0,0,0,0,0,0,0,0,0,0,0,0,0,0,0,0,0,0,0,0,0,0,0,0,0],"id":1,"left_children":[1,3,5,7,9,11,13,15,17,19,21,23,25,27,29,31,33,35,37,39,41,43,45,47,49,51,53,55,-1,57,-1,59,61,63,65,67,69,71,73,75,77,79,81,83,85,87,89,91,-1,93,-1,-1,95,-1,97,-1,-1,99,-1,-1,-1,-1,-1,-1,-1,-1,-1,-1,-1,-1,-1,-1,-1,-1,-1,-1,-1,-1,-1,-1,-1,-1,-1,-1,-1,-1,-1,-1,-1,-1,-1,-1,-1,-1,-1,-1,-1,-1,-1,-1,-1],"loss_changes":[1.9812624E7,5.3370705E6,2.973794E6,1.78005E6,1.901226E6,3.14791E5,1.714616E6,5.968053E5,1.0802442E6,5.820289E4,4.58932E5,3.7904902E3,6.0227875E4,5.57384E5,4.1928212E5,2.8596128E5,2.535625E5,3.21793E5,1.2913841E6,5.230246E3,3.0721094E4,4.7752875E5,2.317715E5,8.003965E2,1.7282448E1,5.16775E3,8.899375E4,2.1525825E5,0E0,1.3808602E4,0E0,7.240939E4,1.0712892E5,6.930534E4,9.3023125E5,6.3043844E4,1.93076E5,5.8935594E4,4.3174725E5,7.686014E2,2.8804492E3,9.734578E3,1.3252039E4,6.298506E2,1.9277488E5,1.7807E5,3.8934875E4,1.9421484E2,0E0,1.8056564E0,0E0,0E0,2.8616406E3,0E0,8.767625E3,0E0,0E0,5.214793E3,0E0,0E0,0E0,0E0,0E0,0E0,0E0,0E0,0E0,0E0,0E0,0E0,0E0,0E0,0E0,0E0,0E0,0E0,0E0,0E0,0E0,0E0,0E0,0E0,0E0,0E0,0E0,0E0,0E0,0E0,0E0,0E0,0E0,0E0,0E0,0E0,0E0,0E0,0E0,0E0,0E0,0E0,0E0],"parents":[2147483647,0,0,1,1,2,2,3,3,4,4,5,5,6,6,7,7,8,8,9,9,10,10,11,11,12,12,13,13,14,14,15,15,16,16,17,17,18,18,19,19,20,20,21,21,22,22,23,23,24,24,25,25,26,26,27,27,29,29,31,31,32,32,33,33,34,34,35,35,36,36,37,37,38,38,39,39,40,40,41,41,42,42,43,43,44,44,45,45,46,46,47,47,49,49,52,52,54,54,57,57],"right_children":[2,4,6,8,10,12,14,16,18,20,22,24,26,28,30,32,34,36,38,40,42,44,46,48,50,52,54,56,-1,58,-1,60,62,64,66,68,70,72,74,76,78,80,82,84,86,88,90,92,-1,94,-1,-1,96,-1,98,-1,-1,100,-1,-1,-1,-1,-1,-1,-1,-1,-1,-1,-1,-1,-1,-1,-1,-1,-1,-1,-1,-1,-1,-1,-1,-1,-1,-1,-1,-1,-1,-1,-1,-1,-1,-1,-1,-1,-1,-1,-1,-1,-1,-1,-1],"split_conditions":[2.83E2,8.6E1,5.932617E-1,4.1757812E0,7.03125E0,1E0,2.5E1,4E0,7.03125E0,6.9E1,1.4111328E0,3.743E3,3.6572266E-1,7.3535156E-1,2.7E1,8.598633E-1,7.03125E0,6.9677734E-1,1.9464E4,4.1757812E0,1.56E2,7.002E3,1.2E1,1.9226074E-2,5.9033203E-1,1.6748047E0,1.5359375E1,3.2792969E0,5.6210266E1,7.76E2,2.9661407E1,4.3969727E-1,6.508789E-1,1.2285156E0,3.2E1,5.52E2,6.035156E-1,8E0,6E0,1.8447266E0,1.7294922E0,1.1748047E0,7.3E1,1.4E1,3.7158203E-1,1.06E2,1.853E3,1.4863281E0,3.028905E-1,3E0,4.7765493E-1,1.5497134E0,4.67E2,1.0672819E1,2.73E2,5.548914E-2,3.4531654E1,6.738281E-1,-2.3010252E-2,-1.7379405E-2,1.1715097E-2,5.6234866E-2,2.4286044E-1,1.4961067E-1,3.199114E-1,1.1109362E0,1.7424103E1,1.9803664E-1,1.3152995E1,5.191784E-1,1.1218785E0,1.0061125E0,2.0377629E0,1.7061056E1,6.001204E0,1.6818303E0,1.7129505E-1,1.7044318E0,6.953394E-1,7.2932065E-1,4.5722585E0,1.3281852E-1,1.2704369E1,2.2955701E0,3.1714377E-1,1.6152925E1,4.498063E1,7.794399E0,1.2019914E1,-2.120817E-1,1.94194E1,6.873722E-1,4.0457635E0,-1.1685477E-2,1.18289046E-1,1.3296532E1,3.647189E0,2.8016592E1,4.861112E0,-1.1479803E-2,7.705664E0],"split_indices":[18,18,10,5,14,19,0,18,14,19,12,3,10,8,0,5,14,14,3,5,18,3,1,7,8,5,6,16,0,19,0,14,8,14,0,19,8,1,0,6,11,14,19,0,8,19,3,12,0,1,0,0,18,0,6,0,0,8,0,0,0,0,0,0,0,0,0,0,0,0,0,0,0,0,0,0,0,0,0,0,0,0,0,0,0,0,0,0,0,0,0,0,0,0,0,0,0,0,0,0,0],"split_type":[0,0,0,0,0,0,0,0,0,0,0,0,0,0,0,0,0,0,0,0,0,0,0,0,0,0,0,0,0,0,0,0,0,0,0,0,0,0,0,0,0,0,0,0,0,0,0,0,0,0,0,0,0,0,0,0,0,0,0,0,0,0,0,0,0,0,0,0,0,0,0,0,0,0,0,0,0,0,0,0,0,0,0,0,0,0,0,0,0,0,0,0,0,0,0,0,0,0,0,0,0],"sum_hessian":[8.097044E6,8.096878E6,1.66E2,8.096042E6,8.36E2,5.6E1,1.1E2,8.026552E6,6.949E4,3.23E2,5.13E2,1.6E1,4E1,8.3E1,2.7E1,7.921706E6,1.04846E5,6.6566E4,2.924E3,2.74E2,4.9E1,2.1E1,4.92E2,1.1E1,5E0,1.5E1,2.5E1,2E1,6.3E1,1.1E1,1.6E1,7.499055E6,4.22651E5,1.03226E5,1.62E3,3.3234E4,3.3332E4,2.39E3,5.34E2,4.1E1,2.33E2,4.3E1,6E0,6E0,1.5E1,4.56E2,3.6E1,1E1,1E0,4E0,1E0,1E0,1.4E1,8E0,1.7E1,2E0,1.8E1,6E0,5E0,6.514345E6,9.8471E5,3.89255E5,3.3396E4,6.5648E4,3.7578E4,1.586E3,3.4E1,3.3232E4,2E0,2.6694E4,6.638E3,1.51E3,8.8E2,3.7E1,4.97E2,2E0,3.9E1,1.96E2,3.7E1,9E0,3.4E1,1E0,5E0,2E0,4E0,7E0,8E0,1.82E2,2.74E2,1E0,3.5E1,1E0,9E0,1E0,3E0,1.2E1,2E0,1.6E1,1E0,1E0,5E0],"tree_param":{"num_deleted":"0","num_feature":"23","num_nodes":"101","size_leaf_vector":"1"}},{"base_weights":[2.5296273E-5,-7.23126E-3,3.34303E2,-1.87265E-2,6.73424E1,1.7501074E2,4.205758E2,-6.170082E-2,6.7498064E0,3.594828E1,9.723648E1,4.541093E1,2.4448369E2,4.6153323E2,2.3300203E2,-1.1777135E-1,1.1682779E0,5.159646E0,1.5015468E1,3.27247E1,1.3505421E2,7.8270035E1,1.443555E2,8.375218E1,1.8324E1,1.3806876E2,3.011676E2,2.9624008E2,5.0089743E2,2.8451715E1,2.94099E1,-1.1798981E-1,1.22071976E2,8.47957E-1,2.2807431E0,4.3842373E0,7.2735505E0,4.5594482E1,1.3773815E1,4.149791E1,2.3165577E1,9.6869415E1,2.6252043E1,6.406847E1,9.537228E1,3.1122043E2,1.318005E2,-2.5566518E-2,9.339645E0,2.65941E1,-8.3073986E-1,1.8159316E0,1.5126325E1,8.41799E1,3.463092E2,3.106946E2,-1.3767657E-1,3.841781E0,5.133681E2,-1.8067937E0,5.518022E0,-1.5407224E-2,1.6463531E-2,-7.100927E-2,1.7253466E1,6.942677E-2,1.4813806E-1,2.2775836E-1,9.067305E0,3.7991595E-1,5.596207E-1,5.8468354E-1,8.971488E-1,3.2689445E0,3.0929564E1,1.1947373E0,2.200883E0,3.7105424E0,7.502051E0,4.958409E0,2.011912E0,1.1744787E-1,1.0816758E1,1.4913924E0,6.6918497E0,1.4815628E1,9.067528E0,6.448621E0,3.754687E1,9.463656E0,1.5361217E1,3.6020725E0,-5.820203E-2,1.2295412E-2,-1.0339197E-1,9.370216E0,1.0647647E0,8.36639E0,3.6647606E1,4.684808E0,3.1988234E1,5.173535E1,8.8251705E0,-2.906992E-1,-1.5439214E-2],"categories":[],"categories_nodes":[],"categories_segments":[],"categories_sizes":[],"default_left":[0,0,0,0,0,0,0,0,0,0,0,0,0,0,0,0,0,0,0,0,0,0,0,0,0,0,0,0,0,0,0,0,0,0,0,0,0,0,0,0,0,0,0,0,0,0,0,0,0,0,0,0,0,0,0,0,0,0,0,0,0,0,0,0,0,0,0,0,0,0,0,0,0,0,0,0,0,0,0,0,0,0,0,0,0,0,0,0,0,0,0,0,0,0,0,0,0,0,0,0,0,0,0,0,0],"id":2,"left_children":[1,3,5,7,9,11,13,15,17,19,21,23,25,27,29,31,33,35,37,39,41,43,45,47,49,51,53,55,57,-1,59,61,63,65,67,69,71,73,75,77,79,81,-1,83,85,87,89,-1,-1,91,93,-1,-1,95,97,99,-1,-1,101,103,-1,-1,-1,-1,-1,-1,-1,-1,-1,-1,-1,-1,-1,-1,-1,-1,-1,-1,-1,-1,-1,-1,-1,-1,-1,-1,-1,-1,-1,-1,-1,-1,-1,-1,-1,-1,-1,-1,-1,-1,-1,-1,-1,-1,-1],"loss_changes":[1.9642792E7,6.2686825E6,2.286018E6,2.3547922E6,1.2906345E6,5.635441E5,6.77292E5,5.547952E5,6.7118975E5,2.084415E5,6.1176E5,2.3014762E4,1.788115E5,3.29776E5,2.3446362E5,2.0540042E5,1.2497906E5,7.0161E4,3.1174762E5,5.3473E4,5.6344406E4,1.12586E5,3.4850375E5,7.9472188E3,2.6933623E3,2.3267688E4,2.0106925E5,9.4349375E4,3.7343E5,0E0,5.611146E3,7.8459664E4,8.545392E4,2.650914E4,2.1534438E4,2.2189812E4,2.7751125E4,1.0737936E6,1.1867225E5,4.5284125E4,2.3901469E4,2.0056656E4,0E0,3.785825E4,3.261225E4,1.5968375E5,1.28273E5,0E0,0E0,3.0487969E3,1.5327454E0,0E0,0E0,2.9781719E3,5.6067E4,2.3984875E4,0E0,0E0,3.6262E4,7.859823E0,0E0,0E0,0E0,0E0,0E0,0E0,0E0,0E0,0E0,0E0,0E0,0E0,0E0,0E0,0E0,0E0,0E0,0E0,0E0,0E0,0E0,0E0,0E0,0E0,0E0,0E0,0E0,0E0,0E0,0E0,0E0,0E0,0E0,0E0,0E0,0E0,0E0,0E0,0E0,0E0,0E0,0E0,0E0,0E0,0E0],"parents":[2147483647,0,0,1,1,2,2,3,3,4,4,5,5,6,6,7,7,8,8,9,9,10,10,11,11,12,12,13,13,14,14,15,15,16,16,17,17,18,18,19,19,20,20,21,21,22,22,23,23,24,24,25,25,26,26,27,27,28,28,30,30,31,31,32,32,33,33,34,34,35,35,36,36,37,37,38,38,39,39,40,40,41,41,43,43,44,44,45,45,46,46,49,49,50,50,53,53,54,54,55,55,58,58,59,59],"right_children":[2,4,6,8,10,12,14,16,18,20,22,24,26,28,30,32,34,36,38,40,42,44,46,48,50,52,54,56,58,-1,60,62,64,66,68,70,72,74,76,78,80,82,-1,84,86,88,90,-1,-1,92,94,-1,-1,96,98,100,-1,-1,102,104,-1,-1,-1,-1,-1,-1,-1,-1,-1,-1,-1,-1,-1,-1,-1,-1,-1,-1,-1,-1,-1,-1,-1,-1,-1,-1,-1,-1,-1,-1,-1,-1,-1,-1,-1,-1,-1,-1,-1,-1,-1,-1,-1,-1,-1],"split_conditions":[2.83E2,6.5E1,5.9472656E-1,7E0,7E0,1.7294922E0,2.5E1,2E0,1.9E1,2.7324219E0,1.45E2,1.7E1,5E0,7.265625E-1,4.91E2,2.27E2,4E0,1.2E1,1.2607422E0,1.3E1,4.572754E-1,8E0,1.4111328E0,7E0,8.544922E-1,8.7E1,3.6376953E-1,6.87E2,9.257E3,2.8451715E1,1.0878906E0,4.1992188E-1,4.2211914E-1,3E0,8.2E2,6E0,3E0,3.2E1,8.1953125E0,1.53E2,2.7558594E0,7.4E1,2.6252043E1,7.553711E-1,1.5390625E0,4.7E1,5E0,-2.5566518E-2,9.339645E0,6.25E2,6.3398438E0,1.8159316E0,1.5126325E1,1.2E1,8.076172E-1,5.3515625E-1,-1.3767657E-1,3.841781E0,5.5E1,2.6E1,5.518022E0,-1.5407224E-2,1.6463531E-2,-7.100927E-2,1.7253466E1,6.942677E-2,1.4813806E-1,2.2775836E-1,9.067305E0,3.7991595E-1,5.596207E-1,5.8468354E-1,8.971488E-1,3.2689445E0,3.0929564E1,1.1947373E0,2.200883E0,3.7105424E0,7.502051E0,4.958409E0,2.011912E0,1.1744787E-1,1.0816758E1,1.4913924E0,6.6918497E0,1.4815628E1,9.067528E0,6.448621E0,3.754687E1,9.463656E0,1.5361217E1,3.6020725E0,-5.820203E-2,1.2295412E-2,-1.0339197E-1,9.370216E0,1.0647647E0,8.36639E0,3.6647606E1,4.684808E0,3.1988234E1,5.173535E1,8.8251705E0,-2.906992E-1,-1.5439214E-2],"split_indices":[17,17,9,17,15,11,0,17,17,12,17,0,1,8,19,19,17,17,5,0,8,1,12,0,8,18,8,17,3,0,8,5,9,19,18,19,19,0,7,17,5,17,0,7,12,18,1,0,0,17,5,0,0,0,7,8,0,0,2,2,0,0,0,0,0,0,0,0,0,0,0,0,0,0,0,0,0,0,0,0,0,0,0,0,0,0,0,0,0,0,0,0,0,0,0,0,0,0,0,0,0,0,0,0,0],"split_type":[0,0,0,0,0,0,0,0,0,0,0,0,0,0,0,0,0,0,0,0,0,0,0,0,0,0,0,0,0,0,0,0,0,0,0,0,0,0,0,0,0,0,0,0,0,0,0,0,0,0,0,0,0,0,0,0,0,0,0,0,0,0,0,0,0,0,0,0,0,0,0,0,0,0,0,0,0,0,0,0,0,0,0,0,0,0,0,0,0,0,0,0,0,0,0,0,0,0,0,0,0,0,0,0,0],"sum_hessian":[8.097149E6,8.096975E6,1.74E2,8.095595E6,1.38E3,6.3E1,1.11E2,8.044521E6,5.1074E4,6.75E2,7.05E2,2.3E1,4E1,8.9E1,2.2E1,7.693789E6,3.50732E5,4.2836E4,8.238E3,6.56E2,1.9E1,5.06E2,1.99E2,8E0,1.5E1,1.6E1,2.4E1,2E1,6.9E1,1.7E1,5E0,7.693777E6,1.2E1,2.72323E5,7.8409E4,3.1344E4,1.1492E4,3.19E2,7.919E3,3.39E2,3.17E2,1.7E1,2E0,2.81E2,2.25E2,1.1E1,1.88E2,1E0,7E0,1E1,5E0,2E0,1.4E1,5E0,1.9E1,1.9E1,1E0,2E0,6.7E1,3E0,2E0,6.822728E6,8.71049E5,4E0,8E0,2.19153E5,5.317E4,7.8408E4,1E0,2.1144E4,1.02E4,6.249E3,5.243E3,3.06E2,1.3E1,6.485E3,1.434E3,3.03E2,3.6E1,3E1,2.87E2,2E0,1.5E1,1.6E1,2.65E2,1.4E1,2.11E2,3E0,8E0,7.3E1,1.15E2,7E0,3E0,1E0,4E0,4E0,1E0,2E0,1.7E1,1E0,1.8E1,6.6E1,1E0,1E0,2E0],"tree_param":{"num_deleted":"0","num_feature":"23","num_nodes":"105","size_leaf_vector":"1"}},{"base_weights":[2.7230004E-4,-6.144992E-3,3.1158542E2,-1.6764E-2,6.0885532E1,1.5786853E2,3.9537927E2,-6.0799636E-2,5.3017154E0,3.228513E1,8.768835E1,4.0616543E1,2.1231819E2,4.262859E2,2.4020581E2,-1.0589843E-1,9.739471E-1,4.404213E0,1.5952437E1,2.7745903E1,1.01123665E2,7.179303E1,1.26602036E2,9.199122E0,1.5640864E1,1.3471756E2,2.8674582E2,3.6372802E0,4.347325E2,2.837113E1,3.2704292E1,1.3858789E-1,-1.4523096E-1,5.9725076E-1,1.5033572E0,3.747372E0,7.880303E0,1.3469807E1,3.135436E1,3.736543E1,1.9156855E1,1.697726E2,7.011281E1,6.505568E1,1.04634895E2,1.0269846E2,1.6376686E2,3.200088E1,3.9005973E0,1.113879E1,1.5163518E2,2.454744E0,3.1384808E2,3.5884357E2,5.257604E2,-2.129926E0,5.224294E1,7.885181E-2,-2.9467165E-3,-1.7431442E-2,9.670888E-3,4.4287484E-2,1.01952076E-1,1.3960405E-1,2.8894454E-1,3.1217635E-1,4.8976335E-1,7.463094E-1,3.6453743E0,1.2644725E0,3.0049815E0,4.0735374E1,2.982683E0,2.7900035E0,4.895826E0,1.0313472E0,2.4167628E0,7.941429E0,2.159812E1,5.2041965E0,1.2343665E1,5.6236186E0,8.290025E0,1.298061E-2,1.058652E1,1.0693805E1,1.0703921E0,4.034452E0,1.7297062E1,3.8192265E0,-1.3217397E-1,1.3315953E0,8.501323E-2,1.7192682E0,-4.2096886E-1,1.6634611E1,4.071275E0,7.921041E0,3.347962E1,3.6598545E1,-1.3268326E-1,5.343794E1,8.5160055E0,-2.8015605E-1,-1.0085307E-2,1.0815942E0,6.0374613E0],"categories":[],"categories_nodes":[],"categories_segments":[],"categories_sizes":[],"default_left":[0,0,0,0,0,0,0,0,0,0,0,0,0,0,0,0,0,0,0,0,0,0,0,0,0,0,0,0,0,0,0,0,0,0,0,0,0,0,0,0,0,0,0,0,0,0,0,0,0,0,0,0,0,0,0,0,0,0,0,0,0,0,0,0,0,0,0,0,0,0,0,0,0,0,0,0,0,0,0,0,0,0,0,0,0,0,0,0,0,0,0,0,0,0,0,0,0,0,0,0,0,0,0,0,0,0,0],"id":3,"left_children":[1,3,5,7,9,11,13,15,17,19,21,23,25,27,29,31,33,35,37,39,41,43,45,-1,47,49,51,-1,53,-1,55,57,59,61,63,65,67,69,71,73,75,77,79,81,83,85,87,89,91,93,95,-1,97,99,101,103,105,-1,-1,-1,-1,-1,-1,-1,-1,-1,-1,-1,-1,-1,-1,-1,-1,-1,-1,-1,-1,-1,-1,-1,-1,-1,-1,-1,-1,-1,-1,-1,-1,-1,-1,-1,-1,-1,-1,-1,-1,-1,-1,-1,-1,-1,-1,-1,-1,-1,-1],"loss_changes":[1.6190008E7,5.2354215E6,2.038238E6,1.8959455E6,1.077238E6,3.7912488E5,3.3206E5,3.7467288E5,6.353311E5,2.0935075E5,4.34179E5,2.5388742E4,1.7329325E5,2.57944E5,1.8010775E5,7.3983055E4,6.686978E4,1.3993988E5,1.967825E5,5.209628E4,6.797869E4,1.03265E5,1.559E5,0E0,2.9992354E3,4.670025E4,1.2686025E5,0E0,2.53973E5,0E0,4.1139824E3,1.1645417E5,4.6632875E4,1.2770828E4,2.0728812E4,3.7084812E4,1.15666375E5,6.0231688E4,3.8974525E5,3.0821469E4,1.4838969E4,1.8950281E4,1.9313234E4,6.0544625E4,1.10019375E4,4.9376125E4,7.720175E4,1.4828105E3,3.1778946E2,5.692137E2,2.1970406E4,0E0,4.0680125E4,1.339885E5,5.2024E4,4.6238365E0,1.1821484E2,0E0,0E0,0E0,0E0,0E0,0E0,0E0,0E0,0E0,0E0,0E0,0E0,0E0,0E0,0E0,0E0,0E0,0E0,0E0,0E0,0E0,0E0,0E0,0E0,0E0,0E0,0E0,0E0,0E0,0E0,0E0,0E0,0E0,0E0,0E0,0E0,0E0,0E0,0E0,0E0,0E0,0E0,0E0,0E0,0E0,0E0,0E0,0E0,0E0,0E0],"parents":[2147483647,0,0,1,1,2,2,3,3,4,4,5,5,6,6,7,7,8,8,9,9,10,10,11,11,12,12,13,13,14,14,15,15,16,16,17,17,18,18,19,19,20,20,21,21,22,22,24,24,25,25,26,26,28,28,30,30,31,31,32,32,33,33,34,34,35,35,36,36,37,37,38,38,39,39,40,40,41,41,42,42,43,43,44,44,45,45,46,46,47,47,48,48,49,49,50,50,52,52,53,53,54,54,55,55,56,56],"right_children":[2,4,6,8,10,12,14,16,18,20,22,24,26,28,30,32,34,36,38,40,42,44,46,-1,48,50,52,-1,54,-1,56,58,60,62,64,66,68,70,72,74,76,78,80,82,84,86,88,90,92,94,96,-1,98,100,102,104,106,-1,-1,-1,-1,-1,-1,-1,-1,-1,-1,-1,-1,-1,-1,-1,-1,-1,-1,-1,-1,-1,-1,-1,-1,-1,-1,-1,-1,-1,-1,-1,-1,-1,-1,-1,-1,-1,-1,-1,-1,-1,-1,-1,-1,-1,-1,-1,-1,-1,-1],"split_conditions":[3.02E2,6.5E1,5.9472656E-1,6E0,7E0,1.6904297E0,2.5E1,2E0,2.4E1,7.1E1,1.45E2,2E1,7E0,9E0,6.91E2,3.1E1,3E0,1.4E1,7.03125E0,1.2E1,6E0,1.1E1,9E0,9.199122E0,4.84375E0,8.7E1,3.6376953E-1,3.6372802E0,9.560547E-1,2.837113E1,1.0878906E0,2.3254395E-2,3.400879E-1,1.3115234E0,1.2E1,9E0,3.2E1,7.1E1,-7.6171875E-1,9.3E1,3.671875E-1,2.5854492E-1,1.86E2,1.06E2,6.97E3,8.2666016E-1,4.6E1,8.544922E-1,2E0,1.6E1,2.9E1,2.454744E0,8.076172E-1,8.99E2,5.5E1,2.6E1,2.9E1,7.885181E-2,-2.9467165E-3,-1.7431442E-2,9.670888E-3,4.4287484E-2,1.01952076E-1,1.3960405E-1,2.8894454E-1,3.1217635E-1,4.8976335E-1,7.463094E-1,3.6453743E0,1.2644725E0,3.0049815E0,4.0735374E1,2.982683E0,2.7900035E0,4.895826E0,1.0313472E0,2.4167628E0,7.941429E0,2.159812E1,5.2041965E0,1.2343665E1,5.6236186E0,8.290025E0,1.298061E-2,1.058652E1,1.0693805E1,1.0703921E0,4.034452E0,1.7297062E1,3.8192265E0,-1.3217397E-1,1.3315953E0,8.501323E-2,1.7192682E0,-4.2096886E-1,1.6634611E1,4.071275E0,7.921041E0,3.347962E1,3.6598545E1,-1.3268326E-1,5.343794E1,8.5160055E0,-2.8015605E-1,-1.0085307E-2,1.0815942E0,6.0374613E0],"split_indices":[17,17,9,17,15,11,0,17,17,4,17,4,1,4,18,4,17,17,16,0,0,1,1,0,14,18,8,0,10,0,8,9,14,5,1,17,0,4,20,17,8,8,17,17,3,10,18,8,1,0,0,0,7,17,2,2,2,0,0,0,0,0,0,0,0,0,0,0,0,0,0,0,0,0,0,0,0,0,0,0,0,0,0,0,0,0,0,0,0,0,0,0,0,0,0,0,0,0,0,0,0,0,0,0,0,0,0],"split_type":[0,0,0,0,0,0,0,0,0,0,0,0,0,0,0,0,0,0,0,0,0,0,0,0,0,0,0,0,0,0,0,0,0,0,0,0,0,0,0,0,0,0,0,0,0,0,0,0,0,0,0,0,0,0,0,0,0,0,0,0,0,0,0,0,0,0,0,0,0,0,0,0,0,0,0,0,0,0,0,0,0,0,0,0,0,0,0,0,0,0,0,0,0,0,0,0,0,0,0,0,0,0,0,0,0,0,0],"sum_hessian":[8.096892E6,8.096727E6,1.65E2,8.095317E6,1.41E3,6E1,1.05E2,8.028842E6,6.6475E4,6.84E2,7.26E2,2E1,4E1,8.5E1,2E1,7.693526E6,3.35316E5,6.1311E4,5.164E3,6.44E2,4E1,5.19E2,2.07E2,5E0,1.5E1,2.2E1,1.8E1,2E0,8.3E1,1.6E1,4E0,1.066193E6,6.627333E6,1.95917E5,1.39399E5,5.157E4,9.741E3,4.45E3,7.14E2,3.01E2,3.43E2,1E1,3E1,4.35E2,8.4E1,1.3E2,7.7E1,5E0,1E1,3E0,1.9E1,2E0,1.6E1,5E1,3.3E1,2E0,2E0,2.19048E5,8.47145E5,5.916156E6,7.11177E5,1.4347E5,5.2447E4,1.29385E5,1.0014E4,3.3407E4,1.8163E4,9.603E3,1.38E2,4.242E3,2.08E2,1E0,7.13E2,1.69E2,1.32E2,1.26E2,2.17E2,5E0,5E0,2.5E1,5E0,2.96E2,1.39E2,1E0,8.3E1,1.24E2,6E0,6E0,7.1E1,4E0,1E0,1E0,9E0,2E0,1E0,1.6E1,3E0,2E0,1.4E1,4.9E1,1E0,3.2E1,1E0,1E0,1E0,1E0,1E0],"tree_param":{"num_deleted":"0","num_feature":"23","num_nodes":"107","size_leaf_vector":"1"}},{"base_weights":[9.152555E-4,-5.226959E-3,2.8292615E2,-1.6773816E-2,4.5104877E1,1.5133322E2,3.5590594E2,-6.0898688E-2,3.9313211E0,2.441724E1,7.364575E1,3.4185314E1,2.1294456E2,2.876839E2,4.3674573E2,-6.1138827E-2,1.3966545E2,3.1042812E0,9.871691E0,2.067558E1,8.293719E1,6.035213E1,1.1978529E2,8.116726E0,1.1552906E1,1.17387665E2,2.6800446E2,2.9610834E2,1.018006E1,4.517012E2,5.0348175E1,-9.535101E-2,7.8203565E-1,1.664044E2,-9.327406E-1,2.5290613E0,4.625552E0,8.276374E0,1.9047506E1,2.7903805E1,1.4874974E1,3.6197227E1,1.0656759E2,2.9155362E2,5.8911835E1,4.2848442E1,1.12601585E2,3.5991056E0,4.86201E0,1.05044775E1,1.3656558E2,5.8486416E1,2.911083E2,3.0083093E2,-9.71953E-3,1.6572145E0,-2.6999527E-1,-1.2787108E-1,4.6187225E2,1.0423666E0,5.8184924E0,-1.2276E-2,2.0411974E-2,5.4606803E-2,1.2350275E-1,2.0161947E1,-2.87248E-1,2.5212878E-1,9.470755E0,4.3738365E-1,8.6758673E-1,6.9288176E-1,1.1605352E0,1.6256427E0,1.2370426E1,2.2378607E0,4.3322067E0,1.8605238E0,1.0978178E0,4.0059495E0,3.5388023E-1,9.407289E0,2.4600433E1,3.9257973E1,4.7153774E-1,5.1770625E0,8.055171E0,6.6946306E0,1.2798356E1,-1.0586227E0,9.5829576E-1,-9.969011E-2,1.9482523E0,2.5203576E0,1.4111071E1,7.4993987E0,-1.2825719E-1,7.917676E0,3.1624662E1,3.035409E0,3.0434692E1,3.6871353E1,5.469577E1],"categories":[],"categories_nodes":[],"categories_segments":[],"categories_sizes":[],"default_left":[0,0,0,0,0,0,0,0,0,0,0,0,0,0,0,0,0,0,0,0,0,0,0,0,0,0,0,0,0,0,0,0,0,0,0,0,0,0,0,0,0,0,0,0,0,0,0,0,0,0,0,0,0,0,0,0,0,0,0,0,0,0,0,0,0,0,0,0,0,0,0,0,0,0,0,0,0,0,0,0,0,0,0,0,0,0,0,0,0,0,0,0,0,0,0,0,0,0,0,0,0,0,0],"id":4,"left_children":[1,3,5,7,9,11,13,15,17,19,21,23,25,27,29,31,33,35,37,39,41,43,45,-1,47,49,51,53,55,57,59,61,63,65,-1,67,69,71,73,75,77,79,81,83,85,-1,87,-1,89,91,93,95,97,99,-1,-1,-1,-1,101,-1,-1,-1,-1,-1,-1,-1,-1,-1,-1,-1,-1,-1,-1,-1,-1,-1,-1,-1,-1,-1,-1,-1,-1,-1,-1,-1,-1,-1,-1,-1,-1,-1,-1,-1,-1,-1,-1,-1,-1,-1,-1,-1,-1],"loss_changes":[1.406909E7,4.216943E6,1.59326E6,1.4100029E6,1.2200955E6,4.6182012E5,3.9556E5,2.685891E5,4.3944538E5,2.6056369E5,5.207725E5,2.4676936E4,1.6967775E5,1.48431E5,2.36013E5,2.308979E5,5.753503E4,6.869631E4,1.5974562E5,4.6806938E4,7.247622E4,1.95843E5,3.426765E5,0E0,2.7595576E3,3.5927688E4,9.4764E4,8.92385E4,3.8795886E2,2.11854E5,1.0979492E2,6.313871E4,3.3361E4,7.110369E4,0E0,4.041375E4,2.189775E4,4.1649062E4,4.6902175E5,4.112572E4,8.838891E3,3.1259297E3,4.0794938E4,1.0562466E5,9.725475E4,0E0,1.1890675E5,0E0,1.4003766E3,5.2536035E2,1.7260312E3,4.862698E3,7.72415E4,4.34475E4,0E0,0E0,0E0,0E0,3.84E2,0E0,0E0,0E0,0E0,0E0,0E0,0E0,0E0,0E0,0E0,0E0,0E0,0E0,0E0,0E0,0E0,0E0,0E0,0E0,0E0,0E0,0E0,0E0,0E0,0E0,0E0,0E0,0E0,0E0,0E0,0E0,0E0,0E0,0E0,0E0,0E0,0E0,0E0,0E0,0E0,0E0,0E0,0E0,0E0],"parents":[2147483647,0,0,1,1,2,2,3,3,4,4,5,5,6,6,7,7,8,8,9,9,10,10,11,11,12,12,13,13,14,14,15,15,16,16,17,17,18,18,19,19,20,20,21,21,22,22,24,24,25,25,26,26,27,27,28,28,29,29,30,30,31,31,32,32,33,33,35,35,36,36,37,37,38,38,39,39,40,40,41,41,42,42,43,43,44,44,46,46,48,48,49,49,50,50,51,51,52,52,53,53,58,58],"right_children":[2,4,6,8,10,12,14,16,18,20,22,24,26,28,30,32,34,36,38,40,42,44,46,-1,48,50,52,54,56,58,60,62,64,66,-1,68,70,72,74,76,78,80,82,84,86,-1,88,-1,90,92,94,96,98,100,-1,-1,-1,-1,102,-1,-1,-1,-1,-1,-1,-1,-1,-1,-1,-1,-1,-1,-1,-1,-1,-1,-1,-1,-1,-1,-1,-1,-1,-1,-1,-1,-1,-1,-1,-1,-1,-1,-1,-1,-1,-1,-1,-1,-1,-1,-1,-1,-1],"split_conditions":[2.87E2,5E1,5.9472656E-1,5E0,3.2792969E0,1.7294922E0,5.88E2,2.8E2,1.6E1,7.1E1,1.45E2,2.1E1,5E0,1.2167969E0,2.5E1,2E0,3.02E2,9E0,7.03125E0,1.2E1,7.7E1,1.0214844E0,9E0,8.116726E0,1.1352539E-1,8.7E1,1.2402344E0,7.72E2,2.2E1,3.25E0,1.1308594E0,5.292969E-1,8.979492E-1,5E0,-9.327406E-1,2.59E2,7.1E1,2.7E1,3.2E1,9.3E1,1.6269531E0,1E1,7.167969E-1,2.5E1,1.06E2,4.2848442E1,3E0,3.5991056E0,4.0844727E-1,2E0,2.697754E-1,2.2E1,3.6132812E-1,9.257E3,-9.71953E-3,1.6572145E0,-2.6999527E-1,-1.2787108E-1,8E0,1.0423666E0,5.8184924E0,-1.2276E-2,2.0411974E-2,5.4606803E-2,1.2350275E-1,2.0161947E1,-2.87248E-1,2.5212878E-1,9.470755E0,4.3738365E-1,8.6758673E-1,6.9288176E-1,1.1605352E0,1.6256427E0,1.2370426E1,2.2378607E0,4.3322067E0,1.8605238E0,1.0978178E0,4.0059495E0,3.5388023E-1,9.407289E0,2.4600433E1,3.9257973E1,4.7153774E-1,5.1770625E0,8.055171E0,6.6946306E0,1.2798356E1,-1.0586227E0,9.5829576E-1,-9.969011E-2,1.9482523E0,2.5203576E0,1.4111071E1,7.4993987E0,-1.2825719E-1,7.917676E0,3.1624662E1,3.035409E0,3.0434692E1,3.6871353E1,5.469577E1],"split_indices":[17,17,9,17,16,11,17,19,17,4,17,4,1,9,0,17,18,17,14,0,17,5,4,0,11,18,7,19,0,15,8,5,14,1,0,18,4,17,0,17,11,1,9,0,17,0,1,0,8,1,9,0,8,3,0,0,0,0,1,0,0,0,0,0,0,0,0,0,0,0,0,0,0,0,0,0,0,0,0,0,0,0,0,0,0,0,0,0,0,0,0,0,0,0,0,0,0,0,0,0,0,0,0],"split_type":[0,0,0,0,0,0,0,0,0,0,0,0,0,0,0,0,0,0,0,0,0,0,0,0,0,0,0,0,0,0,0,0,0,0,0,0,0,0,0,0,0,0,0,0,0,0,0,0,0,0,0,0,0,0,0,0,0,0,0,0,0,0,0,0,0,0,0,0,0,0,0,0,0,0,0,0,0,0,0,0,0,0,0,0,0,0,0,0,0,0,0,0,0,0,0,0,0,0,0,0,0,0,0],"sum_hessian":[8.095975E6,8.095801E6,1.74E2,8.093731E6,2.07E3,6.4E1,1.1E2,8.004275E6,8.9456E4,1.202E3,8.68E2,2.3E1,4.1E1,6.4E1,4.6E1,8.004263E6,1.2E1,7.8526E4,1.093E4,1.132E3,7E1,6.77E2,1.91E2,6E0,1.7E1,1.7E1,2.4E1,6.2E1,2E0,4.4E1,2E0,7.692152E6,3.12111E5,1E1,2E0,5.6984E4,2.1542E4,9.314E3,1.616E3,5.01E2,6.31E2,2.5E1,4.5E1,2E0,6.75E2,2E0,1.89E2,2E0,1.5E1,3E0,1.4E1,3E0,2.1E1,6.1E1,1E0,1E0,1E0,1E0,4.3E1,1E0,1E0,7.047163E6,6.44989E5,2.05216E5,1.06895E5,8E0,2E0,5.6981E4,3E0,2.0285E4,1.257E3,6.634E3,2.68E3,1.576E3,4E1,3.72E2,1.29E2,3.19E2,3.12E2,2.2E1,3E0,4.4E1,1E0,1E0,1E0,5.12E2,1.63E2,5E1,1.39E2,3E0,1.2E1,2E0,1E0,1E0,1.3E1,2E0,1E0,3E0,1.8E1,1E0,6E1,2.5E1,1.8E1],"tree_param":{"num_deleted":"0","num_feature":"23","num_nodes":"103","size_leaf_vector":"1"}},{"base_weights":[1.764673E-4,-5.5557033E-3,2.567095E2,-1.5840862E-2,4.019102E1,1.2964235E2,3.1953067E2,-4.936888E-2,4.0780063E0,2.1698671E1,6.503452E1,5.6421745E1,2.0751027E2,2.8687384E2,5.539214E1,-8.577638E-2,7.848222E-1,3.4883518E0,1.1259138E1,1.8622753E1,5.8585102E1,5.401927E1,1.04233116E2,1.0177049E2,1.722014E1,1.5377941E1,2.203805E2,3.9633026E2,2.4588806E2,-8.596953E-2,1.0059633E2,4.6386874E-1,1.234636E0,2.7790604E0,5.247227E0,9.491408E0,1.8409843E1,2.5430824E1,1.3067343E1,2.3362097E1,8.31774E1,4.8763138E1,8.2703865E1,6.8040184E1,1.2799852E2,6.1030014E1,2.0334583E1,7.775639E0,4.611267E1,-1.3950799E0,3.490605E0,1.3080489E2,2.5788083E2,1.4859209E1,4.2840107E1,1.0815994E1,2.5140608E2,-1.1369957E-2,1.7709984E-2,-3.4297585E-1,1.545212E1,2.1684125E-2,6.658956E-2,1.01277985E-1,1.9629322E-1,2.5763088E-1,5.237885E-1,4.334972E-1,7.216763E-1,8.362217E-1,1.4665316E0,1.0572356E0,2.455517E0,1.9796499E0,4.12557E0,1.3861016E0,-3.2207185E-1,3.258581E0,1.3955684E0,5.5154643E0,1.1865002E1,1.8652555E1,4.726283E0,3.0580695E0,8.824603E0,6.9058603E-1,7.663009E0,9.950428E0,1.5082148E1,7.189757E0,1.3912562E0,-2.112989E-1,1.4555582E0,6.499577E-1,5.3616023E0,2.4289484E0,1.3673886E1,2.671905E1,3.6948876E0,-1.23233415E-1,1.5971103E0,1.7570524E1,2.7751648E1],"categories":[],"categories_nodes":[],"categories_segments":[],"categories_sizes":[],"default_left":[0,0,0,0,0,0,0,0,0,0,0,0,0,0,0,0,0,0,0,0,0,0,0,0,0,0,0,0,0,0,0,0,0,0,0,0,0,0,0,0,0,0,0,0,0,0,0,0,0,0,0,0,0,0,0,0,0,0,0,0,0,0,0,0,0,0,0,0,0,0,0,0,0,0,0,0,0,0,0,0,0,0,0,0,0,0,0,0,0,0,0,0,0,0,0,0,0,0,0,0,0,0,0],"id":5,"left_children":[1,3,5,7,9,11,13,15,17,19,21,23,25,27,-1,29,31,33,35,37,39,41,43,45,47,49,51,53,55,57,59,61,63,65,67,69,71,73,75,77,79,81,83,85,87,89,-1,91,93,-1,-1,95,97,-1,-1,99,101,-1,-1,-1,-1,-1,-1,-1,-1,-1,-1,-1,-1,-1,-1,-1,-1,-1,-1,-1,-1,-1,-1,-1,-1,-1,-1,-1,-1,-1,-1,-1,-1,-1,-1,-1,-1,-1,-1,-1,-1,-1,-1,-1,-1,-1,-1],"loss_changes":[1.1912111E7,3.3467125E6,1.370103E6,1.1108282E6,9.4885675E5,3.3723888E5,6.37444E5,2.4379319E5,2.78307E5,1.3307231E5,3.7126475E5,5.870989E4,6.7628125E4,3.16654E5,0E0,1.4959266E5,4.8462297E4,7.57705E4,6.2740812E4,4.104847E4,7.5200625E4,9.7360375E4,1.4963425E5,4.3399438E4,5.034075E3,3.0076106E3,3.396475E4,1.0073E5,1.03866E5,5.610904E4,8.371333E4,9.776797E3,2.2582188E4,2.1562531E4,3.1311688E4,2.3169969E4,4.7069938E4,4.250028E4,7.9610312E3,2.6503066E3,4.0943312E4,1.06403625E5,2.5519688E4,4.0953656E4,4.76075E4,5.2866875E3,0E0,1.2445668E3,8.0163574E2,0E0,0E0,1.5949531E3,1.9175125E4,0E0,0E0,2.6794855E2,7.59155E4,0E0,0E0,0E0,0E0,0E0,0E0,0E0,0E0,0E0,0E0,0E0,0E0,0E0,0E0,0E0,0E0,0E0,0E0,0E0,0E0,0E0,0E0,0E0,0E0,0E0,0E0,0E0,0E0,0E0,0E0,0E0,0E0,0E0,0E0,0E0,0E0,0E0,0E0,0E0,0E0,0E0,0E0,0E0,0E0,0E0,0E0],"parents":[2147483647,0,0,1,1,2,2,3,3,4,4,5,5,6,6,7,7,8,8,9,9,10,10,11,11,12,12,13,13,15,15,16,16,17,17,18,18,19,19,20,20,21,21,22,22,23,23,24,24,25,25,26,26,27,27,28,28,29,29,30,30,31,31,32,32,33,33,34,34,35,35,36,36,37,37,38,38,39,39,40,40,41,41,42,42,43,43,44,44,45,45,47,47,48,48,51,51,52,52,55,55,56,56],"right_children":[2,4,6,8,10,12,14,16,18,20,22,24,26,28,-1,30,32,34,36,38,40,42,44,46,48,50,52,54,56,58,60,62,64,66,68,70,72,74,76,78,80,82,84,86,88,90,-1,92,94,-1,-1,96,98,-1,-1,100,102,-1,-1,-1,-1,-1,-1,-1,-1,-1,-1,-1,-1,-1,-1,-1,-1,-1,-1,-1,-1,-1,-1,-1,-1,-1,-1,-1,-1,-1,-1,-1,-1,-1,-1,-1,-1,-1,-1,-1,-1,-1,-1,-1,-1,-1,-1],"split_conditions":[2.83E2,5E1,5.9472656E-1,6E0,3.2792969E0,1.16E2,1.2E1,2E0,2.3E1,2.0434E4,1.45E2,2.2E1,5.93E3,1.1E1,5.539214E1,2.27E2,3E0,1.1E1,7.03125E0,1.2E1,7.9E1,1.1E1,5E0,5.07E2,5.8E1,1E1,5E0,3.84E2,9.257E3,1E0,4.2211914E-1,4.736328E-1,4E0,1.2E1,8E0,4.5E0,8.065E3,9.3E1,2.7324219E0,2.1372E4,2.5927734E-1,9.802246E-2,3.1E1,6.2E1,3.3447266E-1,1.2402344E0,2.0334583E1,3.2E1,2.3E1,-1.3950799E0,3.490605E0,2.697754E-1,2.9E1,1.4859209E1,4.2840107E1,1.7E1,4E2,-1.1369957E-2,1.7709984E-2,-3.4297585E-1,1.545212E1,2.1684125E-2,6.658956E-2,1.01277985E-1,1.9629322E-1,2.5763088E-1,5.237885E-1,4.334972E-1,7.216763E-1,8.362217E-1,1.4665316E0,1.0572356E0,2.455517E0,1.9796499E0,4.12557E0,1.3861016E0,-3.2207185E-1,3.258581E0,1.3955684E0,5.5154643E0,1.1865002E1,1.8652555E1,4.726283E0,3.0580695E0,8.824603E0,6.9058603E-1,7.663009E0,9.950428E0,1.5082148E1,7.189757E0,1.3912562E0,-2.112989E-1,1.4555582E0,6.499577E-1,5.3616023E0,2.4289484E0,1.3673886E1,2.671905E1,3.6948876E0,-1.23233415E-1,1.5971103E0,1.7570524E1,2.7751648E1],"split_indices":[17,17,9,17,16,19,1,17,17,3,17,0,3,0,0,19,17,17,14,0,17,1,1,17,19,0,1,17,3,17,9,14,19,1,19,7,3,17,12,3,9,7,19,19,8,7,0,2,0,0,0,9,0,0,0,0,17,0,0,0,0,0,0,0,0,0,0,0,0,0,0,0,0,0,0,0,0,0,0,0,0,0,0,0,0,0,0,0,0,0,0,0,0,0,0,0,0,0,0,0,0,0,0],"split_type":[0,0,0,0,0,0,0,0,0,0,0,0,0,0,0,0,0,0,0,0,0,0,0,0,0,0,0,0,0,0,0,0,0,0,0,0,0,0,0,0,0,0,0,0,0,0,0,0,0,0,0,0,0,0,0,0,0,0,0,0,0,0,0,0,0,0,0,0,0,0,0,0,0,0,0,0,0,0,0,0,0,0,0,0,0,0,0,0,0,0,0,0,0,0,0,0,0,0,0,0,0,0,0],"sum_hessian":[8.095203E6,8.095024E6,1.79E2,8.092955E6,2.069E3,6.1E1,1.18E2,8.027215E6,6.574E4,1.188E3,8.81E2,3.3E1,2.8E1,1.07E2,1.1E1,7.691527E6,3.35688E5,6.0754E4,4.986E3,1.099E3,8.9E1,6.91E2,1.9E2,1.4E1,1.9E1,2E0,2.6E1,2.5E1,8.2E1,7.691514E6,1.3E1,1.95907E5,1.39781E5,4.3298E4,1.7456E4,4.001E3,9.85E2,4.91E2,6.08E2,3.8E1,5.1E1,5.88E2,1.03E2,7.8E1,1.12E2,1.2E1,2E0,1.6E1,3E0,1E0,1E0,1E1,1.6E1,4E0,2.1E1,2E0,8E1,6.958068E6,7.33446E5,5E0,8E0,8.8139E4,1.07768E5,1.07146E5,3.2635E4,4.0003E4,3.295E3,1.1934E4,5.522E3,3.288E3,7.13E2,4.35E2,5.5E2,3.65E2,1.26E2,5.8E2,2.8E1,1.7E1,2.1E1,3.1E1,2E1,4E0,5.84E2,1.1E1,9.2E1,1E1,6.8E1,5.4E1,5.8E1,9E0,3E0,7E0,9E0,1E0,2E0,1E0,9E0,1.5E1,1E0,1E0,1E0,2.4E1,5.6E1],"tree_param":{"num_deleted":"0","num_feature":"23","num_nodes":"103","size_leaf_vector":"1"}},{"base_weights":[5.2878534E-4,-4.4118343E-3,2.3425789E2,-1.2225344E-2,4.5540134E1,1.2326794E2,2.9553903E2,-4.0659245E-2,4.45237E0,2.3443005E1,6.590376E1,2.492514E1,1.6721625E2,4.1220172E2,2.4612067E2,-6.510223E-2,1.2039323E0,3.4093623E0,9.844869E0,2.1092293E1,1.0753544E2,5.339235E1,9.951386E1,3.3740356E1,-9.871637E0,5.495413E1,1.8596815E2,7.0046654E0,4.1981955E2,1.626507E2,2.8500336E2,-6.523392E-2,1.18587395E2,1.0141779E0,2.0420604E0,2.8684788E0,4.9305606E0,9.081551E1,9.463067E0,2.7604265E1,1.4242502E1,5.75511E1,1.9415373E2,4.4058517E1,6.748608E1,3.2949863E2,9.286164E1,6.622996E0,1.1883786E1,-2.3654878E-1,-1.2760891E0,7.92578E0,5.242665E0,3.0929892E2,1.4943588E2,8.099727E0,4.2689846E1,1.68964E2,-6.855549E-1,-1.18763946E-1,2.9057318E2,-1.0251694E-2,2.1392887E-2,1.9653053E1,-1.9543818E0,1.7987923E-1,8.842047E-2,2.0284572E-1,6.8985076E0,6.086929E0,2.8559434E-1,4.2883015E-1,6.816645E-1,1.0641874E0,8.326856E1,7.757653E-1,1.6251782E0,2.986468E0,2.824255E-1,1.2278666E0,3.5973053E0,-5.1169413E-1,6.897622E0,2.144129E1,3.5461717E0,3.8235924E0,6.0202804E0,7.4551997E0,3.7154796E0,2.6638088E0,3.9764755E1,7.76289E0,1.2914464E1,3.365454E-1,2.1213698E0,1.0999765E0,-1.4341214E-1,5.2589417E0,3.3783657E1,4.271383E0,1.7657934E1,3.2337544E0,1.770526E1,5.6105194E0,2.9801624E1],"categories":[],"categories_nodes":[],"categories_segments":[],"categories_sizes":[],"default_left":[0,0,0,0,0,0,0,0,0,0,0,0,0,0,0,0,0,0,0,0,0,0,0,0,0,0,0,0,0,0,0,0,0,0,0,0,0,0,0,0,0,0,0,0,0,0,0,0,0,0,0,0,0,0,0,0,0,0,0,0,0,0,0,0,0,0,0,0,0,0,0,0,0,0,0,0,0,0,0,0,0,0,0,0,0,0,0,0,0,0,0,0,0,0,0,0,0,0,0,0,0,0,0,0,0],"id":6,"left_children":[1,3,5,7,9,11,13,15,17,19,21,23,25,27,29,31,33,35,37,39,41,43,45,47,49,51,53,-1,55,57,59,61,63,65,67,69,71,73,75,77,79,81,83,85,87,89,91,-1,93,-1,-1,-1,95,97,99,-1,-1,101,-1,-1,103,-1,-1,-1,-1,-1,-1,-1,-1,-1,-1,-1,-1,-1,-1,-1,-1,-1,-1,-1,-1,-1,-1,-1,-1,-1,-1,-1,-1,-1,-1,-1,-1,-1,-1,-1,-1,-1,-1,-1,-1,-1,-1,-1,-1],"loss_changes":[9.370758E6,2.8812015E6,1.097404E6,1.0276263E6,6.22195E5,2.6823488E5,4.48741E5,2.4470383E5,2.8807294E5,1.2821225E5,2.941695E5,7.259122E3,7.415625E4,2.5887E4,1.806425E5,1.2328806E5,2.4636453E4,3.5296562E4,2.551365E5,2.8425812E4,5.724608E4,6.4464E4,2.4266362E5,1.1226561E4,7.181476E1,9.850064E3,8.439175E4,0E0,8.2135E3,3.3880062E4,8.4703E4,8.210722E4,1.01033125E5,1.288057E4,2.5798227E4,2.2722484E4,1.358575E4,2.289648E6,9.546431E4,1.8490547E4,1.2954895E4,1.0470242E4,5.148328E3,2.638875E4,3.9658625E4,7.9573875E4,8.7812625E4,0E0,8.884292E2,0E0,0E0,0E0,2.1058316E2,1.8282562E4,7.874069E4,0E0,0E0,2.1719188E4,0E0,0E0,6.09435E4,0E0,0E0,0E0,0E0,0E0,0E0,0E0,0E0,0E0,0E0,0E0,0E0,0E0,0E0,0E0,0E0,0E0,0E0,0E0,0E0,0E0,0E0,0E0,0E0,0E0,0E0,0E0,0E0,0E0,0E0,0E0,0E0,0E0,0E0,0E0,0E0,0E0,0E0,0E0,0E0,0E0,0E0,0E0,0E0],"parents":[2147483647,0,0,1,1,2,2,3,3,4,4,5,5,6,6,7,7,8,8,9,9,10,10,11,11,12,12,13,13,14,14,15,15,16,16,17,17,18,18,19,19,20,20,21,21,22,22,23,23,24,24,25,25,26,26,28,28,29,29,30,30,31,31,32,32,33,33,34,34,35,35,36,36,37,37,38,38,39,39,40,40,41,41,42,42,43,43,44,44,45,45,46,46,48,48,52,52,53,53,54,54,57,57,60,60],"right_children":[2,4,6,8,10,12,14,16,18,20,22,24,26,28,30,32,34,36,38,40,42,44,46,48,50,52,54,-1,56,58,60,62,64,66,68,70,72,74,76,78,80,82,84,86,88,90,92,-1,94,-1,-1,-1,96,98,100,-1,-1,102,-1,-1,104,-1,-1,-1,-1,-1,-1,-1,-1,-1,-1,-1,-1,-1,-1,-1,-1,-1,-1,-1,-1,-1,-1,-1,-1,-1,-1,-1,-1,-1,-1,-1,-1,-1,-1,-1,-1,-1,-1,-1,-1,-1,-1,-1,-1],"split_conditions":[2.87E2,6.5E1,5.9472656E-1,7E0,7E0,1.3886719E0,1.2E1,3E0,1.9E1,2.7324219E0,1.49E2,1.9226074E-2,1.2402344E0,5.5908203E-1,4.2E2,5.04E2,5E0,8E0,4.5654297E-1,1.3E1,3.2421875E-1,1.02E2,7.5439453E-1,1E1,1.58984375E1,2.2E1,2.2050781E0,7.0046654E0,3.14E2,1.1269531E0,6.8896484E-1,1E0,7.49E2,1.7433167E-3,1.11E2,3.5247803E-2,1.3E1,3.1E1,3.9E1,1.5751953E0,1.8E1,7.4E1,2.8E1,3.3544922E-1,2.4E1,2.2E1,2.1E2,6.622996E0,7.5146484E-1,-2.3654878E-1,-1.2760891E0,7.92578E0,2.5E1,1.3115234E0,3.3618164E-1,8.099727E0,4.2689846E1,4.3203125E0,-6.855549E-1,-1.18763946E-1,-4.8828125E-4,-1.0251694E-2,2.1392887E-2,1.9653053E1,-1.9543818E0,1.7987923E-1,8.842047E-2,2.0284572E-1,6.8985076E0,6.086929E0,2.8559434E-1,4.2883015E-1,6.816645E-1,1.0641874E0,8.326856E1,7.757653E-1,1.6251782E0,2.986468E0,2.824255E-1,1.2278666E0,3.5973053E0,-5.1169413E-1,6.897622E0,2.144129E1,3.5461717E0,3.8235924E0,6.0202804E0,7.4551997E0,3.7154796E0,2.6638088E0,3.9764755E1,7.76289E0,1.2914464E1,3.365454E-1,2.1213698E0,1.0999765E0,-1.4341214E-1,5.2589417E0,3.3783657E1,4.271383E0,1.7657934E1,3.2337544E0,1.770526E1,5.6105194E0,2.9801624E1],"split_indices":[17,17,9,17,15,15,0,17,17,12,17,7,7,8,17,19,19,19,5,0,8,17,12,0,7,0,12,0,17,10,6,17,19,15,18,8,17,0,17,12,19,17,2,10,0,0,18,0,8,0,0,0,0,6,10,0,0,6,0,0,22,0,0,0,0,0,0,0,0,0,0,0,0,0,0,0,0,0,0,0,0,0,0,0,0,0,0,0,0,0,0,0,0,0,0,0,0,0,0,0,0,0,0,0,0],"split_type":[0,0,0,0,0,0,0,0,0,0,0,0,0,0,0,0,0,0,0,0,0,0,0,0,0,0,0,0,0,0,0,0,0,0,0,0,0,0,0,0,0,0,0,0,0,0,0,0,0,0,0,0,0,0,0,0,0,0,0,0,0,0,0,0,0,0,0,0,0,0,0,0,0,0,0,0,0,0,0,0,0,0,0,0,0,0,0,0,0,0,0,0,0,0,0,0,0,0,0,0,0,0,0,0,0],"sum_hessian":[8.096548E6,8.096379E6,1.69E2,8.094992E6,1.387E3,6.2E1,1.07E2,8.043765E6,5.1227E4,6.67E2,7.2E2,2E1,4.2E1,2.8E1,7.9E1,7.888835E6,1.5493E5,4.2927E4,8.3E3,6.51E2,1.6E1,5.28E2,1.92E2,1.6E1,4E0,7E0,3.5E1,1E0,2.7E1,2.8E1,5.1E1,7.888828E6,7E0,1.26332E5,2.8598E4,3.1671E4,1.1256E4,3.7E1,8.263E3,3.31E2,3.2E2,1.2E1,4E0,3.22E2,2.06E2,3E0,1.89E2,5E0,1.1E1,2E0,2E0,4E0,3E0,5E0,3E1,1E0,2.6E1,2.7E1,1E0,1E0,5E1,6.959383E6,9.29445E5,4E0,3E0,1.795E4,1.08382E5,2.8594E4,4E0,5E0,3.1666E4,8.401E3,2.855E3,3.5E1,2E0,6.607E3,1.656E3,3.03E2,2.8E1,2.96E2,2.4E1,2E0,1E1,3E0,1E0,2.41E2,8.1E1,1.65E2,4.1E1,1E0,2E0,1.37E2,5.2E1,7E0,4E0,1E0,2E0,1E0,4E0,7E0,2.3E1,2E0,2.5E1,2E0,4.8E1],"tree_param":{"num_deleted":"0","num_feature":"23","num_nodes":"105","size_leaf_vector":"1"}},{"base_weights":[1.3748372E-4,-4.495223E-3,2.1585164E2,-1.2893833E-2,3.2759144E1,1.10298256E2,2.698208E2,-4.538641E-2,2.8948436E0,1.702638E1,5.3678787E1,3.412144E1,1.5713126E2,2.2607637E2,4.188167E2,-7.199429E-2,5.980586E-1,2.2814755E0,7.270995E0,1.4361489E1,6.516272E1,2.5513226E2,5.157345E1,7.8718715E0,1.0103621E1,1.6773701E2,2.1602322E1,3.275779E2,1.9350116E2,1.1256698E1,4.3787674E2,-9.945246E-2,1.3660656E-1,5.923065E-1,4.3328342E1,2.0845058E0,4.660724E0,2.465119E1,6.7425714E0,1.896268E1,1.0570744E1,5.6024357E1,2.2500257E1,6.0691658E1,3.962045E1,3.7098717E1,5.0471874E1,1.5199628E1,-1.0507816E1,9.236174E1,2.1075589E2,2.3573015E0,3.4059646E0,3.3772594E1,4.977039E0,2.4754295E1,2.0255382E2,8.886527E0,4.471677E1,3.7243117E-3,-1.4908659E-2,2.5013078E-3,3.1443536E-2,1.1702089E-2,9.0674765E-2,1.4951795E0,9.53889E0,1.840782E-1,3.6946929E-1,3.1614915E-1,6.34906E-1,1.5084356E0,2.2317389E1,5.86681E-1,1.5328592E0,1.6965424E0,4.789734E0,5.723863E-1,1.3294046E0,2.387109E0,7.077311E0,-3.779851E-1,7.5640182E0,3.5450191E0,6.9983087E0,3.1573899E0,2.4311033E-1,-1.6664083E-1,-1.2081621E0,1.0154102E1,1.5554544E0,5.410375E0,2.4247568E1,-1.10740654E-1,4.3196607E-1,1.6911753E-2,5.139637E0,2.0686575E1,-3.4063833E0],"categories":[],"categories_nodes":[],"categories_segments":[],"categories_sizes":[],"default_left":[0,0,0,0,0,0,0,0,0,0,0,0,0,0,0,0,0,0,0,0,0,0,0,0,0,0,0,0,0,0,0,0,0,0,0,0,0,0,0,0,0,0,0,0,0,0,0,0,0,0,0,0,0,0,0,0,0,0,0,0,0,0,0,0,0,0,0,0,0,0,0,0,0,0,0,0,0,0,0,0,0,0,0,0,0,0,0,0,0,0,0,0,0,0,0,0,0,0,0],"id":7,"left_children":[1,3,5,7,9,11,13,15,17,19,21,23,25,27,29,31,33,35,37,39,41,43,45,-1,47,49,51,53,55,-1,57,59,61,63,65,67,69,71,73,75,77,79,-1,81,-1,-1,83,85,87,89,91,93,-1,-1,-1,95,97,-1,-1,-1,-1,-1,-1,-1,-1,-1,-1,-1,-1,-1,-1,-1,-1,-1,-1,-1,-1,-1,-1,-1,-1,-1,-1,-1,-1,-1,-1,-1,-1,-1,-1,-1,-1,-1,-1,-1,-1,-1,-1],"loss_changes":[8.0958475E6,2.2277315E6,9.375335E5,7.6470056E5,6.81246E5,2.1090288E5,5.750585E5,1.3704016E5,2.4005781E5,1.505905E5,3.542485E5,2.619172E4,4.7904188E4,1.920045E5,5.2059E4,4.4026703E4,7.807934E4,3.6748562E4,1.00685E5,1.9300625E4,6.805619E4,1.9795744E5,2.77703E5,0E0,2.2508413E3,7.849656E4,9.994192E2,2.6163E4,1.0386125E5,0E0,7.2275E2,4.6084906E4,1.7742723E4,4.7496742E4,6.0658977E4,2.8423031E4,1.5143766E4,6.08975E5,8.009375E4,2.7857531E4,8.0731797E3,2.5843594E4,0E0,6.050961E3,0E0,0E0,2.5407575E5,3.1595635E3,3.0817017E1,8.333969E3,8.008931E4,3.395134E1,0E0,0E0,0E0,3.7557134E3,8.3554E4,0E0,0E0,0E0,0E0,0E0,0E0,0E0,0E0,0E0,0E0,0E0,0E0,0E0,0E0,0E0,0E0,0E0,0E0,0E0,0E0,0E0,0E0,0E0,0E0,0E0,0E0,0E0,0E0,0E0,0E0,0E0,0E0,0E0,0E0,0E0,0E0,0E0,0E0,0E0,0E0,0E0,0E0],"parents":[2147483647,0,0,1,1,2,2,3,3,4,4,5,5,6,6,7,7,8,8,9,9,10,10,11,11,12,12,13,13,14,14,15,15,16,16,17,17,18,18,19,19,20,20,21,21,22,22,24,24,25,25,26,26,27,27,28,28,30,30,31,31,32,32,33,33,34,34,35,35,36,36,37,37,38,38,39,39,40,40,41,41,43,43,46,46,47,47,48,48,49,49,50,50,51,51,55,55,56,56],"right_children":[2,4,6,8,10,12,14,16,18,20,22,24,26,28,30,32,34,36,38,40,42,44,46,-1,48,50,52,54,56,-1,58,60,62,64,66,68,70,72,74,76,78,80,-1,82,-1,-1,84,86,88,90,92,94,-1,-1,-1,96,98,-1,-1,-1,-1,-1,-1,-1,-1,-1,-1,-1,-1,-1,-1,-1,-1,-1,-1,-1,-1,-1,-1,-1,-1,-1,-1,-1,-1,-1,-1,-1,-1,-1,-1,-1,-1,-1,-1,-1,-1,-1,-1],"split_conditions":[2.87E2,5E1,5.9472656E-1,5E0,3E0,7E0,1.1E1,1.1914062E0,1.6E1,7.1E1,9E0,2E1,2.9E1,1E1,3.14E2,1E0,1.09E2,1.2E1,8.3984375E-1,1.2E1,6.4697266E-1,3.2E1,-7.6171875E-1,7.8718715E0,1.5359375E1,5E0,1.4671875E1,5.5E1,6.4160156E-1,1.1256698E1,6.191406E-1,1.9226074E-2,5.0927734E-1,2.4560547E-1,6.3398438E0,2.9375E0,2.841797E-1,3.2E1,7.1E1,1.53E2,3.8671875E-1,7.7E1,2.2500257E1,2.2E1,3.962045E1,3.7098717E1,1.02E2,5.776367E-1,7E0,5.8E1,3.6376953E-1,9.6640625E0,3.4059646E0,3.3772594E1,4.977039E0,2.73E2,1.066E3,8.886527E0,4.471677E1,3.7243117E-3,-1.4908659E-2,2.5013078E-3,3.1443536E-2,1.1702089E-2,9.0674765E-2,1.4951795E0,9.53889E0,1.840782E-1,3.6946929E-1,3.1614915E-1,6.34906E-1,1.5084356E0,2.2317389E1,5.86681E-1,1.5328592E0,1.6965424E0,4.789734E0,5.723863E-1,1.3294046E0,2.387109E0,7.077311E0,-3.779851E-1,7.5640182E0,3.5450191E0,6.9983087E0,3.1573899E0,2.4311033E-1,-1.6664083E-1,-1.2081621E0,1.0154102E1,1.5554544E0,5.410375E0,2.4247568E1,-1.10740654E-1,4.3196607E-1,1.6911753E-2,5.139637E0,2.0686575E1,-3.4063833E0],"split_indices":[17,17,9,17,16,15,1,5,17,4,4,4,0,0,17,18,18,1,5,0,9,0,20,0,6,1,5,2,8,0,9,6,15,14,5,14,12,0,4,17,8,17,0,0,0,0,17,8,0,2,8,5,0,0,0,7,17,0,0,0,0,0,0,0,0,0,0,0,0,0,0,0,0,0,0,0,0,0,0,0,0,0,0,0,0,0,0,0,0,0,0,0,0,0,0,0,0,0,0],"split_type":[0,0,0,0,0,0,0,0,0,0,0,0,0,0,0,0,0,0,0,0,0,0,0,0,0,0,0,0,0,0,0,0,0,0,0,0,0,0,0,0,0,0,0,0,0,0,0,0,0,0,0,0,0,0,0,0,0,0,0,0,0,0,0,0,0,0,0,0,0,0,0,0,0,0,0,0,0,0,0,0,0,0,0,0,0,0,0,0,0,0,0,0,0,0,0,0,0,0,0],"sum_hessian":[8.096033E6,8.095861E6,1.72E2,8.093788E6,2.073E3,6E1,1.12E2,8.004345E6,8.9443E4,1.185E3,8.88E2,2.4E1,3.6E1,9E1,2.2E1,7.686493E6,3.17852E5,7.845E4,1.0993E4,1.125E3,6E1,7E0,8.81E2,7E0,1.7E1,3.3E1,3E0,1.8E1,7.2E1,2E0,2E1,6.792408E6,8.94085E5,3.17811E5,4.1E1,7.2455E4,5.995E3,3.22E2,1.0671E4,5.05E2,6.2E2,5.9E1,1E0,4E0,3E0,1E0,8.8E2,1.4E1,3E0,1.4E1,1.9E1,2E0,1E0,1.7E1,1E0,4E0,6.8E1,1E0,1.9E1,1.809348E6,4.98306E6,5.49351E5,3.44734E5,1.26542E5,1.91269E5,2.8E1,1.3E1,6.2933E4,9.522E3,3.178E3,2.817E3,3.09E2,1.3E1,9.686E3,9.85E2,4.75E2,3E1,2.25E2,3.95E2,2E1,3.9E1,1E0,3E0,5E2,3.8E2,5E0,9E0,1E0,2E0,1.2E1,2E0,4E0,1.5E1,1E0,1E0,3E0,1E0,6.7E1,1E0],"tree_param":{"num_deleted":"0","num_feature":"23","num_nodes":"99","size_leaf_vector":"1"}},{"base_weights":[5.57478E-4,-3.6797943E-3,1.9629788E2,-9.297945E-3,4.2389668E1,1.6538509E2,3.718547E2,-3.0813137E-2,4.20269E0,2.27313E1,5.8181328E1,4.1748413E1,1.8690063E2,1.7737074E2,4.6315716E1,-5.3284425E-2,1.0412005E0,3.420391E0,1.1897436E1,1.6514296E1,7.2617516E1,3.1150867E2,5.596828E1,2.8432697E1,1.2987413E1,1.18959045E2,2.1516454E2,-6.613044E-1,1.9741787E1,-5.3442128E-2,9.7468506E1,1.0385118E0,5.8116535E1,3.1695178E0,7.142451E0,8.394343E0,2.1706339E1,3.7369637E0,2.116177E1,6.2468864E1,2.1684214E1,5.3182116E0,3.553903E1,5.151269E1,9.5518456E1,5.8725185E0,1.2385791E1,7.023822E1,1.6230357E2,2.3159717E2,9.599683E1,-7.1224966E-3,4.19769E-2,1.38322935E1,-2.2328227E0,8.2139574E-2,1.6676125E-1,1.0417881E1,1.0317382E0,2.8765652E-1,6.4566344E-1,4.2414985E0,5.6116825E-1,7.8493917E-1,1.9872073E0,8.611341E0,1.8858432E0,1.2434072E0,-8.840718E-1,2.8462167E0,1.4382615E0,6.707689E0,-2.777171E0,4.8949127E0,1.0303245E1,6.446894E0,1.2725748E1,1.7397902E0,-7.7371705E-1,1.4720303E-1,8.054896E0,1.7509985E1,-3.28284E0,4.298051E0,2.4368734E1,2.0818841E0,1.1356181E1],"categories":[],"categories_nodes":[],"categories_segments":[],"categories_sizes":[],"default_left":[0,0,0,0,0,0,0,0,0,0,0,0,0,0,0,0,0,0,0,0,0,0,0,0,0,0,0,0,0,0,0,0,0,0,0,0,0,0,0,0,0,0,0,0,0,0,0,0,0,0,0,0,0,0,0,0,0,0,0,0,0,0,0,0,0,0,0,0,0,0,0,0,0,0,0,0,0,0,0,0,0,0,0,0,0,0,0],"id":8,"left_children":[1,3,5,7,9,11,13,15,17,19,21,23,25,27,-1,29,31,33,35,37,39,41,43,45,-1,47,49,-1,-1,51,53,55,57,59,61,63,65,67,69,71,-1,-1,-1,73,75,-1,77,79,81,83,85,-1,-1,-1,-1,-1,-1,-1,-1,-1,-1,-1,-1,-1,-1,-1,-1,-1,-1,-1,-1,-1,-1,-1,-1,-1,-1,-1,-1,-1,-1,-1,-1,-1,-1,-1,-1],"loss_changes":[6.734003E6,1.9282104E6,8.40331E5,7.335644E5,3.3070112E5,3.8997975E5,2.9525325E5,1.9400888E5,2.47567E5,1.4699616E5,3.02239E5,2.2562668E4,2.02274E5,4.197053E4,0E0,1.21327836E5,2.5269219E4,3.483147E4,1.3010781E5,2.5381008E4,5.341678E4,2.0714594E4,9.5456625E4,1.0270271E4,0E0,6.8149875E4,1.3473975E5,0E0,0E0,6.6380336E4,6.786401E4,2.2581938E4,1.5190625E4,3.3661438E4,1.26832695E5,1.7237844E4,1.8016034E5,1.2965177E4,1.4858172E4,2.4795656E4,0E0,0E0,0E0,6.17655E4,4.2502125E4,0E0,2.02751E3,1.5927227E4,6.1931125E4,1.56633E5,1.4011945E4,0E0,0E0,0E0,0E0,0E0,0E0,0E0,0E0,0E0,0E0,0E0,0E0,0E0,0E0,0E0,0E0,0E0,0E0,0E0,0E0,0E0,0E0,0E0,0E0,0E0,0E0,0E0,0E0,0E0,0E0,0E0,0E0,0E0,0E0,0E0,0E0],"parents":[2147483647,0,0,1,1,2,2,3,3,4,4,5,5,6,6,7,7,8,8,9,9,10,10,11,11,12,12,13,13,15,15,16,16,17,17,18,18,19,19,20,20,21,21,22,22,23,23,25,25,26,26,29,29,30,30,31,31,32,32,33,33,34,34,35,35,36,36,37,37,38,38,39,39,43,43,44,44,46,46,47,47,48,48,49,49,50,50],"right_children":[2,4,6,8,10,12,14,16,18,20,22,24,26,28,-1,30,32,34,36,38,40,42,44,46,-1,48,50,-1,-1,52,54,56,58,60,62,64,66,68,70,72,-1,-1,-1,74,76,-1,78,80,82,84,86,-1,-1,-1,-1,-1,-1,-1,-1,-1,-1,-1,-1,-1,-1,-1,-1,-1,-1,-1,-1,-1,-1,-1,-1,-1,-1,-1,-1,-1,-1,-1,-1,-1,-1,-1,-1],"split_conditions":[2.83E2,7.6E1,1.1269531E0,8E0,9E0,1.7294922E0,6.27E2,3E0,2.9E1,7E1,9E0,1.2E1,5E0,4E0,4.6315716E1,3.12E2,2.59E2,7.1E1,1.9941406E0,6E0,7.167969E-1,3.2E1,1.2E1,2.1E1,1.2987413E1,5.3E2,2.9E1,-6.613044E-1,1.9741787E1,2E0,7.49E2,4E0,4E0,1.2E1,7.2E1,7E1,3.75E-1,1.6269531E0,2.4E1,5.991211E-1,2.1684214E1,5.3182116E0,3.553903E1,2.42E2,1.12E2,5.8725185E0,1E1,8.7E1,1.066E3,3.6376953E-1,1.3E1,-7.1224966E-3,4.19769E-2,1.38322935E1,-2.2328227E0,8.2139574E-2,1.6676125E-1,1.0417881E1,1.0317382E0,2.8765652E-1,6.4566344E-1,4.2414985E0,5.6116825E-1,7.8493917E-1,1.9872073E0,8.611341E0,1.8858432E0,1.2434072E0,-8.840718E-1,2.8462167E0,1.4382615E0,6.707689E0,-2.777171E0,4.8949127E0,1.0303245E1,6.446894E0,1.2725748E1,1.7397902E0,-7.7371705E-1,1.4720303E-1,8.054896E0,1.7509985E1,-3.28284E0,4.298051E0,2.4368734E1,2.0818841E0,1.1356181E1],"split_indices":[17,17,10,17,19,11,17,17,17,4,4,1,1,1,0,19,18,4,16,1,9,0,1,4,0,17,0,0,0,18,19,19,1,1,4,4,7,11,4,10,0,0,0,17,18,0,1,18,17,8,2,0,0,0,0,0,0,0,0,0,0,0,0,0,0,0,0,0,0,0,0,0,0,0,0,0,0,0,0,0,0,0,0,0,0,0,0],"split_type":[0,0,0,0,0,0,0,0,0,0,0,0,0,0,0,0,0,0,0,0,0,0,0,0,0,0,0,0,0,0,0,0,0,0,0,0,0,0,0,0,0,0,0,0,0,0,0,0,0,0,0,0,0,0,0,0,0,0,0,0,0,0,0,0,0,0,0,0,0,0,0,0,0,0,0,0,0,0,0,0,0,0,0,0,0,0,0],"sum_hessian":[8.096035E6,8.095862E6,1.73E2,8.094791E6,1.071E3,1.5E2,2.3E1,8.053654E6,4.1137E4,4.79E2,5.92E2,2.3E1,1.27E2,9E0,1.4E1,7.888303E6,1.65351E5,3.7343E4,3.794E3,4.28E2,5.1E1,3E0,5.89E2,2.2E1,1E0,4E1,8.7E1,1E0,8E0,7.888292E6,1.1E1,1.65345E5,6E0,3.4988E4,2.355E3,2.798E3,9.96E2,1.15E2,3.13E2,5E1,1E0,1E0,2E0,5.33E2,5.6E1,6E0,1.6E1,2.1E1,1.9E1,7.5E1,1.2E1,7.602595E6,2.85697E5,8E0,3E0,1.22925E5,4.242E4,2E0,4E0,3.2128E4,2.86E3,9.6E1,2.259E3,2.674E3,1.24E2,4E1,9.56E2,6.8E1,4.7E1,1.48E2,1.65E2,4.8E1,2E0,5.11E2,2.2E1,3.1E1,2.5E1,1.3E1,3E0,3E0,1.8E1,1.8E1,1E0,5E0,7E1,3E0,9E0],"tree_param":{"num_deleted":"0","num_feature":"23","num_nodes":"87","size_leaf_vector":"1"}},{"base_weights":[3.8558725E-4,-3.2690228E-3,1.712722E2,-1.0046014E-2,2.684967E1,1.5053862E2,3.2739545E2,-3.6598697E-2,2.369283E0,1.4403773E1,4.5424732E1,2.596486E1,1.6855496E2,3.201426E0,3.5929248E2,-3.67797E-2,1.1354364E2,1.769334E0,5.5407844E0,1.1753942E1,5.2219185E1,1.4870226E2,4.143732E1,5.4182954E0,9.177616E0,1.4822475E2,2.631065E2,6.2538986E0,3.7115105E1,-5.8006037E-2,5.5658364E-1,1.4160612E2,-1.9904909E0,1.4384289E0,2.8851812E0,5.222699E0,2.7917416E1,1.6321512E1,7.9778924E0,9.278882E1,4.1102135E1,2.4532932E1,2.5628845E2,3.370839E1,6.775751E1,2.73927E0,2.8459537E0,9.304859E1,1.7011328E2,2.4441868E1,2.8509232E1,-8.281473E-3,1.3915057E-2,8.248477E-3,8.269971E-2,-1.5884777E0,1.8076178E1,2.3288897E-1,1.1982609E-1,2.8639445E-1,9.86333E0,4.3563348E-1,9.593181E-1,3.1849936E1,9.557875E-1,1.4425699E0,4.116775E0,9.119777E-1,-3.4304956E-1,5.949679E-1,1.0465337E1,2.7510083E0,6.1659064E0,-1.593724E0,3.6245186E0,3.7305344E1,5.136211E0,3.0084236E0,6.9094567E0,5.993636E0,1.1402278E1,-5.173927E-1,1.0031946E0,1.172259E1,5.0338584E-1,1.7776764E1,1.6140795E0,-9.9888194E-1,4.329533E0],"categories":[],"categories_nodes":[],"categories_segments":[],"categories_sizes":[],"default_left":[0,0,0,0,0,0,0,0,0,0,0,0,0,0,0,0,0,0,0,0,0,0,0,0,0,0,0,0,0,0,0,0,0,0,0,0,0,0,0,0,0,0,0,0,0,0,0,0,0,0,0,0,0,0,0,0,0,0,0,0,0,0,0,0,0,0,0,0,0,0,0,0,0,0,0,0,0,0,0,0,0,0,0,0,0,0,0,0,0],"id":9,"left_children":[1,3,5,7,9,11,13,15,17,19,21,23,25,-1,27,29,31,33,35,37,39,41,43,-1,45,47,49,-1,-1,51,53,55,-1,57,59,61,63,65,67,69,71,73,75,77,79,81,-1,83,85,87,-1,-1,-1,-1,-1,-1,-1,-1,-1,-1,-1,-1,-1,-1,-1,-1,-1,-1,-1,-1,-1,-1,-1,-1,-1,-1,-1,-1,-1,-1,-1,-1,-1,-1,-1,-1,-1,-1,-1],"loss_changes":[5.067775E6,1.4733638E6,4.726075E5,5.1136928E5,4.7110175E5,3.418855E5,1.56514E5,1.6457453E5,1.6995781E5,1.2174783E5,3.2634475E5,9.43267E3,1.9242975E5,0E0,1.818175E4,1.0082014E5,5.272758E4,2.773136E4,1.0088428E5,1.9567E4,2.9269906E4,3.864755E5,1.5684788E5,0E0,1.81917E3,1.11988E5,1.01920875E5,0E0,0E0,3.780092E4,3.5443547E4,7.138181E4,0E0,1.2387172E4,3.4438297E4,5.2984875E4,1.0550108E6,2.334475E4,8.284914E3,1.5140641E4,1.5392586E4,8.483941E3,3.4337262E5,7.518675E4,5.2311875E4,8.851156E2,0E0,7.718094E4,9.013525E4,3.1989082E3,0E0,0E0,0E0,0E0,0E0,0E0,0E0,0E0,0E0,0E0,0E0,0E0,0E0,0E0,0E0,0E0,0E0,0E0,0E0,0E0,0E0,0E0,0E0,0E0,0E0,0E0,0E0,0E0,0E0,0E0,0E0,0E0,0E0,0E0,0E0,0E0,0E0,0E0,0E0],"parents":[2147483647,0,0,1,1,2,2,3,3,4,4,5,5,6,6,7,7,8,8,9,9,10,10,11,11,12,12,14,14,15,15,16,16,17,17,18,18,19,19,20,20,21,21,22,22,24,24,25,25,26,26,29,29,30,30,31,31,33,33,34,34,35,35,36,36,37,37,38,38,39,39,40,40,41,41,42,42,43,43,44,44,45,45,47,47,48,48,49,49],"right_children":[2,4,6,8,10,12,14,16,18,20,22,24,26,-1,28,30,32,34,36,38,40,42,44,-1,46,48,50,-1,-1,52,54,56,-1,58,60,62,64,66,68,70,72,74,76,78,80,82,-1,84,86,88,-1,-1,-1,-1,-1,-1,-1,-1,-1,-1,-1,-1,-1,-1,-1,-1,-1,-1,-1,-1,-1,-1,-1,-1,-1,-1,-1,-1,-1,-1,-1,-1,-1,-1,-1,-1,-1,-1,-1],"split_conditions":[2.83E2,5E1,1.2E1,5E0,4.875E0,1.7294922E0,9.6640625E0,3.12E2,1.4E1,7.1E1,5.78125E-1,2.1E1,7.49E2,3.201426E0,3.4765625E-1,1.3115234E0,3.02E2,7E0,3.2E1,1.2E1,6E0,1.5991211E-1,1.4E2,5.4182954E0,5.9033203E-1,5E0,0E0,6.2538986E0,3.7115105E1,1E0,2.1826172E-1,6.5625E-1,-1.9904909E0,1.7433167E-3,1.61E2,1.9E1,4.5654297E-1,2.668457E-1,2.1484375E-2,5.6E1,1.07E2,8.1604004E-2,4.1992188E-2,1.2E1,1.2E1,4.68E2,2.8459537E0,2.5E1,6.8359375E-3,1.7E1,2.8509232E1,-8.281473E-3,1.3915057E-2,8.248477E-3,8.269971E-2,-1.5884777E0,1.8076178E1,2.3288897E-1,1.1982609E-1,2.8639445E-1,9.86333E0,4.3563348E-1,9.593181E-1,3.1849936E1,9.557875E-1,1.4425699E0,4.116775E0,9.119777E-1,-3.4304956E-1,5.949679E-1,1.0465337E1,2.7510083E0,6.1659064E0,-1.593724E0,3.6245186E0,3.7305344E1,5.136211E0,3.0084236E0,6.9094567E0,5.993636E0,1.1402278E1,-5.173927E-1,1.0031946E0,1.172259E1,5.0338584E-1,1.7776764E1,1.6140795E0,-9.9888194E-1,4.329533E0],"split_indices":[17,17,1,17,16,11,5,19,17,4,13,4,17,0,10,5,18,19,0,0,0,13,17,0,10,1,20,0,0,17,14,10,0,15,18,19,5,10,20,17,17,6,20,1,1,17,0,0,20,0,0,0,0,0,0,0,0,0,0,0,0,0,0,0,0,0,0,0,0,0,0,0,0,0,0,0,0,0,0,0,0,0,0,0,0,0,0,0,0],"split_type":[0,0,0,0,0,0,0,0,0,0,0,0,0,0,0,0,0,0,0,0,0,0,0,0,0,0,0,0,0,0,0,0,0,0,0,0,0,0,0,0,0,0,0,0,0,0,0,0,0,0,0,0,0,0,0,0,0,0,0,0,0,0,0,0,0,0,0,0,0,0,0,0,0,0,0,0,0,0,0,0,0,0,0,0,0,0,0,0,0],"sum_hessian":[8.096367E6,8.096196E6,1.71E2,8.094155E6,2.041E3,1.54E2,1.7E1,8.004825E6,8.933E4,1.224E3,8.17E2,2E1,1.34E2,2E0,1.5E1,8.004814E6,1.1E1,7.5122E4,1.4208E4,1.146E3,7.8E1,2.8E1,7.89E2,6E0,1.4E1,1.14E2,2E1,1E0,1.4E1,7.72835E6,2.76464E5,9E0,2E0,5.7943E4,1.7179E4,1.4011E4,1.97E2,5.16E2,6.3E2,1.4E1,6.4E1,1.4E1,1.4E1,6.13E2,1.76E2,1.2E1,2E0,3.5E1,7.9E1,2E0,1.8E1,6.864566E6,8.63784E5,1.00415E5,1.76049E5,2E0,7E0,1.2305E4,4.5638E4,1.7177E4,2E0,1.1696E4,2.315E3,1E1,1.87E2,4.82E2,3.4E1,5.73E2,5.7E1,2E0,1.2E1,4.1E1,2.3E1,3E0,1.1E1,8E0,6E0,5.59E2,5.4E1,1.54E2,2.2E1,6E0,6E0,2.7E1,8E0,7.5E1,4E0,1E0,1E0],"tree_param":{"num_deleted":"0","num_feature":"23","num_nodes":"89","size_leaf_vector":"1"}},{"base_weights":[3.1877382E-4,-4.251144E-3,1.1535715E2,-1.07665E-2,1.823819E1,8.50305E1,2.0363377E2,-3.8237058E-2,1.7008747E0,1.0227492E1,3.337212E1,2.3825506E1,1.0368643E2,1.6022676E2,3.4177957E2,-6.798667E-2,2.5081584E-1,1.347075E0,4.267667E0,9.008284E0,4.5527367E1,2.0519145E2,3.2493244E1,4.9136524E1,7.461074E0,8.504021E1,1.8266638E2,5.960728E0,1.8178621E2,1.17387924E2,3.920287E2,3.8211904E-2,-1.0618761E-1,2.4904273E-1,3.257787E1,1.027373E0,2.0463028E0,1.3123171E1,3.9889684E0,9.848555E0,-7.572509E-1,3.738965E1,1.5582755E2,2.874286E0,2.3871101E1,1.9894754E2,3.163895E1,8.854583E0,5.4465527E1,1.4457798E1,-6.5916867E0,1.9981517E2,7.4540764E1,1.0196304E2,2.5384665E1,8.705488E0,-6.5557694E-1,1.9500652E2,5.15487E0,-4.197758E0,1.6639328E1,7.290184E0,4.070023E1,7.265855E-2,-4.9798097E-3,-1.31464E-2,7.459549E-3,3.9770105E-3,5.013858E-2,1.0630738E1,1.9472294E0,9.1162E-2,2.5440893E-1,1.9045785E-1,4.6096864E-1,5.988361E-1,2.9137655E1,3.5323125E-1,8.416468E-1,1.0892771E0,1.4601178E-1,-1.1513966E-1,1.4782416E0,4.3597064E0,1.4800425E0,2.0518202E1,7.161476E-1,3.408789E1,1.7453168E-1,2.2745998E0,4.3605075E0,1.2708526E0,-2.0402966E-1,5.88491E0,1.8905954E0,2.7158878E0,3.3685902E-1,-1.0088488E0,-2.5708038E-1,7.597178E0,3.0569254E1,3.6981575E0,8.903548E0,1.713878E0,1.1028971E1,1.1232808E0,2.4312685E-1,1.0574945E0,1.9821089E1,5.376684E0,-2.4924126E0],"categories":[],"categories_nodes":[],"categories_segments":[],"categories_sizes":[],"default_left":[0,0,0,0,0,0,0,0,0,0,0,0,0,0,0,0,0,0,0,0,0,0,0,0,0,0,0,0,0,0,0,0,0,0,0,0,0,0,0,0,0,0,0,0,0,0,0,0,0,0,0,0,0,0,0,0,0,0,0,0,0,0,0,0,0,0,0,0,0,0,0,0,0,0,0,0,0,0,0,0,0,0,0,0,0,0,0,0,0,0,0,0,0,0,0,0,0,0,0,0,0,0,0,0,0,0,0,0,0,0,0],"id":10,"left_children":[1,3,5,7,9,11,13,15,17,19,21,23,25,27,29,31,33,35,37,39,41,43,45,47,49,51,53,55,57,59,61,63,65,67,69,71,73,75,77,79,81,83,85,-1,-1,87,89,91,93,95,97,99,101,103,-1,105,-1,107,109,-1,-1,-1,-1,-1,-1,-1,-1,-1,-1,-1,-1,-1,-1,-1,-1,-1,-1,-1,-1,-1,-1,-1,-1,-1,-1,-1,-1,-1,-1,-1,-1,-1,-1,-1,-1,-1,-1,-1,-1,-1,-1,-1,-1,-1,-1,-1,-1,-1,-1,-1,-1],"loss_changes":[4.268549E6,9.6234894E5,8.28283E5,3.805719E5,3.4985644E5,2.7170612E5,3.8803025E5,6.850156E4,1.1609325E5,8.073967E4,1.3925538E5,2.369305E4,2.44791E5,2.1347125E5,1.1935475E5,2.9301523E4,4.2595098E4,2.5114594E4,3.8129594E4,1.5043953E4,4.6092188E4,1.6079797E4,1.3067875E5,4.037664E3,3.879882E3,1.5791062E5,1.484355E5,4.3549472E2,1.30768625E5,5.7236492E4,1.359925E4,1.1576109E5,2.4273004E4,3.9253832E4,3.5744844E4,1.3534008E4,1.27920625E4,9.335064E5,3.0309344E4,1.4746953E4,9.287813E2,7.385547E3,2.4985984E4,0E0,0E0,1.3210552E5,1.04007E5,2.4531131E2,1.1246289E3,3.4670107E3,1.478551E2,1.1335341E5,7.1932375E4,9.926719E3,0E0,9.087317E1,0E0,2.749525E4,1.0773068E4,0E0,0E0,0E0,0E0,0E0,0E0,0E0,0E0,0E0,0E0,0E0,0E0,0E0,0E0,0E0,0E0,0E0,0E0,0E0,0E0,0E0,0E0,0E0,0E0,0E0,0E0,0E0,0E0,0E0,0E0,0E0,0E0,0E0,0E0,0E0,0E0,0E0,0E0,0E0,0E0,0E0,0E0,0E0,0E0,0E0,0E0,0E0,0E0,0E0,0E0,0E0,0E0],"parents":[2147483647,0,0,1,1,2,2,3,3,4,4,5,5,6,6,7,7,8,8,9,9,10,10,11,11,12,12,13,13,14,14,15,15,16,16,17,17,18,18,19,19,20,20,21,21,22,22,23,23,24,24,25,25,26,26,27,27,28,28,29,29,30,30,31,31,32,32,33,33,34,34,35,35,36,36,37,37,38,38,39,39,40,40,41,41,42,42,45,45,46,46,47,47,48,48,49,49,50,50,51,51,52,52,53,53,55,55,57,57,58,58],"right_children":[2,4,6,8,10,12,14,16,18,20,22,24,26,28,30,32,34,36,38,40,42,44,46,48,50,52,54,56,58,60,62,64,66,68,70,72,74,76,78,80,82,84,86,-1,-1,88,90,92,94,96,98,100,102,104,-1,106,-1,108,110,-1,-1,-1,-1,-1,-1,-1,-1,-1,-1,-1,-1,-1,-1,-1,-1,-1,-1,-1,-1,-1,-1,-1,-1,-1,-1,-1,-1,-1,-1,-1,-1,-1,-1,-1,-1,-1,-1,-1,-1,-1,-1,-1,-1,-1,-1,-1,-1,-1,-1,-1,-1],"split_conditions":[1.83E2,3.9E1,8.2714844E-1,4E0,3E0,1.1291504E-1,7.49E2,5.776367E-1,1.3E1,7.1E1,7.7978516E-1,2.4E1,1.1E1,3.02E2,2E0,1.9226074E-2,1.09E2,1.5009766E0,7.548828E-1,1.6347656E0,9.21875E-1,2.1E1,6.121826E-2,2.3671875E0,7.03125E0,3.5E0,4.091797E-1,2.6E1,7.95E2,2.6E1,8.691406E-1,3.1E1,5.78125E-1,3.2128906E-1,2.81E3,1.2E1,7.1E1,1.6269531E0,7E1,2.7E1,1.42E2,7.2E1,6E0,2.874286E0,2.3871101E1,2.5E1,8.5E1,1.2880859E0,4.3E1,1.5322266E0,2.8E2,2.5E1,2.2E1,2.4035645E-1,2.5384665E1,2.22E2,-6.5557694E-1,9.257E3,1.4E1,-4.197758E0,1.6639328E1,7.290184E0,4.070023E1,7.265855E-2,-4.9798097E-3,-1.31464E-2,7.459549E-3,3.9770105E-3,5.013858E-2,1.0630738E1,1.9472294E0,9.1162E-2,2.5440893E-1,1.9045785E-1,4.6096864E-1,5.988361E-1,2.9137655E1,3.5323125E-1,8.416468E-1,1.0892771E0,1.4601178E-1,-1.1513966E-1,1.4782416E0,4.3597064E0,1.4800425E0,2.0518202E1,7.161476E-1,3.408789E1,1.7453168E-1,2.2745998E0,4.3605075E0,1.2708526E0,-2.0402966E-1,5.88491E0,1.8905954E0,2.7158878E0,3.3685902E-1,-1.0088488E0,-2.5708038E-1,7.597178E0,3.0569254E1,3.6981575E0,8.903548E0,1.713878E0,1.1028971E1,1.1232808E0,2.4312685E-1,1.0574945E0,1.9821089E1,5.376684E0,-2.4924126E0],"split_indices":[17,17,9,17,16,12,17,5,17,4,5,4,1,17,1,7,18,14,5,12,9,0,6,14,14,6,9,0,18,2,9,4,9,14,3,1,4,11,4,0,17,4,0,0,0,0,17,11,2,11,17,0,2,9,0,17,0,3,0,0,0,0,0,0,0,0,0,0,0,0,0,0,0,0,0,0,0,0,0,0,0,0,0,0,0,0,0,0,0,0,0,0,0,0,0,0,0,0,0,0,0,0,0,0,0,0,0,0,0,0,0],"split_type":[0,0,0,0,0,0,0,0,0,0,0,0,0,0,0,0,0,0,0,0,0,0,0,0,0,0,0,0,0,0,0,0,0,0,0,0,0,0,0,0,0,0,0,0,0,0,0,0,0,0,0,0,0,0,0,0,0,0,0,0,0,0,0,0,0,0,0,0,0,0,0,0,0,0,0,0,0,0,0,0,0,0,0,0,0,0,0,0,0,0,0,0,0,0,0,0,0,0,0,0,0,0,0,0,0,0,0,0,0,0,0],"sum_hessian":[8.097079E6,8.09676E6,3.19E2,8.093871E6,2.889E3,2.4E2,7.9E1,7.966024E6,1.27847E5,1.891E3,9.98E2,5.7E1,1.83E2,6.3E1,1.6E1,7.222662E6,7.43362E5,1.12362E5,1.5485E4,1.83E3,6.1E1,3E0,9.95E2,2.1E1,3.6E1,1.51E2,3.2E1,8E0,5.5E1,4E0,1.2E1,1.910758E6,5.311904E6,7.43323E5,3.9E1,7.711E4,3.5252E4,4.7E2,1.5015E4,1.685E3,1.45E2,5.9E1,2E0,1E0,2E0,3E0,9.92E2,3E0,1.8E1,2.4E1,1.2E1,1E1,1.41E2,1.7E1,1.5E1,7E0,1E0,5.1E1,4E0,1E0,3E0,1E0,1.1E1,2.166E5,1.694158E6,4.660317E6,6.51587E5,4.0634E5,3.36983E5,4E0,3.5E1,7.1645E4,5.465E3,3.3408E4,1.844E3,4.6E2,1E1,1.3614E4,1.401E3,1.498E3,1.87E2,1.43E2,2E0,4.5E1,1.4E1,1E0,1E0,1E0,2E0,5.72E2,4.2E2,2E0,1E0,1.5E1,3E0,1E1,1.4E1,5E0,7E0,6E0,4E0,4.1E1,1E2,2E0,1.5E1,4E0,3E0,1E0,5E1,1E0,3E0],"tree_param":{"num_deleted":"0","num_feature":"23","num_nodes":"111","size_leaf_vector":"1"}},{"base_weights":[4.1879952E-4,-2.5566118E-3,1.1653257E2,-5.4484108E-3,2.9092535E1,6.046818E1,1.711637E2,-2.1312749E-2,2.4054673E0,1.5101113E1,4.9690525E1,1.0486046E1,8.122574E1,1.3379266E2,3.3891534E2,-5.6056503E-2,3.1965756E-1,1.929358E0,1.0284615E1,7.0332456E0,3.64388E1,1.3278658E2,4.4628704E1,1.3273805E1,-2.830573E0,1.0029189E2,3.8852715E1,9.113498E1,1.7694946E2,9.52001E0,3.5923252E1,1.456845E-1,-7.9744086E-2,9.683019E-1,2.4418536E-1,1.062599E0,2.7864845E0,8.956998E0,5.714651E1,4.5721638E1,5.666113E0,3.2191154E1,1.6609058E1,1.6569023E2,1.3632107E1,5.0634785E1,2.0624268E1,8.4272375E0,4.5450497E0,6.657983E1,1.2960881E2,-2.427923E0,4.312606E1,9.830481E1,-9.984129E0,2.0415051E2,5.0973824E1,7.5964175E-2,-6.1455835E-3,-1.10416645E-2,1.9119595E-3,1.4057232E-1,-6.6561834E-3,9.8277405E-3,7.152292E-2,7.446908E-2,1.660317E-1,2.3194061E-1,5.1115805E-1,6.4611155E-1,2.0397952E0,4.4518074E1,-6.9382167E-1,1.0232297E1,5.799307E-1,2.4662347E-1,9.284379E-1,8.326993E0,2.8086498E0,3.7277055E0,1.8196295E1,2.215194E0,-9.7556955E-1,4.728144E0,1.0114579E1,1.5799016E0,1.1905749E1,1.2414746E0,-6.437065E-2,-6.9777596E-1,7.30174E0,1.4391115E1,1.6321949E0,6.666912E0,2.9349432E0,1.13421545E1,6.4095664E0,2.6380804E-1,-1.4577386E0,1.4144853E0,2.1533398E1,-3.5701141E0,1.2209048E1],"categories":[],"categories_nodes":[],"categories_segments":[],"categories_sizes":[],"default_left":[0,0,0,0,0,0,0,0,0,0,0,0,0,0,0,0,0,0,0,0,0,0,0,0,0,0,0,0,0,0,0,0,0,0,0,0,0,0,0,0,0,0,0,0,0,0,0,0,0,0,0,0,0,0,0,0,0,0,0,0,0,0,0,0,0,0,0,0,0,0,0,0,0,0,0,0,0,0,0,0,0,0,0,0,0,0,0,0,0,0,0,0,0,0,0,0,0,0,0,0,0,0,0],"id":11,"left_children":[1,3,5,7,9,11,13,15,17,19,21,23,25,27,29,31,33,35,37,39,41,43,45,47,-1,49,51,53,55,-1,-1,57,59,61,63,65,67,69,71,73,75,77,-1,79,81,83,85,87,-1,89,91,-1,93,95,97,99,101,-1,-1,-1,-1,-1,-1,-1,-1,-1,-1,-1,-1,-1,-1,-1,-1,-1,-1,-1,-1,-1,-1,-1,-1,-1,-1,-1,-1,-1,-1,-1,-1,-1,-1,-1,-1,-1,-1,-1,-1,-1,-1,-1,-1,-1,-1],"loss_changes":[2.8077812E6,6.813143E5,6.1508175E5,3.0968525E5,2.306085E5,1.0718969E5,5.70779E5,9.5293125E4,1.9852606E5,8.248398E4,1.26185E5,4.2026704E3,5.274053E4,1.3322062E5,2.783125E4,3.4885297E4,3.6414656E4,3.7079062E4,1.8672478E5,1.8149963E4,6.3165406E4,6.565025E4,4.267925E4,4.279371E3,0E0,3.401303E4,8.788844E3,3.634903E4,1.24801875E5,0E0,0E0,9.755343E4,1.9810684E4,3.509522E4,4.5795867E4,4.7144473E3,2.7234281E4,8.35712E4,2.0633572E6,2.5524568E4,3.9166318E3,2.309525E4,0E0,1.6828125E4,1.5269377E3,3.3222938E4,2.7452088E4,1.0903755E3,0E0,1.3565734E4,3.598572E4,0E0,4.5914805E3,1.03705625E4,3.4338687E2,6.6379125E4,6.7803266E4,0E0,0E0,0E0,0E0,0E0,0E0,0E0,0E0,0E0,0E0,0E0,0E0,0E0,0E0,0E0,0E0,0E0,0E0,0E0,0E0,0E0,0E0,0E0,0E0,0E0,0E0,0E0,0E0,0E0,0E0,0E0,0E0,0E0,0E0,0E0,0E0,0E0,0E0,0E0,0E0,0E0,0E0,0E0,0E0,0E0,0E0],"parents":[2147483647,0,0,1,1,2,2,3,3,4,4,5,5,6,6,7,7,8,8,9,9,10,10,11,11,12,12,13,13,14,14,15,15,16,16,17,17,18,18,19,19,20,20,21,21,22,22,23,23,25,25,26,26,27,27,28,28,31,31,32,32,33,33,34,34,35,35,36,36,37,37,38,38,39,39,40,40,41,41,43,43,44,44,45,45,46,46,47,47,49,49,50,50,52,52,53,53,54,54,55,55,56,56],"right_children":[2,4,6,8,10,12,14,16,18,20,22,24,26,28,30,32,34,36,38,40,42,44,46,48,-1,50,52,54,56,-1,-1,58,60,62,64,66,68,70,72,74,76,78,-1,80,82,84,86,88,-1,90,92,-1,94,96,98,100,102,-1,-1,-1,-1,-1,-1,-1,-1,-1,-1,-1,-1,-1,-1,-1,-1,-1,-1,-1,-1,-1,-1,-1,-1,-1,-1,-1,-1,-1,-1,-1,-1,-1,-1,-1,-1,-1,-1,-1,-1,-1,-1,-1,-1,-1,-1],"split_conditions":[2.33E2,8.9E1,6.435547E-1,7E0,9.8E1,7E0,1.1E1,7.060547E-1,7.03125E0,1.9441E4,-3.6132812E-2,5.6E1,2.4E1,9.3896484E-1,5.9033203E-1,3.1E1,1.7433167E-3,5E0,3.2E1,1.1E1,5.3E2,2.7324219E0,2.4E1,1.9464E4,-2.830573E0,3.7768555E-1,2.8125E-1,1.1962891E0,2.5E1,9.52001E0,3.5923252E1,2.3254395E-2,1.9226074E-1,6.732178E-2,2E0,1.3232422E0,1.8E1,4.3E1,4.5751953E-1,1.6044922E0,3.5E1,2E0,1.6609058E1,2.7368164E-1,1.93E2,2.3E1,4.53E2,7E0,4.5450497E0,2E0,6.8652344E-1,-2.427923E0,-2.5927734E-1,5.33E2,1.5E1,7.944336E-1,2.7E1,7.5964175E-2,-6.1455835E-3,-1.10416645E-2,1.9119595E-3,1.4057232E-1,-6.6561834E-3,9.8277405E-3,7.152292E-2,7.446908E-2,1.660317E-1,2.3194061E-1,5.1115805E-1,6.4611155E-1,2.0397952E0,4.4518074E1,-6.9382167E-1,1.0232297E1,5.799307E-1,2.4662347E-1,9.284379E-1,8.326993E0,2.8086498E0,3.7277055E0,1.8196295E1,2.215194E0,-9.7556955E-1,4.728144E0,1.0114579E1,1.5799016E0,1.1905749E1,1.2414746E0,-6.437065E-2,-6.9777596E-1,7.30174E0,1.4391115E1,1.6321949E0,6.666912E0,2.9349432E0,1.13421545E1,6.4095664E0,2.6380804E-1,-1.4577386E0,1.4144853E0,2.1533398E1,-3.5701141E0,1.2209048E1],"split_indices":[18,19,10,18,18,19,1,14,14,3,22,2,0,8,8,4,15,19,0,4,19,13,0,3,0,8,8,10,0,0,0,9,14,13,18,14,18,18,13,13,18,18,0,10,18,0,19,15,0,1,9,0,22,19,0,9,0,0,0,0,0,0,0,0,0,0,0,0,0,0,0,0,0,0,0,0,0,0,0,0,0,0,0,0,0,0,0,0,0,0,0,0,0,0,0,0,0,0,0,0,0,0,0],"split_type":[0,0,0,0,0,0,0,0,0,0,0,0,0,0,0,0,0,0,0,0,0,0,0,0,0,0,0,0,0,0,0,0,0,0,0,0,0,0,0,0,0,0,0,0,0,0,0,0,0,0,0,0,0,0,0,0,0,0,0,0,0,0,0,0,0,0,0,0,0,0,0,0,0,0,0,0,0,0,0,0,0,0,0,0,0,0,0,0,0,0,0,0,0,0,0,0,0,0,0,0,0,0,0],"sum_hessian":[8.097862E6,8.097657E6,2.05E2,8.096854E6,8.03E2,1.03E2,1.02E2,8.043925E6,5.2929E4,4.8E2,3.23E2,3.1E1,7.2E1,8.6E1,1.6E1,7.300073E6,7.43852E5,4.9915E4,3.014E3,3.5E2,1.3E2,1.6E1,3.07E2,3E1,1E0,4.8E1,2.4E1,4.6E1,4E1,2E0,1.4E1,7.67076E5,6.532997E6,7.7527E4,6.66325E5,2.482E4,2.5095E4,2.933E3,8.1E1,1E1,3.4E2,1.28E2,2E0,1.2E1,4E0,2.44E2,6.3E1,2.8E1,2E0,2.5E1,2.3E1,1E0,2.3E1,4.3E1,3E0,3.2E1,8E0,1.93511E5,5.73565E5,4.986065E6,1.546932E6,5.4493E4,2.3034E4,5.08742E5,1.57583E5,1.6205E4,8.615E3,2.09E4,4.195E3,2.41E3,5.23E2,1E1,7.1E1,3E0,7E0,1.82E2,1.58E2,7E0,1.21E2,2E0,1E1,3E0,1E0,2.32E2,1.2E1,6.2E1,1E0,1.9E1,9E0,2E0,2.3E1,2E1,3E0,6E0,1.7E1,2.7E1,1.6E1,1E0,2E0,2E0,3E1,4E0,4E0],"tree_param":{"num_deleted":"0","num_feature":"23","num_nodes":"103","size_leaf_vector":"1"}},{"base_weights":[8.322459E-4,-2.1667513E-3,1.3972919E2,-6.041505E-3,2.9399557E1,1.1990884E2,2.9228085E2,-1.9722339E-2,3.2930129E0,1.6122768E1,3.972963E1,7.145519E1,1.5561618E2,4.3373528E1,3.1743998E1,-4.5173544E-2,5.108431E-1,2.5292847E0,8.333614E0,1.1447829E1,5.3489685E1,2.0991673E2,3.854113E1,-9.4135754E-2,8.6323586E1,2.0454414E2,1.0397912E2,8.052986E-1,5.105137E0,-4.5366783E-2,6.2525143E1,3.4754044E-1,1.0009955E0,8.999066E0,2.374026E0,3.2254528E1,7.29931E0,1.1932982E0,1.54037485E1,4.3757404E1,1.5735811E2,3.5402012E0,2.506479E1,3.1901688E1,6.749001E1,1.1182658E1,-1.917707E1,1.6890373E2,6.499292E1,3.4383304E0,2.1124722E2,1.8033253E1,1.1831444E2,-5.678566E-3,2.9147467E-2,1.2241431E1,3.5092733E0,1.0977099E-1,2.3141833E-2,9.973679E-2,8.95638E0,4.184467E-1,1.1035155E1,2.105433E-1,5.40825E-1,2.4120602E1,2.757178E0,5.621969E-1,1.3439044E0,4.0786386E-1,-1.81221E0,2.1534612E0,8.9713365E-1,5.211443E0,8.958049E-1,1.977145E1,1.6714684E0,1.7855109E0,3.6746209E0,5.658306E0,1.2208838E1,2.5047562E0,-1.4865935E-1,-3.5759592E-1,-2.1135633E0,4.0747027E0,2.092362E1,5.922605E-1,7.633214E0,2.1578114E1,9.595918E-1,2.5547426E0,-3.91472E-1,1.3220721E1,-4.0834284E-1],"categories":[],"categories_nodes":[],"categories_segments":[],"categories_sizes":[],"default_left":[0,0,0,0,0,0,0,0,0,0,0,0,0,0,0,0,0,0,0,0,0,0,0,0,0,0,0,0,0,0,0,0,0,0,0,0,0,0,0,0,0,0,0,0,0,0,0,0,0,0,0,0,0,0,0,0,0,0,0,0,0,0,0,0,0,0,0,0,0,0,0,0,0,0,0,0,0,0,0,0,0,0,0,0,0,0,0,0,0,0,0,0,0,0,0],"id":12,"left_children":[1,3,5,7,9,11,13,15,17,19,21,23,25,27,-1,29,31,33,35,37,39,41,43,45,47,49,51,-1,-1,53,55,57,59,61,63,65,67,69,71,73,75,-1,-1,77,79,81,83,85,87,-1,89,91,93,-1,-1,-1,-1,-1,-1,-1,-1,-1,-1,-1,-1,-1,-1,-1,-1,-1,-1,-1,-1,-1,-1,-1,-1,-1,-1,-1,-1,-1,-1,-1,-1,-1,-1,-1,-1,-1,-1,-1,-1,-1,-1],"loss_changes":[3.3925112E6,9.22292E5,4.6379125E5,3.6533934E5,1.451805E5,2.5167375E5,9.3268875E4,1.08854055E5,1.2865191E5,8.098495E4,1.068925E5,7.422369E4,1.8687125E5,2.9648096E2,0E0,9.301091E4,2.9534758E4,2.9125578E4,1.08393375E5,1.6995613E4,4.022061E4,1.1114406E4,1.10916E5,3.3373174E3,8.244869E4,3.7146E4,5.385847E4,0E0,0E0,2.9586705E4,3.1482055E4,2.411036E4,2.9468805E4,3.3089078E5,2.3088297E4,1.6615702E5,4.3303516E4,6.7484004E3,1.1600117E4,1.3649992E4,1.5518336E4,0E0,0E0,3.2106469E4,5.3221438E4,1.7793665E3,4.3104492E1,4.0621094E4,3.1863703E4,0E0,3.45385E4,1.6199924E3,6.855356E4,0E0,0E0,0E0,0E0,0E0,0E0,0E0,0E0,0E0,0E0,0E0,0E0,0E0,0E0,0E0,0E0,0E0,0E0,0E0,0E0,0E0,0E0,0E0,0E0,0E0,0E0,0E0,0E0,0E0,0E0,0E0,0E0,0E0,0E0,0E0,0E0,0E0,0E0,0E0,0E0,0E0,0E0],"parents":[2147483647,0,0,1,1,2,2,3,3,4,4,5,5,6,6,7,7,8,8,9,9,10,10,11,11,12,12,13,13,15,15,16,16,17,17,18,18,19,19,20,20,21,21,22,22,23,23,24,24,25,25,26,26,29,29,30,30,31,31,32,32,33,33,34,34,35,35,36,36,37,37,38,38,39,39,40,40,43,43,44,44,45,45,46,46,47,47,48,48,50,50,51,51,52,52],"right_children":[2,4,6,8,10,12,14,16,18,20,22,24,26,28,-1,30,32,34,36,38,40,42,44,46,48,50,52,-1,-1,54,56,58,60,62,64,66,68,70,72,74,76,-1,-1,78,80,82,84,86,88,-1,90,92,94,-1,-1,-1,-1,-1,-1,-1,-1,-1,-1,-1,-1,-1,-1,-1,-1,-1,-1,-1,-1,-1,-1,-1,-1,-1,-1,-1,-1,-1,-1,-1,-1,-1,-1,-1,-1,-1,-1,-1,-1,-1,-1],"split_conditions":[2.87E2,7.6E1,1.2E1,9E0,9E0,7.5146484E-1,4.284668E-1,2E0,2.7E1,7E1,9E0,3.25E0,1.8E1,1.2E1,3.1743998E1,1.59E2,3E0,4.7827148E-1,1.3408203E0,6E0,7.2314453E-1,3.2E1,1.1E1,1.9226074E-2,1.2832031E0,3.743E3,1.9464E4,8.052986E-1,5.105137E0,2E0,1.3251953E0,1.7433167E-3,2.7E2,6.7578125E-1,1.2E1,-7.6171875E-1,8.1953125E0,1.3798828E0,5.863E3,5.1E1,6E0,3.5402012E0,2.506479E1,3E0,1.68E2,1.7E1,7E0,5E0,2.2E1,3.4383304E0,5.5E1,1.0673828E0,7.95E2,-5.678566E-3,2.9147467E-2,1.2241431E1,3.5092733E0,1.0977099E-1,2.3141833E-2,9.973679E-2,8.95638E0,4.184467E-1,1.1035155E1,2.105433E-1,5.40825E-1,2.4120602E1,2.757178E0,5.621969E-1,1.3439044E0,4.0786386E-1,-1.81221E0,2.1534612E0,8.9713365E-1,5.211443E0,8.958049E-1,1.977145E1,1.6714684E0,1.7855109E0,3.6746209E0,5.658306E0,1.2208838E1,2.5047562E0,-1.4865935E-1,-3.5759592E-1,-2.1135633E0,4.0747027E0,2.092362E1,5.922605E-1,7.633214E0,2.1578114E1,9.595918E-1,2.5547426E0,-3.91472E-1,1.3220721E1,-4.0834284E-1],"split_indices":[17,17,1,17,19,8,8,17,17,4,4,15,0,0,0,19,19,5,5,1,8,0,1,7,13,3,3,0,0,19,13,15,18,12,1,20,7,12,3,2,0,0,0,1,18,0,0,1,2,0,2,8,18,0,0,0,0,0,0,0,0,0,0,0,0,0,0,0,0,0,0,0,0,0,0,0,0,0,0,0,0,0,0,0,0,0,0,0,0,0,0,0,0,0,0],"split_type":[0,0,0,0,0,0,0,0,0,0,0,0,0,0,0,0,0,0,0,0,0,0,0,0,0,0,0,0,0,0,0,0,0,0,0,0,0,0,0,0,0,0,0,0,0,0,0,0,0,0,0,0,0,0,0,0,0,0,0,0,0,0,0,0,0,0,0,0,0,0,0,0,0,0,0,0,0,0,0,0,0,0,0,0,0,0,0,0,0,0,0,0,0,0,0],"sum_hessian":[8.095814E6,8.095642E6,1.72E2,8.094577E6,1.065E3,1.55E2,1.7E1,8.06115E6,3.3427E4,4.68E2,5.97E2,6.8E1,8.7E1,2E0,1.5E1,7.692159E6,3.68991E5,2.9031E4,4.396E3,4.18E2,5E1,2E0,5.95E2,1.2E1,5.6E1,4.2E1,4.5E1,1E0,1E0,7.692137E6,2.2E1,2.7678E5,9.2211E4,6.78E2,2.8353E4,1.8E2,4.216E3,1.17E2,3.01E2,4.8E1,2E0,1E0,1E0,4.87E2,1.08E2,8E0,4E0,9E0,4.7E1,2E0,4E1,7E0,3.8E1,7.439926E6,2.52211E5,5E0,1.7E1,3.7099E4,2.39681E5,9.2209E4,2E0,6.49E2,2.9E1,2.605E4,2.303E3,2E0,1.78E2,3.314E3,9.02E2,1.03E2,1.4E1,1.52E2,1.49E2,3.8E1,1E1,1E0,1E0,1.27E2,3.6E2,9.3E1,1.5E1,3E0,5E0,1E0,3E0,3E0,6E0,8E0,3.9E1,3.9E1,1E0,5E0,2E0,3.4E1,4E0],"tree_param":{"num_deleted":"0","num_feature":"23","num_nodes":"95","size_leaf_vector":"1"}},{"base_weights":[5.914249E-4,-2.243116E-3,1.1663578E2,-7.3036845E-3,1.6488289E1,9.778327E1,2.2522899E2,-2.2678997E-2,1.8803215E0,1.0018293E1,2.8930998E1,5.2378822E1,1.221792E2,1.2936409E2,3.0626175E2,-2.284037E-2,7.729185E1,1.5352169E0,4.3283005E0,8.3333435E0,3.698089E1,1.4893092E2,2.6015942E1,-6.746066E-1,6.763673E1,3.86189E1,1.4004231E2,1.5127917E2,-1.138146E1,9.962035E0,3.265239E1,-3.9616577E-2,4.8031542E-1,-1.8592344E1,1.20847336E2,7.737051E-1,1.9572171E0,1.7747652E1,3.9046307E0,1.2097346E1,5.4875903E0,3.2027702E1,1.4328609E2,3.2214847E2,8.413847E1,1.8708067E1,3.9764885E1,1.2897499E1,-1.4111345E1,5.150974E1,1.7236525E1,6.3016743E1,1.2726484E1,1.2290521E2,2.1901514E1,-3.1830397E-1,1.6382544E2,-2.8574128E0,1.3064808E0,-6.6799433E-3,8.78006E-3,1.9132078E-2,8.022431E-2,-2.5019426E0,-6.6486156E-1,-1.9754317E0,1.5322499E1,3.665464E-2,1.4759786E-1,1.6465516E-1,3.7405667E-1,3.123416E1,1.0632594E0,3.2625982E-1,9.181596E-1,1.084113E0,3.6457841E0,3.0831563E-1,7.9472715E-1,2.2791502E0,4.6553764E0,1.9054373E1,4.7097427E-1,5.7716107E0,3.6553467E1,1.3952111E0,1.210068E1,2.4596694E0,1.0603646E0,3.5135877E0,7.499013E0,-3.6680025E-1,1.5863897E0,-4.5326242E-1,-1.7719208E0,6.1989155E0,-2.3542762E0,1.3546304E0,7.9080124E0,1.7816114E0,-7.797595E-1,-1.8781108E0,1.2903254E1,2.9586995E0,1.708209E1],"categories":[],"categories_nodes":[],"categories_segments":[],"categories_sizes":[],"default_left":[0,0,0,0,0,0,0,0,0,0,0,0,0,0,0,0,0,0,0,0,0,0,0,0,0,0,0,0,0,0,0,0,0,0,0,0,0,0,0,0,0,0,0,0,0,0,0,0,0,0,0,0,0,0,0,0,0,0,0,0,0,0,0,0,0,0,0,0,0,0,0,0,0,0,0,0,0,0,0,0,0,0,0,0,0,0,0,0,0,0,0,0,0,0,0,0,0,0,0,0,0,0,0,0,0],"id":13,"left_children":[1,3,5,7,9,11,13,15,17,19,21,23,25,27,29,31,33,35,37,39,41,43,45,47,49,51,53,55,57,-1,-1,59,61,63,65,67,69,71,73,75,77,79,81,83,85,87,89,91,93,95,-1,97,99,101,-1,-1,103,-1,-1,-1,-1,-1,-1,-1,-1,-1,-1,-1,-1,-1,-1,-1,-1,-1,-1,-1,-1,-1,-1,-1,-1,-1,-1,-1,-1,-1,-1,-1,-1,-1,-1,-1,-1,-1,-1,-1,-1,-1,-1,-1,-1,-1,-1,-1,-1],"loss_changes":[2.6767048E6,6.756343E5,3.641115E5,2.3490072E5,1.9944375E5,1.778995E5,1.4600338E5,1.0016714E5,5.5232703E4,7.381734E4,2.9009238E5,5.088117E4,1.5432512E5,5.1627938E4,4.41625E2,6.776682E4,7.393114E4,1.8416203E4,4.5809E4,1.6408469E4,4.2356773E4,1.7410922E5,8.21635E4,3.1933826E3,6.674725E4,1.2335191E4,7.4172875E4,2.7576781E4,2.2351523E3,0E0,0E0,2.6909143E4,2.4099688E4,2.264021E2,5.8841938E4,5.8435283E3,2.042039E4,5.1138056E5,2.6487992E4,1.9587188E4,5.1717812E3,1.0714508E4,2.302836E4,1.7505625E4,4.039518E4,2.558736E4,4.212803E4,5.325802E2,1.6150745E2,3.7766312E4,0E0,6.665949E3,1.5767395E3,7.1764125E4,0E0,0E0,3.098625E3,0E0,0E0,0E0,0E0,0E0,0E0,0E0,0E0,0E0,0E0,0E0,0E0,0E0,0E0,0E0,0E0,0E0,0E0,0E0,0E0,0E0,0E0,0E0,0E0,0E0,0E0,0E0,0E0,0E0,0E0,0E0,0E0,0E0,0E0,0E0,0E0,0E0,0E0,0E0,0E0,0E0,0E0,0E0,0E0,0E0,0E0,0E0,0E0],"parents":[2147483647,0,0,1,1,2,2,3,3,4,4,5,5,6,6,7,7,8,8,9,9,10,10,11,11,12,12,13,13,14,14,15,15,16,16,17,17,18,18,19,19,20,20,21,21,22,22,23,23,24,24,25,25,26,26,27,27,28,28,31,31,32,32,33,33,34,34,35,35,36,36,37,37,38,38,39,39,40,40,41,41,42,42,43,43,44,44,45,45,46,46,47,47,48,48,49,49,51,51,52,52,53,53,56,56],"right_children":[2,4,6,8,10,12,14,16,18,20,22,24,26,28,30,32,34,36,38,40,42,44,46,48,50,52,54,56,58,-1,-1,60,62,64,66,68,70,72,74,76,78,80,82,84,86,88,90,92,94,96,-1,98,100,102,-1,-1,104,-1,-1,-1,-1,-1,-1,-1,-1,-1,-1,-1,-1,-1,-1,-1,-1,-1,-1,-1,-1,-1,-1,-1,-1,-1,-1,-1,-1,-1,-1,-1,-1,-1,-1,-1,-1,-1,-1,-1,-1,-1,-1,-1,-1,-1,-1,-1,-1],"split_conditions":[2.6E2,4.4E1,1.1757812E0,6E0,7.03125E0,6E0,7.49E2,2.31E2,1.8E1,7.1E1,5.78125E-1,7.7978516E-1,4.0195312E0,1.4296875E0,2.6E1,1.4404297E0,4.2211914E-1,5E0,8.3984375E-1,1.2E1,7.167969E-1,-1.9335938E-1,1.11E2,7.03125E0,2.8E1,7.03125E0,1.2E1,9E0,2.6E1,9.962035E0,3.265239E1,2.8881836E-1,4.5581055E-1,1.3E1,-4.8828125E-4,5E0,2.9375E0,9E0,7E1,1.53E2,6E0,1.07E2,6E0,-3.7841797E-1,8E0,2.4E1,1.2E1,2.7480469E0,1.9226074E-2,1.0361328E0,1.7236525E1,2.77E2,1.5400391E0,-9.765625E-4,2.1901514E1,-3.1830397E-1,2.8E1,-2.8574128E0,1.3064808E0,-6.6799433E-3,8.78006E-3,1.9132078E-2,8.022431E-2,-2.5019426E0,-6.6486156E-1,-1.9754317E0,1.5322499E1,3.665464E-2,1.4759786E-1,1.6465516E-1,3.7405667E-1,3.123416E1,1.0632594E0,3.2625982E-1,9.181596E-1,1.084113E0,3.6457841E0,3.0831563E-1,7.9472715E-1,2.2791502E0,4.6553764E0,1.9054373E1,4.7097427E-1,5.7716107E0,3.6553467E1,1.3952111E0,1.210068E1,2.4596694E0,1.0603646E0,3.5135877E0,7.499013E0,-3.6680025E-1,1.5863897E0,-4.5326242E-1,-1.7719208E0,6.1989155E0,-2.3542762E0,1.3546304E0,7.9080124E0,1.7816114E0,-7.797595E-1,-1.8781108E0,1.2903254E1,2.9586995E0,1.708209E1],"split_indices":[17,17,9,17,16,1,17,19,17,4,13,7,6,9,2,5,9,1,5,0,9,20,17,14,0,14,1,4,2,0,0,5,14,2,22,19,14,4,4,17,1,17,0,22,1,0,1,14,6,9,0,17,6,20,0,0,2,0,0,0,0,0,0,0,0,0,0,0,0,0,0,0,0,0,0,0,0,0,0,0,0,0,0,0,0,0,0,0,0,0,0,0,0,0,0,0,0,0,0,0,0,0,0,0,0],"split_type":[0,0,0,0,0,0,0,0,0,0,0,0,0,0,0,0,0,0,0,0,0,0,0,0,0,0,0,0,0,0,0,0,0,0,0,0,0,0,0,0,0,0,0,0,0,0,0,0,0,0,0,0,0,0,0,0,0,0,0,0,0,0,0,0,0,0,0,0,0,0,0,0,0,0,0,0,0,0,0,0,0,0,0,0,0,0,0,0,0,0,0,0,0,0,0,0,0,0,0,0,0,0,0,0,0],"sum_hessian":[8.096326E6,8.096131E6,1.95E2,8.093649E6,2.482E3,1.69E2,2.6E1,8.028258E6,6.5391E4,1.635E3,8.47E2,6.1E1,1.08E2,1.4E1,1.2E1,8.028243E6,1.5E1,5.7314E4,8.077E3,1.541E3,9.4E1,1.8E1,8.29E2,1.4E1,4.7E1,2E1,8.8E1,1.2E1,2E0,2E0,1E1,7.769204E6,2.59039E5,5E0,1E1,2.0438E4,3.6876E4,2.45E2,7.832E3,6.61E2,8.8E2,9.2E1,2E0,3E0,1.5E1,5.44E2,2.85E2,7E0,7E0,4.3E1,4E0,9E0,1.1E1,7.6E1,1.2E1,1E0,1.1E1,1E0,1E0,6.403169E6,1.366035E6,1.36503E5,1.22536E5,2E0,3E0,2E0,8E0,1.2939E4,7.499E3,3.1408E4,5.468E3,4E0,2.41E2,6.985E3,8.47E2,6.31E2,3E1,4.47E2,4.33E2,5.9E1,3.3E1,1E0,1E0,1E0,2E0,6E0,9E0,3.13E2,2.31E2,2.55E2,3E1,1E0,6E0,3E0,4E0,3.8E1,5E0,3E0,6E0,9E0,2E0,3E0,7.3E1,1E0,1E1],"tree_param":{"num_deleted":"0","num_feature":"23","num_nodes":"105","size_leaf_vector":"1"}},{"base_weights":[5.4709223E-4,-1.7942799E-3,8.6260994E1,-3.899831E-3,2.2433657E1,7.221489E1,2.2202505E2,-2.8881421E-2,8.960616E-1,1.2533927E1,3.7552063E1,4.64423E1,1.106145E2,6.3924236E1,2.8281311E1,-4.3352004E-2,3.084718E-1,7.8000146E-1,4.6972756E0,8.727245E1,1.1213511E1,1.0595404E2,3.199644E1,7.7603464E0,5.8674118E1,1.4049695E2,2.978427E1,7.327657E1,2.641629E-2,5.9799843E-2,-8.16038E-2,2.8867817E-1,4.474826E0,5.518692E-1,2.1267216E0,2.914394E0,1.0480442E1,1.4662076E1,-4.3126397E0,4.6900425E0,2.5605213E1,1.4901375E2,2.6160086E1,1.3098919E1,3.727125E1,-5.785587E-1,1.1639779E1,1.4583896E2,5.193447E1,1.0545746E2,2.0347144E2,7.9162125E1,-2.3696192E1,8.911945E-1,8.173625E0,5.575165E-2,-1.0558282E-3,-1.2138811E-2,5.617616E-4,2.3731945E-2,8.8600114E-2,2.6065847E-1,1.4721751E1,3.4305338E-2,1.19449176E-1,4.053671E-1,1.7135946E-1,1.2307479E-1,5.615225E-1,5.9177604E0,8.381449E-1,-5.701318E-1,3.2820728E-2,3.274513E0,3.3922896E-1,7.168991E0,2.1151397E0,4.1049676E0,1.724174E1,5.024425E0,2.4013548E-1,1.8202862E0,9.847718E-2,4.8856134E0,2.6704261E0,-2.6994947E-1,3.5394225E-1,4.8530465E-1,1.9112481E0,8.017697E-1,1.7184828E1,2.7528255E0,6.665115E0,1.1617223E1,-1.8537596E0,2.61569E1,1.4011736E1,4.6167395E-1,8.48125E0,-3.6783986E0,2.4857676E0],"categories":[],"categories_nodes":[],"categories_segments":[],"categories_sizes":[],"default_left":[0,0,0,0,0,0,0,0,0,0,0,0,0,0,0,0,0,0,0,0,0,0,0,0,0,0,0,0,0,0,0,0,0,0,0,0,0,0,0,0,0,0,0,0,0,0,0,0,0,0,0,0,0,0,0,0,0,0,0,0,0,0,0,0,0,0,0,0,0,0,0,0,0,0,0,0,0,0,0,0,0,0,0,0,0,0,0,0,0,0,0,0,0,0,0,0,0,0,0,0,0],"id":14,"left_children":[1,3,5,7,9,11,13,15,17,19,21,23,25,27,-1,29,31,33,35,37,39,41,43,45,47,49,51,53,-1,55,57,59,61,63,65,67,69,-1,71,73,75,77,79,81,83,85,87,89,91,93,95,97,99,-1,-1,-1,-1,-1,-1,-1,-1,-1,-1,-1,-1,-1,-1,-1,-1,-1,-1,-1,-1,-1,-1,-1,-1,-1,-1,-1,-1,-1,-1,-1,-1,-1,-1,-1,-1,-1,-1,-1,-1,-1,-1,-1,-1,-1,-1,-1,-1],"loss_changes":[1.6352282E6,3.824593E5,3.9089275E5,1.820069E5,1.1288434E5,1.9064338E5,1.5811125E5,3.8452438E4,9.645516E4,4.3849266E4,1.0795506E5,5.775572E4,1.8529275E5,4.584408E3,0E0,2.980173E4,2.6715184E4,6.518415E4,6.673655E4,4.3274945E4,4.2577207E4,6.79057E4,2.7028531E4,1.0391871E3,4.176922E4,8.9740625E4,6.603321E4,2.3993242E3,0E0,7.154849E4,1.9118941E4,9.891566E3,4.0781128E5,2.4346773E4,2.4454953E4,2.2513793E4,1.5508372E5,0E0,3.3946815E1,1.1301076E4,2.6431516E4,2.2324E4,5.371159E3,3.9106045E3,2.4364625E4,1.19477066E2,9.4043335E2,1.821643E4,2.9014672E4,5.7933438E4,4.6369375E3,4.6854062E3,9.713497E3,0E0,0E0,0E0,0E0,0E0,0E0,0E0,0E0,0E0,0E0,0E0,0E0,0E0,0E0,0E0,0E0,0E0,0E0,0E0,0E0,0E0,0E0,0E0,0E0,0E0,0E0,0E0,0E0,0E0,0E0,0E0,0E0,0E0,0E0,0E0,0E0,0E0,0E0,0E0,0E0,0E0,0E0,0E0,0E0,0E0,0E0,0E0,0E0],"parents":[2147483647,0,0,1,1,2,2,3,3,4,4,5,5,6,6,7,7,8,8,9,9,10,10,11,11,12,12,13,13,15,15,16,16,17,17,18,18,19,19,20,20,21,21,22,22,23,23,24,24,25,25,26,26,27,27,29,29,30,30,31,31,32,32,33,33,34,34,35,35,36,36,38,38,39,39,40,40,41,41,42,42,43,43,44,44,45,45,46,46,47,47,48,48,49,49,50,50,51,51,52,52],"right_children":[2,4,6,8,10,12,14,16,18,20,22,24,26,28,-1,30,32,34,36,38,40,42,44,46,48,50,52,54,-1,56,58,60,62,64,66,68,70,-1,72,74,76,78,80,82,84,86,88,90,92,94,96,98,100,-1,-1,-1,-1,-1,-1,-1,-1,-1,-1,-1,-1,-1,-1,-1,-1,-1,-1,-1,-1,-1,-1,-1,-1,-1,-1,-1,-1,-1,-1,-1,-1,-1,-1,-1,-1,-1,-1,-1,-1,-1,-1,-1,-1,-1,-1,-1,-1],"split_conditions":[2.33E2,9.1E1,1.2E1,1.9345703E0,1.03E2,7.3339844E-1,5.9033203E-1,2E0,4.84375E0,6.121826E-2,1.5390625E0,7.7978516E-1,2.5E1,4.8E1,2.8281311E1,1.9226074E-2,7.03125E0,5.3515625E-1,6.6E1,2.5E1,7.1E1,2.7E1,3E0,2.6E2,1.4111328E0,1.0820312E0,4.91E2,1.6E1,2.641629E-2,3.1E1,1.7773438E-1,2.2988281E0,3.2E1,3E0,2.3254395E-2,8E0,1.9226074E-2,1.4662076E1,2.2216797E-2,1.1E1,3E0,1.0244141E0,-4.8828125E-4,4.3E1,1.6E1,2.5E1,6.9921875E-1,3E0,1.87E2,7.72E2,1.4E1,6.8115234E-1,2.7E1,8.911945E-1,8.173625E0,5.575165E-2,-1.0558282E-3,-1.2138811E-2,5.617616E-4,2.3731945E-2,8.8600114E-2,2.6065847E-1,1.4721751E1,3.4305338E-2,1.19449176E-1,4.053671E-1,1.7135946E-1,1.2307479E-1,5.615225E-1,5.9177604E0,8.381449E-1,-5.701318E-1,3.2820728E-2,3.274513E0,3.3922896E-1,7.168991E0,2.1151397E0,4.1049676E0,1.724174E1,5.024425E0,2.4013548E-1,1.8202862E0,9.847718E-2,4.8856134E0,2.6704261E0,-2.6994947E-1,3.5394225E-1,4.8530465E-1,1.9112481E0,8.017697E-1,1.7184828E1,2.7528255E0,6.665115E0,1.1617223E1,-1.8537596E0,2.61569E1,1.4011736E1,4.6167395E-1,8.48125E0,-3.6783986E0,2.4857676E0],"split_indices":[18,19,1,5,18,10,8,19,14,5,13,7,0,2,0,7,14,8,4,0,4,2,1,18,12,10,19,2,0,4,5,16,0,19,9,1,7,0,5,4,18,12,22,2,0,0,8,1,19,18,0,9,0,0,0,0,0,0,0,0,0,0,0,0,0,0,0,0,0,0,0,0,0,0,0,0,0,0,0,0,0,0,0,0,0,0,0,0,0,0,0,0,0,0,0,0,0,0,0,0,0],"split_type":[0,0,0,0,0,0,0,0,0,0,0,0,0,0,0,0,0,0,0,0,0,0,0,0,0,0,0,0,0,0,0,0,0,0,0,0,0,0,0,0,0,0,0,0,0,0,0,0,0,0,0,0,0,0,0,0,0,0,0,0,0,0,0,0,0,0,0,0,0,0,0,0,0,0,0,0,0,0,0,0,0,0,0,0,0,0,0,0,0,0,0,0,0,0,0,0,0,0,0,0,0],"sum_hessian":[8.096476E6,8.096258E6,2.18E2,8.0955E6,7.58E2,2E2,1.8E1,7.876852E6,2.18648E5,4.6E2,2.98E2,1.22E2,7.8E1,6E0,1.2E1,7.552877E6,3.23975E5,2.12172E5,6.476E3,6E0,4.54E2,2E1,2.78E2,3E1,9.2E1,5.6E1,2.2E1,5E0,1E0,2.043166E6,5.509711E6,3.22445E5,1.53E3,1.81439E5,3.0733E4,4.952E3,1.524E3,3E0,3E0,3.14E2,1.4E2,1.2E1,8E0,6.2E1,2.16E2,1E1,2E1,4E0,8.8E1,3.9E1,1.7E1,1.1E1,1.1E1,1E0,4E0,2.53052E5,1.790114E6,3.783804E6,1.725907E6,2.96918E5,2.5527E4,1.512E3,1.8E1,1.36943E5,4.4496E4,5.423E3,2.531E4,3.052E3,1.9E3,6.1E1,1.463E3,2E0,1E0,1.2E1,3.02E2,1E1,1.3E2,3E0,9E0,3E0,5E0,4.3E1,1.9E1,1E2,1.16E2,7E0,3E0,1.2E1,8E0,1E0,3E0,3.5E1,5.3E1,3.6E1,3E0,6E0,1.1E1,1E0,1E1,9E0,2E0],"tree_param":{"num_deleted":"0","num_feature":"23","num_nodes":"101","size_leaf_vector":"1"}},{"base_weights":[7.3701295E-4,-1.6315127E-3,8.88968E1,-6.3522584E-3,1.2737316E1,7.106486E1,1.9616028E2,-2.4208488E-2,1.1041766E0,7.2645254E0,2.295103E1,2.8457317E1,8.534072E1,2.1828386E2,-7.3255575E-1,-3.7651177E-2,2.9493418E-1,8.419723E-1,2.6882105E0,6.053626E0,2.9926184E1,3.0645231E1,2.2164238E1,1.6110566E0,4.3584637E1,3.331886E1,1.0282614E2,1.2978484E2,2.4387028E1,4.5823342E-1,-4.290258E-1,6.529858E-2,-7.045166E-2,2.920484E-1,2.0154814E1,7.2531444E-1,2.291107E0,1.2399096E0,3.8319585E0,4.7794094E0,1.2253698E1,4.916817E1,1.940832E1,1.6856045E1,4.8063557E1,1.7850111E1,-2.2368711E1,-2.7205942E0,5.455678E1,1.1171059E2,1.8214888E1,7.831213E1,1.3329488E2,-5.3791866E0,1.658519E2,5.8953907E-2,-7.3793554E-4,-1.2243744E-2,-8.026624E-4,2.4527596E-2,9.635188E-2,7.021894E0,1.1205189E0,7.224748E-2,6.117356E0,1.20417476E-1,3.482202E-1,-1.345222E-2,2.0389946E-1,1.8424386E0,3.541774E-1,5.467836E-1,-2.7386704E-1,1.8664916E0,7.590317E-1,3.585364E0,1.3871091E1,5.3207314E-1,2.2641168E0,1.1903862E0,2.6903582E0,1.2413413E1,4.1699376E0,-4.983569E-1,2.5768168E0,5.809006E-1,-2.731706E0,3.4438584E0,-2.614069E0,6.3962536E0,-1.0589904E0,1.4757329E1,2.3601625E0,2.8680694E0,-1.269326E0,6.545204E0,1.4300959E1,2.163277E1,1.1537943E1,-5.456475E0,4.7234626E0,2.6452696E0,1.7960247E1],"categories":[],"categories_nodes":[],"categories_segments":[],"categories_sizes":[],"default_left":[0,0,0,0,0,0,0,0,0,0,0,0,0,0,0,0,0,0,0,0,0,0,0,0,0,0,0,0,0,0,0,0,0,0,0,0,0,0,0,0,0,0,0,0,0,0,0,0,0,0,0,0,0,0,0,0,0,0,0,0,0,0,0,0,0,0,0,0,0,0,0,0,0,0,0,0,0,0,0,0,0,0,0,0,0,0,0,0,0,0,0,0,0,0,0,0,0,0,0,0,0,0,0],"id":15,"left_children":[1,3,5,7,9,11,13,15,17,19,21,23,25,27,29,31,33,35,37,39,41,-1,43,45,47,49,51,53,-1,-1,-1,55,57,59,61,63,65,67,69,71,73,75,77,79,81,83,85,87,89,91,93,95,97,99,101,-1,-1,-1,-1,-1,-1,-1,-1,-1,-1,-1,-1,-1,-1,-1,-1,-1,-1,-1,-1,-1,-1,-1,-1,-1,-1,-1,-1,-1,-1,-1,-1,-1,-1,-1,-1,-1,-1,-1,-1,-1,-1,-1,-1,-1,-1,-1,-1],"loss_changes":[1.7050691E6,4.8698328E5,3.8818638E5,1.6051984E5,1.67386E5,1.09937625E5,1.2990275E5,3.4178496E4,5.320022E4,5.3349555E4,2.21328E5,2.0083621E4,1.21106125E5,4.97075E3,1.24499596E2,2.581482E4,1.8444273E4,1.8577312E4,3.012614E4,1.4581703E4,1.8310062E4,0E0,1.4220812E5,8.395272E3,1.6395648E4,4.1129953E4,5.915425E4,4.9133906E4,0E0,0E0,0E0,7.037792E4,1.881445E4,1.0111207E4,1.95672E4,1.738277E4,1.0592828E4,8.819467E3,4.2923766E4,8.021426E3,9.191543E3,3.1506812E4,2.8286367E3,4.271397E4,7.6476875E4,2.5321465E3,1.499894E3,8.332842E3,1.6973125E4,1.2071469E4,1.1559466E4,3.4934812E4,2.1231875E4,1.4252101E4,6.5206406E3,0E0,0E0,0E0,0E0,0E0,0E0,0E0,0E0,0E0,0E0,0E0,0E0,0E0,0E0,0E0,0E0,0E0,0E0,0E0,0E0,0E0,0E0,0E0,0E0,0E0,0E0,0E0,0E0,0E0,0E0,0E0,0E0,0E0,0E0,0E0,0E0,0E0,0E0,0E0,0E0,0E0,0E0,0E0,0E0,0E0,0E0,0E0,0E0],"parents":[2147483647,0,0,1,1,2,2,3,3,4,4,5,5,6,6,7,7,8,8,9,9,10,10,11,11,12,12,13,13,14,14,15,15,16,16,17,17,18,18,19,19,20,20,22,22,23,23,24,24,25,25,26,26,27,27,31,31,32,32,33,33,34,34,35,35,36,36,37,37,38,38,39,39,40,40,41,41,42,42,43,43,44,44,45,45,46,46,47,47,48,48,49,49,50,50,51,51,52,52,53,53,54,54],"right_children":[2,4,6,8,10,12,14,16,18,20,22,24,26,28,30,32,34,36,38,40,42,-1,44,46,48,50,52,54,-1,-1,-1,56,58,60,62,64,66,68,70,72,74,76,78,80,82,84,86,88,90,92,94,96,98,100,102,-1,-1,-1,-1,-1,-1,-1,-1,-1,-1,-1,-1,-1,-1,-1,-1,-1,-1,-1,-1,-1,-1,-1,-1,-1,-1,-1,-1,-1,-1,-1,-1,-1,-1,-1,-1,-1,-1,-1,-1,-1,-1,-1,-1,-1,-1,-1,-1],"split_conditions":[2.43E2,3.9E1,7.49E2,4E0,3E0,5E0,5.5E1,2E0,1.2E1,7E1,-7.6171875E-1,3.2E2,3.2E1,2E0,2E0,1.9226074E-2,1.09E2,1.2E1,6E0,8.6E1,1.9226074E-2,3.0645231E1,1.1E1,6.035156E-1,2.6E1,-1.977539E-1,8.256836E-1,2.6E1,2.4387028E1,4.5823342E-1,-4.290258E-1,3.1E1,1.4990234E-1,1.2E1,2.81E3,2.15E2,2.6391602E-1,3E1,9E0,1.6347656E0,2.4E1,5.991211E-1,2.1643066E-1,1.04E2,1.1E1,3.5961914E-1,1.3E1,1.1382E4,1.1005859E0,6E0,1.5400391E0,1.2E1,1.08E2,1.4492188E0,0E0,5.8953907E-2,-7.3793554E-4,-1.2243744E-2,-8.026624E-4,2.4527596E-2,9.635188E-2,7.021894E0,1.1205189E0,7.224748E-2,6.117356E0,1.20417476E-1,3.482202E-1,-1.345222E-2,2.0389946E-1,1.8424386E0,3.541774E-1,5.467836E-1,-2.7386704E-1,1.8664916E0,7.590317E-1,3.585364E0,1.3871091E1,5.3207314E-1,2.2641168E0,1.1903862E0,2.6903582E0,1.2413413E1,4.1699376E0,-4.983569E-1,2.5768168E0,5.809006E-1,-2.731706E0,3.4438584E0,-2.614069E0,6.3962536E0,-1.0589904E0,1.4757329E1,2.3601625E0,2.8680694E0,-1.269326E0,6.545204E0,1.4300959E1,2.163277E1,1.1537943E1,-5.456475E0,4.7234626E0,2.6452696E0,1.7960247E1],"split_indices":[17,17,17,17,16,1,2,18,17,4,20,17,4,1,1,6,18,1,1,17,7,0,1,8,2,22,9,2,0,0,0,4,14,1,3,18,12,4,4,12,4,9,8,18,4,8,2,3,8,1,6,1,18,8,20,0,0,0,0,0,0,0,0,0,0,0,0,0,0,0,0,0,0,0,0,0,0,0,0,0,0,0,0,0,0,0,0,0,0,0,0,0,0,0,0,0,0,0,0,0,0,0,0],"split_type":[0,0,0,0,0,0,0,0,0,0,0,0,0,0,0,0,0,0,0,0,0,0,0,0,0,0,0,0,0,0,0,0,0,0,0,0,0,0,0,0,0,0,0,0,0,0,0,0,0,0,0,0,0,0,0,0,0,0,0,0,0,0,0,0,0,0,0,0,0,0,0,0,0,0,0,0,0,0,0,0,0,0,0,0,0,0,0,0,0,0,0,0,0,0,0,0,0,0,0,0,0,0,0],"sum_hessian":[8.098064E6,8.09785E6,2.14E2,8.094852E6,2.998E3,1.86E2,2.8E1,7.966756E6,1.28096E5,1.954E3,1.044E3,4.8E1,1.38E2,2.5E1,3E0,7.644751E6,3.22005E5,1.09906E5,1.819E4,1.857E3,9.7E1,1E0,1.043E3,1.8E1,3E1,3.6E1,1.02E2,8E0,1.7E1,1E0,2E0,1.847153E6,5.797598E6,3.2196E5,4.5E1,1.0172E5,8.186E3,8.028E3,1.0162E4,1.543E3,3.14E2,3.2E1,6.5E1,8.68E2,1.75E2,1.1E1,7E0,6E0,2.4E1,4E0,3.2E1,6E1,4.2E1,2E0,6E0,2.24899E5,1.622254E6,3.163295E6,2.634303E6,3.00996E5,2.0964E4,5E0,4E1,1.01717E5,3E0,4.282E3,3.904E3,2.952E3,5.076E3,1.96E2,9.966E3,1.414E3,1.29E2,1.3E2,1.84E2,3E1,2E0,1.3E1,5.2E1,5.84E2,2.84E2,1.1E1,1.64E2,3E0,8E0,1E0,6E0,2E0,4E0,2.1E1,3E0,2E0,2E0,2.4E1,8E0,5.3E1,7E0,4E0,3.8E1,1E0,1E0,1E0,5E0],"tree_param":{"num_deleted":"0","num_feature":"23","num_nodes":"103","size_leaf_vector":"1"}},{"base_weights":[6.433344E-4,-2.0541127E-3,6.8939766E1,-6.757131E-3,8.120221E0,5.5286186E1,1.7352014E2,-2.1867527E-2,9.466615E-1,5.5228214E0,1.6608667E1,2.4757029E1,7.099392E1,-1.3431711E1,1.9781099E2,-2.1979805E-2,8.311035E1,7.05887E-1,1.9670391E0,3.3729267E1,5.244455E0,2.9533781E1,1.5880672E1,4.1764355E1,5.810996E0,2.8638706E1,8.842478E1,-1.9865664E0,-4.7412544E-1,1.3047044E2,2.6925436E2,-3.530896E-2,2.7822268E-1,1.2362256E2,-1.3649007E1,7.0323795E-1,5.7315834E1,8.607893E0,1.8256886E0,1.6217638E1,2.266308E1,4.4780784E0,1.31131315E1,7.038804E1,1.4124704E1,4.4764797E1,-1.7503569E0,1.3122015E0,3.901139E0,3.7810585E1,-1.6758509E1,2.9734772E1,7.770981E1,1.8266066E0,1.4130046E2,1.165042E1,3.1089283E1,5.854841E-3,-6.526667E-3,2.7638823E-2,5.7972198E0,1.7907042E1,-1.9158E0,-2.525863E0,1.0869974E0,6.0481537E-2,1.925395E-1,-4.9401537E-1,7.6195955E0,1.9906108E-1,3.419202E1,1.5601365E-1,4.733625E-1,4.785524E-1,1.4170089E1,3.7961304E-1,8.6996716E-1,9.867123E-1,3.3919625E0,1.1941891E0,1.3582123E1,8.793049E-1,2.4131422E0,3.6287162E0,7.7174377E0,7.3218936E-1,-1.4770945E0,1.0837029E0,5.4969897E0,4.7766528E-1,-4.5683875E0,6.4414744E0,1.1908114E1,1.4737825E1,1.4309139E0],"categories":[],"categories_nodes":[],"categories_segments":[],"categories_sizes":[],"default_left":[0,0,0,0,0,0,0,0,0,0,0,0,0,0,0,0,0,0,0,0,0,0,0,0,0,0,0,0,0,0,0,0,0,0,0,0,0,0,0,0,0,0,0,0,0,0,0,0,0,0,0,0,0,0,0,0,0,0,0,0,0,0,0,0,0,0,0,0,0,0,0,0,0,0,0,0,0,0,0,0,0,0,0,0,0,0,0,0,0,0,0,0,0,0,0],"id":16,"left_children":[1,3,5,7,9,11,13,15,17,19,21,23,25,27,29,31,33,35,37,39,41,-1,43,45,47,49,51,-1,-1,53,55,57,59,61,63,65,67,69,71,73,-1,75,77,79,81,83,-1,85,-1,87,89,-1,91,-1,93,-1,-1,-1,-1,-1,-1,-1,-1,-1,-1,-1,-1,-1,-1,-1,-1,-1,-1,-1,-1,-1,-1,-1,-1,-1,-1,-1,-1,-1,-1,-1,-1,-1,-1,-1,-1,-1,-1,-1,-1],"loss_changes":[1.50548E6,3.0923872E5,4.3543875E5,1.165595E5,1.0312781E5,1.3250588E5,1.6705025E5,7.434295E4,3.1009062E4,2.7874977E4,2.1430503E5,3.1395219E4,1.3269238E5,1.5639941E2,9.1054125E4,3.186954E4,4.513267E4,1.5245277E4,2.2592648E4,1.1095208E5,2.1345367E4,0E0,1.03131375E5,1.0580852E4,7.192512E3,2.4745906E4,2.5210956E5,0E0,0E0,1.9473062E4,2.3852438E4,2.1442172E4,3.580747E4,6.744146E4,1.8366411E3,1.228268E4,6.2531104E3,1.1054905E6,1.8209422E4,4.7234453E4,0E0,9.280434E3,2.0669965E4,1.2624822E5,5.6381125E4,8.750109E3,0E0,4.516046E3,0E0,2.1057531E4,7.0842686E3,0E0,5.6241875E4,0E0,9.999781E3,0E0,0E0,0E0,0E0,0E0,0E0,0E0,0E0,0E0,0E0,0E0,0E0,0E0,0E0,0E0,0E0,0E0,0E0,0E0,0E0,0E0,0E0,0E0,0E0,0E0,0E0,0E0,0E0,0E0,0E0,0E0,0E0,0E0,0E0,0E0,0E0,0E0,0E0,0E0,0E0],"parents":[2147483647,0,0,1,1,2,2,3,3,4,4,5,5,6,6,7,7,8,8,9,9,10,10,11,11,12,12,13,13,14,14,15,15,16,16,17,17,18,18,19,19,20,20,22,22,23,23,24,24,25,25,26,26,29,29,30,30,31,31,32,32,33,33,34,34,35,35,36,36,37,37,38,38,39,39,41,41,42,42,43,43,44,44,45,45,47,47,49,49,50,50,52,52,54,54],"right_children":[2,4,6,8,10,12,14,16,18,20,22,24,26,28,30,32,34,36,38,40,42,-1,44,46,48,50,52,-1,-1,54,56,58,60,62,64,66,68,70,72,74,-1,76,78,80,82,84,-1,86,-1,88,90,-1,92,-1,94,-1,-1,-1,-1,-1,-1,-1,-1,-1,-1,-1,-1,-1,-1,-1,-1,-1,-1,-1,-1,-1,-1,-1,-1,-1,-1,-1,-1,-1,-1,-1,-1,-1,-1,-1,-1,-1,-1,-1,-1],"split_conditions":[1.83E2,2.9E1,6.91E2,4E0,7.03125E0,3.0395508E-1,1.0195312E0,5.04E2,1E1,7.7978516E-1,-7.6171875E-1,1.5E1,5E0,1.7E1,9E0,2E0,1.81E2,2.59E2,4.5996094E-1,3.8E1,8.6E1,2.9533781E1,5.78125E-1,2.57E2,6.8359375E-3,9.663086E-1,5.78125E-1,-1.9865664E0,-4.7412544E-1,6.5722656E-1,7.66E2,1.9226074E-2,1.17E2,5E0,2.7E1,1.2E1,1.1E1,1.6552734E0,1.2E1,2.9E1,2.266308E1,1.5E1,4.1953125E0,5.9765625E-1,9.3E1,3.0517578E-1,-1.7503569E0,1.4724731E-3,3.901139E0,1.59E2,7.944336E-1,2.9734772E1,9.1259766E-1,1.8266066E0,2.5E1,1.165042E1,3.1089283E1,5.854841E-3,-6.526667E-3,2.7638823E-2,5.7972198E0,1.7907042E1,-1.9158E0,-2.525863E0,1.0869974E0,6.0481537E-2,1.925395E-1,-4.9401537E-1,7.6195955E0,1.9906108E-1,3.419202E1,1.5601365E-1,4.733625E-1,4.785524E-1,1.4170089E1,3.7961304E-1,8.6996716E-1,9.867123E-1,3.3919625E0,1.1941891E0,1.3582123E1,8.793049E-1,2.4131422E0,3.6287162E0,7.7174377E0,7.3218936E-1,-1.4770945E0,1.0837029E0,5.4969897E0,4.7766528E-1,-4.5683875E0,6.4414744E0,1.1908114E1,1.4737825E1,1.4309139E0],"split_indices":[17,17,17,17,16,9,6,19,17,5,20,0,1,0,1,19,18,18,5,17,17,0,13,19,20,8,13,0,0,9,17,6,18,1,0,1,0,11,1,0,0,19,11,11,19,10,0,16,0,19,9,0,10,0,0,0,0,0,0,0,0,0,0,0,0,0,0,0,0,0,0,0,0,0,0,0,0,0,0,0,0,0,0,0,0,0,0,0,0,0,0,0,0,0,0],"split_type":[0,0,0,0,0,0,0,0,0,0,0,0,0,0,0,0,0,0,0,0,0,0,0,0,0,0,0,0,0,0,0,0,0,0,0,0,0,0,0,0,0,0,0,0,0,0,0,0,0,0,0,0,0,0,0,0,0,0,0,0,0,0,0,0,0,0,0,0,0,0,0,0,0,0,0,0,0,0,0,0,0,0,0,0,0,0,0,0,0,0,0,0,0,0,0],"sum_hessian":[8.095733E6,8.095418E6,3.15E2,8.090735E6,4.683E3,2.81E2,3.4E1,7.96451E6,1.26225E5,3.588E3,1.095E3,9.7E1,1.84E2,4E0,3E1,7.964501E6,9E0,1.02129E5,2.4096E4,3.3E1,3.555E3,1E0,1.094E3,5E1,4.7E1,5.5E1,1.29E2,1E0,3E0,1.8E1,1.2E1,7.625908E6,3.38593E5,6E0,3E0,1.02126E5,3E0,5E2,2.3596E4,3.2E1,1E0,3.242E3,3.13E2,3.2E1,1.062E3,4.8E1,2E0,4.3E1,4E0,4.6E1,9E0,4E0,1.25E2,2E0,1.6E1,4E0,8E0,1.845128E6,5.78078E6,3.38584E5,9E0,4E0,2E0,2E0,1E0,9.4517E4,7.609E3,1E0,2E0,4.92E2,8E0,2.1624E4,1.972E3,3.1E1,1E0,2.794E3,4.48E2,2.73E2,4E1,1.8E1,1.4E1,6.95E2,3.67E2,4.1E1,7E0,3.2E1,1.1E1,1.9E1,2.7E1,6E0,3E0,9.8E1,2.7E1,1.5E1,1E0],"tree_param":{"num_deleted":"0","num_feature":"23","num_nodes":"95","size_leaf_vector":"1"}},{"base_weights":[3.6818528E-4,-2.151152E-3,6.37894E1,-6.1068614E-3,8.051276E0,4.9720287E1,1.3495146E2,-1.996146E-2,8.6507386E-1,5.957352E0,1.9262314E1,1.362299E1,5.9278633E1,-1.4963696E1,1.5154506E2,-4.7543816E-2,1.1308296E-1,6.405542E-1,1.7878232E0,2.4093922E1,5.3923364E0,2.3741865E1,7.763036E0,3.6356205E1,2.0156229E0,1.2435297E2,5.101257E1,-2.1287029E0,-4.4422618E-1,1.0269759E2,1.993785E2,-4.7601786E-2,6.640184E1,-4.7679223E-2,2.2655283E-1,3.9311114E-1,1.0665642E0,1.5011333E0,5.658736E0,4.9788307E1,-6.253146E0,6.7040167E0,3.0654192E-1,1.8494205E1,3.7260197E1,5.683204E1,5.1666594E0,1.3945005E0,4.2469068E0,6.5889606E0,-1.601806E1,5.884854E1,2.3768669E2,3.7853447E1,7.071768E1,1.464116E1,1.1273418E2,2.0848514E2,3.753669E-1,4.825489E-3,-7.908863E-3,1.0716014E1,-5.4121345E-1,-4.7268346E-3,-3.4449031E0,2.2623857E-2,6.718619E0,-2.0924723E-2,5.1021922E-2,2.1792994E-1,9.0031914E-2,7.873026E-2,2.4694064E-1,4.3355915E-1,4.7871833E0,1.3491566E-1,7.985154E0,-2.6659787E0,-2.771148E-1,5.435911E-1,1.5990828E0,8.938142E-2,-1.0133697E0,2.0765607E0,-1.6379724E-1,4.3501425E-1,4.551384E0,8.93686E0,1.2600547E0,-1.9871436E-1,9.9346983E-1,6.261215E-1,-6.1260265E-1,2.004215E0,2.757594E-2,-1.8788073E0,-3.5447714E-1,1.2660144E1,1.1113455E0,4.7135077E0,2.5362879E1,2.3511558E0,5.625345E0,9.527751E-1,8.454183E0,2.0187738E0,-2.248131E-1,1.1601715E1,1.3790174E0,1.5401807E1,2.812803E1],"categories":[],"categories_nodes":[],"categories_segments":[],"categories_sizes":[],"default_left":[0,0,0,0,0,0,0,0,0,0,0,0,0,0,0,0,0,0,0,0,0,0,0,0,0,0,0,0,0,0,0,0,0,0,0,0,0,0,0,0,0,0,0,0,0,0,0,0,0,0,0,0,0,0,0,0,0,0,0,0,0,0,0,0,0,0,0,0,0,0,0,0,0,0,0,0,0,0,0,0,0,0,0,0,0,0,0,0,0,0,0,0,0,0,0,0,0,0,0,0,0,0,0,0,0,0,0,0,0,0,0],"id":17,"left_children":[1,3,5,7,9,11,13,15,17,19,21,23,25,27,29,31,33,35,37,39,41,43,45,47,49,51,53,-1,-1,55,57,59,61,63,65,67,69,71,73,75,77,79,81,83,85,87,89,91,-1,93,95,97,99,101,103,105,107,109,-1,-1,-1,-1,-1,-1,-1,-1,-1,-1,-1,-1,-1,-1,-1,-1,-1,-1,-1,-1,-1,-1,-1,-1,-1,-1,-1,-1,-1,-1,-1,-1,-1,-1,-1,-1,-1,-1,-1,-1,-1,-1,-1,-1,-1,-1,-1,-1,-1,-1,-1,-1,-1],"loss_changes":[1.3011564E6,2.5792017E5,3.08346E5,9.7671805E4,9.310603E4,9.165531E4,1.3273762E5,2.9230943E4,2.62425E4,3.411864E4,3.1858406E4,1.5375664E4,1.03296875E5,2.8339392E2,7.326975E4,2.5421188E4,2.495129E4,1.0739789E4,2.749554E4,7.911245E4,2.169532E4,3.0623734E4,2.2130578E4,4.118371E3,3.5468794E3,1.4436725E5,4.5019094E4,0E0,0E0,2.074725E4,3.7385E4,1.9913371E4,1.7870633E4,7.996956E3,1.6845879E4,4.546964E3,6.921668E3,1.5951004E4,9.507628E4,7.95502E4,3.2636104E3,3.0298828E4,4.116242E3,1.5001789E4,3.3267984E4,1.0624078E4,5.8591533E3,2.4151686E2,0E0,2.8573806E3,1.8554175E2,5.1723684E4,2.5575E3,2.9014828E4,6.1821594E4,5.2539825E2,4.9057188E3,6.1739375E3,0E0,0E0,0E0,0E0,0E0,0E0,0E0,0E0,0E0,0E0,0E0,0E0,0E0,0E0,0E0,0E0,0E0,0E0,0E0,0E0,0E0,0E0,0E0,0E0,0E0,0E0,0E0,0E0,0E0,0E0,0E0,0E0,0E0,0E0,0E0,0E0,0E0,0E0,0E0,0E0,0E0,0E0,0E0,0E0,0E0,0E0,0E0,0E0,0E0,0E0,0E0,0E0,0E0],"parents":[2147483647,0,0,1,1,2,2,3,3,4,4,5,5,6,6,7,7,8,8,9,9,10,10,11,11,12,12,13,13,14,14,15,15,16,16,17,17,18,18,19,19,20,20,21,21,22,22,23,23,24,24,25,25,26,26,29,29,30,30,31,31,32,32,33,33,34,34,35,35,36,36,37,37,38,38,39,39,40,40,41,41,42,42,43,43,44,44,45,45,46,46,47,47,49,49,50,50,51,51,52,52,53,53,54,54,55,55,56,56,57,57],"right_children":[2,4,6,8,10,12,14,16,18,20,22,24,26,28,30,32,34,36,38,40,42,44,46,48,50,52,54,-1,-1,56,58,60,62,64,66,68,70,72,74,76,78,80,82,84,86,88,90,92,-1,94,96,98,100,102,104,106,108,110,-1,-1,-1,-1,-1,-1,-1,-1,-1,-1,-1,-1,-1,-1,-1,-1,-1,-1,-1,-1,-1,-1,-1,-1,-1,-1,-1,-1,-1,-1,-1,-1,-1,-1,-1,-1,-1,-1,-1,-1,-1,-1,-1,-1,-1,-1,-1,-1,-1,-1,-1,-1,-1],"split_conditions":[1.84E2,3.2E1,5.88E2,4E0,6.9E1,1.1220703E0,4E0,3.269043E-1,1E1,1.1E1,2.5E1,1E1,1.2832031E0,2.8E1,7.62E2,2.27E2,1.7895508E-1,1.3115234E0,7.1E1,1.4111328E0,2.4E1,1.46E2,-1.9433594E-1,2.3671875E0,2.5952148E-1,2.2E1,6.328125E-1,-2.1287029E0,-4.4422618E-1,5.9472656E-1,5.5E1,1.9226074E-2,2.5E1,3.7E2,5.52E2,2.524414E-1,1.9152832E-1,3E0,3.2E1,8.471E3,-2.524414E-1,7.1E1,1.09E2,7.0458984E-1,2.7001953E-1,3.5253906E-1,2.7E1,1.2880859E0,4.2469068E0,2.1E1,1.9441E4,6E0,7.972E3,1.78E2,3.02E2,1.3E1,2.5E1,1.3388672E0,3.753669E-1,4.825489E-3,-7.908863E-3,1.0716014E1,-5.4121345E-1,-4.7268346E-3,-3.4449031E0,2.2623857E-2,6.718619E0,-2.0924723E-2,5.1021922E-2,2.1792994E-1,9.0031914E-2,7.873026E-2,2.4694064E-1,4.3355915E-1,4.7871833E0,1.3491566E-1,7.985154E0,-2.6659787E0,-2.771148E-1,5.435911E-1,1.5990828E0,8.938142E-2,-1.0133697E0,2.0765607E0,-1.6379724E-1,4.3501425E-1,